/********************
    parameters.h

    Code generated using nn4mc.

    This file defines the neural network weight parameters for all layers.

*/
#ifndef __NEURAL_NET_PARAMS_H__
#define __NEURAL_NET_PARAMS_H__

#ifdef __cplusplus
extern "C" {
#endif

const float gru_W[1620] = {0.03464402, -0.00426603, 0.078690946, 0.21748464, 0.093031704, -0.12837686, 0.18564343, -0.06993876, -0.16484807, -0.19099505, -0.043704502, -0.030105691, 0.16057318, 0.25867766, -0.108782984, -0.20869717, 0.19281125, -0.100877754, -0.067925684, 0.21814823, -0.1960746, -0.15654264, -0.09406957, 0.15816264, -0.24816276, 0.18532163, 0.23945096, 0.22295958, -0.08600327, -0.06309268, -0.15800007, 0.08845677, 0.02205505, 0.14878176, -0.07300165, 0.06457015, -0.120230585, -0.15381177, 0.22961883, 0.19205959, -0.13413438, 0.22144748, -0.022573825, 0.09030384, -0.16574214, 0.0062590223, -0.19420019, 0.19347116, 0.058150955, 0.14887334, 0.050689556, -0.020160776, -0.00907893, 0.08990096, -0.15295756, -0.00089339423, -0.05458032, -0.19971648, 0.071458325, 0.06302785, 0.012700325, -0.17042327, -0.084471166, 0.06361329, 0.0032771954, 0.043698307, -0.12433952, -0.22026873, -0.09616657, 0.15910415, 0.20150016, -0.20964032, -0.054979622, 0.13129699, 0.14898631, 0.19814613, -0.07208619, 0.05894676, -0.14919603, -0.068789095, -0.09762441, -0.19257574, 0.033397324, -0.08500844, 0.073665835, -0.00020238748, -0.12212487, 0.015129877, -0.24548116, 0.07443541, 0.024198173, -0.21969076, 0.1177735, -0.12218316, -0.09719669, 0.008971195, -0.13337362, -0.037061658, -0.057217438, -0.2649132, -0.34545892, -0.16267711, 0.28458744, 0.0031671019, 0.06460319, -0.10417462, 0.14394198, 0.107032515, -0.10549014, -0.23694783, 0.10653887, -0.008729426, -0.20566961, -0.15907355, 0.033664748, 0.07305703, -0.12147738, 0.032967307, -0.22440773, 0.10679757, 0.13356847, 0.1573898, 0.058550775, -0.17495577, 0.004693806, -0.11142447, 0.0025787177, 0.052751675, -0.12676714, -0.00711376, 0.14649548, -0.15632254, 0.24755812, 0.102756895, -0.031435374, -0.26679942, -0.26563725, 0.0018557081, -0.079611726, 0.09879562, -0.20736282, 0.115385465, 0.032240704, -0.07514719, 0.022216821, 0.082518704, 0.05358198, -0.041329786, 0.046383366, 0.16967198, 0.10511311, 0.17911789, 0.17487672, 0.19433396, 0.115029946, -0.044160437, -0.20959483, -0.23486598, 0.24440911, -0.1685031, 0.08653744, 0.16688633, -0.030167494, -0.15511699, 0.06312355, 0.10571509, -0.08165725, 0.20636849, 0.048537105, 0.008316374, -0.23438014, 0.0152654825, -0.12629649, -0.055873774, 0.011777221, 0.051399667, 0.14310892, 0.079739235, -0.103570245, 0.24724413, -0.10223474, -0.036288176, -0.11723934, -0.0341699, -0.00690215, -0.099381655, -0.012971739, 0.03500111, -0.06801125, -0.2303106, -0.078128494, 0.044058587, 0.050216116, -0.10264026, -0.06265813, -0.05554218, -0.16587631, -0.25107995, 0.25457582, 0.035684746, 0.26397625, -0.22644015, 0.16123916, -0.029107181, -0.08363402, -0.24621294, 0.260309, 0.25178394, 0.089030236, 0.108156756, -0.045250993, -0.117878936, -0.14237127, -0.20425348, 0.071780086, 0.17946523, 0.16188791, 0.26733038, -0.115817584, 0.005482254, -0.047992077, -0.030958503, -0.24327712, -0.13117136, 0.09567628, -0.020517927, 0.10373283, 0.2633982, -0.065317675, 0.052679837, -0.14822207, 0.01363173, -0.027634647, 0.11094428, -0.13362835, -0.0029980333, 0.014125958, -0.16434157, -0.070800684, -0.16801195, 0.107862845, -0.21242617, -0.0082675405, 0.19116175, 0.22128193, 0.16970727, -0.22073938, -0.20187202, -0.006680928, -0.13190584, 0.1895917, -0.018286802, 0.2726046, 0.26656216, 0.22965316, 0.113895945, 0.062423892, -0.046976063, -0.093495615, 0.07331725, -0.04008022, 0.14865188, -0.069446445, -0.16070925, -0.07372542, 0.1362931, -0.017471317, 0.07837099, 0.0431173, -0.013115706, 0.011258875, 0.21364112, -0.18245034, -0.099140234, -0.124545135, 0.0602803, -0.1937094, 0.0049072504, 0.16273934, 0.08004635, 0.09199955, -0.13405237, -0.11893077, 0.27059105, 0.02676752, -0.18986116, 0.07202357, 0.07704711, 0.26761997, 0.24504074, 0.0637821, -0.14879638, 0.2737564, -0.00716701, 0.1385634, 0.0031940506, -0.022146773, 0.25757113, -0.064839944, -0.110118754, 0.07442228, -0.069042645, -0.06663347, -0.13908513, 0.050371863, 0.075031325, 0.0771073, 0.041298024, -0.18947533, -0.23795356, 0.023149656, -0.15587386, -0.1646611, 0.06137619, 0.028673187, 0.034854986, 0.120307826, -0.18381342, -0.06073494, -0.13595957, -0.061250553, 0.009291611, 0.045623492, -0.096655875, -0.06389857, 0.071050115, 0.040963862, 0.002223693, 0.21349616, -0.04525005, -0.064330414, 0.14280978, -0.077343225, -0.026588261, -0.0053457054, 0.11651026, -0.24294282, -0.0997705, -0.08411726, 0.06996626, -0.20844868, -0.09803136, 0.1070588, -0.25277346, -0.005501938, -0.19962534, 0.02197285, -0.13134792, 0.16426116, 0.06445913, 0.03929573, 0.18384363, -0.10826323, 0.105616204, 0.040827554, 0.052660014, 0.20368202, -0.08515093, 0.031493176, 0.010655953, -0.020463457, -0.2113609, -0.1478171, 0.2205116, 0.10580767, 0.10724274, 0.15675102, -0.026789868, 0.12684192, 0.0013763459, -0.0016598932, 0.13631742, -0.20741041, -0.22555369, -0.092583045, 0.11929624, 0.086192146, -0.055127133, 0.2623291, -0.24653926, -0.02583202, 0.057990506, -0.24335189, -0.15018557, -0.1305215, 0.21534435, -0.015816206, -0.22082238, 0.24128777, -0.09808659, -0.13829166, -0.07544427, -0.08877039, 0.12198637, -0.02969397, 0.12004028, -0.058838915, 0.16498977, 0.16199113, 0.0549743, -0.22062343, -0.021171052, -0.15492344, -0.106297195, -0.04248585, 0.2197899, 0.19014585, 0.078513525, -0.03683427, -0.11107229, 0.08954211, -0.15193264, 0.0073034274, 0.019003255, 0.034639552, 0.08077747, 0.045418788, 0.14439687, 0.15550019, -0.09475878, -0.19689603, -0.14880452, -0.004952739, 0.0038495257, -0.016435923, 0.10273002, 0.1332659, -0.22976626, 0.16549703, -0.22345476, -0.029781243, 0.07997671, -0.13975194, -0.20773043, -0.11260292, -0.041986227, -0.0098719, -0.08211287, -0.027609518, 0.054470006, 0.18092117, 0.10946475, 0.14603719, -0.017507102, -0.09443784, 0.052847072, -0.094112225, -0.06353385, 0.10169804, -0.20646362, 0.076285265, -0.23091722, 0.107322276, 0.093295686, -0.0070174406, 0.06269951, 0.0021912288, -0.10296659, 0.060947783, -0.14552093, 0.11120175, -0.056785192, -0.022005947, -0.12201209, 0.04494551, 0.19012249, -0.1686096, -0.2623029, -0.14190434, 0.26790315, 0.17167437, 0.023520907, 0.029874558, -0.14992735, 0.20685686, 0.2429925, 0.13635433, 0.11296996, 0.18392073, 0.12464401, 0.089606315, 0.10787042, 0.051008854, 0.27092275, -0.030296253, -0.16050108, -0.08685361, -0.15762766, 0.08499144, -0.02334086, 0.03386427, 0.007840476, 0.22700159, 0.113594994, -0.10944541, 0.04481794, -0.115992345, -0.105195366, 0.057141088, -0.07935844, 0.055219956, -0.02672977, 0.07242417, -0.14986217, 0.25881466, 0.003661964, 0.025879005, 0.34654087, -0.06609019, 0.11305299, 0.1781635, 0.21720597, 0.19195598, -0.15442587, 0.19396153, 0.02539729, 0.11423917, -0.082063355, 0.21641529, 0.03486347, 0.13039795, 0.20520534, -0.1277765, 0.2591695, -0.16292709, -0.05429468, -0.066600345, 0.07280382, 0.04500138, -0.08515786, 0.10970923, -0.18099673, 0.009248243, 0.09325845, -0.057385903, -0.13824014, 0.10299136, -0.053366233, 0.049446765, 0.060234718, 0.2359296, -0.13557866, -0.118566684, -0.28088138, 0.13364711, -0.22992179, 0.020484067, -0.362253, 0.37826416, -0.23165998, -0.10944073, -0.11829579, 0.023350706, -0.13601209, -0.046323247, -0.12717982, -0.17409559, 0.24304147, 0.20249404, -0.15063263, -0.11319002, -0.25672376, 0.024820818, 0.005042814, 0.24914724, -0.09222812, -0.12549143, 0.019438626, 0.0898072, 0.024798904, -2.2843626, 0.45511487, -0.4508806, 1.2371178, -0.9052578, -1.8249683, -1.3147265, 1.2110543, -2.8437102, 0.4590477, 1.1547328, 1.1229328, -0.1545611, 0.018823704, -1.0559577, 0.054353677, 0.13286817, 0.21513404, -0.27108884, 0.085199, -0.13690054, 0.060169477, -0.10777651, 0.001131379, 0.18095283, -0.11881024, 0.15720572, -0.018778324, -0.24324837, -0.22989948, -0.047042295, -0.023682922, -0.18359444, -0.09223254, -0.20265014, 0.18550819, -0.01603646, 0.08324792, -0.26252022, 0.11979781, -0.18951492, -0.046389475, -0.25568107, 0.07199389, 0.1523886, 0.3248034, 0.072246484, 0.64827925, 0.3850133, -3.2514489, 0.4026833, 2.0968556, 0.16365984, 0.18197611, 0.030018162, 0.46949592, -0.6859815, -0.653638, -0.035116944, -0.03720647, 0.016979516, 0.029950589, -0.13971929, -0.16961296, -0.1474258, -0.050167754, 0.10178512, 0.028535277, -0.21690968, 0.038475215, -0.05609688, 0.17134407, 0.2021181, -0.1806683, 0.08390552, -0.02693899, 0.01282829, 0.20380965, -0.16819273, -0.102506176, 0.18690512, -0.09845714, -0.21122766, 0.0407072, 0.010084063, -0.18952361, -0.03274016, -0.08571185, 0.11465275, -0.11006507, 0.029723793, -0.17575157, 0.10279676, 0.099600434, -0.19639856, 0.23704207, 0.2018278, 0.17538196, 0.1697796, 0.12519461, 0.06192699, 0.1680845, 0.001123637, 0.099717826, -0.0534115, -0.20184936, 0.16586702, 0.24901381, -0.08751285, 0.049067654, 0.012151217, -0.075165026, -0.20512049, 0.47402498, -0.024709065, 0.25966942, -0.3353901, -0.10393096, -0.2012759, -0.04502575, -0.23190777, 0.23037203, -0.13216642, -0.19404818, 0.005762529, -0.12548843, -0.23043044, -0.06559262, 0.02258955, -0.0511103, 0.0074147326, 0.18866771, 0.20059305, -0.054245498, 0.13529691, -1.5152427, 0.68213624, -0.27235442, 0.9240514, -0.41937038, -1.4125977, -0.78172284, 1.3350271, -2.3152142, 0.11729791, 1.0900558, 1.1850736, -0.17983517, 0.26619095, -1.0476367, 0.1349465, -0.14916442, -0.18167199, 0.21793588, -0.22773059, -0.10632176, -0.26547495, -0.06344032, -0.09710415, 0.12588936, 0.14681259, 0.015044092, 0.11186601, 0.13359933, 0.08518818, 0.22588319, -0.1113501, -0.033728853, 0.024637394, 0.055203345, -0.13853273, 0.19545045, -0.04581797, -0.24755839, -0.13888207, -0.24824716, 0.03023073, -0.11412735, 0.056136154, 0.24263139, 0.48440793, 0.0028243484, 0.48816645, 0.17695533, -2.3828766, 0.4373821, 1.4614655, 0.12967555, 0.09257169, 0.12652725, 0.48294577, -0.8873762, -0.6471057, 0.2757159, -0.029375922, 0.10990766, -0.12722297, -0.095499426, -0.24974433, -0.26051646, -0.22773601, 0.06407055, -0.24692515, 0.20564082, 0.20001256, -0.070863485, -0.13458201, 0.19046152, 0.17551237, -0.19329238, 0.1349132, 0.15394357, -0.016803026, 0.15241405, 0.2252562, 0.25711918, 0.065814316, 0.15877289, -0.075155064, -0.23482653, 0.1802001, -0.16626981, 0.101923734, 0.22292253, -0.19152907, 0.12506774, -0.21988077, -0.066453025, -0.2700671, -0.14196342, 0.015720338, -0.24544768, -0.20377758, -0.031221047, 0.081030995, -0.034392893, -0.21909308, 0.062381864, -0.25330722, 0.25368404, -0.07844439, 0.0110171, 0.16296712, -0.14806606, 0.039272483, 0.10138669, 0.028226938, -0.086355604, 0.16413006, -0.029223468, -0.13273096, 0.12920421, -0.14740726, 0.09660706, 0.06948374, 0.104697995, 0.051667854, -0.13308021, 0.12351746, -0.19996987, 0.009706857, 0.22968535, 0.25285974, -0.00877374, 0.09698753, 0.27062744, 0.14260902, -0.2549118, 0.14445172, -0.04473554, 0.1259775, -0.06315814, 0.315145, 0.10099237, -0.038346145, 0.046157926, -0.12758979, -0.04330449, -0.048092764, -0.11625631, -0.05763276, -0.16911252, 0.12914543, 0.1458532, -0.2062216, -0.021714222, 0.2189362, 0.18350302, -0.07303055, 0.04215467, 0.06383547, 0.028054666, 0.018597553, 0.03669271, -0.1013676, 0.16475713, 0.08442984, 0.08644829, 0.014022646, 0.04096235, 0.2526551, -0.15712489, -0.24881038, 0.063859105, 0.013202125, 0.24000895, -0.24908021, -0.2289577, 0.10403, -0.10854207, -0.037082776, 0.21454214, -0.20960519, 0.22118282, 0.2185044, 0.045815814, 0.086131245, 0.2096825, 0.06526454, -0.01089235, 0.059736248, -0.038546804, 0.018122418, -0.03607446, -0.0019075167, -0.06720456, -0.049914237, 0.20226884, 0.005345855, -0.014171733, -0.1500768, -0.01803884, -0.10988754, 0.05304554, -0.11835688, 0.18969613, -0.00033450127, -0.18849342, 0.14849064, 0.18342999, -0.265783, -0.260386, 0.06046945, 0.16616774, 0.14428258, 0.20485869, -0.23591045, 0.23012662, 0.024029672, 0.21940228, 0.14759251, 0.12719521, -0.27029628, 0.04943359, 0.09905115, -0.10479313, -0.13167542, 0.24254864, -0.22730969, 0.2415536, 0.2093271, -0.2544946, 0.17487913, -0.24454695, -0.26633477, -0.09014709, -0.016714573, 0.17931068, 0.24779058, 0.2073696, 0.17290446, -0.08999649, 0.06808707, 0.11200377, -0.1465622, 0.024728987, 0.09742208, 0.1790645, 0.0213298, 0.07382071, -0.03566389, 0.10994957, 0.17631336, 0.14769466, 0.07456328, 0.15184823, 0.14285402, -0.039543416, -0.08467547, 0.02022514, 0.15835899, -0.15078825, 0.15133035, -0.04544669, 0.14582585, 0.14612149, -0.050117705, 0.0025315657, -0.2557053, 0.21922812, 0.21890283, 0.22481912, 0.2382538, 0.009306104, -0.20402081, -0.04720908, -0.023948476, -0.036096342, 0.2244798, 0.056956068, -0.0213377, 0.13652553, -0.08363955, 0.043953747, -0.022379303, 0.010377879, 0.029021388, 0.02743251, 0.07287227, -0.13265356, -0.1260324, 0.31124648, -0.20369309, 0.04370068, 0.053818364, 0.012526335, 0.027629407, 0.0003087186, 0.021203047, 0.10467706, 0.09737138, -0.14926536, 0.12512013, -0.0064637386, -0.110218085, -0.03285615, -0.10072332, 0.17214891, 0.18919213, -0.044411834, -0.050465263, -0.052879546, -0.1082607, 0.18276763, 0.11142821, -0.21725944, 0.19240963, 0.07998824, -0.24970609, 0.118188776, -0.12915559, -0.06401217, -0.08103253, -0.083549924, 0.06699487, 0.20813833, 0.1479789, 0.099485405, -0.080233015, -0.010730062, 0.08687242, -0.10541408, 0.03001937, -0.08758335, 0.13447613, -0.03412883, 0.20563951, -0.16622275, -0.20160449, -0.0064280867, -0.15928534, -0.20350401, -0.1772905, -0.07805895, -0.026206845, -0.019319195, -0.22132221, -0.25134188, -0.124804094, 0.16481556, 0.02019971, -0.17872937, 0.07380656, -0.009446641, -0.17989005, 0.19317183, -0.060760748, -0.18585308, 0.22143967, -0.1753844, 0.16113375, 0.0638869, 0.18817998, 0.24533781, -0.21264821, 0.19078796, 0.24917252, -0.05913534, -0.117148116, 0.057194952, -0.27659288, 0.11462031, 0.124025114, -0.122834794, 0.15969157, -0.06668089, -0.23220718, 0.04034131, 0.24922654, -0.14390236, -0.13349399, 0.0048305793, 0.2027586, -0.106757544, 0.021958603, -0.013315684, 0.07391696, -0.03769593, 0.07065015, -0.1271327, -0.17810872, 0.30129546, -0.06414458, 0.010322283, 0.003373894, -0.1923353, 0.1936892, 0.029310117, 0.22883925, -0.25229385, -0.13454324, -0.267722, -0.26140383, 0.13906433, 0.2441672, 0.10251736, 0.18769285, -0.2508537, -0.24216893, 0.1865147, 0.25306493, -0.14746486, -0.2779716, 0.031743478, 0.0029870463, -0.16034408, -0.041007362, 0.079257146, -0.09433494, -0.044580504, 0.20212908, -0.1684576, 0.23598227, -0.119434096, -0.020335581, 0.08794941, 0.009328275, -0.25861335, -0.22996123, 0.056351278, 0.25327262, 0.103666246, -0.138651, 0.082969055, 0.01034462, -0.21465707, 0.12040135, 0.112218514, -0.024315896, -0.15710007, 0.20286539, -0.1178442, -0.23832871, 0.00349539, 0.19239344, 0.19462521, 0.03270721, -0.058372915, 0.08809096, 0.16876844, -0.060809944, 0.06882546, -0.05541687, -0.24889939, -0.05008832, -0.06231804, -0.22618863, -0.07439994, 0.14776532, 0.1060996, -0.07768652, 0.2514642, -0.23640339, -0.06925961, 0.063944824, -0.087601684, -0.06588217, -0.21770108, -0.11877733, -0.13009387, -0.095805876, 0.1867589, 0.10721334, -0.057734344, 0.041856173, -0.08878741, 0.030127019, -0.12529108, 0.045650262, 0.16534312, -0.15982413, -0.097598635, -0.26475134, -0.014280001, -0.07213557, 0.013926612, -0.15101837, 0.120898336, 0.029132782, 0.11462744, -0.19730166, 0.22075227, -0.26695883, -0.20692071, 0.24307984, -0.025214436, -0.10914364, -0.2572775, 0.07497193, 0.094265334, 0.10779502, -0.056002107, -0.06964432, 0.25374645, 0.005636921, -0.09402167, -0.014717591, 0.027909556, 0.07695078, 0.11624195, 0.1204989, -0.021929557, 0.12413652, -0.12366006, -0.17240706, -0.015974268, 0.117623664, -0.005451073, 0.06143048, -0.03982619, 0.11991411, 0.01111437, -0.0077863736, 0.09959897, 0.32733762, -0.060036797, -0.10410748, 0.0032561372, 0.03541123, 0.011494321, -0.12567888, -0.027761519, -0.21429335, 0.019441733, 0.25430232, 0.14288323, -0.14942236, 0.18579756, 0.19727762, -0.25382802, 0.06848978, -0.064233474, -0.02600615, -0.023025392, -0.262345, -0.11313361, 0.26986963, 0.17486784, 0.15420674, 0.005472825, -0.0062192106, 0.022613095, 0.051624976, 0.14071462, 0.17350072, -0.08028721, -0.14127243, 0.09502615, 0.13446583, -0.30886623, -0.008095785, -0.18427055, -0.12955326, -0.024848098, 0.016245915, -0.033044178, -0.00085911585, -0.15015192, -0.002929083, 0.16238053, 0.20412016, -0.14409204, -0.08048442, 0.1296888, -0.08499759, 0.099284336, 0.18488212, -0.124574944, 0.028041204, 0.27090237, 0.24947803, 0.07210434, 0.25264457, 0.08001093, -0.24836835, 0.1565614, -0.1988494, 0.008577111, 0.24669021, 0.09845135, 0.07694079, -0.06468944, 0.02582597, 0.17740956, 0.066863105, 0.06404135, 0.11095658, 0.045887124, -0.052145317, 0.104899816, -0.01700515, -0.082912065, -0.049074803, -0.068251856, -0.20088457, -0.03492003, 0.1661825, -0.13791214, -0.054136403, -0.019456306, 0.027392322, -0.1173208, 0.033359677, -0.17275156, -0.19437426, 0.0137933735, -0.13972554, -0.035719816, -0.10394062, 0.12734406, 0.26416007, -0.10241449, -0.02952133, -0.11076831, 0.14573364, 0.04584906, -0.06061697, -0.24647762, -0.06879235, 0.13446558, 0.1264897, 0.13346957, 0.16005374, -0.12108349, -0.110501386, -0.14985846, 0.06125738, 0.23072942, -0.10696354, -0.03442588, 0.12192022, -0.054839294, 0.055706717, 0.13051589, -0.025226664, 0.1363612, 0.15472494, 0.10169573, -0.098487586, 0.009136691, -0.020358657, -0.17296635, 0.010044301, 0.113852754, -0.06343438, -0.065844804, 0.034509312, -0.075287305, 0.0294911, 0.010918686, 0.11779706, -0.08439731, 0.08004966, -0.02928, -0.058790777, -0.08589071, -0.08509089, -0.12101043, -0.21174636, 0.08483925, 0.07462512, -0.07271035, 0.019620318, -0.040118184, -0.018582355, 0.11315385, -0.17998256, 0.015429958, -0.17032011, -0.2529382, -0.005040126, 0.10571043, -0.07270973, 0.031815585, -0.060494114, 0.14581726, -0.1325068, -0.0947907, 0.041040484, -0.044896513, -0.186832, 0.023182658, -0.07358141, 0.1634235, -0.24043651, 0.09445473, 0.15467887, 0.28414902, -0.03715447, -0.0065633347, -0.10985031, -0.018483825, 0.11806633, -0.028109673, 0.06644586, -0.017609593, -0.024510374, -0.06036787, -0.02680015, -0.13399383, -0.08270569, 0.19169344, -0.1616654, 0.035929214, 0.04602709, -0.19969633, -0.22448936, 0.035348516, -0.2540762, -0.1633865, 0.06848802, 0.1959556, 0.0030653041, 0.05311067, 0.08587498, 0.086144075, 0.07153545, -0.11166936, 0.011444905, -0.024998983, 0.18202107, -0.09895889, 0.061617702, -0.033124577, 0.111995265, 0.025631782, -0.03075498, -0.018084947, -0.1667603, -0.101133734, 0.09528924, 0.19225381, 0.17731315, 0.08927338, 0.022835907, 0.043207128, 0.007149304, -0.13728401, 0.09540353, 0.0018246686, 0.0033884193, 0.060115088, 0.0785308, -0.1505468, -0.035756644, 0.20088698, -0.23096333, 0.006187188, 0.115963876, -0.21602078, -0.1316696, 0.18885519, 0.08472624, 0.13657984, -0.2133066, 0.25287762, -0.26521668, 0.058284603, -0.12535316, -0.08796771, 0.13862306, -0.056934386, -0.18702985, -0.075737, 0.0432961, 0.034132056, 0.06708735, 0.25102335, -0.1649627, -0.15089084, -0.056294784, -0.13968933, 0.053699054, 0.04917392, 0.15566437, 0.019390037, 0.28716034, -0.0033170213, -0.059410367, -0.10006104, -0.21603338, -0.11995257, 0.22883004, -0.14265347, -0.041520443, 0.2498114, 0.13420169, 0.09896544, 0.43054226, -0.034629833, -0.18634273, -0.03512765, 0.01159472, -0.09739702, -0.2734388, 0.2509505, 0.1996224, 0.09047819, -0.15623236, -0.10978569, -0.018385109, -0.26490453, -0.2486905, 0.074135646, -0.0122896, 0.11607183, -0.15474232, -0.18585223, 0.08051479, 0.084559254, -0.08539408, 0.16735172, 0.015538357, -0.07472869, -0.0062319175, 0.103681736, 0.14020103, -0.19004653, -0.23225793, 0.048434798, -0.26895872, 0.17278345, -0.025672626, 0.123363696, -0.13339911, -0.16278839, -0.09330033, -0.12000261, -0.26583734, 0.11264417, -0.08021505, 0.026961995, 0.08376374, 0.14615029, 0.046269756, 0.03916055, 0.2245353, -0.1657987, 0.20456031, 0.0010266739, -0.043970294, 0.1012216, -0.06772386, -0.13130522, 0.21399009, -0.2632872, -0.06437367, -0.19657059, -0.16653933, -0.23956347, -0.22759923, -0.21075973, 0.1449388, -0.17893815, 0.048647087, 0.08878688, 0.16445196, 0.022782616, 0.029966114, -0.10571784, -0.056163225, 0.20980449, -0.1972967, 0.06117468, 0.1324128, -0.06313671, -0.17320192, 0.01972601, -0.1739847, -0.16349906, 0.10815499, -0.06960312, 0.043153707, 0.013371458, 0.04430554, -0.06480585, -0.013376983, -0.15066513, -0.12322447, 0.011277907, -0.06534116, -0.018100355, 0.119456485, 0.15356126, -0.21661444, -0.053463526, -0.105612986, 0.21871826, -0.28268233, 0.20803452, 0.09076684, 0.19529039, 0.205265, -0.062149618, -0.0996101, 0.046346825, -0.045617037, 0.021002145, 0.12134668, 0.014741802, -0.02173751, 0.016912594, -0.022064576, -0.033254165, -0.28596577, 0.08046337, -0.013127733, 0.16631143, 0.13757679, 0.11285486};
const float gru_b[90] = {-0.3398761, 0.13603245, 0.10881802, 0.017025245, -0.5107294, -0.03417991, -0.19335043, 0.07399415, -0.28814706, 0.123003826, 0.094528526, 0.04283155, 0.13046485, 0.18738447, 0.2033032, -0.052826326, -0.0033820234, -0.009180547, -0.024650749, -0.07343969, -0.020471683, -0.05974272, -0.012132348, -0.05394865, -0.0034166314, -0.01833811, -0.016294328, -0.015486038, -0.0019229464, -0.022390937, -0.020134164, -0.000969556, 0.030192165, -0.058437057, -0.020861331, -0.058626313, -0.03975451, -0.008405752, 0.015988924, 0.08206755, -0.033838175, -0.002454294, 0.027112447, -0.0036259189, 0.0075588813, -0.3398761, 0.13603242, 0.10881802, 0.017025245, -0.5107294, -0.03417991, -0.19335043, 0.07399415, -0.28814706, 0.123003826, 0.09452855, 0.04283155, 0.13046485, 0.18738447, 0.20330323, -0.052826326, -0.0033820234, -0.009180547, -0.024650749, -0.07343969, -0.020471683, -0.05974272, -0.012132346, -0.05394865, -0.003416631, -0.018338114, -0.016294328, -0.015486038, -0.0019229464, -0.022390937, -0.026286667, -0.04008462, 0.009136546, -0.03809571, -0.0074714725, -0.052708924, -0.029072627, 0.013233969, 0.031613357, 0.029068202, -0.036004126, 0.007044303, 0.031144498, 0.00625919, 0.015136225};
const float gru_Wrec[675] = {0.040138483, 0.00034830446, 0.05606501, -0.030221144, -0.02910785, 0.14401802, 0.14893347, 0.224405, -0.029034287, 0.042903308, 0.028533885, 0.08386258, -0.22039582, -0.021154072, -0.033867158, 0.07588274, 0.12564056, 0.10228413, -0.40708816, 0.09306219, 0.037193734, 0.05005131, -0.13139924, -0.13838498, -0.0805408, 0.23348096, -0.13937864, -0.30356097, 0.21465918, -0.03659891, 0.01712291, 0.025208151, 0.107432276, 0.27736712, 0.31851485, -0.0044285553, -0.30929968, 0.07039964, 0.112932265, 0.05820517, 0.12589334, -0.03159152, 0.08401015, -0.18175481, -0.09078379, -0.20892012, 0.005474107, 0.17935358, 0.0030711195, 0.08382518, 0.18752092, -0.047537617, -0.32277608, 0.095622726, 0.047361296, 0.11029604, 0.07974469, 0.16121128, 0.4144768, 0.0003693723, -0.16301613, -0.094550416, -0.2538286, -0.0033513084, 0.21023194, -0.03219944, 0.049394757, -0.21943441, -0.13786885, -0.12536567, -0.10677889, -0.09069426, -0.04354102, 0.024096929, 0.24975912, -0.11006339, -0.066211626, 0.18551409, -0.0041980967, 0.04815401, -0.0062799975, -0.063442856, 0.19375446, -0.028522657, -0.13750081, 0.1878227, 0.02190118, -0.28110585, -0.05815077, 0.0098702125, 0.2561965, 0.052935548, -0.2874652, 0.21409336, -0.18101752, -0.077894725, -0.13832912, 0.037576422, -0.03063443, 0.029359113, 0.22182849, 0.164535, 0.058325086, 0.03415048, 0.023160849, -0.13039397, 0.058081813, -0.17246403, 0.15518597, 0.26079917, 0.16061099, 0.083504714, 0.014013108, 0.0963158, 0.0703636, 0.28894308, -0.16254677, 0.1274158, -0.073560044, -0.17349587, -0.2800555, 0.06182484, 0.28617752, -0.16568024, -0.08052072, 0.07294891, -0.09442, -0.033228993, 0.21500129, -0.042763874, 0.027141266, 0.06680887, 0.110927165, -0.1538429, -0.082476154, -0.036733292, 0.08419786, -0.046999123, 0.31743336, 0.31077147, 0.13996829, 0.26366812, 0.13498926, -0.1770246, 0.09548417, 0.0046423445, -0.062704705, -0.084518194, 0.12482478, 0.037829384, -0.077206366, 0.21809608, -0.21753351, -0.14518712, -0.15637237, -0.1522505, -0.06905843, -0.0003315881, 0.15996864, 0.17509362, -0.051775664, -0.15775882, 0.06732786, -0.014511267, -0.15280896, 0.034540128, -0.035336018, -0.1212179, -0.11081702, -0.21785434, 0.03731314, 0.07233253, 0.3284276, -0.17874578, 0.005310932, 0.11598409, 0.029567212, 0.07445664, -0.056732602, -0.28886, -0.18180072, -0.17878115, 0.05485774, -0.045021646, 0.071801625, 0.076332174, 0.06556846, 0.050941158, 0.23357566, -0.31116292, -0.049335994, -0.1871737, -0.039448954, 0.070788145, -0.24553575, -0.11977177, 0.040810544, 0.22644036, -0.17564973, 0.26418293, -0.12761453, 0.108651124, -0.055328026, -0.09051835, -0.2063046, 0.04287326, -0.07488546, 0.1750496, -0.060741365, -0.3795301, 0.14083904, 0.1322442, 0.0667508, -0.29615164, -0.06257911, 0.05793712, 0.09189671, -0.12575142, 0.011447631, -0.036241565, -0.013715565, 0.22676615, -0.020922698, -0.03059715, -0.07255718, -0.40682802, 0.18525444, -0.25127363, 0.114253394, -0.030028205, 0.061029118, -0.032144733, 0.25760153, -0.04027045, 0.15786815, 0.051944297, -0.24030364, 0.21715242, -0.001414666, -0.16516845, -0.11837713, -0.06282734, -0.11002826, -0.12332296, -0.07495496, -0.18315464, -0.24073343, 0.048763096, -0.12156625, -0.06564838, 0.0016780347, 0.26881245, 0.06532865, -0.0955678, 0.035424504, -0.1285804, 0.030493816, 0.04860063, 0.02256605, 0.14691982, 0.19121931, -0.013639562, -0.08291872, 0.32733405, 0.099393755, -0.074751124, -0.17268904, -0.039071802, 0.002464205, -0.015644897, 0.06346443, -0.14905207, -0.31272504, 0.2161748, 0.05556135, 0.048412517, -0.23909873, -0.2319584, -0.009849531, -0.05957593, -0.020116363, 0.21795005, -0.15768303, 0.08977182, -0.043291822, -0.073734954, -0.29337242, -0.010885753, -0.14770423, -0.1988371, -0.050574664, -0.24077274, -0.018165596, -0.098179355, -0.1435784, -0.0067175627, 0.0059937844, -0.22978362, 0.10959237, -0.16330053, 0.23476829, -0.2344852, 0.15718117, 0.12859885, -0.236159, 0.11226744, 0.08007826, -0.134066, 0.010130894, 0.17237547, 0.05018181, 0.08444902, 0.03574337, 0.076587245, -0.010587446, -0.087644815, 0.1664516, -0.034748144, 0.03746418, -0.019112919, -0.2475604, -0.22527343, -0.18096137, -0.15467885, -0.006302333, -0.124021254, -0.28212893, -0.020375317, -0.07093336, -0.21120809, 0.05606608, 0.14005245, 0.067211404, -0.033323444, -0.022915043, 0.067051135, 0.29118255, -0.026539896, -0.21887726, -0.19303161, 0.19544972, 0.06619805, -0.16037437, -0.06358911, -0.04658394, -0.24497004, -0.19150573, -0.021806344, 0.05625001, -0.1917259, -0.025753962, -0.12682879, 0.24107988, -0.12606493, -0.08240272, -0.006613573, -0.0012918715, 0.07207828, 0.31000257, -0.18247215, -0.14529686, -0.19074881, 0.053880244, 0.10167049, -0.096320905, 0.16573465, 0.062576845, 0.17707187, -0.17464179, -0.34411442, 0.105929546, 0.09602375, 0.011180272, -0.19260593, -0.023136731, 0.031603843, 0.032662116, 0.075649165, 0.11689949, 0.08406809, -0.2682501, 0.030696591, -0.050486628, 0.122562915, 0.097692475, -0.20716521, -0.1666036, -0.15970883, -0.18328519, -0.04627832, -0.20664185, -0.33702278, 0.014995656, 0.060040552, -0.15685776, -0.00084972807, -0.21291865, -0.12330172, 0.06481855, -0.16034783, 0.14967334, -0.20209494, -0.04177174, 0.13176002, 0.17933592, 0.05528093, 0.008923774, 0.10405713, -0.05494296, 0.20021638, 0.09780842, -0.1716056, -0.13948762, -0.1607393, -0.22518843, 0.033472236, -0.19094275, 0.055799115, -0.31133103, -0.13666037, -0.09825209, -0.058875985, -0.4310362, -0.09709472, 0.2681893, 0.19298519, 0.006324363, 0.1463126, 0.13369016, -0.0012605498, -0.095981956, -0.070517875, 0.059967246, 0.0791483, 0.030659879, 0.33003396, 0.04660112, -0.09200596, 0.14508036, -0.057397656, 0.020986594, -0.21445373, 0.046134226, 0.19137949, 0.035332937, -0.17897013, -0.06820428, 0.03504064, -0.0076551232, -0.038676944, 0.080599375, -0.03928657, 0.117566995, 0.29253066, 0.016820408, -0.19449884, 0.035303466, -0.21917754, 0.07245857, 0.082636185, 0.03704713, 0.17642264, 0.23111708, -0.07129345, 0.010588116, -0.3037414, 0.32009032, 0.19331872, -0.060879905, -0.09730649, 0.09610412, 0.04376436, 0.09223037, 0.018743703, -0.17996097, -0.29534504, -0.049636982, 0.037056815, -0.12802652, -0.16366953, -0.042447597, -0.10053006, -0.18232724, 0.2080971, 0.22415717, 0.00042286818, -0.06401568, -0.1620192, 0.09205999, 0.062296405, -0.07759297, -0.0013907992, -0.16976312, -0.09032396, -0.21370554, -0.016123194, -0.028049393, -0.10424775, -0.04530321, -0.111428574, -0.05566157, 0.08714649, -0.0030156143, -0.058431678, -0.09246182, -0.263302, -0.18382214, 0.012531096, 0.1752362, -0.031468958, -0.21204983, -0.15910698, 0.1219194, 0.28028932, 0.32260376, -0.0698119, -0.18730107, 0.15403923, -0.006299765, 0.38472652, 0.007235728, -0.0627341, -0.09208396, 0.17163505, -0.16857606, -0.066618405, -0.07437446, 0.0492356, 0.27255628, 0.18367954, -0.08887377, 0.012682766, 0.09215424, -0.14480443, 0.14997159, -0.09565438, 0.025594767, -0.148931, 0.05483024, -0.22515523, 0.20541012, 0.087764874, -0.060087726, 0.06749059, 0.07650626, 0.0528796, 0.030377569, 0.037777867, -0.2809718, -0.1962057, -0.31024238, 0.0014962582, 0.09232986, -0.11559748, 0.037407648, -0.22953999, -0.051151164, 0.14110926, -0.026672099, -0.15924405, -0.020696979, 0.07373512, -0.40777084, -0.0744154, 0.101950854, -0.13344638, 0.064634256, 0.015752945, 0.12319851, 0.20934686, -0.09157626, 0.077331625, 0.12085307, -0.13584259, 0.044379845, 0.30193186, -0.13263594, 0.005924005, -0.013814453, -0.09968905, -0.27079785, 0.25762066, -0.04811717, -0.09511571, 0.06311586, -0.019273978, -0.17953622, 0.15819286, -0.002414282, 0.088472456, 0.17856109, 0.109112956, 0.057409905, -0.15575793, 0.09466881, -0.2411976, 0.10681789, 0.09818874, -0.2791203, 0.04274828, -0.11411759, 0.055869836, -0.047661506, 0.17044389, -0.032011922, 0.06609245, -0.26933414, 0.14638191, 0.07711997, -0.34662223, 0.31943098, -0.021237621, -0.16634496, 0.031932086, 0.07235268, -0.10440539, 0.030021122, 0.10612309, -0.29873148, -0.00070260465, -0.18893121, -0.012271941, 0.010562702, 0.024078889, 0.17542091, 0.039384454, 0.08740762, -0.2601522, 0.15128168, -0.08099279, -0.08999052, 0.07041554, -0.05571708, 0.03188675, -0.0703812, -0.01884729, 0.22635931, -0.03067156, -0.12479306, -0.13606398, 0.11626406, 0.000640871, 0.41241843, 0.14638405, 0.048345756, -0.05655762, 0.33252808, 0.048460636, 0.046477214, 0.09698338, 0.08582861, -0.089916065, -0.09295184, 0.034845755, -0.021645835, 0.13443413, -0.0055856276, -0.12412232, 0.07868744, 0.16543879, 0.3427918, -0.09239116, 0.16502735, 0.06590253, 0.043785412, -0.049750626, 0.18751188, -0.11080919, -0.027664311, -0.053270865, -0.009720745, 0.08861277, 0.40176585, 0.27557343, 0.07059357};
const float dense_W[225] = {-0.6252639, -0.32343763, -0.10276271, -0.043291483, 0.1381685, 0.06839413, 0.21738154, -0.13840823, 0.48221108, 0.106010094, 0.5250633, -0.39634404, -0.36948922, -0.28122488, -0.21208723, 0.27577922, 0.17234878, 0.251285, 0.20760347, -0.08091499, 0.2688689, 0.32444713, -0.07426471, -0.31441537, 0.37784165, 0.123509265, 0.2292136, -0.14448781, -0.3456446, -0.16447158, 0.084210955, -0.08373951, 0.06541031, -0.18847884, 0.090452254, 0.104709834, 0.2558463, 0.020325473, -0.069872215, 0.07101467, -0.06612995, -0.30629277, -0.11963508, -0.09358961, 0.21517543, -0.31354997, 0.03056335, 0.12698908, 0.20640023, 0.050409343, -0.19464844, -0.20162384, -0.12391715, -0.28698152, -0.18479493, -0.22078852, 0.2238797, -0.012922564, 0.19772922, -0.011320626, -0.15264875, -0.1297956, -0.97353685, -0.34847593, -0.22517434, 0.22084336, 0.23245981, -0.0364189, -0.19335398, 0.56011164, -0.19409247, -0.035372343, 0.3186871, -0.77882016, -0.02517976, -0.32676733, -0.36511004, -0.14738457, 0.12410003, 0.37380403, 0.17783056, -0.11205427, -0.614029, 0.26772672, 0.22271769, -0.24978922, -0.45254567, -0.33930022, -0.04312345, 0.26009825, -0.2440182, 0.40636873, 0.43158275, -0.48828518, 0.4811476, 0.4676016, -0.12667294, 0.035554472, 0.525102, 0.022573259, 0.34268707, -0.20378506, -0.24912058, 0.12553222, 0.06029745, 0.09253432, -0.049268395, 0.07557313, 0.08096179, -0.39562428, -0.26399958, -0.148375, -0.0049077068, -0.30152956, -0.019371942, -0.31753254, -0.15536706, 0.017293049, 0.21627589, -0.25653192, -0.35546157, -0.35824275, -0.32671624, -0.26882008, 0.45841825, 0.38399962, -0.24487613, -0.3112932, 0.77150726, -0.13933311, 0.33613917, -0.37067437, -0.39589015, -0.4552451, -0.29842922, -0.089116745, -0.06031787, -0.23359756, 0.110612735, -0.0051361276, -0.3568391, 0.49985, 0.30169305, 0.02041532, 0.5052098, -0.011678535, 0.43350866, -0.23823997, 0.2873481, -0.24052477, 0.42991287, 0.13584895, 0.09679521, 0.57768756, 0.15592338, -0.33909947, -0.2027552, -0.14798306, -0.38220087, -0.21002352, -0.13214049, 0.153914, -0.36568075, 0.08298233, 0.12167838, 0.03212874, 0.06814348, -0.05652722, -0.18640855, -0.43617263, -0.35719517, 0.2592044, 0.29957527, -0.117447734, 0.03475519, -0.23622885, 0.3051423, 0.27457643, 0.2469198, -0.23729119, 0.13156512, -0.13341855, -0.17742102, 0.086193725, 0.2562164, -0.14423525, 0.041420866, -0.345676, 0.27714473, -0.07615788, 0.10525895, -0.11578929, 0.2992581, 0.1855635, 0.12032659, 0.06825779, 0.18643063, -0.19901304, 0.007906718, -0.2951968, -0.41575462, -0.3127355, -0.070238195, 0.020226598, 0.27122545, 0.17095307, -0.32350907, -0.21196555, 0.22012636, 0.12190575, -0.09979979, -0.0554006, -0.16751118, 0.21776092, 0.010077737, 0.46353018, 0.115420304, 0.05604239, 0.22355616, -0.19259252, -0.16181387, -0.032044534, -0.29814354, -0.044032685, -0.39439368};
const float dense_b[15] = {-0.034923658, -0.06313557, 0.01693568, -0.04037341, -0.06795975, -0.042784456, -0.10273626, -0.050504245, 0.023635492, -0.04565917, -0.03231666, -0.057117995, 0.027419055, -0.007917149, -0.06704249};
const float dense_1_W[45] = {0.0018307121, 0.0044174837, -2.9875424e-31, 0.011394131, -0.011465357, 4.114763e-30, 0.020176524, 0.114713386, 4.8740827e-32, 0.008535158, -0.0143182315, 4.0357613e-31, 0.006811694, -0.0006635267, 2.8620186e-30, -0.008962106, 0.0047700224, 5.7082676e-32, -0.008913815, -0.00954832, 2.085721e-31, -0.006756916, 0.0013225353, -5.8787704e-31, -0.08780089, 0.05386318, -2.173632e-31, -0.009372743, -0.011492555, -4.386945e-35, -0.0040932554, 0.0045884806, -7.803731e-32, 0.005102218, -0.0057063606, 4.8113313e-31, 0.045053273, -0.04428171, 1.1385188e-31, 0.06512153, 0.049130674, 5.801876e-32, -0.00042527213, -0.0053817523, 6.7304034e-32};
const float dense_1_b[3] = {0.0, 0.0, -0.0};


#ifdef __cplusplus
}
#endif
#endif
