/********************
    parameters.h

    Code generated using nn4mc.

    This file defines the neural network weight parameters for all layers.

*/
#ifndef __NEURAL_NET_PARAMS_H__
#define __NEURAL_NET_PARAMS_H__

#ifdef __cplusplus
extern "C" {
#endif

const float gru_W[1620] = {0.04118013, 0.0988556, -0.1999186, -0.008945465, 0.08271988, -0.27149943, 0.106308185, -0.075789504, -0.14769356, 0.08427831, -0.084167175, -0.055808336, -0.013023725, -0.2202919, 0.20064314, 0.15930928, 0.22338568, 0.10672972, -0.1808918, -0.24072912, 0.24761543, -0.06043215, -0.03233046, -0.14165561, -0.106115915, 0.09702466, -0.0463, 0.09309938, 0.0123135, 0.27955836, -0.021996176, 0.12480832, -0.04304524, 0.041002184, 0.09674665, -0.11020592, 0.019755697, -0.10153024, 0.044886086, -0.042621046, 0.2327996, -0.10415383, 0.06121837, -0.041670404, -0.12340374, 0.23414794, 0.19911842, 0.10672412, 0.09049141, 0.09256036, -0.22197135, -0.03247658, -0.23533906, -0.19504249, -0.114246644, -0.031197436, -0.012455821, 0.18230043, -0.15223834, 0.032623045, 0.033961374, 0.21982716, -0.20237555, -0.25209796, -0.04084429, -0.17672372, 0.06224006, -0.08498008, 0.0061488054, -0.19644433, 0.15166983, -0.22726017, 0.0571436, -0.19280455, -0.17373876, -0.036885627, -0.06541911, -0.006998065, 0.04321155, -0.005366018, -0.06651866, 0.0354423, -0.010107713, -0.086067125, 0.14799128, -0.046658296, -0.05994667, -0.09316255, -0.17803478, 0.05973193, 0.05288187, 0.17846176, -0.0879478, -0.038630255, 0.01555803, 0.08816531, 0.05793096, -0.0058085276, -0.102991916, 0.0865593, -0.09652882, -0.024752285, 0.15349808, -0.24374035, -0.041363552, -0.02171259, 0.17871301, -0.15241358, 0.102914385, -0.23704164, 0.04289964, -0.26286107, -0.009153685, 0.2496817, 0.17493133, 0.12068736, -0.06663812, -0.16350597, -0.007679566, -0.23573746, 0.17720029, -0.12541491, -0.02472901, -0.06000685, -0.01836383, 0.054805413, 0.141053, -0.05622511, 0.069885224, 0.003319507, 0.065668605, -0.11148457, -0.07758072, -0.1427398, 0.12768593, 0.068547376, 0.059992045, -0.045910977, -0.16368091, -0.019947745, 0.15755464, 0.061932463, 0.1107026, 0.1596955, 0.099597454, 0.094903305, 0.12571472, -0.0006802713, -0.07876873, 0.03142686, 0.2603808, 0.2646847, -0.059258137, -0.23518887, -0.021327997, -0.044245034, -0.11751771, -0.20610186, -0.1789583, -0.2585376, 0.21205674, -0.2775229, 0.026244631, 0.2002364, 0.03572282, 0.027391203, 0.10631463, -0.06810548, -0.014732576, 0.016357286, -0.091731586, 0.20352429, -0.20050816, 0.025708912, 0.06608237, 0.024471585, 0.13922831, 0.118000016, -0.08394699, -0.024290351, 0.08371085, 0.20441295, 0.07277194, 0.08058558, -0.18988757, -0.20658608, 0.072095245, -0.004964301, 0.014752924, 0.2490756, 0.16770165, 0.20146422, -0.16939285, 0.22854118, 0.042021576, -0.06583932, -0.17226766, 0.15046625, -0.12508377, 0.22684126, 0.031753264, 0.19856507, -0.062644795, -0.27330253, 0.067354664, -0.17668611, 0.1335072, 0.17674541, -0.2255875, 0.032550033, 0.003715239, -0.017832937, -0.17341116, -0.033157535, -0.08636737, 0.115260206, -0.026194006, -0.10836807, 0.10467906, -0.14203803, 0.020329768, -0.055149183, -0.041500576, -0.20458378, 0.09405384, -0.0566479, -0.052166253, -0.0030341677, -0.075869076, 0.035467513, -0.279853, -0.14783913, 0.10513503, -0.054217845, -0.07693415, 0.08668108, 0.18561417, 0.1486942, -0.16553034, -0.17326283, 0.0047839493, -0.08949176, 0.19672102, 0.19008698, 0.04356614, -0.1686161, 0.0492308, 0.013821563, 0.24306555, 0.054889053, 0.11101808, 0.039854053, -0.1886133, 0.017313361, 0.020720595, -0.121028595, 0.037918888, -0.11544828, 0.13208783, -0.050903898, 0.22200705, -0.15128553, -0.13266744, -0.1269055, 0.05341946, -0.11000875, 0.078264624, -0.22714591, -0.21432562, 0.021596145, 0.03934775, -0.10755645, 0.10182572, -0.03225008, -0.02756273, -0.26914182, -0.15000005, -0.16542001, 0.19159107, -0.013498089, 0.16635561, -0.06890846, 0.0076541626, 0.20295574, -0.17810571, -0.26206076, -0.0256072, -0.28641427, 0.089515895, -0.18863922, -0.0082785105, 0.27088994, -0.15694256, -0.14770022, 0.016551305, 0.059586223, 0.0859278, -0.16789784, 0.2249867, -0.08397826, 0.08005992, -0.14674856, 0.07706148, 0.0026894715, -0.05160279, 0.18072377, 0.08646899, -0.006340359, -0.03387671, -0.046659227, -0.16001196, 0.20510957, -0.15878521, -0.085876554, 0.14987332, -0.07543842, -0.15482764, -0.055369254, -0.15098129, -0.050274268, -0.23464796, 0.030989941, 0.07831794, 0.25062788, 0.13785154, 0.21971548, 0.08490341, -0.13856047, -0.12343264, -0.11930524, -0.16859858, -0.043081336, -0.19785266, -0.19199683, 0.072625995, -0.089154355, 0.17463654, 0.22549233, 0.15725476, -0.26300025, -0.25712955, 0.100327626, -0.18890382, -0.17842026, -0.01805853, 0.100671515, 0.0013435563, -0.059381753, -0.036800265, -0.08037917, -0.045177475, -0.12906988, -0.04141413, -0.030528996, -0.14204241, 0.053073015, 0.024224952, 0.04568576, 0.24291776, -0.09811027, -0.14680903, -0.20903507, 0.04235835, 0.10313472, -0.0062503624, 0.095740534, 0.03796707, -0.11798997, 0.05902667, -0.023111846, 0.043646492, -0.027276756, -0.23901199, 0.11033411, 0.060741927, -0.23244181, -0.13281308, -0.061579417, 0.11024702, 0.23598339, -0.14704555, 0.0067080404, 0.19958328, 0.21198806, -0.23977333, -0.08876675, 0.09006857, -0.16227007, -0.005128038, -0.15440515, -0.27930292, 0.070915736, -0.0094057955, 0.06033673, 0.07790421, -0.0758446, -0.1276443, -0.0012300601, -0.07316238, 0.1064141, 0.021625495, -0.084956534, 0.17702861, 0.112771675, -0.18182555, -0.032763194, -0.081114456, 0.15216868, 0.17209826, 0.025355075, 0.1623714, -0.05290125, -0.035248075, -0.15716378, -0.0022552721, -0.08942605, -0.040717743, -0.07429153, -0.016911823, -0.068553284, 0.03851749, 0.21969017, 0.20899458, -0.16017815, 0.13146509, 0.1275566, 0.24647962, -0.15691316, -0.16701762, 0.19551562, -0.13819474, -0.09297873, -0.072618045, -0.2478276, -0.019292656, -0.06991088, -0.06600865, 0.040126912, 0.028566984, -0.051286135, 0.14390899, -0.2306215, 0.20198792, -0.035470236, -0.07985801, -0.06311111, -0.11174217, -0.13081636, 0.08388439, 0.048794363, -0.14140841, -0.14628871, -0.067952976, -0.043466844, 0.17584729, -0.14299883, -0.014165414, -0.07025609, -0.11323746, -0.19241562, -0.07999828, -0.2217568, 0.10312299, -0.22329193, -0.005131556, 0.25728622, -0.081860624, -0.24016, -0.053956915, -0.27381584, -0.008839827, 0.033681754, -0.22331959, -0.1753167, 0.12271539, -0.22821084, 0.022584155, -0.19168918, -0.17226721, -0.08766455, -0.08643552, -0.0062804907, 0.20146753, 0.043149322, 0.14643201, -0.069911405, 0.09230614, 0.047217358, -0.071902946, 0.17667231, 0.10597847, -0.064898826, 0.10022844, 0.12283032, -0.09419234, 0.08328967, 0.06216215, 0.11365473, 0.042846862, -0.06030469, 0.080752864, 0.08283686, -0.1868513, 0.053072877, -0.054411694, 0.193524, 0.0065684146, -0.058254182, 0.15316688, 0.15604414, -0.19877025, -0.24127445, 0.109890416, -0.039658945, 0.095754065, -0.15998282, -0.24074434, 0.13553399, -0.024936115, 0.16872992, -0.08009242, 0.24725643, 0.07140478, 0.19136842, -0.24166498, 0.17806238, 0.038851105, 0.14311618, -0.14345787, -0.028907549, -0.23233274, 0.09224976, 0.18533689, 0.10617436, -0.1562965, 0.016742757, 0.07096373, 0.19831662, 0.14990795, 0.031062147, 0.099172026, -0.12600751, 0.3599018, -0.0905905, -0.34160236, -0.094128795, -0.4367682, 0.11414057, 0.24486426, 0.027612163, -0.14764608, -0.016888605, -0.21255578, -0.03915319, -0.22018644, 0.08513934, -0.08232457, -0.2887304, 0.19203435, 0.25420558, -0.011426258, -0.07252616, -0.24643211, -0.11638339, -0.24656636, -0.090353444, 0.21644424, 0.033107784, -0.12894674, 0.043852553, 1.4547079, 0.26447836, -1.216312, 0.47188914, 1.9738299, -0.123073585, -1.557529, -0.6515882, -0.69640315, 0.65207684, 0.9524354, 1.1378845, 1.0773447, 0.638432, 2.467674, 0.06268009, -0.060666397, 0.005028794, -0.110367924, -0.12664698, 0.13118456, 0.07954005, 0.23254193, 0.26334184, 0.20405424, -0.15524554, -0.25858375, 0.210424, 0.17266895, 0.07941255, -0.20470195, 0.13466361, -0.22493818, -0.25392622, -0.100479476, -0.26953337, 0.1610627, 0.018838812, -0.2300445, 0.15981822, 0.146605, -0.23860309, 0.04460083, -0.1762215, -0.04235632, -1.267051, 1.3033189, -0.40619102, -2.9182878, 1.3934388, -0.15081623, 0.5530669, -0.3613702, -1.6672004, -0.5474913, 0.9178061, 0.46771654, -1.3801777, 0.22384417, 0.122308455, 0.023780972, 0.19967067, -0.21939138, -0.2356531, -0.1564017, -0.02257675, -0.07184656, 0.12065598, -0.02758108, 0.12023583, 0.16549984, 0.15253565, 0.20523232, -0.18466352, 0.0958702, 0.24448192, -0.17624219, -0.2675989, -0.09177673, -0.07275942, -0.08577874, -0.13238193, 0.059077114, 0.03864497, -0.15462606, -0.15733908, 0.040227175, 0.052755147, 0.2117399, 0.069903195, 0.053436488, -0.05060011, 0.2148453, 0.21475393, -0.24730495, 0.14296636, -0.1878671, -0.13089961, 0.24281335, 0.08563048, -0.0063470304, 0.2598284, -0.14171302, 0.15313485, 0.19962686, 0.30046853, 0.021198086, 0.22675885, -0.09695772, -0.1820038, -0.20006962, -0.4453148, -0.07073065, 0.06930162, -0.14278783, -0.06183008, -0.044191506, 0.2397568, 0.28785262, -0.36983863, -0.23026961, 0.04942259, -0.2442676, 0.14449927, -0.073850654, -0.26141968, 0.18692625, 0.06836461, -0.20112538, 0.07633577, -0.1402067, 0.11087217, 0.04947857, -0.19550472, -0.2129665, 1.0636942, 0.03097107, -0.73269117, 0.6088641, 1.981943, -0.06941513, -1.3975943, -0.8430418, -0.7770797, 0.8093077, 0.8903929, 0.7311522, 0.9462651, 0.47719666, 1.76334, -0.18379168, -0.052607287, -0.17699854, -0.24474062, -0.022332644, -0.04714002, -0.11942214, 0.07200966, -0.01983546, -0.019796418, 0.20117061, 0.09232853, 0.2038157, 0.09347453, 0.2145245, -0.06337776, 0.23995183, 0.20836759, -0.10845131, 0.1665796, -0.06964389, 0.003326238, 0.03597724, 0.099458344, -0.09937082, -0.2131476, -0.22918448, 0.24551918, 0.23635858, 0.1843139, -1.027085, 1.3667624, -0.43859214, -2.1776187, 0.98443294, -0.495026, 0.37821493, -0.39311728, -1.2618349, -0.497523, 0.7867839, 0.15429644, -1.0045787, 0.6065501, -0.31020826, -0.034924865, -0.06732513, -0.021379083, 0.18459907, 0.24597883, 0.041738033, -0.16649587, -0.07572292, -0.14231084, -0.2071539, -0.088107765, 0.08712876, 0.23463982, 0.12497249, -0.21178927, -0.09551571, -0.17254446, -0.2492356, -0.09584983, -0.025946513, 0.012368739, -0.07285844, -0.23256047, 0.0019665956, -0.15469024, 0.21919847, -0.15189531, -0.04470706, 0.21241915, 0.044856936, -0.036433995, -0.18076387, 0.011737704, 0.040247798, 0.044172943, -0.019478917, 0.17554477, -0.090348125, -0.0787929, -0.09824315, -0.26561606, 0.09894714, -0.16573472, 0.010088861, -0.22209409, -0.21079934, -0.2562169, -0.056673765, 0.21185094, -0.1259861, 0.19743012, -0.13069975, -0.054374468, -0.07845763, -0.017021175, -0.06799562, -0.20134488, 0.1661682, 0.09583271, -0.04930083, 0.24709527, -0.25758353, 0.16182016, -0.058087587, -0.058300007, -0.019166823, -0.1042885, -0.20618828, 0.115851566, 0.067707844, 0.11479867, 0.25771052, 0.007957945, -0.19953237, 0.23715281, -0.1472669, 0.27731797, -0.051208295, 0.04220262, -0.07910856, 0.07089084, -0.054926783, -0.15809408, 0.1303887, -0.040572368, -0.08025554, 0.13462588, -0.0686732, -0.011895086, 0.10089659, 0.0806303, 0.24550289, -0.24332795, -0.114313304, -0.020869762, 0.11902544, 0.065711975, -0.0024300516, 0.23003668, -0.22729288, 0.18357456, -0.032495663, -0.0996674, -0.073124945, -0.11903024, 0.16413954, 0.034957826, -0.047565296, 0.08051291, 0.20134774, 0.14178252, -0.004605919, 0.04402837, 0.071312845, -0.21325389, 0.007970214, 0.030274749, -0.025426164, 0.11165473, 0.1808967, -0.16121064, -0.12833524, 0.2390452, 0.2546811, 0.10009384, -0.14148591, -0.23299861, -0.22860152, -0.17241094, -0.16986844, -0.049098834, -0.25855708, 0.060501367, 0.23899698, -0.20676489, -0.07915135, 0.12111631, -0.19067311, -0.26823136, 0.044523925, 0.11007962, -0.19734529, 0.17304015, -0.15714103, 0.17602235, 0.25753272, -0.118454605, -0.11585994, 0.055617988, 0.18674687, 0.15094319, 0.1881896, 0.19108024, -0.11480601, -0.2510029, 0.20073032, 0.026265323, -0.10640323, 0.054192126, 0.03930062, 0.03473741, 0.09923291, -0.21609396, -0.19455531, -0.00028020144, -0.0929973, 0.047338694, -0.1181179, 0.12466726, 0.094034284, -0.17777726, -0.22376381, 0.08782491, -0.07805543, -0.25950304, 0.052743524, 0.045843393, 0.21455011, -0.08446494, -0.14814004, 0.007821292, 0.22817105, 0.11670962, -0.1733844, 0.18579161, 0.04962644, 0.18140405, -0.268508, 0.09726676, -0.16191319, 0.049333334, 0.051003665, -0.24946304, 0.14481202, -0.2612662, -0.028449029, -0.24076404, -0.23739375, 0.17269677, -0.076791316, 0.02400121, 0.088788, -0.24955115, -0.15124947, -0.25486746, -0.06816441, 0.0864726, -0.15984198, 0.089050084, 0.15670523, -0.22052974, 4.5746565e-05, -0.23065817, -0.20804119, -0.20330745, 0.032295614, 0.00026008487, -0.057458192, 0.13753238, -0.09349026, 0.0959571, 0.11613515, -0.09410989, -0.16139622, -0.22539844, -0.23161113, 0.21468678, -0.26997197, -0.046556726, -0.03779705, 0.06680024, 0.18717325, 0.24074507, -0.095788255, -0.06086625, 0.026276857, -0.1582875, 0.2410726, 0.1335243, 0.16386136, 0.084999055, 0.082289666, -0.00907582, 0.1016604, 0.2198759, 0.064074695, -0.23705211, -0.07723296, 0.18627906, 0.17551732, 0.19746754, -0.07991853, -0.11830336, 0.08575553, 0.09629375, -0.26645035, -0.20072064, 0.25697118, -0.08623323, 0.03866768, -0.17620987, 0.08864927, -0.15025641, -0.12512264, -0.13974337, 0.03691697, -0.08888662, 0.26061922, -0.1230223, -0.04091233, 0.25160336, 0.11850971, -0.096181095, -0.15277879, 0.12642321, -0.13717803, 0.033048272, 0.10932365, 0.053323567, 0.031259388, -0.06251645, -0.009010583, 0.031116039, -0.10591689, -0.043949217, -0.18733813, -0.24021572, -0.23147838, -0.18745604, 0.20787656, 0.204101, 0.14415747, -0.22455624, 0.21854335, -0.20407775, -0.15814105, -0.059439987, 0.20594332, -0.008934021, 0.08842507, -0.2554514, -0.2495949, -0.13570616, 0.13062182, -0.23561105, 0.037263602, 0.116444916, 0.15125442, -0.2205215, 0.09573439, -0.065665066, 0.0950225, 0.19460106, -0.09648861, 0.26340085, -0.26949105, 0.07931331, -0.058784798, -0.21138877, 0.19255847, 0.13188645, -0.06172441, 0.0092585385, 0.15476078, 0.13779709, 0.15529221, 0.25594473, 0.033771515, -0.2449823, -0.14515722, -0.2455565, 0.2586916, -0.227739, -0.18837883, -0.23191236, 0.14740199, 0.104008615, 0.25229168, -0.21148378, -0.13432498, -0.01277107, 0.030103922, -0.1828995, -0.26528734, 0.02834633, 0.07896194, -0.25941435, 0.2279135, 0.17751688, 0.10479075, 0.20545262, -0.027528912, -0.19831604, -0.214111, -0.057152182, -0.19297844, -0.14786278, -0.14057213, 0.22671193, -0.098621845, 0.23355502, -0.14030421, -0.1310229, -0.16269706, 0.105769664, -0.052940726, -0.1121815, -0.11476961, 0.10236752, -0.14481688, 0.16756946, 0.1576153, 0.019305348, 0.15770441, -0.10196675, -0.066352636, -0.098869264, -0.1533855, 0.16372114, -0.26677078, -0.079919115, -0.15353715, -0.053694025, -0.015507311, 0.02948156, 0.015881151, -0.16111046, -0.11738141, -0.15561225, -0.065989, -0.25398213, -0.22436501, 0.22514448, 0.0073798, -0.050722748, 0.1642518, -0.01661548, -0.13618848, 0.14942902, -0.22269379, 0.20289144, 0.03995487, -0.16763046, 0.03706348, -0.06970884, -0.029385716, -0.21611285, 0.041760445, 0.1115123, 0.11160761, 0.057529896, 0.083453834, -0.13307099, 0.21105587, 0.06988627, -0.11511813, 0.09960088, 0.06644899, -0.16557977, -0.036449373, -0.130683, -0.25779054, -0.060495734, 0.18693405, 0.04396084, 0.2363776, -0.16905855, -0.25317353, 0.15625867, -0.2094737, -0.16982049, -0.08411123, 0.18895668, -0.2258746, 0.1115931, -0.2593879, -0.13121867, -0.10450035, 0.20765361, 0.24817199, -0.17819867, -0.0029079616, 0.10594642, 0.092015, -0.21676245, 0.030412465, 0.24215639, -0.029207066, -0.20679098, 0.043631703, -0.11637347, 0.11492109, 0.0971188, 0.16543339, 0.22407661, -0.2017613, -0.20889269, -0.060272183, 0.033355057, -0.15642703, -0.2315326, -0.05480071, 0.03671568, 0.17285572, -0.15823478, 0.13012365, -0.2271946, 0.080904506, 0.003974142, 0.09740028, 0.011372535, -0.17506035, -0.198971, 0.24507019, -0.25160316, -0.17970625, -0.12292445, -0.15797016, 0.089182116, -0.12585592, 0.1385954, -0.04232247, 0.070339724, -0.10299347, -0.04165852, 0.17927293, 0.067785166, 0.049741726, -0.20068431, 0.26359674, -0.04001253, 0.11704686, 0.2407365, 0.02245008, -0.10599744, -0.21389823, -0.18865256, 0.06651056, 0.123831324, 0.042592682, 0.1334364, -0.007842337, -0.031723354, -0.15942568, -0.13700269, 0.2122278, 0.21739696, -0.033289514, 0.033433046, 0.20473208, 0.22878279, 0.0015826714, -0.25471646, -0.25303257, -0.24254541, 0.2174741, -0.13641326, -0.05408342, -0.03853241, -0.041431706, -0.17970435, 0.03461017, -0.17769024, -0.11778726, -0.0713157, 0.28424504, -0.019640421, 0.05387103, -0.067757994, -0.16318333, 0.2951087, -0.25469938, -0.26445043, 0.026978273, 0.021914523, 0.21187787, 0.11071569, -0.23876639, -0.17404746, -0.011126543, -0.009858432, -0.044867437, -0.014321412, 0.2309691, 0.050683424, -0.11238464, 0.10618503, 0.040406916, 0.04068067, -0.21482727, 0.20585369, -0.2604733, 0.16750553, 0.23740399, 0.022842115, -0.03293364, -0.24151932, -0.053070802, -0.22820376, 0.034013484, -0.12880614, 0.14638183, 0.1883357, -0.1968286, 0.0887208, 0.052282594, -0.06774963, -0.1318892, -0.24230713, 0.18632919, 0.26451486, 0.009228222, 0.19156474, -0.10458077, -0.07874419, -0.082446404, 0.0778141, 0.25037488, -0.15042159, 0.20536056, 0.03314303, -0.118214324, 0.0686218, -0.2722288, 0.116149664, 0.10959885, 0.043787427, -0.103807054, -0.028095659, 0.17605187, -0.047452282, -0.12892237, 0.09008515, 0.2957993, -0.25779724, -0.0070223017, 0.06261725, 0.18151683, 0.070249416, -0.02815164, -0.06258909, -0.17819543, 0.2640429, 0.17534111, -0.07800087, 0.15429802, 0.016318088, 0.19263852, 0.099343345, -0.14605236, 0.26089862, 0.26628423, 0.016604038, -0.010920154, -0.10157053, 0.18817458, 0.22495516, -0.075016186, 0.052795798, 0.022738898, 0.15704167, 0.060109496, -0.23496974, 0.08135065, -0.23134463, -0.00039967612, 0.24027286, -0.15967068, 0.07808052, -0.08305876, 0.06763459, -0.12260247, 0.19937012, 0.09453758, 0.055769052, -0.1483839, -0.06989416, -0.122380935, -0.06542093, 0.16929981, 0.2686587, 0.20036863, -0.0252969, -0.11923847, 0.0044185263, -0.1979365, 0.07596519, 0.04004214, 0.0132680135, 0.24943654, 0.21620159, 0.11083217, 0.1882299, 0.1344118, -0.025551971, 0.047593363, -0.19932544, -0.119259976, -0.05836066, 0.023066856, -0.069247976, -0.21733932, -0.032677326, 0.0045274626, -0.042836316, -0.046068367, -0.16003066, -0.05818782, -0.12109279, -0.07806279, 0.09187385, -0.013524835, 0.056599457, 0.11471491, -0.10364382, -0.14750132, 0.19155774, 0.037970614, 0.24692737, -0.12963605, 0.23385386, 0.044282895, 0.05093026, 0.034887146, -0.118183814, 0.00436127, -0.024696821, -0.16745943, 0.03647275, -0.12131888, -0.17011389, 0.26863572, -0.11345675, 0.025789337, 0.09598802, 0.006021483, 0.0951489, 0.12671632, -0.22525164, 0.0016361927, -0.1303509, -0.075919166, -0.14854722, -0.20734762, 0.115649804, -0.23617387, -0.030713825, 0.099623896, -0.011364987, -0.15582995, -0.20757148, -0.04861467, 0.06195815, -0.091852754, 0.09279127, 0.11339896, -0.10819408, 0.13741152, 0.10845205, 0.1432064, 0.22455437, -0.07696292, 0.10964337, -0.028004935, 0.10604841, 0.19877613, 0.047622323, 0.092325754, -0.15378858, 0.00031148235, -0.06959159, -0.06810777, -0.29643914, 0.039854646, -0.057971645, -0.18283553, -0.037498422, -0.21571799, -0.19078779, -0.13966943, -0.01889763, -0.07445811, -0.03387303, -0.23882513, -0.28184378, 0.0687666, 0.1495822, -0.020311764, 0.07561551, 0.21137342, -0.15115704, -0.2117346, -0.15596212, 0.09351232, -0.17961054, 0.00084688904, -0.17799202, 0.036737926, -0.21365517, -0.058996774, 0.1452139, -0.08832588, -0.15969695, -0.1674425, 0.11727942, 0.16108958, 0.30771047, 0.18415697, -0.09407761, -0.09194432, 0.16221508, -0.040362526, 0.035671253, 0.00032190734, 0.0868077, 0.14036864, 0.0836021, 0.16632111, 0.02189736, 0.04566794, -0.20569636, -0.2400315, -0.08600201, -0.22732903, -0.26941472, -0.13869517, -0.15895845, -0.2586187, 0.25760508, -0.08792732, -0.02157505, 0.072902896, -0.25626493, 0.14478965, 0.18151395, 0.12160413, 0.060070027, 0.013991842, -0.044968817, -0.095457025, 0.07744757, 0.009156062, -0.041690055, 0.041382678, -0.14837, 0.10408746, -0.17248704, -0.023917215, -0.19372183, 0.14244093, -0.23692088, 0.11340536, 0.11281317, -0.068444915, -0.010497534, -0.07216849, 0.1922409, 0.1088734, -0.11275956, 0.091184676, -0.17488284, -0.048581637, -0.11951065, -0.15230767, 0.15435728, 0.020759817, -0.20379123, 0.07803831, -0.0036917904, -0.2809078, 0.22753808, -0.022046588, 0.16168174, -0.030881055, -0.23385091, -0.03277511, -0.18241024, -0.27484155, 0.041639734, -0.24323507, -0.12292787, 0.18110257, 0.14596106, 0.0061204634, 0.22399816, -0.038725823, 0.22274545, 0.14174676, 0.11932932, 0.2564745, -0.1850762, 0.09969815, 0.13816398, -0.04914164, -0.026549192};
const float gru_b[90] = {-0.050480206, 0.030219799, 0.07090462, -0.387106, -0.19807786, 0.13029268, -0.025721649, 0.15537868, -0.041810654, 0.055901393, 0.09522585, 0.108856045, -0.074288145, 0.12792252, -0.0964777, -0.01385208, -0.013218188, 0.019119514, -0.08990237, -0.022439193, -0.00576282, -0.033560473, -0.0147646805, -0.03491426, -0.01214721, -0.010998823, -0.0021958451, -0.03458214, -0.011104723, -0.025851786, 0.050295513, -0.01120199, 0.086801656, -0.0072364095, 0.041552015, -0.031510375, -0.009790414, -0.032144547, 0.026446769, 0.011704058, -0.0494439, 0.031837955, 0.03813368, 0.06945014, -0.07107468, -0.050480176, 0.030219803, 0.070904605, -0.387106, -0.19807786, 0.13029268, -0.025721649, 0.15537868, -0.041810684, 0.0559014, 0.09522583, 0.108856045, -0.07428816, 0.12792253, -0.0964777, -0.01385208, -0.013218188, 0.019119514, -0.08990237, -0.022439193, -0.00576282, -0.033560473, -0.0147646805, -0.03491426, -0.0121472115, -0.010998823, -0.0021958451, -0.03458214, -0.011104723, -0.025851786, 0.05342131, 0.022426385, 0.08748706, 0.0018838046, 0.065389, -0.011279607, -0.021008223, -0.03363831, 0.03567397, -0.014059336, -0.034090422, 0.037241254, 0.026255265, 0.059145458, -0.0628569};
const float gru_Wrec[675] = {0.09831977, 0.039823182, -0.18605658, -0.06706627, -0.08512896, -0.060740415, -0.14493518, 0.28561845, -0.037738353, 0.10060091, -0.17801973, 0.25932488, 0.0675198, -0.18956706, 0.103954464, 0.028890472, -0.14889345, 0.21647829, -0.019959318, -0.2539507, 0.04044846, 0.27216783, -0.09434736, -0.0080417255, 0.112895004, 0.33975375, 0.07775795, 0.14280134, 0.02564195, -0.12186891, 0.11338672, 0.18741523, 0.0833352, 0.15890774, 0.0155030545, -0.12522614, 0.07974268, 0.07907063, -0.11575754, -0.20606594, 0.14046392, -0.13572414, -0.28293595, -0.026531441, -0.035845585, 0.0087303305, -0.014586403, 0.10442836, -0.146404, 0.073902704, 0.27061504, -0.110535, 0.0077585573, -0.12057971, 0.14174317, -0.005853642, 0.04061358, 0.08065049, -0.15365031, 0.012335241, 0.3648226, -0.11342293, -0.06779297, 0.04460178, 0.101958595, 0.061487373, 0.12254558, 0.32282987, 0.017920729, -0.17790292, 0.2223573, -0.039342754, -0.25156423, 0.056868166, 0.36897188, 0.05216884, 0.2049707, -0.12570496, -0.17939977, 0.1430931, -0.05391812, 0.02125656, -0.21395151, 0.050912607, -0.06189026, -0.092633024, -0.17842107, 0.12421481, -0.10905953, 0.041835796, 0.15084496, 0.0018378193, 0.016227163, 0.076875366, -0.070920154, 0.23128885, -0.37722072, -0.10437079, 0.01997983, -0.18014479, -0.046944898, 0.14136237, 0.05051713, -0.1332711, 0.057929978, -0.15474246, -0.021566529, 0.0484605, -0.2620037, 0.15651065, 0.06466204, -0.021230683, -0.3616656, 0.094184354, -0.14245595, -0.020891026, -0.06927764, -0.3043146, 0.13711953, -0.14832471, -0.12515883, -0.15233068, 0.13610926, -0.07197833, 0.110213034, 0.0606943, -0.079264015, -0.0348798, -0.08898486, 0.042065375, 0.003978503, -0.33909312, 0.1024505, 0.1575761, -0.10763252, 0.05462706, -0.11567224, -0.029099464, 0.044234596, 0.047034524, -0.11713941, -0.0658083, 0.22396754, 0.04942366, 0.16113211, 0.12325206, -0.07003205, -0.14059323, -0.096756294, 0.3701685, -0.13513605, 0.106044136, 0.25746778, 0.14894663, 0.12731528, 0.05574234, 0.036482707, 0.2156913, -0.20337093, -0.14292613, 0.07785091, -0.29344437, -0.018015528, 0.28744757, 0.029652841, 0.023062311, -0.33660614, 0.108854935, 0.19307773, 0.15700161, 0.057075813, -0.021625608, -0.14569159, -0.09191547, 0.098550916, -0.13313943, 0.15277293, -0.016354274, 0.023247326, 0.014576424, -0.110580556, 0.062955335, -0.05397407, -0.17178167, -0.051869813, -0.14517963, 0.09260152, 0.07698106, 0.010058124, -0.033906545, 0.25573802, -0.16074173, 0.18708593, -0.005041277, 0.18180081, 0.065475106, -0.2642568, 0.04934233, -0.1236108, 0.016958922, 0.3251211, -0.36018977, -0.008125231, 0.13171381, 0.0072545353, -0.22448097, -0.27541423, -0.046086237, -0.048775826, -0.035430808, 0.12195637, 0.06251757, -0.062792554, -0.1318461, 0.037123516, -0.08836959, -0.020493647, -0.09156785, -0.16992068, 0.027231432, 0.22654021, -0.16456051, -0.30902743, -0.10841008, 0.04638544, 0.030648373, -0.26216224, 0.11074798, 0.28204122, -0.08717551, -0.18632191, -0.13221559, -0.05599786, -0.17957567, -0.10807574, -0.18089181, 0.026304396, 0.2210142, 0.12830979, -0.17357644, 0.18013641, 0.022295794, -0.1723679, 0.016312767, 0.036272913, 0.039124124, 0.09960928, 0.03772829, -0.19858, -0.25679082, -0.06645742, -0.30669963, -0.0074742944, -0.23295753, 0.17957507, 0.15089603, -0.06040964, 0.17450562, 0.16188791, -0.11710876, 0.024420545, -0.07925061, 0.05722206, -0.22880937, -0.1639685, 0.1370091, 0.040068194, -0.106362075, 0.13184889, -0.0020291046, 0.025020257, -0.10352533, 0.1241523, 0.37577668, -0.30460298, -0.14875302, -0.145819, 0.01845823, 0.2577925, 0.22108346, 0.10553721, -0.102886036, 0.0793376, -0.071074724, -0.055951454, -0.049562193, 0.047693286, -0.13503048, 0.21254417, 0.21552283, 0.1262969, 0.058582854, -0.020704972, 0.092190996, 0.18253516, -0.02714971, 0.20058464, -0.1218131, 0.29376042, 0.032746848, -0.024673931, -0.054031994, -0.11892884, -0.12852632, -0.090119615, -0.026308063, 0.102830686, 0.01929411, 0.07643735, -0.29447633, 0.2005516, -0.029743342, -0.059385974, -0.15548496, 0.09628206, 0.4307398, 0.055694677, 0.030577973, 0.084610246, 0.06477602, -0.12833962, 0.15343577, -0.21817003, 0.24567634, 0.048770823, -0.1027471, -0.28446943, -0.025103038, -0.2514888, 0.008902725, 0.1505293, -0.05810174, -0.043088883, -0.20527884, -0.14400569, -0.0573342, 0.07208517, 0.13882498, 0.10106538, -0.1259008, 0.10041327, -0.040845774, 0.017980225, -0.023876505, -0.25919908, 0.18091372, -0.061691627, -0.08638868, 0.030083247, 0.124611095, -0.1487006, -0.093692, 0.00072068535, -0.0759176, 0.057944775, 0.283515, 0.07996499, 0.2842915, 0.00052523706, 0.028805945, -0.122633345, -0.11796496, 0.010489547, -0.057638742, 0.14821827, -0.08528798, -0.26524928, -0.007763777, -0.025842503, -0.1443668, -0.22249863, -0.07241782, -0.13201818, -0.24804808, 0.08511129, 0.09753885, 0.116878435, -0.2922643, -0.06379709, -0.18508472, 0.08661494, -0.1324059, 0.25857243, 0.17700267, -0.0495149, -0.12564333, 0.24762413, -0.01468044, 0.13137929, -0.14829929, 0.23181723, -0.13598453, 0.12941648, -0.06339696, -0.17850393, 0.049311303, 0.25015488, -0.09346263, 0.06025798, 0.07516135, -0.15320478, 0.011956029, -0.2572723, 0.13512212, -0.019421771, 0.19056323, -0.065449, -0.09897104, -0.110338785, 0.014597438, 0.17285164, -0.29037872, 0.062485475, -0.03107705, 0.08748988, -0.07476421, -0.17979318, 0.06261845, 0.13530385, -0.059379634, -0.11172058, -0.25747094, -0.13218865, 0.113235965, -0.31627703, 0.013131099, -0.1464571, -0.08407104, -0.0030468942, 0.2599153, -0.012541238, -0.18657494, 0.14993492, 0.091740906, 0.2591826, 0.18194592, -0.17250982, -0.050768506, 0.056798823, 0.0060192607, 0.32361844, 0.121460915, 0.057712093, 0.118731, 0.042274646, 0.13191886, -0.009836997, 0.23633231, -0.0954352, -0.13627794, 0.29356396, -0.010371953, -0.18717763, -0.0081651695, 0.15847668, -0.16908972, -0.093886174, 0.092787534, -0.03344582, 0.036530152, 0.14155576, 0.1510145, -0.08476857, 0.03178141, 0.035866994, 0.17891721, -0.05257246, -0.17137367, 0.1437497, -0.025429506, -0.1774627, 0.011873852, -0.0638977, 0.05488396, -0.25813317, -0.25516626, 0.037137803, 0.12704796, 0.030112697, 0.15037404, -0.33955243, -0.115934074, -0.053438913, -0.095775075, 0.1796423, -0.20853153, 0.29185906, 0.3236248, -0.046062574, 0.12019047, 0.03573953, -0.1257486, -0.07503279, -0.04289929, 0.090393215, -0.06150022, 0.1881159, -0.2784365, 0.055718277, 0.04089074, -0.2130416, -0.05519963, 0.23979941, 0.08266256, 0.13977285, -0.26120162, -0.05671129, -0.0060863746, 0.15765299, 0.055159193, 0.13106303, 0.11978082, -0.059483983, -0.2770377, 0.20688815, -0.057724405, -0.09248245, 0.045872755, 0.16593128, 0.25382477, -0.072342455, 0.060394455, 0.097448766, -0.020382361, 0.19330661, -0.056473855, 0.024759429, 0.012802316, 0.0559495, 0.078486435, 0.0853537, -0.054353997, -0.16650221, -0.25131404, -0.11259522, -0.081997775, -0.1319819, 0.24738562, 0.2498469, 0.23515078, 0.19795004, -0.13270733, -0.057430618, -0.16901374, -0.0011042776, -0.15501508, -0.05048141, 0.029703798, 0.00052394206, -0.08398646, -0.1516223, -0.07705602, 0.14937156, -0.10967474, -0.086431764, 0.09769653, 0.33185533, 0.096212864, -0.023314018, 0.21563743, -0.23906022, -0.21922335, -0.044252925, 0.049413692, 0.015456181, 0.12913895, -0.099804424, 0.15321891, 0.032942716, 0.066101, -0.11571413, 0.06298262, -0.14587371, -0.11983343, 0.17290504, 0.15378954, -0.17788541, -0.097531736, 0.3475904, -0.058376238, 0.13534398, 0.04824824, -0.31668067, 0.044931345, -0.264238, -0.31692514, -0.06251199, -0.0968598, -0.20761026, 0.043795418, -0.00659197, 0.0018975027, -0.095386796, -3.2690354e-05, 0.05497279, -0.074120104, -0.04595652, 0.022974221, -0.33820745, -0.07455172, 0.17694236, 0.26438585, 0.03265465, 0.23317777, -0.034982756, 0.15079302, -0.05629532, -0.2508458, -0.105408154, 0.05248874, -0.06867005, -0.17126189, 0.121402994, 0.09557779, -0.036259435, 0.16476157, -0.073640116, 0.111643046, -0.1055938, 0.11808055, -0.150259, -0.15952742, 0.34446955, 0.06941523, -0.1397678, -0.045253135, -0.1090955, 0.253999, 0.024774974, 0.20238051, 0.00090849405, -0.17665829, -0.115435876, -0.13755971, -0.027451605, 0.029484704, -0.09562399, -0.0013044514, -0.020269744, -0.1182172, 0.23386492, 0.10905168, 0.28561482, -0.08054513, 0.20194057, -0.112999566, 0.07836448, -0.02042067, -0.08170944, 0.0300455, 0.18503325, 0.15734997, 0.1382236, -0.3177827, 0.059386477, -0.1920434, 0.4187745, 0.06663995, -0.18815918, 0.06538546, 0.064837426, -0.026772272, -0.13297713, 0.011402525, 0.20600118, 0.037022933, -0.017656667, -0.0384, 0.078687675, 0.041247375, 0.2728268, 0.08871585, 0.14943868, 0.26239556, 0.018913412};
const float dense_W[225] = {0.29521695, -0.38318717, -0.39782757, -0.295955, 0.077806465, 0.38092825, 0.04437963, 0.27506915, 0.125174, 0.094568364, -0.44343948, 0.2030638, -0.13654529, -0.236279, -0.3792796, 0.08607023, 0.03152405, 0.20290565, 0.28911284, 0.21844561, 0.36696503, 0.027964123, 0.13573733, -0.12672058, -0.23412597, 0.25023073, 0.18483566, 0.04623272, 0.117672466, -0.5251574, -0.20088057, -0.2585073, -0.03828439, -0.318975, -0.20774889, -0.14167543, 0.021677097, 0.1993365, 0.067694984, -0.35220963, 0.26461235, 0.49378043, 0.06455543, -0.20941842, -0.10232068, -0.12258429, -0.22104, 0.28494784, -0.18773337, -0.32050022, -0.18746963, 0.1517427, -0.18833096, 0.4765389, -0.057412446, -0.746474, 0.6399549, -0.6029032, 0.23165041, 0.063790396, -0.009852069, -0.18721493, -0.4467991, 0.03553347, 0.7095333, 0.13199106, 0.18627046, 0.053737402, 0.208446, -0.09055285, -0.15827273, -0.19212677, 0.067605, 0.035071176, -0.4479212, -0.4149829, -0.3399677, 0.20536973, -0.023001375, -0.067868024, -0.18892252, -0.19068472, 0.26623002, -0.3938416, 0.09071749, -0.08601361, -0.23600446, 0.040920116, 0.31742263, -0.030877648, 0.12769744, 0.040786266, 0.083057806, -0.01623646, -0.22161692, 0.25315136, 0.3209097, -0.0009172781, -0.19052021, 0.27227628, 0.38702708, 0.0035543474, -0.40097404, 0.14884815, -0.17466454, 0.447081, 0.23390013, 0.19194295, 0.27795267, -0.114458285, 0.03198941, -0.20271227, 0.23219183, 0.32500362, -0.11091014, 0.08647374, 0.069371834, -0.32181457, -0.010180119, 0.3011664, 0.37370571, -0.069431484, -0.26171264, -0.2541025, -0.4349902, -0.33083057, 0.2509526, -0.24717675, -0.030250825, -0.20985568, -0.2627293, 0.13968313, 0.13158967, 0.085420005, 0.4006679, 0.0048764152, 0.092469834, -0.43096754, 0.102616735, -0.05952691, -0.19573991, 0.13800214, 0.22136855, 0.120355114, -0.25224844, -0.24262314, -0.19463116, 0.019379966, -0.1216209, 0.186105, -0.031808306, -0.09308383, -0.29760757, 0.17011419, 0.051436856, 0.16070691, -0.035033055, 0.3128268, 0.16604085, -0.30036873, -0.13571095, -0.29102504, 0.22957458, -0.3877534, 0.20852533, -0.19502088, 0.21296449, 0.24596012, -0.33709747, 0.021446804, 0.02208201, -0.12778723, -0.3375692, 0.15484813, 0.015374337, -0.23643978, -0.4523654, 0.072561696, -0.19063799, -0.18904056, -0.15865149, 0.05833822, 0.21763943, -0.28016886, -0.027712695, -0.3285575, -0.07755896, -0.41090915, 0.2888573, 0.45129007, -0.533533, 0.05321752, -0.17195953, 0.10654223, -0.11377195, 0.38319567, -0.34615913, 0.37834096, -0.036509465, 0.115854084, 0.03674741, 0.018361835, 0.18474823, 0.15017839, -0.08385615, -0.1259669, -0.1388994, -0.061336346, -0.09617781, 0.25289202, -0.262152, -0.38108107, -0.34244585, 0.096320145, 0.54551935, -0.28334084, 0.14779575, -0.35067564, 0.39205793, -0.38638845, -0.58661664, -0.26189923, 0.24758399, 0.11476969, 0.23706649};
const float dense_b[15] = {-0.055712778, -0.029295668, -0.058607314, -0.07585725, 0.020515596, -0.06396368, -0.038079035, -0.11284987, -0.022840988, 0.003571297, 0.02509404, 0.0077643967, 0.010078882, -0.037616614, -0.037707623};
const float dense_1_W[45] = {-0.016647, 0.010105266, -2.6441503e-21, 0.003763623, -0.0012861248, -2.9080807e-21, 0.015750661, 0.0065723243, -1.3037569e-21, -0.01826858, -0.03003506, 1.4680956e-18, 0.14307784, 0.09221961, -1.6954216e-21, 0.012341134, -0.044540197, -2.5991024e-18, 0.0008174321, 0.0056328066, -1.3191404e-21, -0.060346816, 0.0061480505, 1.4402195e-19, -0.0011099782, -0.002752166, -1.0904571e-21, -0.0045343507, -0.005444292, -1.5672142e-21, -0.103364095, 0.10113583, 1.4924531e-22, 0.0016140211, -0.06341622, -2.3925858e-22, 0.0055465605, 0.01925732, 2.470022e-21, -0.008817274, 0.0075707766, 3.4647705e-22, -0.019582747, -0.008760334, 9.15585e-22};
const float dense_1_b[3] = {-0.0, 0.0, -0.0};


#ifdef __cplusplus
}
#endif
#endif
