/********************
    parameters.h

    Code generated using nn4mc.

    This file defines the neural network weight parameters for all layers.

*/
#ifndef __NEURAL_NET_PARAMS_H__
#define __NEURAL_NET_PARAMS_H__

#ifdef __cplusplus
extern "C" {
#endif

const float gru_W[1140] = {-0.060847618, -0.12631805, -0.089426644, 0.20958045, -0.05498894, -0.31011614, 0.19560787, 0.23961455, 0.12974282, -0.061231077, -0.036119565, 0.20228505, 0.1962157, 0.17068928, -0.14685635, -0.13438182, -0.093879856, -0.25217533, 0.15749064, 0.24342392, -0.14966951, -0.038660184, -0.053892363, -0.042859904, -0.12679538, 0.016201908, 0.16250008, 0.122315735, 0.06517368, -0.0058643175, -0.05633959, -0.002181394, 0.13845079, -0.23351294, -0.102045804, 0.015162127, -0.004634596, 0.041776698, -0.019818742, -0.05940149, 0.002313895, -0.18558587, -0.123227425, 0.08068795, -0.24353182, -0.20143054, -0.007543797, -0.29305917, -0.1979543, 0.16740623, -0.078514345, -0.13664755, -0.15688542, 0.13845792, -0.18591231, -0.022446465, 0.10369843, -0.089569665, -0.09781051, 0.021618582, 0.07731644, 0.18704627, 0.15469383, -0.08293759, 0.13550887, 0.21027696, 0.29027313, 0.11049467, 0.017580297, -0.13590129, -0.27765, -0.12515868, 0.06824154, 0.2043928, -0.12567468, 0.23253375, 0.28336668, 0.15687932, -0.20654611, -0.07586918, -0.058904096, 0.054488163, 0.11311628, 0.06825764, -0.09586807, 0.018400997, -0.036067046, -0.25418895, 0.20382385, -0.014818776, -0.1389632, 0.11774367, -0.26430959, 0.058504835, 0.040388927, -0.04621278, 0.025450049, 0.19831108, -0.04022676, -0.04168624, -0.24064268, 0.24224676, -0.23499058, 0.012798933, -0.17149986, 0.15750767, -0.14003144, 0.10358911, 0.024075452, 0.12961681, 0.008157511, 0.002537893, 0.09172257, 0.061050177, -0.027283143, 0.040623255, 0.029204153, 0.058417812, -0.040841207, 0.036213946, -0.05792937, -0.108848915, 0.045075238, 0.21926777, -0.23226522, -0.031995885, -0.15671852, -0.21104914, -0.056101557, 0.18850304, 0.19255275, 0.2859861, -0.09136881, 0.2808569, 0.14984888, 0.26457068, 0.0023155166, -0.252345, -0.047936935, -0.120517656, -0.051497165, -0.02015703, -0.072174065, -0.01724181, -0.054961823, 0.04339349, -0.12355674, 0.19040576, 0.037004117, -0.08621687, -0.11472486, 0.10721681, 0.027627535, 0.07314266, 0.21011625, -0.1978666, 0.0075024827, -0.22359098, 0.19439077, 0.03393063, 0.00081645383, -0.0619133, -0.04031047, 0.113253675, -0.061571356, -0.115040384, -0.19983748, 0.089462236, 0.019996993, 0.22625227, 0.025157243, -0.043417834, -0.0069081164, -0.037607078, 0.08783553, 0.029919073, -0.05136149, -0.090971135, -0.032483447, -0.05983378, -0.5054896, -0.16950233, -0.059735384, -0.21163176, -0.32840845, -0.2532179, -0.10965642, -0.13228634, -0.23795216, -0.43510702, -0.107101455, 0.24565928, 0.14529964, 0.26843372, -0.19681206, 0.042251006, -0.24063785, 0.1873884, -0.22362007, -0.2896058, 0.22940828, 0.22402184, 0.027116401, -0.020109806, 0.09573964, -0.26252198, 0.12454807, 0.2717058, 0.21698262, 0.039567113, 0.076761626, 0.18056743, 0.10286561, -0.19659087, 0.058403112, 0.19248278, -0.10152751, -0.27303723, -0.057570275, 0.08119813, 0.01416841, -0.03783924, -0.2545373, -0.28717393, 0.15851921, 0.1907424, 0.031047996, -0.23457839, -0.27853185, -0.09030915, 0.15232323, 0.031540338, 0.1498641, 0.012790453, 0.1451929, -0.11901862, -0.12891208, -0.036409263, -0.10611442, 0.0239638, 0.032669924, -0.035059456, -0.09072312, 0.22378859, 0.088612825, 0.07136345, 0.051692985, -0.14527415, -0.019039651, 0.039234653, 0.16695358, 0.29217246, 0.16623579, 0.10085548, -0.035310995, -0.004426585, -0.26755628, 0.2378624, 0.26808888, -0.23848414, 0.12680121, 0.08427379, 0.17538404, -0.021913467, 0.19800803, 0.06273062, -0.081374705, 0.043136816, 0.13966307, -0.09328172, -0.060495287, -0.21441588, 0.035386153, 0.09218069, -0.12978224, -0.06535204, -0.24016912, -0.010736747, -0.0058146785, 0.17914078, -0.061059084, -0.0075914897, -0.09325146, 0.04618664, 0.0231169, 0.26834297, -0.23790032, -0.15195024, 0.036163297, -0.084346876, 0.008343896, -0.045416463, -0.038349297, -0.16242066, 0.106454246, -0.07579577, 0.010197924, 0.2997252, -0.18477139, -0.010536179, 0.14574729, -0.07864516, 0.18999754, -0.07477955, -0.060736682, 0.051871426, -0.098806515, -0.18798327, 0.02264974, 0.055620722, 0.06864865, 0.2491756, -0.005411422, 0.25795278, -0.17599319, 0.115251094, 0.22869177, 0.27436632, 0.12693773, 0.28222325, 0.015384913, -0.016242541, 0.07045724, -0.04928082, 0.0875105, -0.013709527, 0.04473813, -0.05282137, 0.14080405, -0.12462847, 0.03708345, 0.08593799, -0.15354522, -0.23909001, 0.22026736, -0.04554219, -0.04307544, 0.0006369936, 0.030041797, -0.18698165, -0.06515857, -0.22811164, -0.09510755, -0.008707794, 0.012654186, -0.077516206, 0.14296079, -0.16647257, -0.093115486, -0.20513439, 0.034671113, 0.05411364, -0.029845301, 0.08653548, -0.011670065, 0.08176268, 0.11384458, -0.25093606, 0.06830217, 0.077884875, 0.115930066, -0.16027814, 0.046015307, -0.06667017, -0.20433974, 0.2453567, 0.06693331, 0.21496184, -0.20878972, -0.060429923, 0.049824305, -0.27521196, -0.05106584, -0.08101808, 0.024153223, 0.23218918, 0.13396405, 0.06700858, 0.07808273, 0.055873595, -0.076043144, 0.011626176, 0.09712892, -0.0022784704, -0.11197872, -0.0826158, 0.06359724, 0.13503298, 0.041385427, 0.026525063, 0.009387284, -0.5301193, 0.3751464, -0.032685265, -0.2092398, 0.2980729, -0.009421909, 0.35940942, 0.15787236, -0.15101813, -0.1961246, -0.2788022, 0.15341263, -0.23605967, -0.23131742, 0.13943665, 0.15656723, -0.020157665, -0.2787204, -0.05535004, -0.086029954, 0.082322516, -0.21995512, 0.22197747, 0.23613796, 0.21857645, -0.2659261, 0.028214693, 0.11882878, 0.13080247, 0.26060757, 0.089890994, 0.36352834, -0.11837367, 0.046257813, 0.36628103, 0.14572924, -0.2633036, -0.11955961, -0.230098, 0.04694302, 0.18584265, -0.1652164, -0.14948283, 0.18728276, 0.1371965, 0.026244964, -0.18370728, 0.24169996, -0.19187218, -0.41753632, -1.9948604, 0.43944892, 0.20192719, 1.1332535, 0.81170183, -1.147469, 0.16010031, 1.3814921, 2.1903813, -0.38356882, -0.10732456, -0.28437206, 0.1607506, 0.25993916, 0.254293, -0.20326132, 0.13261826, 0.3575283, -0.35219267, 0.28726855, -0.1727692, -0.078313276, 0.2130568, -0.26290074, 0.12093455, -0.18780088, -0.24841365, 0.03842303, 0.24445324, 2.1719706, -1.0042264, -0.14975591, -1.6733158, -1.6904683, -0.15332624, -0.3787994, -0.05548064, 0.7971674, 0.07742982, 0.24997425, -0.056736305, 0.12878966, -0.28534722, 0.1266484, -0.29092154, 0.27278727, 0.22552949, -0.16267605, -0.26810014, 0.09449515, 0.16114363, -0.12892841, 0.10134977, 0.26516116, -0.2168858, -0.19343638, -0.13437036, -0.2960433, 0.17878625, 0.16978192, 0.10726616, 0.11011025, -0.07220252, -0.09894413, 0.15814647, 0.122000635, -0.008642703, 0.021920055, -0.11266765, -0.22657332, 0.14671847, 0.04915917, 0.23637147, -0.3637103, 0.28265172, -0.04759611, -0.32013854, -0.08149991, -0.1720348, 0.089852296, 0.008994953, 0.11130624, -0.14504157, -0.25034967, 0.12773663, 0.18145148, 0.2016895, 0.27127916, -0.03669326, -0.50243384, -1.5597632, 0.8147773, 0.3743978, 1.0194155, 0.59344405, -1.1126719, 0.4677133, 1.6492542, 1.9142053, 0.03687195, 0.15484472, -0.04078146, 0.2671735, 0.04529015, -0.32603586, -0.044144526, 0.11404134, 0.3633708, 0.051312953, -0.21958226, 0.19693144, -0.17264234, 0.19489104, -0.14368263, -0.12329411, -0.02963151, -0.28415698, -0.038314782, 0.03944309, 1.9040271, -0.39128548, 0.17988569, -1.6553638, -1.5086194, 0.17771932, -0.2887842, -0.31317183, 0.95948327, 0.113672525, -0.04170528, -0.09764817, 0.2904439, 0.048877656, 0.11972636, 0.05568561, 0.25483948, -0.29486525, 0.04616013, 0.28262067, -0.20106421, 0.054638594, -0.06924859, -0.03867203, -0.23878561, -0.22407916, 0.19000944, 0.24190748, -0.07470256, 0.11786541, 0.033526093, -0.1683925, 0.29602093, -0.068364665, -0.1325749, -0.06961897, 0.074147254, -0.08818212, 0.017275065, 0.11700627, -0.110741794, -0.30403, 0.045626175, -0.022556223, -0.09762383, -0.1523047, -0.023649301, 0.21532753, 0.10639223, 0.062449716, 0.2756149, -0.10262275, 0.11158324, 0.19386746, -0.18662544, -0.10080769, 0.062463474, 0.23682626, -0.07332116, 0.2322719, 0.050211325, -0.008399695, 0.30299118, -0.098916225, 0.12302606, -0.03785105, 0.015245833, -0.165237, -0.16440384, 0.034438632, -0.021240288, -0.07983112, -0.08305876, -0.0041243406, -0.026363006, 0.21355255, -0.06882275, 0.18193237, 0.014331938, -0.03906717, 0.021888128, 0.124978125, 0.18209684, 0.12286743, -0.17678218, -0.17935988, 0.23572358, 0.2859035, -0.17920265, -0.16509163, -0.13891025, 0.100336164, -0.15328191, -0.20164612, -0.07681899, 0.09142541, -0.09533961, 0.07681171, 0.010575474, 0.064151704, -0.1666789, -0.074836135, -0.1604794, -0.0494688, 0.16508827, 0.2104429, 0.055737376, 0.20623416, 0.1606566, -0.18119755, -0.23775432, 0.25199002, 0.21770763, 0.1475048, 0.07391745, -0.11264874, -0.1078774, 0.15356013, -0.24431679, 0.28921843, -0.04911767, -0.10874581, 0.013742238, 0.076755226, 0.110449046, -0.27245513, 0.22643846, -0.2031894, 0.13331258, -0.13600108, 0.1470169, -0.15152487, -0.092892796, 0.123599745, 0.13619722, -0.068596, 0.25841293, 0.20997529, 0.35806808, 0.106525704, 0.28356752, 0.28630516, -0.0641873, 0.11148166, -0.15380004, -0.042253233, 0.2893723, -0.12759449, -0.090731256, -0.21929179, -0.027297791, 0.12595282, 0.2146801, -0.14406234, 0.015366697, -0.32672936, -0.1266425, 0.18108402, -0.036778234, 0.11881411, -0.09248807, -0.058565397, 0.099884845, -0.15762721, -0.10425875, 0.065525234, 0.056503285, 0.11420061, -0.07715353, 0.1085409, 0.08574838, 0.12274396, -0.15748577, -0.036609128, 0.2645391, -0.08723345, 0.11107142, -0.1087608, 0.23511955, 0.13750365, -0.13501163, 0.18636659, -0.27440697, -0.16545266, -0.12997365, 0.05544523, -0.13862307, -0.06881034, 0.041239392, 0.18578593, -0.2097346, 0.09544067, 0.11024993, 0.14122474, 0.011757234, 0.2458078, 0.17780852, -0.097459644, -0.26941958, 0.16152385, 0.0046237824, -0.20667814, -0.1931069, 0.10241576, -0.27026275, 0.039576676, -0.21603909, -0.043765202, -0.08548535, -0.05126483, 0.15050541, 0.16733745, -0.008211056, 0.10158767, 0.12126886, 0.09152223, -0.30379847, -0.2314804, 0.11343053, -0.014160073, 0.03092567, 0.042797677, 0.16956119, -0.028647631, 0.016245909, 0.3437889, 0.096056096, 0.109473355, -0.05496453, 0.02588152, -0.22047193, -0.2397203, 0.14619382, 0.26964357, -0.101777956, -0.19012526, -0.2895406, 0.2105167, 0.052916303, -0.25963262, 0.07887186, 0.11945101, -0.19243559, -0.030705528, 0.10109116, 0.021312494, -0.09999668, -0.084177464, 0.055690702, 0.052722093, -0.08418954, 0.0025639061, -0.29173818, 0.2761875, -0.06679264, -0.08599378, -0.0080772005, 0.17369312, -0.1659217, -0.2147825, 0.1666565, -0.07229941, 0.28396612, 0.07813369, 0.1245153, 0.012020673, 0.0028702405, -0.08527804, -0.05848717, 0.1245881, 0.040185876, -0.02797058, -0.20067404, 0.09635837, 0.039400205, -0.12232867, -0.0072262324, 0.2873353, 0.19925587, -0.11655462, 0.06650571, 0.19987352, 0.23757786, 0.030392108, 0.13712378, 0.04613408, 0.21392423, 0.036856443, 0.1298052, 0.11090627, -0.2185985, 0.21479966, -0.22346105, -0.039869327, 0.0661501, 0.0891205, -0.21868318, 0.16770044, -0.21157262, -0.28753462, -0.21829847, -0.009080911, 0.20941715, -0.28122473, -0.08937189, -0.3751455, -0.116125815, 0.10382091, -0.05050204, 0.0045614038, -0.048355673, -0.18686439, 0.17873348, -0.03568003, -0.015890723, 0.027525218, 0.15875725, 0.036907572, -0.07860732, -0.14905687, -0.022843769, 0.24803416, 0.232653, -0.10895972, -0.23854263, -0.2985931, -0.2505254, -0.061119992, 0.17739324, 0.03664597, -0.12786223, -0.03223147, -0.1375052, -0.059506487, -0.14062886, -0.11196593, -0.10876529, -0.07829639, -0.095527984, 0.05704498, -0.032344863, -0.02733538, 0.20647408, -0.016005257, 0.00517702, 0.16707243, 0.1665477, 0.22739936, 0.040049814, -0.009911159, -0.1667704, -0.2701664, 0.16362567, 0.018078964, 0.19234644, 0.06817186, -0.13668363, -0.18791173, 0.22000141, 0.100862764, -0.029753575, -0.03576043, -0.13818847, -0.046611954, -0.022174357, -0.29320082, -0.31452268, -0.11075897, -0.14744669, 0.028367508, -0.020518515, 0.17442164, 0.03877735, 0.08160272, -0.007673226, 0.24658881, -0.068034954, -0.00012289372, -0.0033673414, -0.08865527, 0.12834604, -0.24025144, 0.21789074, -0.14098422, -0.22523536, 0.019836966, 0.20124817, -0.08356048, 0.013350998, 0.060038045, -0.24070749, -0.22470653, -0.09459018, -0.21912414, -0.039883386, 0.09908861, -0.0055080946, 0.10880593, 0.19193996, -0.3747678, 0.13221732, 0.14683984, 0.012280127, 0.058897328, 0.09341462, -0.0045908224, 0.22745466, -0.07463244, 0.09044249, 0.036131665, 0.12145525, 0.15649296, 0.2840054, -0.24796863, -0.059180588, -0.2165026, -0.054341443, -0.084287696, -0.054661818, -0.2029176, 0.0048839073, -0.10421111, 0.14313039, 0.09385681, -0.016438078, -0.009728548, 0.15950431, 0.16432188, 0.042746007, -0.09803077, -0.06279676, -0.2209418, 0.0593627, -0.02312137, -0.0054656044, 0.056332592, 0.15208934, -0.11448697, -0.008778136, -0.12040561, -0.26936522, -0.24333405, 0.14164479, 0.25801203, -0.25451964, -0.28094062, 0.19700809, 0.09444756, 0.26950133, -0.015534042, -0.09606876, -0.21032295, 0.096320845, 0.17928974, -0.19022202, -0.22401012, -0.14013475, -0.043422364, -0.052837748, -0.1275923, 0.024106655, -0.26741365, 0.17412932, 0.026523013, -0.061651137, 0.2645581, -0.11131017, 0.024154244, 0.00686824, 0.08715165, -0.049590115, 0.14192311, -0.05505495, 0.12663525, 0.22378536, -0.15118642, 0.24335895, 0.24725987, 0.16356844, -0.14820336, -0.033424098, 0.09926657, 0.06454292, -0.18793963, 0.09217385, 0.119914256, -0.021589156, 0.04669138, 0.1562728, -0.07353342, -0.16691208, -0.01938289, 0.35250157, -0.12737831, -0.24628064, 0.21906145, 0.08192945, 0.2663335, -0.23028408, -0.09220383, 0.102046765, -0.28848517, -0.20484172, -0.27414355, -0.1801322, -0.23395137, 0.027648536, 0.1698432, 0.042484358, 0.14748281, 0.17465721, -0.14025067, 0.14284177, 0.11020869, 0.20116602, 0.09796405, 0.1990453, -0.114136465, -0.047168583, -0.13562958, -0.09917908, -0.095801055, 0.06262776, 0.01318409, -0.1371897, 0.06400288, -0.03194579, -0.05691506, -0.021555409, -0.14808391, -0.056516383, 0.017459668, -0.034496855, 0.2431604, -0.11689136, 0.2094576, 0.10942015, -0.16436593, 0.16148636, 0.060005195, -0.08821664, 0.07471358, -0.11336726, 0.09866609, -0.20054772, -0.21777353, -0.24758855, 0.012836297, 0.14643861, 0.035747208, -0.14872485, -0.37678567, 0.2305115, 0.11104511, -0.110984094, 0.18628953, -0.05434588, 0.2764744, -0.32115874, -0.42265308, -0.10783505, -0.035000432, 0.20903993, 0.048767842, 0.14753206, -0.1602594, 0.16253504, 0.19949403, 0.081617005, -0.25203645, 0.09367255, -0.0559844, 0.051811047, 0.07743422, 0.03613083, 0.12973425, 0.13175741, 0.23554733, -0.26168895, 0.074277356};
const float gru_b[60] = {-0.29281124, -0.37676704, 0.120964296, -0.06264106, -0.11233488, 0.04455508, 0.043449216, 0.123367816, -0.09909092, -0.2776298, -0.02975382, -0.032195758, -0.005120619, 0.009135121, -0.013102475, 0.020929849, -0.009478025, 0.00030609898, -0.007700362, -0.026749576, -0.021660438, -0.0014657668, -0.0031088674, -0.056143407, -0.0016329909, -0.06737659, 0.02833994, -0.019578736, -0.052288726, 0.009019789, -0.29281124, -0.37676704, 0.120964296, -0.06264106, -0.11233488, 0.04455508, 0.043449216, 0.123367816, -0.09909092, -0.2776298, -0.02975382, -0.032195758, -0.005120619, 0.009135121, -0.013102475, 0.020929849, -0.009478025, 0.00030609898, -0.007700362, -0.026749576, -0.027105395, -0.03161516, 0.004539476, -0.065772295, 0.01862588, -0.071172275, 0.029862633, -0.007217118, -0.03733744, -0.018262895};
const float gru_Wrec[300] = {-0.12548554, 0.22295128, 0.35077873, -0.20220166, -0.15541157, -0.21397527, 0.0095890425, -0.10706728, -0.1456724, 0.06604909, 0.06095269, 0.31349963, 0.17825072, -0.15337202, 0.13311552, -0.16124992, 0.12051153, 0.05735868, 0.17870858, 0.48102033, 0.067484565, -0.19295847, -0.08788348, -0.14198913, 0.054643568, 0.015414878, 0.038704492, -0.03584297, -0.031760775, 0.32358405, 0.033205904, -0.031187557, 0.04698369, 0.0079457415, 0.19104, -0.18880324, 0.16927852, -0.06972145, -0.07187939, -0.18053754, 0.12331582, 0.20620139, -0.051314343, -0.06344591, -0.22460406, -0.19052295, -0.15827985, 0.029751914, -0.07076934, -0.037282705, 0.014269359, 0.109324254, 0.23842695, 0.11330254, 0.17224774, 0.17189696, -0.06631627, -0.088594206, 0.71542186, 0.060287137, 0.15065277, -0.064170934, 0.1713032, -0.26430583, -0.023631228, -0.13244668, 0.1294959, 0.02400345, -0.014273109, -0.14185297, 0.14074878, -0.3152013, -0.027854323, -0.2647978, 0.11794397, 0.25150165, 0.4398382, 0.16157207, -0.11804479, 0.05390022, -0.20744844, -0.038684625, 0.14995643, 0.437563, 0.1912398, 0.00013835402, 0.030833982, -0.100733794, -0.043546204, -0.08088461, -0.2830774, 0.025612285, -0.10840516, -0.20994373, 0.06765169, -0.028425425, 0.042125203, -0.038447343, -0.2115019, 0.15943478, 0.27055082, -0.0038121864, -0.3107136, 0.10288206, 0.040174887, -0.13693863, 0.1844112, -0.20921573, -0.31510726, 0.18390757, -0.028342748, -0.05333749, 0.22439669, -0.24393871, -0.1705539, -0.1955769, -0.25385365, -0.13483863, -0.0029528206, -0.33093026, 0.1144877, 0.048290297, 0.04717533, -0.20664078, 0.12612882, -0.034129675, -0.10159171, 0.04317835, 0.0033709882, 0.3431196, 0.15002386, 0.08947688, 0.4133775, -0.016163211, 0.020640299, 0.19714914, -0.13717137, -0.17840923, 0.0048046242, -0.026288133, 0.071415536, 0.47218212, -0.0125086745, 0.1428938, -0.16870224, 0.108105145, -0.17157082, -0.42174566, -0.06473803, -0.007016467, 0.23781858, 0.051438197, -0.034321316, 0.15187538, 0.2753416, 0.068204515, 0.22804385, -0.13626046, 0.036461644, 0.04230697, -0.035520107, 0.048844233, -0.2197285, 0.19749399, -0.050856717, -0.23495409, -0.085134596, -0.0644829, -0.07956375, 0.35518333, 0.25647864, 0.06013179, -0.077159286, 0.48728752, 0.023001458, -0.29678005, 0.060753267, -0.07076642, -0.21912754, 0.107986756, 0.105507836, 0.23885621, 0.28819263, -0.2318099, -0.043684512, -0.01240948, 0.2909836, -0.17023434, 0.37000185, 0.0015425403, -0.17454422, 0.21921052, -0.2006691, -0.010282045, 0.048195645, 0.29415393, -0.12234792, -0.16634877, -0.061533146, -0.23197827, 0.06900289, -0.23617941, 0.024424069, 0.060612887, -0.2806272, 0.006132921, -0.26263714, 0.14117895, 0.034847725, -0.02642848, -0.10439705, 0.06925035, -0.057323933, -0.41873723, -0.086129166, 0.14670287, 0.04912253, 0.03725603, -0.21014157, -0.14712454, -0.18318467, -0.117586985, -0.013737876, 0.11216878, 0.18332317, -0.4125062, -0.2326535, -0.05138775, -0.14340147, -0.22889993, -0.07454027, -0.15943787, -0.27852696, 0.19443607, 0.13224445, 0.2932412, -0.07821411, -0.21949713, -0.09271677, 0.027413825, -0.18270957, -0.07918914, 0.38126683, -0.016711753, 0.117839605, -0.3263828, -0.40349945, -0.014978562, 0.120360345, -0.36890718, -0.15226959, -0.11144859, 0.026012363, 0.10124268, 0.0474941, -0.18290795, 0.006927753, 0.16479042, -0.062627524, -0.11676142, 0.28378472, 0.2248271, 0.040995985, 0.019640109, -0.05515325, -0.19547664, -0.23802145, 0.038368016, -0.11271306, -0.09187258, 0.15852883, 0.1446315, -0.15200073, -0.22653377, 0.065714285, 0.020598069, -0.27772537, 0.422739, 0.13158087, -0.017082348, 0.18807924, 0.21920821, 0.05076921, 0.38664082, -0.24228664, -0.052707896, 0.17026505, 0.28067464, 0.13376814, 0.013019174, -0.13098834, -0.2657302, -0.024230298, 0.17931142, -0.18758614, -0.054983042, -0.10561988, 0.040144473, 0.08239671, 0.015977923};
const float dense_W[100] = {-0.49385995, 0.08962706, 0.6484316, -0.22603711, 0.3719947, -0.10145305, 0.39733157, 0.12879208, -0.06390677, -0.1611233, 0.28525987, 0.3726758, -0.6365821, 0.1879837, 0.54658604, -0.5115748, 0.25195628, -0.34000227, -0.3008483, -0.557697, 0.14318089, -0.23304543, 0.13860273, -0.09553305, -0.3369214, 0.011575168, -0.5848418, 0.364682, 0.04271951, 0.39539146, -0.32710323, 0.42454624, -0.47799072, 0.31158173, -0.05088269, 0.23224178, 0.17142908, 0.2169015, 0.57150525, -0.089909844, 0.32684168, -0.27879634, -0.42248145, -0.5006212, -0.15689947, 0.3414969, 0.21596481, -0.44672075, 0.24479751, 0.104475945, 0.06599448, -0.5298053, 0.06151347, 0.37103695, -0.084380135, 0.011291148, -0.09542391, 0.5021052, 0.46809566, 0.06722597, 0.5053921, -0.30146587, -0.28647423, 0.21059638, 0.11758652, -0.5439434, -0.345672, 0.02589381, -0.26639754, -0.3160759, -0.3709135, 0.32079357, 0.060740754, 0.23948696, 0.3411096, 0.4313286, -0.23800172, 0.15849976, 0.47135964, -0.41356874, 0.19720659, -0.1790943, 0.42466292, -0.04862577, -0.056721292, 0.5138255, 0.38527876, 0.31007254, -0.28477666, 0.096920475, 0.23220116, -0.68986857, 0.37899685, 0.035320275, -0.3637291, 0.5033209, 0.03361683, 0.5815858, -0.14799038, 0.17219327};
const float dense_b[10] = {0.0030711961, 0.010359474, 0.050806616, -0.014748843, 0.023491798, -0.027729372, -0.13080014, 0.009088644, -0.058390137, -0.035924874};
const float dense_1_W[30] = {-0.00047636282, -0.0035173101, 2.5824356e-06, -0.057240266, 0.00024589497, 8.4924864e-07, 0.0027818147, 0.19124784, -9.5320365e-07, 0.015604053, 0.0009312537, -6.9827497e-06, -0.04162518, 0.04916337, 2.6162254e-06, 0.11886434, -0.07583995, 5.105649e-06, -0.00089004904, 0.0023231497, -8.715812e-06, -0.0018241056, -0.0028451474, 1.4095843e-05, 0.0020391406, -0.003275854, -3.2930873e-06, 0.057378136, -0.026682911, 7.15484e-08};
const float dense_1_b[3] = {-0.0, -0.0, 0.0};


#ifdef __cplusplus
}
#endif
#endif
