/********************
    parameters.h

    Code generated using nn4mc.

    This file defines the neural network weight parameters for all layers.

*/
#ifndef __NEURAL_NET_PARAMS_H__
#define __NEURAL_NET_PARAMS_H__

#ifdef __cplusplus
extern "C" {
#endif

const float dense_W[1800] = {-0.09635743, 0.21905334, -0.06285253, 0.093360476, -0.09777331, -0.08755341, -0.15724234, -0.109594084, 0.27859366, 0.099635184, -0.121682525, 0.07284373, 0.22707964, -0.016670363, -0.17349148, -0.10371747, -0.035313204, -0.14301454, 0.13677798, 0.09644897, -0.13458106, -0.018057808, -0.18515283, 0.046169955, -0.08993499, -0.08533478, 0.038785998, -0.19162759, -0.24259204, -0.13999023, -0.1116939, -0.09446272, -0.061687887, -0.017067768, -0.30510536, -0.058673896, 0.14284772, -0.072455116, -0.21471782, 0.02545388, -0.040943045, -0.1851235, 0.08486168, 0.07950394, -0.29017326, -0.12312009, 0.013361916, -0.15318403, -0.12879658, 0.029675359, -0.049973104, 0.16455801, 0.0943283, -0.0934557, -0.17328486, 0.024229651, 0.15534751, 0.17444426, -0.1791851, 0.19062027, 0.035673138, -0.053900477, 0.028611429, 0.18479271, -0.15580744, 0.025504883, 0.13083045, 0.05142211, -0.11852378, -0.10886153, 0.102962196, 0.10080128, -0.15757336, 0.17382853, -0.20885122, 0.072876856, 0.13954583, 0.09323946, 0.061457474, 0.15778059, -0.08034438, 0.022294104, -0.27501908, -0.27868417, -0.28193414, 0.07699539, 0.16360524, 0.12971967, -0.057469998, 0.06524988, -0.007823512, 0.07997305, 0.05841986, 0.13484885, 0.08753769, -0.074299976, -0.15312538, 0.12284404, 0.12116633, 0.118437216, 0.083494954, -0.14191881, -0.029308505, -0.031688225, -0.098501176, 0.068071924, -0.044919517, 0.04293963, 0.19520429, 0.037651103, 0.057030458, -0.26152351, 0.12934971, 0.21093383, -0.07359817, 0.098047905, 0.0071983575, 0.019971848, -0.028729815, 0.08539806, 0.10075704, -0.029195502, 0.35724023, 0.14087126, 0.027266558, 0.1151696, 0.055964574, 0.17703773, -0.25821394, -0.30169475, -0.17369175, 0.17959791, -0.22911946, -0.14630224, 0.27071062, -0.055132065, 0.030677887, 0.09473329, 0.038301565, -0.2541889, 0.101061404, 0.12347406, -0.016555088, 0.18676098, -0.20812757, -0.11705178, 0.033190142, 0.064192966, 0.1607157, 0.13978782, 0.06914109, 0.13002075, -0.22208212, -0.05843161, 0.09594097, 0.0047084074, -0.06255504, -0.18963055, 0.031813603, -0.15295672, 0.08260375, 0.10391305, -0.071846426, -0.13558602, 0.015022935, 0.08896845, -0.1399458, -0.17808904, 0.05779557, -0.01073317, 0.15848416, 0.0110401055, -0.1064318, -0.07376497, 0.030378813, -0.015690546, -0.047635652, -0.078460716, -0.08297479, -0.25946033, -0.21145447, 0.17209329, -0.21501921, 0.11605037, 0.026630603, -0.044749144, 0.25761178, -0.16616987, -0.11483075, -0.3157916, 0.035420414, 0.107230514, 0.1333614, 0.034018293, -0.05994795, -0.036239184, 0.084166706, -0.03676152, -0.03422228, 0.06273116, -0.043089367, -0.14927393, 0.026449557, -0.06483527, 0.19870295, 0.033578545, -0.02825696, 0.16886097, -0.1227874, -0.1510963, 0.25250977, 0.10274306, -0.2001883, -0.00901727, 0.16717465, -0.036497563, 0.07482715, 0.014285595, -0.010241141, -0.10986457, 0.0825636, -0.029139154, 0.08343095, -0.058241777, 0.1730397, -0.053589046, 0.042919606, 0.1053773, -0.12436384, 0.007361984, 0.03298405, 0.09147158, 0.046663325, -0.02036921, 0.12942652, -0.022370853, 0.014009976, 0.059412774, -0.17913502, -0.14935625, -0.18806246, 0.11844046, 0.15438484, -0.010156912, -0.098748825, 0.002981662, 0.17361298, -0.050286107, 0.06600275, -0.17708223, -0.07595833, -0.109523155, 0.07351233, -0.1290766, -0.13532242, -0.039666094, 0.06569094, 0.12666994, -0.15195036, 0.003670584, -0.053165767, -0.3364883, 0.16516486, -0.19815272, 0.14982101, 0.07163217, -0.19062649, -0.11898211, -0.079307504, 0.12053295, -0.12925678, 0.19277538, -0.16647823, -0.14251198, 0.031307425, 0.036622062, -0.19505621, 0.14184445, -0.06956585, -0.25337988, -0.08620692, -0.09504623, 0.091322094, -0.15673575, 0.35933778, -0.15416904, 0.1459773, 0.041118115, 0.08596666, -0.1921174, -0.0879209, 0.0050316746, -0.061074033, 0.19576621, -0.150747, -0.09775205, 0.050126184, 0.0485347, 0.14618146, 0.12833755, 0.016612144, -0.2118053, 0.08774664, -0.081366204, 0.2258737, 0.11848423, 0.14586127, 0.051772136, -0.1923298, -0.07379759, -0.113691315, 0.09120224, -0.0017147359, 0.027509397, 0.2640573, 0.038362563, -0.014404617, -0.11607295, -0.18449815, -0.18244351, 0.09470358, -0.11648008, 0.16170044, 0.11202683, 0.10556358, 0.17153092, 0.035475615, 0.15762445, 0.29646564, 0.09163506, -0.15385409, 0.16795613, -0.20455647, 0.04480493, 0.05898953, 0.038809534, -0.18713029, 0.23132315, -0.048903894, -0.057539206, -0.052894965, 0.20552199, -0.05775021, 0.08719469, 0.08680383, 0.08187802, 0.040395573, 0.11226932, 0.1606733, -0.04566354, -0.054832973, -0.17090282, -0.14060728, 0.24528587, -0.13487001, -0.050737035, -0.121832386, -0.13675918, -0.23271988, 0.039173294, -0.03907021, -0.03654379, -0.017972682, -0.18870619, 0.10682365, -0.02046996, -0.07947378, 0.061733205, 0.11425083, 0.12194851, -0.13226408, -0.1953643, 0.3921937, 0.025722815, 0.16593844, 0.1604375, -0.16404049, -0.09394453, 0.098878615, -0.11411046, 0.077935696, 0.10458499, -0.0052718683, -0.107411705, 0.095551, -0.008533332, 0.11691195, -0.0612595, 0.23113877, 0.36353758, 0.026805919, -0.048887324, -0.0772283, 0.075238325, -0.13386519, -0.008719694, 0.15336785, -0.16541347, -0.114104025, 0.09991829, 0.016972732, 0.13318756, -0.07044583, 0.012992009, -0.16375516, -0.10454588, -0.008409602, -0.11599204, 0.18885238, 0.048866738, 0.0063382066, -0.023615576, 0.051016953, -0.2691793, -0.14340341, -0.06735589, 0.02397851, 0.0037597963, 0.08928953, -0.029660543, -0.14828497, 0.18692006, 0.35108203, 0.13092393, -0.11448632, -0.15579852, -0.047068276, -0.1498824, 0.12388206, -0.27689832, 0.18010123, -0.24497567, 0.17575926, 0.13505536, 0.1360459, 0.018211368, 0.0008873747, -0.027879765, -0.108676694, 0.27688196, -0.13225174, -0.23745, 0.020586617, 0.033513606, 0.1877304, 0.050624795, -0.096957, -0.037924398, -0.18648276, -0.19097203, -0.0068493006, -0.11621961, 0.16428362, -0.023882287, 0.20894128, 0.021187942, 0.025466038, 0.23294877, -0.01136094, -0.0075760055, -0.02818759, -0.27650973, -0.19594114, 0.12231744, 0.18515639, 0.048378695, 0.015246674, 0.13349462, -0.0084132245, -0.08133234, -0.12881926, 0.16284068, 0.21388502, -0.004363795, 0.0762769, -0.21002667, 0.048768375, 0.08081218, 0.0839224, 0.06292273, -0.08946126, 0.15317717, -0.13606352, 0.26127642, -0.10827842, 0.038922645, 0.23673958, 0.18488, 0.065043174, 0.13260365, 0.011092711, -0.15833996, -0.11874921, 0.1563208, 0.027388165, -0.013045038, -0.014424762, -0.11535788, 0.038014553, -0.1813539, 0.11641944, 0.16019966, 0.1009471, 0.27661142, 0.19184668, 0.08765127, 0.05448421, 0.13428622, -0.15234117, 0.14298095, -0.08001518, -0.1740576, -0.15673399, 0.028854283, 0.057966713, 0.026636094, -0.037842277, 0.16306542, -0.037328847, 0.1517412, -0.059160236, 0.1851743, -0.078858584, 0.013179537, 0.11126583, 0.07444883, -0.12802844, -0.10191822, 0.026365714, -0.051850077, 0.025655113, 0.040051002, 0.16972755, -0.12150643, 0.0817823, 0.03364252, -0.042212963, -0.15710545, 0.024889627, 0.15303162, 0.17540945, -0.15487188, -0.15886301, 0.03330062, 0.12709595, 0.12439436, -0.1580686, 0.016805835, 0.10809888, 0.2638935, 0.07401932, 0.12927428, -0.18195884, -0.025204321, 0.22688325, 0.06755775, -0.11440879, -0.07789454, -0.18208179, -0.06207965, -0.037523422, 0.19041555, -0.13266012, 0.18305883, 0.21522982, -0.033447433, 0.16149928, 0.08772203, 0.07133777, -0.09588429, 0.04386559, -0.23454782, 0.324439, -0.10304969, 0.08765127, -0.11105869, 0.17958558, -0.14613795, 0.078863405, -0.07261638, -0.12977871, 0.1957772, -0.17460497, 0.07684114, 0.13647152, 0.02907336, -0.17037243, 0.066314235, -0.010551597, 0.100926146, 0.104614004, -0.24012314, 0.07935093, 0.19086398, -0.23738521, 0.0012770824, 0.055696703, 0.02243412, 0.03340725, 0.025930258, 1.907767, 0.21873948, 1.6245763, 0.40112832, -0.1982259, 0.3269238, -0.3938841, -0.6494524, 0.019568622, 1.2309325, 0.10898279, 0.20308453, -0.014447888, -1.0484614, 0.015681755, 1.2653885, 1.4730021, -1.1118939, -0.5659411, -1.270294, -1.5956157, 0.12424641, 0.17499633, -0.19838457, 0.15196973, -0.068854086, -0.16348225, 0.70596755, 0.12702198, -0.19338918, 0.02467384, -0.015666647, -0.058679648, 0.08563805, -0.036621913, 0.9103744, 0.16028924, -2.1461287, -0.085487776, -0.047407713, 0.86718416, 0.6821869, 0.040849894, -0.04402581, 0.1799011, -1.1875937, 2.1083493, 0.69300604, 0.19559567, 0.102679096, 0.74322736, 0.60381985, 1.3193604, -0.5245934, 0.14184277, 1.923372, -0.09677702, -1.0455127, 0.080378525, 0.3867865, -0.23362179, -0.019912828, 0.11310227, 0.3439826, 0.06337134, -1.4064219, -2.2433813, 2.4157228, 0.52577597, -0.95577526, 0.3231042, -0.041477345, -0.20041326, 0.13376774, -0.15255715, 0.004383108, 0.3871664, -0.8132784, -0.21108447, -0.075725496, -0.074436046, -0.05090627, 0.14206943, -0.1330559, -0.080735326, -0.22468677, 0.06817845, 0.3112215, -0.22362898, -0.10958377, -1.4022845, -0.45504907, 0.050970875, 0.024729803, -0.28608334, -1.7073551, 0.4160049, 1.6043031, -1.151567, 0.183658, 0.49399287, 1.7251633, -0.70123535, 0.61448497, 0.22137944, 1.1095206, -0.45280695, 0.97661436, -0.12637936, 0.6814202, -0.09664531, 0.03913802, -0.080751725, -0.23595423, -0.25489935, 1.0036813, 0.756089, -0.22358601, -2.0050225, 0.8666026, 0.69465685, -0.03789615, 0.09644553, -0.0086274855, 0.15934023, -0.18444571, -0.031256657, 0.6103598, -0.19940045, 0.17245194, 0.18946795, -0.05607553, 0.061422456, 0.2316968, 0.08142348, -2.2693832, 0.22438519, 0.7640313, -0.004855859, 0.22161455, 0.7895886, -1.146005, -1.1273849, -0.5791626, 0.10829308, 0.8615123, 1.484363, -0.04509902, -3.2045407, 0.086289845, 1.5340865, -0.1443745, 1.493749, 0.15625226, -0.04272743, 0.4607477, -0.49859795, -0.6503431, 0.24922827, 0.7400882, -0.19193706, 0.09390112, -0.10343752, -0.8229073, -0.104875214, 1.1970148, 1.1997619, -0.80371946, -0.68564993, -1.0889065, -1.620514, 0.10630526, -0.10600763, -0.12142699, 0.14525308, 0.14428958, 0.15535755, 0.7652184, 0.09751523, 0.22690575, -0.2302451, -0.1459757, 0.21517017, -0.11273311, 0.3129302, 0.9691855, 0.24001555, -1.6504451, -0.17347926, -0.0012288295, 0.75905573, 0.47064245, 0.001436122, -0.19265938, 0.015406885, -1.2820663, 1.6124052, 0.3667901, 0.10347623, 0.06355977, 0.82023627, 0.43238497, 0.82925665, -0.501428, 0.23368727, 1.8897746, 0.1724208, -0.87542063, -0.23330805, -0.04190578, 0.058394987, 0.05389613, 0.07326553, 0.25361878, 0.14536776, -1.1928278, -2.0739963, 2.1058407, 0.08664619, -0.7737616, 0.24641995, -0.087738395, 0.2629688, -0.224691, 0.27373567, 0.21870352, 0.5689435, -0.8171673, 0.13254064, 0.041193742, -0.19295707, 0.0017228322, -0.21165696, 0.19396096, -0.018767327, -0.28089604, -0.1648263, 0.4666245, -0.24158192, -0.17005889, -1.5045244, -0.2601112, 0.13285692, 0.27824482, 0.009807482, -1.42064, 0.5647572, 1.5292792, -1.1330394, 0.14204521, 0.23939241, 1.5061864, -0.44923377, 0.67417467, -0.14542587, 0.9683977, -0.4582581, 0.7923577, 0.13625576, 0.9763423, 0.080942646, 0.031558838, -0.052488513, 0.22110796, -0.21244873, 0.80299574, 0.63849956, 0.072410785, -1.5372691, 0.80114347, 0.35925445, -0.0461949, 0.057335775, 0.19687383, -0.2114067, -0.054606512, 0.14389597, 0.39011672, -0.11569156, -0.19334953, 0.032766372, -0.04755872, -0.008415095, -0.10966216, -0.25022903, -1.9184853, -0.10774207, 0.5112799, -0.21400444, -0.2364447, 0.74329, -0.7111312, -0.687195, -0.30477497, 0.059446782, 0.79952, 1.10079, -0.44577935, -2.636726, 0.06382909, -0.19893976, -0.10848421, -0.052145533, 0.19867046, 0.12817536, 0.15728173, 0.075116016, 0.059018344, 0.107389726, -0.09960797, -0.10945421, -0.1658101, 0.024007926, -0.08648699, -0.04664296, -0.24152026, 0.06319769, -0.08162983, 0.012562896, -0.063990384, 0.019201832, -0.16719015, 0.0035281044, -0.14904542, 0.084279925, 0.1935638, 0.31408435, -0.070481464, 0.17370208, 0.2571056, -0.004248417, 0.050618086, 0.09356515, -0.05638504, -0.009870211, -0.24937195, 0.22342053, -0.18300109, 0.23786964, -0.028203808, 0.029116662, 0.19336684, 0.10076409, -0.047289737, -0.025415724, -0.03881835, 0.18608777, -0.2137181, 0.13358277, 0.027388949, -0.11376782, 0.123404995, 0.12205284, 0.1691576, 0.0947335, -0.122576036, -0.0070237205, -0.048186567, -0.0015599736, 0.022990638, 0.18772836, 0.10337471, 0.15416762, 0.16526876, -0.027462777, -0.10200492, 0.011820335, -0.32074282, -0.17712508, -0.093365945, 0.0181363, 0.14765297, -0.003855703, 0.19662532, -0.11008837, -0.09504549, -0.039021265, -0.2571321, 0.19780456, -0.20219874, 0.02933466, 0.17353038, 0.26392028, 0.39053017, -0.18171272, -0.017862462, 0.2602574, 0.12990399, -0.05639475, -0.040895026, -0.18522027, 0.23583949, 0.121408746, -0.10463876, -0.12795483, -0.120800436, -6.464108e-05, -0.020120662, -0.0047968086, 0.31745824, -0.06865555, 0.1296019, -0.22953549, 0.11298475, -0.12094514, 0.07823546, 0.30061468, 0.04400153, -0.18307652, -0.09184131, 0.11376249, 0.054526646, 0.21662964, -0.21014072, 0.06446813, 0.1672668, -0.043863144, -0.022677165, -0.106815964, -0.16417558, -0.038434334, 0.18191129, 0.12297756, 0.097882055, 0.023985816, -0.09597582, 0.0045473096, -0.108889714, 0.023761593, -0.028551146, 0.2438401, 0.061581787, 0.22362731, -0.0056331065, -0.12322489, 0.057819046, 0.22092347, -0.20036417, 0.16981462, 0.13222764, -0.18131092, 0.008910928, -0.14801723, -0.19485483, 0.19729626, -0.18697008, -0.27072957, -0.09354361, -0.17914803, 0.055392645, 0.0320468, 0.09096906, -0.10082077, -0.09115808, 0.049772356, -0.057662617, 0.11938877, -0.010439366, -0.16912875, -0.08405081, 0.24099919, -0.083509184, -0.041428085, -0.0015897716, 0.091919534, 0.18108161, 0.11005826, 0.29070222, 0.05233653, -0.21803157, -0.24895799, 0.2508773, 0.1258098, 0.1574156, 0.21514302, 0.15361008, 0.22332892, -0.28408587, 0.14679033, 0.094194666, 0.04459338, 0.04185934, -0.09979001, -0.14823659, 0.18907002, 0.0027533066, 0.01141295, 0.16570625, 0.2237373, 0.23744288, 0.06632993, -0.22319768, -0.021098485, 0.13389778, 0.14673916, 0.060983915, -0.09701768, 0.07589778, -0.08038196, 0.10033432, -0.008906278, -0.11373623, 0.020160172, -0.10085738, 0.09251243, -0.030326437, -0.1433558, -0.138275, 0.05079929, 0.04343149, 0.25838605, 0.09858166, -0.2196971, -0.15597142, -0.033226952, 0.06637055, -0.03359914, 0.0019937337, -0.2159048, -0.08062833, -0.10722966, 0.099053234, 0.032663446, -0.11148768, -0.21976899, 0.0833292, 0.17257829, -0.079069264, -0.2264545, 0.06962675, 0.11376191, 0.03063714, 0.22979227, 0.06540119, 0.18350501, -0.017175136, 0.0736455, 0.23654817, 0.23715295, -0.2363267, -0.04331177, -0.17969316, -0.031854678, -0.055313762, -0.052215073, 0.07761803, 0.06412652, -0.18920162, 0.16839057, 0.20022686, 0.014813405, 0.04347282, 0.09707947, -0.10518827, 0.08777503, 0.16625394, 0.10029618, 0.07966857, 0.1822788, -0.11537837, 0.1861504, -0.040758602, -0.16926536, 0.009415542, 0.2416422, -0.17473847, 0.04806239, -0.11616996, 0.11924155, -0.05234467, 0.078123346, 0.14883506, -0.07130856, 0.10636663, 0.050301496, 0.18879882, -0.14795208, 0.1483433, -0.14881022, -0.026582932, -0.0536005, 0.16755007, 0.19714072, -0.13422847, 0.2598908, 0.04688826, 0.18524736, -0.14517632, 0.15142323, -0.13728376, -0.0038953142, -0.102827035, -0.18284073, 0.26269805, -0.0411556, 0.06744463, -0.13075238, 0.1429023, -0.12622318, -0.13854697, 0.05796901, 0.13542789, -0.2598168, 0.07454375, -0.19187808, 0.10446723, 0.27627525, 0.007280066, 0.17889129, 0.016346835, 0.018357573, 0.2161458, -0.050618485, -0.117714845, 0.23351745, -0.021959793, -0.2475236, -0.007029181, -0.0782635, 0.020104669, -0.1428038, 0.085331075, 0.21977884, -0.121537164, 0.30590132, -0.09795034, -0.025387237, -0.02717887, -0.2246609, 0.14239603, 0.03537311, 0.15839902, 0.22019438, 0.31014043, -0.12687962, 0.2924179, -0.063660316, -0.10811922, 0.23366123, 0.16977198, 0.13225071, -0.12630902, 0.2668764, -0.06629267, 0.19442685, 0.13313138, 0.007317342, 0.06419236, -0.11014817, 0.128367, 0.14396894, -0.095697, 0.16704042, -0.017575603, 0.25612783, -0.1561543, -0.16729066, -0.25359294, 0.024132187, -0.17044032, -0.1175952, -0.21748102, 0.08248306, 0.02274825, 0.2104832, 0.06916058, -0.19157647, -0.14139327, -0.22219408, 0.12485329, 0.05625115, 0.25747734, 0.111196466, -0.012497404, 0.10971532, 0.07665527, 0.07873953, 0.015403606, 0.24142644, 0.16775304, 0.11129821, 0.18154576, 0.15864098, 0.11596169, -0.030103814, -0.020203099, 0.15643941, 0.04498872, 0.20538095, 0.18451442, -0.10326251, -0.01222557, 0.028800376, 0.10719424, 0.22194019, 0.14917189, 0.12328046, -0.082981, 0.08485518, -0.03348237, 0.1368452, -0.121964626, 0.07226813, 0.100957945, -0.020054637, -0.24330075, -0.21607527, 0.09527639, -0.054551255, 0.19215274, 0.04714299, 0.08510387, 0.30699643, 0.08367131, -0.10418053, 0.034999266, 0.048117403, 0.11954322, 0.0724932, -0.013857606, -0.14913803, -0.033035483, 0.21904796, -0.058684867, -0.0060208207, 0.24712892, 0.04213431, 0.0054696132, 0.22096974, 0.3014932, 0.202304, 0.23800065, 0.16475853, 0.25702405, 0.0006092698, -0.087173946, 0.09835296, 0.13014613, 0.032132797, 0.004195892, -0.19602016, 0.115804605, -0.086689554, 0.01491729, 0.054330822, 0.020239115, -0.060257737, 0.10193771, -0.04239093, -0.06993501, -0.039207097, -0.13551944, -0.20398772, 0.14685316, 0.25580627, -0.052615974, 0.26943383, 0.043848395, 0.05257529, -0.13902266, -0.30899206, 0.149492, 0.08082455, 0.32643077, -0.03013872, -0.11483739, 0.10593755, -0.07997856, 0.24405088, -0.05304324, 0.060220644, -0.020997774, 0.014552676, 0.10503915, 0.22577915, -0.040616214, -0.0384081, -0.17098702, 0.16472156, -0.06315952, 0.057460457, 0.02244352, -0.23700136, 0.2286374, 0.33277148, -0.18628041, 0.229903, -0.20352232, -0.10168312, 0.2807408, 0.12837517, -0.0202757, 0.13656978, -0.0011868884, -0.017090406, -0.21030569, 0.07443611, 0.042281143, -0.20315376, 0.0035430684, 0.12097461, 0.07703551, 0.021379314, 0.109892964, -0.054155216, -0.02267553, -0.09494105, 0.11065173, 0.2819444, 0.15076196, 0.03781904, 0.33064893, -0.07887713, -0.11949505, 0.17938162, -0.14678204, -0.21733037, -0.188564, 0.0733791, 0.034832273, -0.07408119, -0.11600827, -0.033802446, 0.033296455, -0.041130085, -0.029963914, -0.13542499, 0.074552566, 0.16721705, 0.056865267, -0.19878289, 0.019259816, -0.11807304, -0.041098945, 0.17045559, 0.13778338, 0.12750623, 0.014534475, 0.2544591, 0.17910048, -0.059704404, 0.18410055, -0.21294725, 0.30619586, -0.05853999, 0.009893186, 0.012868893, -0.1997597, -0.1014663, 0.34924012, -0.20373824, -0.12876494, -0.22706802, 0.25633976, -0.13279256, -0.078799695, 0.24555705, -0.14641808, 0.10492038, -0.08921657, 0.233565, 0.13104789, 0.11090934, -0.18426186, 0.17149733, -0.0020814447, -0.21992204, -0.09537105, -0.111510195, -0.056890097, 0.06903557, 0.1586315, 0.23701648, 0.23719926, 0.012609748, 0.10192371, -0.05822702, 0.09121231, -0.04491409, 0.13684133, 0.039527725, -0.20910223, 0.1136278, -0.072116904, -0.044867534, 0.0804252, 0.11176012, -0.16771114, -0.13404916, -0.17106684, 0.077483505, 0.05856389, -0.11380175, -0.08517751, -0.17482933, -0.112937026, 0.12795064, -0.045418963, -0.12750685, 0.11191241, 0.0018570261, 0.021449693, 0.21141426, -0.05171956, -0.114776485, 0.13830285, -0.1455301, -0.24855748, -0.2603846, 0.12061137, -0.06562206, -0.34095713, 0.0058006216, -0.09033411, -0.07311029, -0.11526515, -0.06944002, -0.2995302, -0.07450747, 0.23285766, -0.1505909, -0.16864087, 0.26700637, 0.1323033, -0.17652938, 0.25818932, 0.09091699, -0.18442176, 0.073584236, 0.0989652, -0.12610978, 0.22144672, -0.1297602, 0.058812648, 0.07470971, -0.15256867, -0.1562771, 0.079291016, 0.14454438, 0.10978671, -0.024526177, -0.064399965, 0.048550773, 0.18048109, -0.26816174, 0.10170766, -0.023882339, -0.17571048, 0.124580935, -0.06152483, -0.04304661, 0.04382768, -0.08684402, 0.049789716, -0.33659932, -0.09546608, -0.046109732, 0.13537627, 0.09725612, 0.27313164, -0.054426953, -0.016781582, 0.028293734, 0.015951801, 0.19501588, -0.24918829, -0.07389696, -0.13006498, 0.0072295032, 0.2042479, -0.13104919, -0.046282087, 0.35231304, 0.24067698, -0.094815046, 0.16091216, 0.21992575, -0.14869672, 0.23940174, -0.09302062, -0.012261841, -0.08365382, 0.15981314, 0.021349665, -0.18319562, 0.0938533, 0.1215325, -0.110556774, 0.063024916, -0.14999558, -0.024024302, -0.17464437, -0.08167991, -0.057036217, -0.09553774, -0.06780949, -0.0012683955, 0.20333181, -0.102738746, 0.24797276, -0.12030116, -0.2158586, 0.04026381, 0.05690943, 0.16530114, 0.12558088, 0.086708285, 0.092951484, 0.1377751, 0.08607749, -0.24580193, 0.2344234, -0.120290294, -0.35652542, -0.093885206, 0.12714124, -0.0012050197, 0.022023702, -0.02747508, -0.09334589, 0.0068808063, -0.1787746, 0.18195555, 0.10561028, 0.053235564, -0.17736861, -0.07992301, 0.056237295, 0.006934522, 0.075361, 0.06454555, 0.12665783, 0.07172165, 0.013775381, -0.16271478, -0.16107354, -0.18966553, 0.115381725, 0.20711988, 0.2360265, -0.03660516, 0.44551605, 0.071785994, -0.08683177, -0.21180236, 0.0617135, 0.06863639, 0.06345437, 0.21999791, 0.070301905, 0.124388404, 0.12121574, -0.03156835, 0.17495623, 0.013039628, -0.11877068, 0.21560952, 0.14069952, -0.23753345, -0.0058111153, 0.030056437, -0.18780045, -0.255072, -0.09426807, -0.021528231, 0.12305413, -0.17360707, -0.004958832, 0.123831846, -0.12743247, 0.024468658, 0.19762719, -0.226553, -0.052519143, -0.0022883567, 0.15306334, -0.1291464, -0.14930458, -0.10835402, 0.22772428, -0.23829556, -0.13461618, -0.11540438, 0.030857468, -0.08169548, 0.06828007, -0.24722442, 0.23264916, 0.11255963, -0.08036253, 0.2800135, -0.06478582, -0.07464851, -0.032462034, -0.08671898, -0.06727328, 0.14565061, -0.054413725, 0.05011624, 0.09142701, 0.07445562, -0.014554394, -0.04784873, 0.13871643, -0.2237195, 0.20443667, 0.15439203, 0.16293061, -0.25335255, -0.11442886, -0.07221471, 0.07709088, 0.088532, 0.057677142, -0.07026452, -0.09001393, -0.02117677, 0.06316972, 0.020388316, 0.04923614, -0.18200663, 0.052639525, 0.008125262, -0.27673966, 0.11451915, -0.024608316, 0.10027381, 0.0008953196, 0.14751714, -0.24188295, 0.029804938, 0.09243408, 0.18696645, 0.1543053, -0.26074147, 0.15944329, -0.2216361, -0.043951984, 0.1768264, 0.041560564, -0.114483796, -0.0089109335, 0.010873282, -0.18399385, -0.18060583, 0.11026415, 0.04961763, -0.15770872, -0.044726886, -0.15633284, -0.06402573, -0.092026845, -0.038726393, 0.07675867, -0.23047598, -0.054029778, 0.19670063, -0.05149061, -0.127538, 0.112358816, 0.19399135, 0.060721934, -0.30276328, -0.06793945, 0.10692946, 0.094492674, 0.049266063, -0.072173014, -0.27836308, -0.2071608, 0.15549584, 0.07022009, 0.18413393, 0.10378033, 0.04911591, 0.0017009417, 0.14069824, -0.27165368, -0.101045035, -0.21368875, -0.099163614, -0.06727444, 0.003142212, -0.21242788, -0.30279636, 0.06806764, 0.023643048, 0.05539462, -0.1992672, -0.13653332, -0.3084124, -0.13938987, 0.06211837, -0.21217106, -0.19932093, 0.15290728, 0.07134095, 0.102993116, 0.11951864, -0.114237905};
const float dense_b[50] = {0.008181234, -0.015001957, 0.031189602, -0.020598963, -0.0023915987, 0.024860984, -0.059885014, -0.025722234, -0.06585116, -0.039570313, -0.007825768, -0.115271755, -0.029856257, -0.05890656, -0.061144903, 0.0013972283, 0.012173809, 0.0017148557, -0.013762767, 0.005261022, -0.028914807, -0.043869372, -0.107855625, -0.031072158, -0.084082305, -0.01606215, -0.026373195, 0.058553748, -0.026442872, -0.06368594, -0.04095356, -0.0032055844, -0.020952811, -0.09077558, -0.124773234, -0.005032963, -0.008259604, -0.017798824, -0.021962991, -0.03471445, 0.011812413, -0.055637185, -0.022040721, -0.087815575, -0.07093938, 0.031134391, -0.018635008, 0.021866376, -0.015592936, -0.08156257};
const float dense_1_W[750] = {-0.26502633, -0.16169474, 0.23035192, 0.018393412, -0.19246472, 0.14579152, -0.23301151, -0.22749376, 0.19491215, -0.2090591, -0.3255348, -0.21892631, -0.1329747, 0.10766669, -0.1230738, 0.047029942, 0.12716605, 0.19415061, -0.028340438, -0.31370282, -0.16163447, -0.08751256, 0.014813719, 0.19709785, 0.161805, 0.19816196, 0.29021353, -0.14916179, 0.10755681, -0.15665746, 0.06635374, -0.2442993, 0.22511512, 0.08828459, -0.32827568, -0.18349797, -0.15312572, -0.17967711, 0.020097831, 0.17472383, -0.14892922, -0.16432363, 0.023655832, -0.08505382, 0.04848364, -0.12570567, -0.0019566996, -0.0024607154, 0.12878181, -0.03514144, -0.28462952, 0.040147383, 0.08801749, 0.115462124, 0.015334032, -0.072715774, 0.22462356, 0.27095637, -0.0020056253, -0.09868394, -0.09685549, -0.05827884, 0.034690738, -0.2992919, -0.060059354, -0.13788518, -0.2926109, 0.2959848, -0.10824745, -0.025107795, -0.094094075, -0.3176798, 0.016632497, -0.21486026, 0.18253058, -0.07875492, 0.08164852, 0.4168419, 0.1329733, -0.28059873, 0.003983065, 0.10165196, -0.29641625, -0.30173257, -0.12977014, 0.27823356, -0.05985018, -0.24148753, -0.0750647, 0.081265725, -0.032512665, -0.00032640135, -0.06866463, -0.022107817, 3.635603e-05, -0.22435465, -0.035102587, -0.03188799, 0.11354924, 0.084934525, -0.1375734, -0.08117871, 0.106588155, -0.04131171, 0.16745597, -0.09222011, 0.2171448, -0.0594323, -0.052759428, -0.2182528, -0.21556841, -0.006822237, -0.009640056, -0.056270115, -0.17289367, -0.19874209, -0.09066557, 0.24605437, 0.21265662, -0.31854334, -0.29847395, 0.0059852335, 0.02034984, -0.22377767, 0.20768265, -0.17406486, -0.12550509, -0.21189031, 0.03253588, 0.018597782, -0.18710303, 0.23584762, -0.05021134, 0.09660056, -0.21515377, -0.27192926, -0.018426195, 0.18945354, -0.068718165, 0.1377292, -0.2550912, 0.20293602, 0.07325432, 0.24395221, -0.28715092, 0.08978193, 0.123289414, -0.11381662, 0.10052821, -0.36476347, 0.043752372, -0.26890054, 0.1737993, -0.27522492, 0.12154636, -0.15567681, 0.05644822, -0.16072927, -0.06036146, -0.14188239, -0.112164915, 0.039562296, 0.2480572, -0.30850765, -0.016292483, 0.070007235, -0.00033592095, -0.059577998, 0.27235487, -0.29464316, -0.09696475, 0.24877715, 0.20609693, 0.10580942, -0.18179303, -0.08409172, 0.12775376, -0.19523077, -0.19030286, 0.22207344, -0.29164374, -0.050566655, 0.010010647, -0.28188848, 0.27405733, 0.1388213, 0.16495177, -0.27740833, -0.13564877, 0.04705572, -0.035308424, -0.26249957, 0.21787798, -0.107073165, 0.21451838, -0.08434601, 0.050153438, -0.011074103, -0.22385219, 0.16814095, 0.18021458, 0.043036655, -0.3073192, -0.06645122, -0.098892845, -0.32774287, 0.11295091, -0.2973761, -0.06363892, 0.0018993516, -0.003849566, -0.24708977, 0.17370352, 0.21823478, 0.017250445, -0.18052162, -0.095327795, -0.3059697, 0.15566878, 0.29006988, 0.046058986, -0.2665328, -0.2141685, -0.058807712, -0.07071929, 0.23390162, -0.01148215, 0.04107678, -0.6290773, -0.22775033, -0.47208557, -0.118583634, 0.05338806, -0.0873116, 0.115040734, 0.22848557, -0.11297753, 0.2552671, 0.32827204, 0.24407089, -0.17808802, -0.10949463, -0.11083398, -0.05907846, -0.20278329, 0.041926097, 0.19191687, 0.11240814, 0.19616196, -0.052646685, 0.00045152262, 0.21260005, -0.25268224, 0.5497724, -0.24465188, -0.2545851, 0.07655893, 0.2279253, -0.18666048, 0.21089906, -0.14194027, -0.19127057, -0.21712588, -0.4499374, -0.23423767, -0.29324877, 0.17469272, -0.28267115, -0.35137776, -0.21852694, -0.09743577, -0.21826153, -0.33274505, 0.20762423, 0.1176287, 0.05987288, -0.1347253, 0.21152556, -0.16197632, -0.2875061, -0.33067635, -0.049375486, -0.12887949, -0.3516478, 0.24809621, -0.2765355, 0.25703454, -0.09687252, 0.13309644, -0.25347137, 0.11037862, -0.13240413, 0.015553487, 0.2566075, -0.12434183, 0.19648908, -0.23864917, -0.039854646, 0.08768557, -0.1789555, -0.049945742, 0.2802143, 0.012903142, -0.18910097, -0.039174557, -0.38656226, -0.024847874, 0.21902055, -0.017069597, -0.104990005, -0.2702182, -0.06523278, 0.015202377, -0.15425968, -0.11993415, 0.044032782, -0.14464627, 0.1591873, -0.039273348, 0.2560806, 0.114860356, -0.028334796, -0.2846594, 0.020154864, -0.19470719, 0.051354975, 0.27744257, 0.22424263, 0.22056329, -0.0630478, -0.26875067, -0.1010081, -0.11606275, -0.043762118, 0.19297664, -0.15763919, -0.17818806, 0.20925453, 0.30925277, 0.19649184, -0.18164952, -0.3963875, 0.16303465, -0.5311152, -0.23993395, -0.07477561, -0.004791302, -0.022365872, 0.24595222, -0.21765855, 0.28722423, 0.14233536, -0.27362907, -0.29505572, 0.06819102, 0.17360488, -0.009749257, -0.14472273, 0.0085338745, -0.16525607, 0.028308362, -0.16461097, -0.039885357, 0.22769773, 0.09089725, 0.25049707, -0.17865847, 0.14840055, -0.1660299, 0.06437573, -0.11185148, -0.09561728, 0.18642956, 0.18045713, -0.13713686, -0.12166269, 0.005510462, 0.004070249, 0.18788366, -0.25151217, -0.2421877, -0.21504606, 0.23368081, 0.23788972, 0.084555276, -0.2754484, -0.3388574, 0.2267983, 0.0075242072, 0.28789875, 0.18195572, 0.09680908, -0.056451093, -0.14418915, -0.28405932, -0.2718869, 0.018885024, 0.25917798, 0.03155148, -0.19115576, -0.18672766, -0.12619668, -0.25431287, -0.1269127, 0.08025484, -0.18183061, 0.00070400245, 0.018269302, -0.077355176, -0.11858109, -0.10488639, -0.16650389, -0.16525733, -0.19091226, 0.13607688, -0.01791763, 0.10135921, 0.19026041, 0.16397443, -0.09056602, -0.059033424, -0.21016961, -0.093051784, -0.052706003, 0.017667683, 0.27960503, -0.034367893, 0.2472898, -0.25853285, 0.25108516, 0.24042928, 0.13109222, 0.18076232, -0.10416475, -0.1429383, -0.23940125, 0.00025330068, -0.11755273, -0.2258348, 0.089019395, 0.09450644, -0.1750633, 0.12189938, 0.1644033, 0.17040147, 0.03766081, -0.67046595, 0.0418849, 0.015583634, 0.17667094, 0.0982033, 0.0147751635, -0.2824173, 0.115284115, 0.20053639, 0.2395404, -0.21019731, 0.26539892, -0.2597674, 0.058825463, 0.2471065, 0.06874985, -0.061310187, 0.0010208446, 0.15369345, 0.19758803, 0.23004061, -0.080499254, -0.15227425, 0.2956205, -0.09468478, -0.12911034, 0.16759911, 0.21276706, 0.13548043, 0.009596139, 0.30217293, 0.057745993, 0.16564572, 0.27846974, -0.022559702, 0.019977143, 0.26462778, 0.27080184, -0.15228641, -0.18484862, -0.10207563, -0.13145497, -0.2633862, 0.106054366, 0.08729206, -0.24074045, 0.20654374, 0.17129877, -0.12006781, -0.0068912804, 0.005073023, -0.006450483, -0.38109037, 0.24210903, 0.19728671, -0.22911042, -0.012680214, 0.23463632, -0.11852577, 0.18363863, 0.25256342, -0.09953435, -0.045535628, -0.03486603, -0.116138294, -0.09485445, 0.105661996, -0.03320936, 0.20307629, -0.07890825, 0.031340204, -0.144147, -0.092100866, -0.24665365, -0.2878275, -0.19691531, 0.13288808, 0.1925278, -0.2640578, -0.08847737, -0.40939623, -0.33106485, 0.10819526, 0.18193707, -0.15727106, -0.13100421, 0.17072266, -0.100986235, -0.10181166, 0.0643745, -0.32323056, -0.21048412, -0.13767415, -0.1999611, -0.117816076, -0.23535705, 0.25276637, 0.1537416, -0.21773383, -0.22681081, -0.2764751, -0.059085935, -0.023910582, 0.2486242, 0.17763574, -0.018449873, 0.23023629, -0.07981419, 0.24845648, 0.059078693, 0.37019378, 0.02272875, -0.07762224, -0.063575074, 0.20791742, -0.1968733, -0.29836914, -0.3403959, 0.17105201, -0.13809104, -0.10905703, -0.27765757, -0.058819234, 0.030850725, 0.20825714, 0.1608315, 0.0072661936, 0.079164624, 0.14014274, 0.21272492, 0.09218773, -0.14510366, -0.04577853, 0.09064253, 0.25297403, 0.25289142, -0.15788238, -0.18905024, -0.1649661, 0.04858753, -0.05865899, -0.3094987, -0.1694578, 0.11893807, -0.2614054, -0.30253357, 0.16280617, 0.18083669, 0.22500864, 0.023413016, 0.12507674, 0.25162357, -0.1622109, -0.10060786, 0.23834288, 0.0018138492, -0.04769554, 0.21177097, -0.3433013, -0.44343033, 0.24151841, -0.0038475923, 0.2564742, 0.19974573, 0.14698629, -0.00531739, 0.00295213, 0.23097415, -0.13796355, 0.18662906, -0.049891632, -0.12013549, -0.29597816, 0.019514823, -0.09866566, 0.13601853, -0.18502043, -0.0011365311, 0.14645651, -0.04473509, 0.2434328, -0.27749872, -0.016771818, 0.1758729, 0.24238229, -0.047501888, -0.040878028, -0.13393779, 0.026669625, -0.21937922, -0.13888705, 0.05816578, 0.07975282, -0.06677733, -0.29284212, -0.33790714, -0.26723492, -0.057074476, -0.21024612, -0.18970913, -0.007104568, -0.0057945414, 0.081578955, -0.014437389, -0.0775566, 0.08002707, 0.03182853, -0.21495141, -0.22102866, 0.2021176, -0.17340878, -0.25875258, -0.003622103, -0.073826656, 0.060458034, 0.23763001, 0.24550658, -0.09633373, -0.013113932, 0.114562064, 0.024112068, 0.2257574, -0.017372033, -0.18513587, -0.08914398, -0.110245176, 0.06835669, -0.19547717, -0.09321532, -0.23073238, 0.32147822, -0.20928611, 0.021890905, 0.048080083, -0.03237373, 0.2407352, 0.023920953, 0.16171576, 0.005575838, -0.20136155, 0.109144926, -0.002683241, 0.20050733, -0.07626246, -0.0751777, -0.046842933, 0.4763674, -0.041749597, -0.18063943, 0.10606969, 0.19595239, 0.08648638, -0.111681744, -0.07254805, -0.097010426, 0.030616172, -0.013406826, 0.3035655, 0.029276062, -0.047484457, -0.064077266, 0.16512454, 0.23061258, -0.27906135, 0.022889137, -0.13624407, -0.30895168, -0.33197582, 0.07001277, 0.13180974, -0.4834359, -0.23911987, -0.08384061, 0.2164902, -0.05574508, -0.4282123, -0.5529534, -0.3665759, -0.04486093, -0.258075, -0.16292173, 0.18718772, 0.06512778, -0.1845687, 0.014604544, 0.19104442, 0.045093745, -0.3381391, -0.27406996, 0.038515925, 0.24086647, 0.28385258, 0.08863115, 0.17979492, -0.29376838, 0.28918266, 0.043656863, -0.013336145, 0.16720164, 0.2312163, -0.22051382, -0.1298778, 0.112753324, 0.05299279};
const float dense_1_b[15] = {0.0, 0.008003801, -0.001017159, -0.14324078, -0.048303165, -0.025126621, -0.045489058, -0.10414685, -0.00021439463, -0.07028627, -0.065600306, 0.0047581084, 0.007169963, -0.028511666, -0.08563179};
const float dense_2_W[45] = {0.054600734, -0.007351494, -0.071918026, -0.091555424, -0.007081334, 0.050846748, 0.041118283, 0.07408914, 0.03716173, -0.015874352, 0.018220238, -0.0138764875, -0.009517796, 0.022641903, -0.036717933, -0.06317459, -0.0069753593, -0.024323314, -0.07189516, 0.0113546075, 0.019487618, 0.026835062, 0.025508754, 0.010394175, -0.0007720841, -0.006118615, -0.003925835, 0.0001597266, 0.03004063, -0.06122802, -0.025008949, -0.0037370624, -0.011213201, -0.007881978, -0.015347476, -0.005040558, -0.0786032, -0.010905378, 0.021300616, 0.047483288, -0.06857317, 0.04112289, -0.058039732, -0.022014266, -0.03154585};
const float dense_2_b[3] = {-0.0, 0.0, 0.0};


#ifdef __cplusplus
}
#endif
#endif
