/********************
    parameters.h

    Code generated using nn4mc.

    This file defines the neural network weight parameters for all layers.

*/
#ifndef __NEURAL_NET_PARAMS_H__
#define __NEURAL_NET_PARAMS_H__

#ifdef __cplusplus
extern "C" {
#endif

const float gru_W[1620] = {-0.03645791, 0.067175485, 0.060069684, 0.05391936, -0.0996386, 0.10428795, 0.12655714, -0.19725661, 0.07011073, 0.13516657, 0.16904703, 0.05867381, -0.10734007, -0.17909087, 0.020753691, 0.12149936, 0.10635708, -0.17863883, -0.09387898, -0.017325645, -0.043197118, 0.22893563, 0.24728814, -0.1541012, 0.16101684, 0.26282054, -0.17195056, -0.109331444, -0.083329976, 0.2082374, -0.011186766, -0.051969204, -0.18270214, 0.062253207, -0.086398356, 0.12638651, -0.10194262, 0.1101847, -0.021985848, 0.1749228, 0.13005431, 0.118684, -0.18036376, 0.006250667, 0.04877066, -0.019249488, 0.13165826, -0.091367885, 0.03492234, -0.14271383, 0.2793483, 0.15050635, 0.06281916, 0.024108369, -0.020847829, 0.08522462, -0.096369624, 0.056825943, 0.07212864, -0.013545595, 0.069536656, 0.047309253, 0.2310306, 0.16622315, 0.16450652, -0.26703522, -0.22449099, 0.15266967, 0.14364481, -0.07214083, -0.02579876, 0.14319018, -0.09255363, 0.19384047, 0.14482872, -0.086096905, -0.0482239, -0.056485474, -0.03217999, 0.04163484, 0.02207343, 0.049939346, -0.095328726, 0.024252623, 0.0025289853, 0.18244784, -0.089944646, 0.05472881, 0.01551854, -0.064495385, 0.18457244, -0.06481913, -0.00022601362, -0.08214242, -0.10932228, -0.008444369, 0.12346034, 0.048904628, -0.07181696, 0.16601753, -0.08600883, -0.234908, 0.052745488, -0.08809395, -0.07019677, -0.19218461, 0.044747915, -0.069840826, 0.026900478, -0.12177794, -0.16523805, 0.08689662, -0.067173734, -0.2378352, -0.1535135, 0.13079739, 0.1485003, 0.16940616, 0.120878726, -0.024112938, -0.20735933, 0.09460033, -0.065663956, 0.004169102, -0.09034969, 0.22242178, 0.12567478, 0.027462969, 0.0062584435, -0.087239824, -0.24459119, -0.12287815, 0.13526735, 0.057337586, 0.0031372763, -0.11994552, 0.09156684, 0.037804496, 0.019482626, 0.11568929, -0.07844987, 0.04877701, -0.011342589, 0.090858266, 0.107049786, -0.005996415, 0.10440154, -0.08884963, -0.053760078, 0.14286548, -0.14516525, -0.14084192, 0.25258076, 0.23975638, 0.22576688, -0.2122534, -0.24409088, 0.16950949, -0.110614, 0.20561014, 0.25785902, 0.24018413, 0.10004484, -0.2673092, 0.11225745, 0.07527556, 0.07829145, -0.12788498, 0.022795843, 0.1335348, -0.057819072, 0.10184501, -0.050403997, -0.0016795446, -0.09371942, 0.037371766, -0.13371481, 0.0629475, 0.03983557, -0.04557526, -0.21268295, 0.02811841, 0.14502327, 0.14388509, 0.0072448975, 0.10764513, -0.1473093, -0.10042098, 0.14898002, 0.09045616, 0.007406557, -0.06716524, 0.124006495, 0.09014103, -0.01850898, -0.2001157, -0.08846055, 0.12608331, -0.09397488, -0.19445153, 0.24597411, -0.11856739, 0.06265708, 0.0057786573, -0.058077477, -0.17148781, 0.020999862, 0.17981862, 0.1006202, 0.08803338, 0.11679936, -0.05439317, -0.20523475, 0.043476015, -0.0075246044, -0.08928833, -0.15309183, 0.17018713, -0.12153823, 0.042179603, -0.022003982, -0.097492546, 0.04367009, -0.16484523, 0.032230176, -0.11054128, -0.2886863, -0.07204766, -0.03350566, -0.0010276382, -0.17582972, -0.25312322, 0.13325775, -0.18003857, -0.029721525, -0.057331115, -0.15239522, -0.063277826, 0.12931396, 0.052596353, -0.23478001, 0.11406496, -0.043755226, -0.09448159, -0.23422207, 0.018985868, 0.001841452, 0.027851705, -0.23456797, 0.2836733, 0.21323316, 0.19997261, -0.12328587, 0.11550131, -0.11648869, 0.086069785, 0.12317271, 0.1701147, -0.03603048, 0.08813103, -0.15070854, -0.22865067, -0.051417768, 0.15986454, -0.1087998, 0.0070031066, 0.013149149, 0.026481947, -0.0067157596, 0.022277845, 0.057948586, -0.05814821, -0.0127159115, -0.04328941, 0.09774831, 0.026591655, -0.22122796, 0.25088075, -0.039796107, -0.10879015, -0.22717276, -0.07023185, 0.06838068, 0.1346091, -0.017304678, 0.21892343, -0.044067334, 0.12906857, -0.18758407, 0.09640057, 0.18552563, -0.11024888, -0.14033289, -0.04512301, -0.014554734, -0.17416899, -0.20185809, -0.013546463, -0.18783991, -0.11669065, 0.00023933256, -0.020101545, 0.122208446, -0.089667045, 0.034830954, -0.08242214, 0.064593956, -0.1067164, 0.01671834, -0.12135382, -0.18643808, -0.14476527, 0.15285456, -0.12700063, -0.020510044, 0.11070172, -0.10214183, 0.059510354, 0.035023995, 0.11527496, -0.20437622, 0.07448904, -0.13467516, 0.008637896, 0.01882754, 0.0460733, -0.010421296, -0.04795845, -0.006949979, 0.0147697, 0.22219989, -0.026427038, 0.0075246617, 0.027193638, 0.01488077, 0.02395668, 0.11771918, -0.2068434, 0.22813386, 0.17327702, -0.19748172, -0.22132033, -0.049915697, -0.16454531, 0.17417303, 0.033023655, 0.14036006, 0.08128336, 0.038487878, -0.13487503, -0.12281305, 0.0066288286, 0.08405644, 0.017318398, -0.04929495, -0.10589384, 0.192785, -0.13567856, -0.031482033, 0.13896891, -0.14766645, 0.06769493, 0.009114775, 0.08083771, 0.08520517, -0.14926931, -0.14402543, 0.085160434, 0.056020778, -0.14210214, -0.21059498, 0.1367045, 0.015512179, 0.10230687, 0.0665495, -0.017716989, 0.15963042, 0.013421894, 0.045791045, -0.15842323, 0.21030544, 0.19755277, 0.23852539, 0.25893983, -0.043984696, 0.18929827, 0.25160688, 0.075969115, 0.20686638, 0.11280289, 0.25576338, -0.066643246, 0.15569822, -0.005057913, 0.053381804, -0.21033189, -0.058965884, -0.0012476605, -0.015802119, 0.036856383, 0.20465776, 0.10110443, -0.10649758, -0.054272678, 0.006056685, 0.14718406, -0.058135044, -0.093519114, 0.03497233, -0.050505128, 0.13150454, -0.2266571, -0.09152362, -0.26640067, -0.09545082, 0.061542492, 0.05939786, -0.009189722, 0.026964864, -0.18579122, -0.26010594, 0.08822955, -0.0020753392, -0.23813272, 0.26428735, 0.0066190003, 0.16530235, -0.1686057, 0.17776565, -0.19192412, 0.15935186, 0.0006957712, 0.21816596, 0.25188503, 0.25638372, -0.03565673, -0.029040724, 0.033670392, -0.0033812704, -0.18226103, 0.025719294, -0.14250591, 0.08553912, 0.053933192, 0.06672286, 0.038438004, 0.11988373, 0.010349957, 0.050361346, -0.004747773, 0.16220608, 0.024332581, -0.11838581, -0.161862, -0.015355789, 0.021269826, 0.018264132, 0.087349765, -0.091821216, -0.09356424, -0.0671295, 0.11252944, -0.18953678, -0.08615427, 0.02109564, -0.2042551, 0.013019237, -0.09233917, -0.1786186, -0.21641202, -0.2086375, 0.053583466, 0.14685574, -0.10120362, -0.22478275, -0.22666577, -0.27508065, 0.076682396, -0.10415992, -0.24120504, -0.13642636, 0.008819972, 0.07826001, -0.05013932, 0.06614226, 0.15289417, 0.09441124, -0.18059964, 0.14695828, 0.004909693, -0.030984247, 0.05170501, -0.02135939, 0.15666121, -0.062206775, -0.032926165, 0.30778623, 0.10992299, 0.03196764, 0.021629227, -0.06952538, 0.11611895, -0.18343411, 0.1700759, 0.05643709, 0.0326374, 0.24687316, 0.10476572, -0.14877072, -0.057593685, 0.005269282, 0.17507249, -0.11509484, -0.07246866, 0.19401944, -0.09669897, 0.032972842, 0.19439448, 0.095183946, -0.15078254, 0.21024098, -0.16002278, 0.22884172, -0.057072073, -0.0753131, -0.036178995, -0.116589785, -0.073728815, 0.035715528, -0.11940442, 0.19161576, 0.18730667, 0.12719141, -0.13649976, 0.09512822, 0.05538751, -0.026659772, 0.056773685, 0.0383667, -0.036887705, 0.03324825, 0.18309568, -0.24714796, 0.11726621, 0.2835705, -0.16015087, -0.3427137, 0.21853755, 0.2437031, -0.05744189, 0.17699637, 0.5631235, 0.015767118, 0.3930017, -0.23676854, -0.14154796, -0.14387314, 0.14788815, 0.22226557, -0.14150456, 0.14157525, -0.23427553, -0.21311232, 0.17705813, 0.10185604, 0.09573203, 0.16687337, -0.06702571, -0.007947284, -0.17243302, 1.3156078, 1.4868894, -0.5864709, -2.1242867, -0.58060795, -0.026959691, 0.21346529, -1.089224, -1.5889587, 2.2700508, -0.5972305, -0.52850115, 1.3930559, 1.9178356, 2.2097654, -0.19183424, -0.15173422, 0.2565626, -0.027591784, -0.16841787, 0.3270337, 0.3502068, 0.31603938, -0.08165227, 0.05229003, 0.0149535, -0.19974345, -0.46229902, 0.004579357, 0.3381462, 0.017953008, 0.04105382, -0.26166877, 0.2571448, -0.055705644, 0.1673846, -0.094035365, -0.26596704, 0.23475176, 0.19949354, -0.16864479, 0.17699923, 0.05015192, -0.25030622, -0.02935012, 0.8203357, 2.2451055, 1.0614809, 1.8328363, -0.23165314, 0.41775995, 0.90360993, -1.2139162, 0.40365174, 2.4483738, -1.1065981, 0.8170289, 2.1138582, -1.8923829, -1.1453238, 0.21465966, 0.2787466, 0.0331093, 0.14278854, 0.015104275, 0.3863872, -0.013779825, -0.17348394, -0.18708631, 0.22014374, -0.034168534, -0.41845092, 0.3165516, 0.052156173, 0.25640213, -0.12336376, -0.27363387, 0.22693513, 0.19444084, 0.22972614, 0.043980356, 0.1739003, -0.010917227, 0.122109115, -0.041938342, -0.012316239, 0.24153407, -0.121214025, 0.15853174, -0.1484394, -0.4618905, 1.9717348, -0.30081236, -2.8989816, 1.5829875, 0.42446324, 0.7106476, 2.0921621, -0.96062136, 0.26666626, -0.3907789, 1.3467811, -0.9823699, -0.8366547, -2.1388621, -0.19166763, 0.10329348, 0.07584645, 0.07878936, -0.076969564, -0.19563499, 0.049508028, 0.072649315, -0.1928784, -0.0062626265, 0.19052409, 0.45290855, -0.017966164, 0.46055463, -0.419193, -0.23396917, -0.00088229345, -0.0940317, -0.17680971, 0.01621228, -0.21532774, 0.12001366, -0.23334263, 0.24105941, 0.076784484, 0.20711605, 0.26290312, -0.21015851, 0.01707122, 0.18893582, 1.4246119, 1.3027108, -0.74441653, -1.9906759, -0.57771975, 0.008614581, 0.2253619, -0.6747079, -1.250217, 1.8055154, -0.7145088, -0.86012036, 1.0119957, 1.6788669, 1.7498145, -0.039342288, -0.08203803, 0.18514982, 0.25341672, -0.14698352, 0.12606966, 0.62500876, -0.06872917, 0.10394497, 0.03528165, 0.1699816, -0.3836574, -0.059520833, 0.08899191, 0.41844845, 0.070598565, -0.2304753, 0.15140955, 0.13655737, -0.12140645, -0.10987801, -0.10132033, -0.13929647, -0.20305847, 0.27132517, -0.038998306, 0.012644721, -0.1730646, -0.1745997, 0.14064878, 0.45115393, 1.8120816, 1.0694729, 1.2288475, -0.36765587, 0.3822263, 1.1875381, -1.0073912, 0.21305482, 2.069918, -1.1477315, 0.97291857, 1.5902424, -1.7414643, -1.00179, 0.19792226, 0.07948257, -0.14504981, -0.24370727, 0.027924482, -0.04087892, 0.10696673, -0.17590179, -0.24651784, 0.028975984, -0.17048927, -0.4824643, 0.19893347, -0.15466687, -0.15944736, 0.09312206, -0.21216123, 0.24804167, 0.22178714, 0.029504405, -0.17989886, 0.24425894, -0.09349968, -0.09385325, 0.034125447, -0.04137381, 0.1240668, 0.2680869, 0.111991145, -0.13894732, -0.20421642, 1.4863576, -0.44547448, -2.1791537, 1.4295372, 0.6111313, 0.1476241, 1.6362934, -0.8672019, 0.62472034, -0.2995939, 1.1014503, -0.8022296, -0.75788784, -1.8907881, -0.21616623, 0.352975, -0.17709668, 0.15470128, 0.12818807, 0.16742608, -0.21355632, -0.103506416, -0.08675145, -0.09027279, -0.0480429, 0.11612799, 0.35596266, 0.19159713, -0.16156523, 0.27107912, 0.2513948, 0.09385119, 0.18879221, -0.24997583, 0.17958716, -0.24744622, -0.17159437, -0.022008197, 0.060729504, -0.1974275, -0.0451328, -0.23017374, -0.087687306, 0.3162997, -0.12886558, 0.049210936, -0.008283048, -0.079367965, 0.055354916, -0.12327255, 0.009588823, -0.0012981754, 0.44090688, 0.06837558, 0.02955213, -0.08797105, 0.03195783, 0.03813188, 0.02944496, -0.18853956, 0.07108649, -0.08689189, 0.20199299, 0.13726597, -0.3394765, 0.109867044, 0.023534833, 0.013409076, 0.21292332, -0.027886191, 0.04487857, -0.051713295, -0.09294843, -0.012725612, -0.043728415, 0.26733464, 0.046667878, -0.12642926, -0.15289871, 0.23483768, -0.14561482, 0.27378792, -0.19370672, -0.2185829, -0.13427822, 0.14133978, 0.23907335, 0.106371835, -0.121259496, 0.22214018, 0.0069125136, -0.16977717, -0.027413221, -0.22606103, -0.16118212, 0.15066865, 0.14834413, 0.36133704, 0.023848956, -0.041115116, -0.078939974, 0.110955514, 0.19836432, -0.100890234, 0.11801737, 0.3551575, -0.10832509, 0.043907512, -0.08456745, -0.02974692, 0.007137339, 0.15951505, 0.13745774, 0.13324906, -0.09502437, 0.02905087, 0.0041463524, 0.25835082, 0.13810211, -0.15995443, -0.043767463, 0.2746956, -0.15845232, -0.0251007, 0.25252837, -0.06431117, -0.13447532, 0.13535449, -0.21521057, 0.088269144, 0.12700605, -0.2102387, -0.097718745, 0.186763, -0.13517421, 0.17326874, -0.050785378, -0.1299104, -0.09891056, 0.17654018, -0.2225692, 0.25787652, -0.18360804, -0.10482664, 0.18984622, -0.21564524, -0.20428628, 0.06792425, 0.17172754, -0.025079006, 0.22885631, 0.21992168, 0.23972437, -0.14020973, 0.025251226, -0.3825574, 0.3447594, -0.037157755, 0.29999715, 0.09658061, -0.014110809, 0.008695647, 0.2703471, 0.3445534, 0.1412882, 0.09968319, 0.02853512, 0.07388688, 0.27220222, -0.2321428, 0.087286875, 0.037424933, 0.17958225, 0.28942603, 0.010534411, 0.10602321, -0.22157009, -0.097849555, 0.23624961, -0.07520395, 0.14080733, 0.22911763, -0.01579152, -0.17127188, -0.036785528, 0.20837632, 0.17474951, 0.06714162, -0.063179165, 0.013959186, -0.14582723, 0.13304932, 0.122798294, -0.0035186345, 0.14525406, 0.26919645, -0.13658725, 0.48160946, -0.07793021, -0.29779416, 0.007996128, 0.14956774, -0.029507516, -0.08647763, -0.2974175, -0.118351996, -0.07392131, 0.2550297, -0.07610764, 0.26481542, 0.18643703, 0.15452532, 0.2430055, -0.15849176, -0.20533927, -0.2442388, 0.18116304, -0.027700631, -0.13123086, 0.2554237, 0.17743738, 0.20474109, 0.06360065, 0.26415598, -0.21558781, 0.015807861, -0.14532684, 0.13412479, -0.1929238, 0.11601978, 0.04415836, -0.19503477, 0.10889027, -0.15912169, 0.14036699, 0.061504368, -0.06764558, 0.075312585, -0.039626244, -0.23566164, 0.033837758, -0.14725627, 0.07318613, -0.2113406, -0.35420424, -0.001777953, 0.2242578, 0.09990994, -0.12593217, 0.12923549, -0.17980422, 0.11664039, -0.10911976, 0.32877362, 0.02886355, 0.108961456, 0.03827658, 0.3231054, -0.0043925294, -0.09572203, -0.13066891, -0.15293528, -0.20065264, 0.14429879, 0.01095181, 0.24854161, -0.18785857, 0.087321416, 0.2507877, 0.09492498, 0.18863216, 0.20603013, -0.03587642, 0.20036322, 0.06196968, 0.1337141, -0.15183304, -0.04918557, 0.05221535, 0.053177733, 0.24997142, -0.21224414, 0.13625418, -0.21356429, -0.27251676, 0.17567292, -0.20611636, 0.16000919, -0.30583543, 0.027392333, -0.21981932, -0.05076718, 0.17480151, 0.04336739, 0.20255612, -0.019587705, -0.084768094, -0.15183523, 0.011267308, -0.008499491, 0.051704302, -0.101361945, -0.15275188, 0.08665067, -0.18199112, 0.071887545, -0.006921314, -0.168397, 0.25946772, -0.13785912, -0.09671443, 0.1411535, -0.0020248936, -0.13733548, 0.009292195, -0.060472883, 0.17659052, -0.025313703, -0.042270496, 0.04984299, 0.019222189, 0.13732472, -0.13782749, -0.049271848, 0.13025536, -0.047890585, 0.18241043, -0.19832319, 0.07840687, -0.11699083, 0.054121144, 0.18781209, 0.023768162, 0.08149393, -0.31191108, 0.09592287, -0.05663073, 0.25872144, 0.3037911, 0.19188099, 0.06342103, 0.177978, -0.023822775, 0.31525913, -0.21895498, -0.097129256, 0.2077061, 0.09101616, 0.068514355, -0.23483776, -0.05681039, -0.023785774, -0.059673015, 0.19913308, 0.24404791, -0.05398721, -0.028043086, -0.13551266, -0.1018022, -0.05466162, -0.24456261, 0.08885829, 0.13675742, 0.08410821, -0.044946227, -0.2554941, 0.25587866, 0.28069708, 0.24672703, -0.053539485, 0.05734204, 0.1979927, -0.18962832, 0.28363115, 0.09371086, 0.20298944, -0.1511063, 0.3305969, -0.1920875, 0.081071325, -0.36654025, 0.31223127, -0.071804486, -0.01657641, 0.009935836, -0.1291229, -0.09696261, -0.026561575, -0.055338334, 0.16184744, 0.32464093, -0.023817329, 0.03271246, 0.0044601904, 0.09966136, 0.20534302, -0.14146745, -0.042497125, 0.08215636, -0.20691381, -0.20676003, -0.21330036, 0.0156769, 0.107810475, -0.3563797, -0.001232184, -0.042427402, -0.04604083, 0.03119981, 0.15416482, -0.029942438, -0.19197734, 0.04105528, 0.0712777, 0.006219619, 0.03417085, -0.11211106, -0.03795286, 0.013814965, 0.16315567, 0.028123572, 0.08472529, 0.1559984, 0.117780305, -0.3136466, -0.36485708, -0.08901648, -0.065176286, 0.05151666, 0.12180599, -0.053453565, 0.16849917, 0.11232022, -0.048514124, 0.25828326, 0.23380055, 0.23989742, -0.12511347, 0.26548907, -0.16899437, 0.26186064, 0.016532825, -0.047098707, 0.16246554, 0.1537006, -0.15190831, -0.085635394, -0.20868316, 0.21739636, 0.10912985, -0.013660997, 0.23154184, -0.054078687, 0.14762409, 0.11553074, 0.086844064, -0.17196028, -0.049264934, -0.06562538, -0.054697603, 0.01850068, -0.083951764, -0.11890137, 0.03554844, -0.01045702, 0.36854893, -0.20684215, 0.13476443, 0.10792452, 0.008245657, -0.25761867, 0.03589217, 0.30977842, -0.012969983, 0.08803054, 0.14684032, 0.17906918, 0.23292802, 0.22975929, 0.11328987, 0.009338157, 0.1650166, 0.074458435, -0.042266607, -0.08771655, 0.1901583, 0.015403626, 0.24834056, 0.08466101, 0.1533548, 0.14799717, 0.0386179, -0.080471985, 0.12675758, -0.024054967, 0.018387573, -0.04999787, 0.05545482, 0.15720487, -0.011862535, -0.207205, -0.10968184, -0.12460872, 0.037429485, -0.12118524, 0.07622511, -0.100104615, 0.15030637, -0.095436804, 0.25061858, 0.25215542, -0.2047368, 0.31694207, 0.11856475, -0.05205423, -0.37886533, 0.24008945, 0.09074681, 0.22875005, -0.0394145, 0.14733133, 0.18121919, -0.017148884, -0.060658447, 0.13078073, -0.16696627, -0.16667546, -0.04254769, 0.115023755, 0.21498041, -0.20478947, 0.1171838, 0.024725523, 0.059617747, 0.25960147, -0.21864466, -0.14547877, -0.14783725, 0.06753854, 0.092268206, 0.03619507, -0.24748181, 0.053623654, 0.019065423, -0.25621444, -0.005882846, -0.16442871, -0.28400537, -0.030909067, 0.14338666, -0.14272499, -0.09066264, -0.05292828, -0.102068104, 0.09954727, 0.07046804, -0.07026903, 0.28369546, 0.0053919656, -0.1494804, -0.14241247, 0.12425523, -0.061688103, 0.18931596, -0.14286584, 0.07276122, -0.11811332, -0.16231675, 0.07049365, 0.008954203, -0.049843337, -0.20282602, 0.23882481, 0.10736274, -0.053327173, -0.0702165, -0.09851151, -0.21084508, 0.1597094, -0.25838515, -0.09125187, 0.095827654, 0.23175646, 0.18885595, -0.004905238, -0.11577878, -0.063787445, -0.057403762, -0.13732585, 0.0698142, -0.15295117, 0.091527246, 0.072162524, 0.041584525, -0.29875496, -0.082117096, 0.13322516, -0.10441836, -0.008062778, 0.10701904, 0.11185124, 0.1141992, -0.12088049, -0.047622893, 0.13975173, -0.02331872, -0.055971548, 0.02492836, 0.08527081, -0.16511391, -0.10611267, -0.02270669, 0.012538421, -0.00078101066, -0.2055525, -0.23964612, 0.00021162833, 0.26301834, -0.00023949255, -0.14740409, -0.047339916, -0.2220196, 0.2223818, -0.18240613, -0.12857892, 0.1809625, 0.16689217, 0.19878684, -0.16253798, -0.10071616, 0.08740808, -0.14277482, 0.028600648, -0.07096394, 0.08252849, 0.0674443, -0.16690327, 0.02968049, 0.021334255, 0.22230668, 0.005203658, -0.15429862, 0.15127547, -0.07712409, -0.00059682527, -0.0038265565, 0.14758532, 0.051262178, 0.13199599, -0.17674524, -0.16832827, 0.13212653, 0.0044458625, 0.035479948, 0.017653823, -0.05057921, -0.08386375, 0.12597173, -0.06045961, -0.2713311, -0.15985952, 0.18199888, 0.17228138, -0.07909433, -0.032129124, 0.081794366, 0.019246267, 0.22132821, -0.015685586, -0.06374017, 0.09406831, -0.12019579, -0.23775111, 0.03905045, 0.1508891, -0.051176056, 0.23654562, -0.00912141, -0.3239981, -0.1778025, 0.22240031, 0.19188651, -0.049480278, -0.04304586, -0.008330353, 0.02819506, 0.13747182, 0.06149825, -0.022355476, 0.08707325, 0.09965002, -0.22401068, -0.17252995, 0.1304467, 0.3837522, 0.040871803, -0.120259084, -0.07797597, -0.017944742, 0.10373737, 0.17338495, -0.09645394, -0.038508546, -0.039590985, 0.055296764, 0.006089466, -0.17938656, -0.2799264, 0.16279176, 0.19285913, -0.21302758, 0.06911192, -0.18901908, 0.068722285, 0.031106664, -0.14012964, 0.046409607, -0.17499457, 0.19419225, 0.05525167, 0.09972143, -0.03576261, 0.012294904, -0.1378789, -0.12483257, -0.1682801, 0.21390787, 0.17956637, -0.057674523, 0.18484856, 0.07143831, 0.15169038, -0.031363986, 0.08159859, -0.14502186, -0.010670232, 0.08620497, -0.012610867, 0.2855074, 0.22045885, 0.1775755, -0.16548043, -0.011917864, 0.06810718, -0.16268195, 0.20623858, -0.2829954, -0.11247945, -0.13657981, -0.029840782, 0.20501363, 0.11572325, -0.027269164, 0.22374535, 0.18289725, -0.09502712, -0.3152168, -0.09813119, 0.15119228, -0.2175238, -0.10790439, -0.1645766, -0.17025857, 0.20580943, -0.124666445, 0.27031, -0.077754855, 0.04916702, 0.028748453, -0.05514128, -0.1924952, 0.08952333, 0.14876315, -0.1743272, 0.08078385, 0.07419499, 0.13572079, 0.08203329, 0.076133005, 0.3960001, 0.103571184, 0.20676714, 0.031427484, -0.08910056, -0.019752568, 0.12516496, -0.41119, -0.12610106, -0.06687424, -0.07323846, 0.04871965, -0.21188112, -0.058874488, 0.029829506, -0.075604714, 0.21198465, 0.06732727, -0.26839048, 0.05622464, 0.14207146, 0.135178, 0.14015459, -0.19248769, 0.10350047, -0.23916651, 0.13119064, 0.0057278527, -0.009900804, 0.18618612, -0.11093955, -0.15986198, 0.20751671, -0.097788244, 0.031409416, -0.069410816, -0.042668425, -0.18490377, 0.15648371, 0.20642412, 0.10180843, 0.13165677, -0.23114246, 0.0049797115, -0.016578972};
const float gru_b[90] = {0.09196015, -0.22030112, 0.055427793, -0.30260825, 0.1343838, 0.18581685, 0.13631004, -0.17834231, -0.1120513, -0.13931486, 0.09959686, 0.103396915, -0.04247945, -0.052550998, -0.16081546, -0.030434644, -0.06270842, -0.020485787, -0.10910188, -0.028795468, -0.008328119, -0.016474329, -0.05324123, -0.03343371, -0.06581121, -0.021057207, -0.02396429, -0.051679805, -0.049875695, -0.078381166, -0.00062975456, -0.0030834833, 0.043570884, 0.012641428, -0.010334562, 0.029859435, 0.023147127, -0.033236183, -0.031074518, 0.020664038, -4.6456844e-06, -0.058815714, -0.045448564, 0.039298605, -0.01585737, 0.09196015, -0.22030114, 0.055427793, -0.30260825, 0.1343838, 0.18581685, 0.13631004, -0.17834231, -0.1120513, -0.13931486, 0.09959686, 0.103396915, -0.042479437, -0.05255096, -0.16081543, -0.030434644, -0.06270842, -0.020485787, -0.10910188, -0.028795468, -0.008328117, -0.016474329, -0.05324123, -0.03343371, -0.06581121, -0.021057207, -0.023964293, -0.051679805, -0.049875695, -0.078381166, -0.027151689, -0.035949938, 0.035333462, 0.0030425861, 0.015326047, 0.03903074, -0.0012731275, -0.026048303, -0.044187814, 0.027843945, 0.012839157, -0.045985468, -0.028624235, 0.03360753, -0.018186204};
const float gru_Wrec[675] = {-0.04316151, 0.30459675, 0.096055016, -0.12634079, 0.109732114, 0.09647382, 0.02626059, -0.041373715, -0.21305217, 0.037522726, 0.24716003, -0.1614131, -0.18066826, -0.11429838, 0.13049254, 0.26061922, 0.14399874, -0.06695174, -0.2063363, 0.014134931, -0.4191366, 0.12605153, 0.06501113, -0.09975798, 0.090397194, 0.014607239, -0.0051009282, 0.07051714, 0.21349326, 0.16126022, 0.054797348, -0.18333174, 0.0017532193, 0.0046737813, -0.11581569, -0.1176206, -0.0680966, 0.07639785, -0.0002952124, -0.12656656, 0.10311309, 0.07864838, -0.22252841, 0.17989191, -0.20986205, -0.11508499, 0.076990336, -0.011629813, 0.056682162, 0.08908591, -0.0141141275, 0.24154204, -0.07077063, -0.038558245, -0.181802, 0.0662638, 0.1882387, 0.28527918, -0.21304995, -0.12362718, 0.07102767, 0.19151618, 0.011391165, 0.054333325, 0.060690004, -0.19687422, 0.32130608, -0.100320294, 0.18658504, 0.08144613, 0.05524839, -0.18561737, -0.16115953, -0.2169365, 0.21423794, 0.058868743, 0.060046993, -0.13241531, -0.13078266, -0.16708243, 0.17672394, 0.07243151, -0.21137385, 0.15652268, 0.18977429, -0.13417827, 0.06026814, -0.0058129393, 0.06216908, 0.23303644, 0.124451734, -0.13240609, 0.028937701, 0.0313464, 0.032355066, 0.13448454, 0.12939806, 0.054954458, -0.12728932, -0.09500992, 0.0077322107, -0.06686452, 0.00863865, -0.015347007, -0.10812257, 0.20654923, -0.0036117844, -0.08660177, -0.21762538, 0.19845352, 0.069219455, 0.013868418, 0.019159198, -0.06743644, -0.056701936, -0.1513515, 0.0021272544, -0.14480305, -0.29107407, -0.12140606, -0.34592053, -0.0071700234, 0.2609034, 0.34497955, -0.16227823, 0.13694334, -0.30240926, 0.18462592, 0.25415352, -0.15478763, -0.100620925, 0.10279177, 0.009525316, -0.04345233, 0.04983642, 0.091238275, 0.022424597, -0.058259815, -0.043013446, 0.16208167, -0.32937202, 0.0010958454, -0.053990055, 0.12398226, -0.0005129352, 0.18935414, 0.28118095, -0.082656555, 0.06107462, -0.055097938, 0.17441446, -0.047422092, -0.2818079, -0.21042123, 0.18706007, -0.0043169223, 0.02793464, -0.08886442, 0.16028708, 0.27229726, 0.09367569, 0.30313963, -0.17853335, 0.091216356, -0.3263294, -0.093552984, -0.1179775, -0.16059788, -0.04697948, 0.19864035, 0.10768558, 0.084370434, -0.025773065, -0.10584766, -0.13905494, -0.03673994, -0.03397061, 0.040456418, 0.06667688, 0.09216351, -0.0809877, -0.11688157, -0.046987742, -0.29446265, -0.16896632, 0.045497198, 0.105993725, 0.060397383, -0.094223574, -0.3022731, 0.100865, -0.07635218, -0.13484037, 0.18649209, 0.023557365, 0.04348833, -0.027917197, 0.15837659, 0.04026451, -0.017681563, -0.062287312, -0.26402703, -0.1424119, -0.038188066, 0.25930357, 0.16109172, -0.35956872, 0.03156409, 0.104287155, -0.08014487, -0.20299073, 0.052955113, -0.077378824, 0.13154113, 0.097592965, 0.15320186, 0.08179155, -0.26024935, -0.11291458, -0.06540726, -0.06419699, 0.13142094, -0.25219592, -0.1616035, 0.08336793, -0.26976946, -0.20847964, -0.019358626, -0.3772005, 0.19113225, -0.20451577, 0.096089385, 0.0293209, 0.06902591, -0.0061176885, -0.21119708, 0.03873742, 0.019844383, -0.10757828, 0.17746007, 0.062792785, 0.16300373, 0.09986613, -0.22435594, 0.070931464, -0.17171162, -0.2440552, 0.020558694, 0.19796659, -0.14210187, 0.04648197, 0.016053574, -0.06773549, -0.12500483, 0.13644272, -0.03991865, 0.06758113, 0.035676807, 0.006738589, 0.21714069, -0.1225225, 0.04893075, 0.2059185, 0.1173346, 0.14234401, 0.2939815, 0.07558283, 0.13477868, -0.110169485, -0.037746347, -0.15716423, 0.08067706, -0.3030927, 0.108319804, -0.18824276, -5.7638623e-05, 0.07653675, -0.3006925, -0.067543305, -0.07432486, 0.20684773, -0.08561149, 0.2255415, 0.059501622, 0.035047017, -0.008044798, -0.17553101, 0.030172084, -0.10684424, 0.15642184, -0.085902676, -0.32689708, 0.2422734, -0.11108104, 0.11371052, 0.10892544, 0.09803042, 0.23139383, -0.041864302, -0.16084935, 0.05785905, 0.18372138, -0.15282658, -0.10657592, -0.12443979, -0.083471715, -0.16455966, 0.007526303, 0.22349234, 0.071150266, 0.097209655, 0.020294758, 0.1691591, 0.15186183, 0.10568948, -0.11762199, -0.21720482, 0.0131002255, 0.06602421, 0.3262862, 0.17492506, -0.16051202, -0.19434935, 0.054007825, 0.08249903, 0.15406159, -0.032727234, -0.0069893543, 0.0644448, -0.15855141, 0.32919824, 0.024413459, 0.25245392, 0.16050212, -0.00022468972, -0.019006755, -0.12371911, 0.03901521, 0.13145374, 0.016062813, -0.25142926, -0.003709657, 0.059094824, 0.13018729, -0.13044752, 0.07192889, -0.26927269, 0.0626234, 0.008532275, -0.1515342, -0.23131233, 0.14319474, -0.009843601, -0.04766461, 0.068931915, -0.09862769, 0.15693001, 0.07945113, -0.1625629, 0.2885298, -0.26349872, 0.12890472, 0.2393708, 0.28293598, 0.043777242, 0.102755964, 0.005715422, -0.107186936, 0.30097142, -0.16466998, -0.1731032, 0.12615317, -0.1642874, -0.04988257, 0.004568644, -0.18811026, -0.25567806, 0.022707198, -0.15650582, 0.1060123, -0.02859541, -0.19335283, -0.13330533, 0.09648318, -0.034129843, -0.08916898, 0.048428133, 0.00837912, 0.19229126, 0.12764111, 0.00293912, -0.143749, 0.14781633, 0.15497245, 0.074716985, 0.12838867, -0.02003895, -0.22318076, 0.18661535, 0.03011112, 0.0110052135, 0.21896617, -0.05057836, 0.25728998, -0.03266006, 0.08721875, -0.11362109, -0.016428221, -0.047776166, -0.020347204, 0.11619142, -0.053223472, -0.2728989, -0.075874895, 0.16961849, 0.03728213, -0.041239932, 0.13134249, -0.15188208, -0.10603271, -0.083155245, -0.18448596, -0.09728399, 0.16913512, -0.027669925, -0.30358043, -0.06722896, -0.24831021, 0.12447322, -0.068096265, -0.28728712, 0.074662045, 0.06532529, -0.03561341, -0.09333742, -0.15370104, 0.08927414, -0.024433112, -0.16342303, 0.20186417, 0.1170172, 0.1402474, -0.008030783, 0.3080404, -0.13397257, 0.07081303, -0.1889141, -0.31218684, -0.1564818, -0.1653969, 0.052915417, 0.0841462, -0.21397285, -0.15284464, -0.042033408, -0.06670566, -0.16472356, 0.035235994, 0.24011745, -0.099348836, 0.025557492, -0.0021576565, -0.041979093, -0.056525268, -0.049436357, 0.039820623, 0.038336013, 0.3982948, 0.12788732, -0.11121957, -0.2403096, 0.24283159, 0.14719234, -0.04421716, -0.15763801, 0.0640916, 0.33382732, 0.076623164, -0.059560325, -0.0644291, -0.011175998, 0.016675148, -0.06475167, 0.41975284, 0.004211674, 0.14777634, 0.038348332, -0.25595406, 0.10993782, -0.15092576, 0.07059735, -0.061491266, 0.10655471, -0.011659278, -0.03640835, -0.106074065, -0.3479769, 0.1514812, -0.038171425, -0.06257894, 0.07514628, 0.020126062, 0.15365206, -0.003044799, 0.06764158, 0.20342681, -0.03853404, -0.12881906, -0.13106623, -0.021371126, -0.120071895, -0.1156102, -0.027297586, 0.121772796, 0.21961936, -0.23577392, 0.08290535, 0.15101257, -0.13497904, -0.060567074, -0.038249157, 0.15709017, 0.06641454, -0.19870369, 0.002186183, -0.2224993, 0.029854199, 0.1352524, -0.104433894, 0.107280485, -0.03403972, -0.0417763, -0.13837388, -0.36339483, 0.22098716, 0.06352937, -0.083598554, -0.06807929, 0.33351332, 0.19564143, -0.22668733, 0.014618482, -0.028444579, 0.052335717, -0.007240234, -0.1914021, -0.06305084, -0.30731437, 0.11881359, -0.16261685, -0.17986442, 0.07287968, -0.092995316, 0.011867506, 0.10391782, 0.29121983, 0.11286691, -0.16518207, 0.36495262, 0.14570627, 0.122212134, 0.19188315, -0.052237842, -0.07500954, -0.09958509, -0.075738855, -0.025889616, 0.124021746, -0.053966217, -0.028617527, 0.020094002, 0.29812217, -0.00041961638, 0.011146071, 0.093549214, -0.14826418, -0.27851355, 0.005798788, -0.14584309, -0.15794654, 0.050857693, 0.18298556, -0.23677827, 0.0038747974, -0.032026466, -0.14694035, -0.016493116, -0.08423782, -0.21052043, 0.112747476, 0.4156602, -0.15756269, -0.17479503, -0.12535924, 0.24488866, -0.16651699, 0.093873486, -0.11985596, 0.088614985, 0.17833899, -0.12209147, 0.13485527, -0.09220661, 0.047870256, 0.12937841, -0.06412384, 0.07048337, 0.02923584, -0.14253241, -0.13497101, 0.28656855, -0.01183688, -0.17546856, 0.018185748, -0.27022675, 0.17976028, 0.024237832, 0.0989793, -0.11417774, 0.042854253, 0.3134293, 0.0047243442, -0.031737357, 0.07011295, -0.050567165, -0.14540595, 0.1436114, 0.099230334, 0.044830292, 0.078596786, 0.08286255, -0.07558075, 0.00017260946, 0.03907247, -0.1962413, -0.1515321, -0.16881958, 0.1662682, 0.07179399, 0.077492125, 0.00808589, 0.17057371, -0.19066884, -0.09779906, -0.14211614, -0.16795412, 0.23635054, -0.10926725, -0.16528158, 0.20527434, -0.2712054, -0.18534501, -0.041449476, 0.06242217, -0.14293608, 0.0038628583, -0.08165038, 0.036804587, -0.023104306, -0.10013147, 0.23642208, 0.03996615, 0.03484692, -0.037503745, -0.19433627, -0.28807577, -0.23404355, -0.26741314, 0.0760218, -0.05594097, -0.22421882, -0.041895553, -0.07917459, -0.26301742, 0.017021917};
const float dense_W[225] = {0.16896114, 0.005840776, -0.27115998, 0.24302274, 0.14616595, 0.2500297, -0.4094524, -0.20025654, 0.4073749, -0.019743036, 0.11222089, 0.17270714, -0.002846576, 0.30304325, -0.08107891, 0.32865766, 0.123647876, 0.09033927, 0.11249479, 0.39742267, -0.3681599, 0.17092475, -0.03316053, 0.091843225, -0.07902895, 0.29974556, -0.050389446, -0.41193485, 0.53424126, 0.17813294, -0.051839393, -0.16182192, 0.030395838, 0.25046512, -0.045032874, -0.24425997, -0.055834763, -0.17669107, 0.053712435, 0.12132583, -0.31031558, -0.058676634, 0.036115255, -0.062205195, -0.16535357, 0.09953783, -0.6951383, -0.20545946, -0.48108238, 0.26886255, -0.27023578, 0.11909307, -0.12713434, 0.4705256, 0.15404198, 0.15169759, 0.29508013, 0.33031562, -0.5366948, -0.13059202, -0.2818071, 0.13867582, 0.2742297, -0.029446539, -0.3177243, 0.13018197, -0.17937453, 0.27204433, 0.049351614, 0.050652124, -0.544846, 0.15556239, -0.062421814, 0.14252017, -0.28319615, 0.3903127, -0.023541892, 0.11301638, -0.2299349, -0.008572165, -0.2811348, 0.18509334, 0.32858175, -0.29269704, -0.22454476, 0.37893003, -0.11437584, 0.3054392, -0.02207871, -0.3148032, 0.4440864, -0.14844495, 0.1341042, -0.30272987, 0.41332233, -0.1542708, -0.098346666, 0.08654656, 0.13355008, 0.027778521, -0.30061898, -0.31873274, 0.36905017, 0.33174324, -0.32373285, 0.096317686, 0.32233784, 0.41075638, 0.27305815, -0.23204812, -0.096399985, 0.005275669, 0.12276175, -0.20867068, -0.28362927, -0.0368731, 0.39828965, 0.297995, -0.08169398, -0.10857863, 0.30622062, -0.17062004, 0.071705535, -0.15978216, 0.13638854, -0.043672152, -0.13502482, 0.40314552, 0.1149374, -0.069340274, -0.56329197, 0.19627771, 0.11900866, -0.19170222, -0.23418191, 0.19364251, -0.033155266, -0.33182684, -0.24506356, 0.321731, -0.557212, -0.16706097, 0.06486226, 0.21190734, -0.22539788, 0.330699, -0.056267213, 0.45720455, 0.5328833, -0.4921776, 0.064245604, -0.02958508, 0.017355056, 0.0053252494, 0.028659891, 0.14306316, -0.08289607, -0.037685953, -0.05516864, 0.22677942, -0.35412037, -0.41130328, 0.21801683, 4.5577777e-05, -0.16887996, -0.13437209, -0.13946843, 0.38543174, -0.43690374, -0.24692008, 0.0332704, -0.30738625, -0.3662393, 0.15432313, 0.16617385, -0.13006812, 0.016577857, -0.23334408, 0.38450766, -0.27697727, -0.4450662, -0.2916098, -0.30361754, -0.082189195, -0.2845523, -0.06360039, 0.061816223, 0.31194577, 0.13701749, 0.2300354, -0.041471552, -0.28038025, -0.11477661, 0.3050615, -0.23445758, -0.27634725, 0.24959037, -0.39611587, 0.5588924, 0.34565738, 0.17019135, -0.26089233, -0.05701604, -0.19903162, -0.35172677, 0.25201598, 0.07490973, 0.0039143213, -0.20685975, 0.023254452, 0.33443633, 0.07137241, -0.9710126, 0.31525522, -0.21745747, 0.2779547, -0.43969956, -0.18017852, -0.058604527, -0.19992658, 0.14695509, 0.06882316, 0.12895745, -0.26589748, -0.4553796};
const float dense_b[15] = {-0.08008632, 0.025776448, 0.024523757, -0.09720349, -0.03725359, 0.017763734, -0.032001384, -0.10394964, 0.019007603, -0.031298745, -0.08455029, -0.032830164, -0.024274467, 0.003203391, -0.107316546};
const float dense_1_W[45] = {0.04700355, 0.039143756, -0.02013516, 0.056309085, -0.055927094, 0.049312077, -0.0983639, 0.0007138621, 0.0719925, -0.008593521, 0.0059422604, -0.0023728837, -0.07844236, 0.056030203, 0.08830676, -0.0037371663, -0.07423449, -0.0063588293, -0.004787873, -0.022167733, -0.033867724, -0.045338225, -0.024503304, 0.0024114833, -0.020342406, 0.05404892, -0.014165456, -0.0061998423, 0.0073275035, -0.0028136023, 0.0013665393, 0.0062505356, 0.011818695, -0.0048834532, -0.018768664, 0.004950213, -0.0040020877, -0.012827496, 0.001747815, 0.06315174, 0.049404457, 0.054325048, 0.013426065, 0.008199212, -0.0017307069};
const float dense_1_b[3] = {0.0, 0.0, 0.0};


#ifdef __cplusplus
}
#endif
#endif
