/********************
    parameters.h

    Code generated using nn4mc.

    This file defines the neural network weight parameters for all layers.

*/
#ifndef __NEURAL_NET_PARAMS_H__
#define __NEURAL_NET_PARAMS_H__

#ifdef __cplusplus
extern "C" {
#endif

const float gru_W[1620] = {-0.245412, 0.037150625, 0.08731241, 0.03714982, -0.14128752, -0.017317384, -0.03867737, 0.21372736, -0.02868271, 0.104714535, -0.05008689, -0.150815, 0.22702202, 0.1636859, 0.086773306, 0.058655746, 0.0696246, 0.05747695, -0.017549712, -0.19030608, 0.17296648, -0.0018812886, -0.06881178, -0.08203468, -0.018803021, -0.2441255, -0.15211286, -0.20675318, 0.027858203, 0.23565826, 0.09243476, 0.16589388, -0.13883376, -0.11620182, 0.08156427, -0.054884437, 0.037889805, 0.19913848, -0.081254646, -0.06383818, 0.06777714, 0.042398028, 0.034551937, -0.14701816, 0.04447343, 0.11174669, -0.18528432, 0.08449651, -0.2072399, -0.2491072, -0.084682316, 0.029254578, -0.1584942, 0.14118838, 0.04057734, -0.13748452, 0.010659064, -0.0166105, -0.05225496, -0.028492821, 0.06782389, -0.11585225, 0.0688826, -0.23473087, -0.065555945, -0.19508852, -0.07664866, -0.20251095, 0.01982335, -0.17924297, -0.0034372974, -0.001789401, 0.2059626, -0.101128265, -0.22927396, -0.073971264, 0.058148798, -0.19364674, -0.06354322, 0.17658414, 0.030419586, 0.115992285, 0.101925164, 0.20335868, 0.19466214, -0.06979694, 0.09141032, -0.06919196, 0.03840878, 0.002942079, 0.11355239, -0.053724185, 0.057042737, 0.065940686, 0.1150122, -0.07733541, -0.0248134, 0.032012537, -0.038866654, -0.012964279, 0.08451534, -0.05762449, -0.2612803, 0.016870692, 0.09212113, -0.03738394, 0.14126325, 0.16011791, -0.13456231, 0.20523484, -0.11720112, -0.08623633, 0.023919336, 0.22902498, 0.13425116, -0.087526225, 0.20917678, 0.22829445, 0.14525563, -0.015761716, 0.056786805, -0.021047434, 0.11146097, 0.2133793, -0.09825139, 0.05435762, -0.019676697, -0.0061214487, -0.031090051, -0.17119084, -0.045213804, -0.06457596, -0.12764469, -0.047688704, -0.095225684, -0.032790165, 0.096291, 0.10311771, -0.091246426, 0.1075395, -0.012576734, -0.013862812, -0.023678526, 0.18550374, -0.14877138, 0.07553206, -0.08364518, -0.16468959, 0.07446903, 0.1340782, 0.2372548, -0.25940293, 0.037766524, 0.24054828, -0.24391904, -0.2517967, -0.253016, 0.025908673, -0.24558201, -0.02409304, -0.19575307, -0.09164025, -0.21837707, -0.20944048, 0.2506743, 0.13539143, 0.018452404, -0.03127486, -0.21587083, 0.106157936, -0.0337891, -0.15583982, -0.1451676, -0.2247907, 0.057038914, -0.002924875, -0.0012309209, -0.21200247, -0.23412018, -0.008907251, 0.23541059, -0.11418519, -0.015120266, -0.00070383423, -0.019850634, 0.24046224, 0.13758597, -0.1839896, 0.16327004, 0.0038786842, -0.119281374, 0.28067484, 0.018770484, -0.104499884, -0.11146543, -0.20049168, 0.10928939, -0.2785087, -0.2418909, -0.12996186, -0.07189419, -0.25305536, 0.21992525, 0.2523945, 0.16017282, 0.28776217, 0.27161923, -0.043233316, 0.04909698, -0.054221176, -0.110338695, -0.07374986, 0.06105894, -0.06731611, 0.18982463, -0.09143546, -0.15806767, 0.027617674, -0.05947094, -0.007813599, -0.14593782, -0.070106335, -0.023786187, 0.067321256, 0.061402224, 0.08305024, 0.2524179, 0.08644738, 0.16928524, 0.032234214, -0.14919569, -0.16915902, -0.008923153, 0.0517593, 0.13449824, -0.12388387, -0.114661224, 0.02537101, -0.016397035, -0.093640454, 0.26271778, 0.086436376, -0.25424153, -0.22196256, -0.0957559, -0.24384077, -0.13529822, -0.021064837, -0.23164524, -0.07411086, 0.25795123, -0.029400265, 0.08487546, -0.18610884, -0.09559815, 0.1811669, 0.073608264, 0.00518338, -0.039454464, -0.14450292, -0.058168884, 0.07949861, -0.0748893, -0.084512696, -0.024011023, -0.059751384, 0.19043256, 0.057361685, -0.29609525, -0.17941865, 0.23923495, -0.024852896, 0.054421984, -0.06431223, 0.12509027, -0.00019578979, -0.011813684, -0.21447785, 0.028715795, -0.020845504, -0.0006899983, -0.033505194, -0.06539359, -0.14941435, -0.15224452, -0.12938918, 0.047247864, -0.1048457, -0.23253362, 0.16876984, -0.028058272, -0.24166286, 0.07398921, -0.17466862, -0.069329366, -0.27419016, 0.034855507, 0.27745694, 0.09598334, -0.0035852895, -0.11661736, -0.16300866, 0.062905975, 0.16480881, -0.09256337, 0.07737199, -0.05831218, -0.15059061, 0.06513802, 0.03450693, -0.05161472, 0.098268546, 0.033589933, 0.21372563, -0.016356884, -0.15723294, 0.19639733, -0.16524878, 0.16538, 0.16978249, 0.098079376, 0.0387904, 0.11481063, -0.13898937, -0.05934208, 0.1487374, 0.034051962, -0.077775255, 0.067904666, 0.12499934, -0.16232896, -0.23506722, -0.12432707, 0.076700926, -0.1811699, -0.14499791, 0.13624209, 0.083728954, -0.24772374, 0.06089637, 0.112728685, -0.089480564, 0.21376447, -0.25195396, -0.18653587, 0.048766393, -0.08529235, 0.1599095, -0.067971125, -0.12734665, -0.09825836, -0.1488848, -0.12376303, -0.21853983, -0.17122018, 0.08072137, -0.017864564, -0.004563175, -0.037030473, 0.0073736603, -0.083188064, 0.12100734, -0.08217465, -0.0804274, -0.15296662, 0.037350796, 0.14817445, -0.055082705, 0.033836313, -0.0559902, -0.061467648, -0.08394845, 0.1704159, -0.028044023, -0.12773627, -0.15377529, 0.26870802, 0.12977746, -0.167951, -0.06526899, 0.07886674, 0.0018601522, 0.21967435, -0.07549566, -0.14388596, 0.21792099, 0.07482048, -0.032316267, -0.22915901, 0.1953758, -0.09275964, 0.014075835, -0.12876882, -0.25862217, 0.099639006, -0.09257164, 0.022770135, -0.030619422, -0.019141199, 0.19606358, 0.019821307, -0.038135402, -0.009173015, 0.13646801, 0.1506365, 0.013044845, -0.110582255, -0.11620526, 0.036997743, -0.11970188, 0.024082236, 0.034758013, 0.006195085, -0.21122172, 0.15065503, 0.0076539954, 0.10089752, -0.1274446, -0.06562605, -0.15414083, -0.19867095, 0.109187335, 0.039340932, -0.020997025, 0.07917022, 0.11193978, 0.0389982, -0.25587636, 0.22427993, 0.0954417, 0.20052135, -0.10662318, -0.23644695, 0.16790117, 0.025899984, -0.13619772, -0.037762646, 0.08511597, 0.26159638, -0.008427551, -0.026322147, 0.15055078, 0.15043138, 0.21919754, -0.068851955, -0.07109751, -0.18544763, 0.077848524, 0.17418568, -0.026570944, -0.23299396, 0.05822128, -0.006312179, -0.008199714, -0.015111778, -0.25927112, -0.1721632, 0.15600666, -0.15184012, 0.111575596, 0.12531582, -0.09334319, 0.0027606294, 0.101387635, 0.14768389, 0.2731894, -0.15561056, 0.26538658, 0.10915021, 0.1121569, -0.088765234, -0.04488526, 0.23652919, 0.1893511, -0.2686406, 0.23982261, 0.2295346, 0.0900975, -0.10401603, 0.023225192, 0.08058996, 0.047560856, -0.111848734, 0.11251217, -0.14745852, 0.1026418, 0.052123517, 0.003173676, 0.04926617, 0.018820923, 0.12658179, 0.1573857, 0.12311538, -0.03630881, -0.04297673, -0.074402586, -0.25549, -0.013688851, -0.13956505, 0.05668149, 0.15459535, 0.11035326, 0.03952493, -0.12261942, -0.12253319, 0.054412227, 0.046648297, -0.032568842, 0.0002344991, 0.0728144, -0.14395565, -0.060120933, 0.15110157, -0.12572557, -0.2250079, -0.029584168, 0.24982671, 0.1617665, -0.0445193, -0.2573563, -0.07867017, -0.122695, 0.22662944, 0.21759155, -0.102393836, -0.14162102, -0.0277594, 0.010996973, 0.13921127, 0.14773819, 0.029951882, -0.07608, 0.15357782, 0.05560134, -0.03567636, 0.07761082, -0.15554056, 0.1058659, 0.21204372, 0.16919434, 0.13871056, 0.07281315, -0.29209623, -0.08356144, -0.40236062, 0.319009, -0.59349567, 0.020987632, -0.27648306, -0.16346395, 0.44894227, -0.19111021, 0.5754564, 0.6291929, 0.12214952, 0.24321593, 0.13873574, -0.05333711, -0.13757804, 0.2238937, -0.07252579, 0.0804127, -0.13199021, 0.22019668, -0.17758094, 0.18125044, 0.25438872, 0.11699553, -0.120437, 0.12370439, 1.3879563, 1.4662842, 1.1196859, -0.32530576, 2.018164, -0.30135715, -1.3749397, -0.6711892, -0.32345617, -0.24931017, 1.8218869, -0.32916036, 0.8869488, 2.5744295, -2.88278, 0.2519066, 0.22021346, 0.15304852, -0.5019887, -0.41295996, 0.8534462, -0.34758028, -0.6051802, 0.40014395, 0.7397878, -0.16576493, -0.100737505, 0.1934295, 0.06873265, -0.1439997, -0.06056157, 0.035245977, 0.21859023, 0.23860654, 0.023750253, 0.06316349, 0.23366684, -0.056752454, -0.043994296, -0.25225285, 0.14037271, -0.038420953, -0.13269134, 0.2139914, 0.025952477, 0.35536733, 1.7655027, -0.9287755, 0.98955536, 0.6075537, -1.8012651, -1.5105674, -2.390897, 2.4506328, -2.413688, -0.96418434, 1.0619129, 0.06849817, -0.10509699, 1.85239, -0.034561858, 0.6119455, -0.11777255, -0.36676368, -0.10613976, 0.124397136, 0.21722135, -0.21141686, -0.30382067, 0.23177095, -0.28826877, 0.03273144, 0.13176249, -0.33381355, -0.27826405, -0.23510936, -0.006812814, -0.013588723, -0.14566325, -0.086135946, -0.09036234, -0.14466074, 0.07341262, -0.09372585, 0.2553181, -0.22748952, -0.20055604, 0.22811781, 0.24331805, -0.19176549, -3.496159, 2.2080584, -0.08109417, 0.3193578, -0.034139253, 1.0920287, -0.15272035, -1.3666091, -1.3152355, -0.6435993, 0.8829212, 0.20451337, 0.49432135, -1.3683068, -1.6526532, 0.10426726, 0.04599322, 0.007996582, 0.37142828, -0.8130867, 0.34802294, -0.3476094, 0.010389569, 0.1759219, 0.16713485, 0.009493791, -0.146, 0.3001824, 0.39556664, -0.28421935, -0.1704066, -0.078270994, 0.07043811, -0.029927244, -0.021252004, -0.25320598, -0.06151218, 0.045761656, 0.25669464, 0.0805756, 0.114437684, 0.14793558, -0.08811748, -0.23573859, -0.21794358, 1.2810419, 1.194277, 1.1205547, -0.64276487, 1.9029264, -0.49561673, -0.9533486, -0.48049995, -0.1257607, -0.34960938, 1.3101501, -0.561854, 0.8232925, 2.285707, -2.1426902, 0.027020384, 0.4767636, 0.35567608, -0.43229792, -0.5013378, 0.8786345, -0.52931637, -0.7742999, -0.0551529, 0.30622762, 0.12312927, 0.10739832, -0.16676925, -0.15485486, -0.17754145, 0.11541121, -0.12461919, 0.10783594, -0.182114, -0.0974649, -0.04581447, 0.14072894, 0.025766527, -0.04566116, -0.015060676, -0.1694585, 0.02192541, -0.15214007, -0.14038973, -0.062144607, 0.43492654, 1.6742027, -0.887342, 1.0203599, 0.87438494, -1.446306, -1.3402135, -2.1437252, 2.1202223, -2.0419703, -1.192742, 0.963264, 0.030963853, -0.10887363, 1.1837391, -0.100638814, 0.3722886, 0.088584796, -0.3482182, -0.20554182, -0.18447621, 0.105952725, -0.48000026, -0.07041969, -0.03467069, 0.11492818, 0.010386494, 0.37300172, 0.0070616766, 0.11615198, -0.20564917, -0.21583407, 0.04497028, 0.111542866, 0.0066879154, -0.22930671, -0.2276086, -0.22966453, -0.020408541, -0.17435594, -0.2566232, 0.122748524, -0.2387068, -0.16309752, 0.010930182, -2.828742, 1.892248, -0.06770539, 0.21077448, 0.27440807, 0.491181, 0.11326739, -0.9682894, -1.2269503, -0.6154677, 0.58044136, 0.052734017, 0.9342157, -1.2031754, -1.3419307, 0.34633106, -0.082770064, -0.13056827, 0.07108356, -0.12151822, 0.043511502, -0.056267258, 0.21177608, 0.062854715, 0.062899865, -0.25147456, -0.16012734, 0.104883514, 0.2825986, -0.21090475, 0.29547775, 0.25578883, -0.17841458, 0.23449667, -0.007657578, 0.2872777, 0.10745487, -0.11943248, 0.004086397, -0.2280265, 0.27873206, -0.08086197, -0.022710433, -0.045919724, -0.23558822, -0.061110083, 0.1283466, -0.13703318, 0.14824311, 0.23134881, -0.20410635, 0.16597535, 0.11000257, -0.120330885, 0.16642001, -0.035585385, 0.15128946, 0.12574683, 0.05695717, 0.16786006, -0.0036824252, 0.17701116, -0.13806592, -0.16044694, 0.11134301, 0.09407713, -0.015195402, 0.19818377, 0.0060132174, -0.24292232, -0.3102172, -0.17846192, 0.07723159, 0.020050593, 0.45002642, 0.26075622, -0.041333035, -0.04740862, 0.13160703, -0.23598571, -0.15683357, -0.18072481, 0.039269097, 0.22229636, 0.06727098, -0.14203557, 0.100145884, 0.085305914, -0.20388937, 0.31746128, 0.049166963, 0.08048642, -0.26915652, 0.068901114, 0.0868207, -0.09442835, -0.12978761, -0.08584366, -0.16800685, 0.2758695, -0.17750664, 0.04094435, 0.028007884, -0.068834, -0.0034775261, 0.2739727, -0.11870295, 0.12012247, 0.0718374, -0.21996361, -0.24827841, -0.05216087, 0.28998858, 0.29515234, 0.22678646, -0.1525418, -0.054594237, 0.12844902, 0.23207153, 0.28118777, -0.035352834, -0.19611047, 0.19615377, 0.17993744, -0.1144174, 0.09782775, -0.08571456, -0.16976821, -0.17336288, 0.2081635, 0.21611613, 0.14361022, 0.058265075, -0.05420219, -0.16035831, -0.05900037, 0.1363857, 0.30015978, 0.10472555, -0.14857638, 0.038890734, 0.017487373, 0.0024193819, 0.06409145, 0.28198802, -0.11676569, 0.17865016, -0.21599081, 0.21082425, 0.15093802, 0.17888021, 0.08949032, -0.05779676, -0.13454363, 0.209924, -0.07241693, -0.24712758, 0.22631021, 0.26329502, 0.013594551, -0.08437535, 0.058864553, 0.07862635, -0.051923152, 0.1762024, -0.12468527, 0.27464813, -0.22143105, -0.08674612, -0.115737416, -0.13526596, 0.2673897, -0.16049954, 0.12864825, 0.05595705, -0.110792175, 0.029928936, -0.082540855, -0.17311645, 0.2792097, -0.08035212, -0.10354713, 0.09286869, -0.027063817, -0.010513629, 0.11759714, -0.27012601, 0.085164234, -0.11974537, -0.2650893, 0.022128128, 0.003534307, 0.11913971, 0.16596109, 0.115067355, 0.17354776, 0.1761695, -0.30474526, -0.34144267, 0.024555119, 0.0005872731, 0.028373074, -0.12665518, -0.11842744, -0.0715215, 0.163181, -0.09243494, -0.068342134, 0.25397354, 0.04982217, 0.04180717, 0.14685504, 0.12507014, 0.14648695, -0.103258565, -0.08430984, 0.16699351, 0.29676625, 0.00801399, -0.22454807, 0.0084010335, 0.048726123, -0.13021144, 0.21865883, 0.07676283, 0.06939726, -0.109118775, 0.023410888, -0.0074171247, -0.12911725, -0.15753584, 0.060557738, -0.12988684, -0.028104076, -0.14361142, -0.093087904, -0.28327817, -0.15373746, -0.17493074, -0.2485461, 0.18939537, 0.14434522, -0.13260457, -0.09590459, -0.3164975, 0.02569843, 0.16735046, 0.25741094, 0.04822353, 0.04429685, 0.2217094, -0.03281337, -0.27661625, -0.05433865, 0.3164428, 0.07584545, 0.040365085, -0.03290923, -0.24877091, 0.11266377, -0.18272339, 0.28669405, 0.12354389, 0.025368363, -0.24909367, -0.014583629, 0.04197968, 0.16115816, 0.20608814, -0.20442724, 0.015775103, 0.147877, -0.15192024, 0.0989456, 0.05052709, -0.18624865, 0.1362872, 0.13354482, -0.1804675, -0.09157482, 0.06398995, -0.16752768, 0.14396471, -0.075705856, 0.09851803, 0.102808654, -0.08162124, 0.028387688, 0.04484917, -0.13798375, -0.0012951655, -0.17423265, -0.013827316, -0.059612844, 0.052831583, 0.21079868, -0.2077629, -0.12608683, 0.16880582, 0.10279514, -0.19710003, 0.25007364, -0.045318652, 0.24465515, 0.019546753, 0.16362281, 0.03658737, -0.12474317, -0.17995763, -0.25711265, -0.03761112, 0.105766684, 0.17526431, -0.039226986, 0.15516073, -0.030699417, 0.039690178, 0.053190093, -0.30798763, 0.06522454, 0.18022543, -0.0689072, 0.18220253, 0.16135958, -0.13915437, 0.15517321, -0.16693617, -0.08435101, 0.01695556, 0.0943488, 0.080948435, 0.23143597, -0.09689969, -0.35869515, 0.23095778, -0.2072407, -0.10150824, 0.13947372, -0.027641531, -0.14382415, 0.14837994, -0.3556313, -0.18989116, -0.03163896, -0.083561875, -0.21149337, 0.24589084, 0.19152822, 0.075338185, 0.24989507, 0.08724679, 0.17461748, 0.2749773, -0.054040834, 0.28389752, -0.15897876, 0.25161684, -0.25625566, -0.0013173198, -0.01892494, -0.020267652, -0.0035445937, -0.19794925, 0.008776749, -0.022950811, 0.07435145, -0.10804465, 0.06801655, 0.16746622, 0.11681671, 0.17055452, 0.12179474, 0.077531405, 0.025411151, -0.022724852, 0.19328381, 0.18060914, 0.027335104, 0.08309469, 0.10515086, -0.10563076, -0.058635727, 0.13344735, -0.1018714, 0.13819942, -0.16163924, 0.11051145, -0.089556895, -0.07340575, 0.045913704, 0.22930792, 0.23110397, 0.1444251, 0.12005215, -0.15950271, -0.21549052, 0.07987304, 0.05069865, 0.05701727, -0.24673912, 0.26362976, -0.09898167, 0.1926421, 0.2820262, -0.075587414, 0.0700865, 0.026352778, 0.035776015, -0.13019276, -0.016411383, 0.2775132, -0.18206501, -0.13892782, 0.013915629, 0.18212533, -0.06564293, 0.11042033, -0.23559286, -0.026259236, 0.014100844, 0.034110438, 0.12572235, 0.103939034, -0.21613911, -0.09640586, -0.077045105, -0.16486946, -0.13678749, 0.0634184, -0.043636702, 0.01606284, 0.1376052, 0.010080456, -0.04688999, 0.12070806, 0.11176706, 0.19089706, -0.24045447, -0.25278166, 0.0019734742, 0.092465684, 0.11562487, 0.08138766, 0.26409, -0.15368862, 0.22947031, -0.15698569, -0.17313679, 0.12904595, -0.18214153, 0.03235598, -0.06906593, 0.10200788, -0.16015564, 0.07090837, 0.0042449115, 0.13728274, -0.17755917, -0.0821017, -0.04835602, 0.07538662, -0.13770936, 0.035835706, -0.073561795, 0.021429438, 0.34441027, -0.01540442, -0.19613175, -0.34856528, -0.020768968, 0.32447892, -0.24154437, 0.0028597105, 0.35773918, 0.30802056, -0.02475973, 0.16104533, -0.08968028, -0.19918153, 0.27595854, 0.28293693, 0.16921283, -0.039148197, 0.2014911, -0.24915916, 0.24524878, 0.053879086, -0.026099997, -0.0348715, -0.2331681, -0.21944529, -0.18767549, -0.23507786, -0.1610833, 0.14233486, -0.09393232, -0.020047547, -0.08375244, 0.059978735, -0.14491116, -0.3588885, -0.16745272, 0.16332546, -0.051133886, -0.04772937, 0.09958056, -0.08199516, 0.03295286, 0.067904755, -0.02060406, 0.13347012, 0.24345802, -0.36461386, 0.052174814, 0.05788725, -0.14476988, -0.09534639, -0.04530247, -0.19550255, -0.05279031, -0.18710865, 0.004095372, -0.07354309, -0.08236427, 0.35844353, 0.06814608, 0.22183697, -0.1313117, -0.030080754, 0.15557273, -0.14941241, -0.12429788, -0.2127246, -0.24536219, -0.26612157, -0.1549735, 0.26016378, -0.15221073, -0.14112179, 0.044031017, -0.014069886, -0.030688165, 0.0029777123, -0.12399483, 0.17030323, -0.011237304, 0.13142018, 0.04420827, 0.08897592, -0.07401516, 0.22045545, 0.050273504, 0.0713082, -0.07362369, 0.0261773, 0.024425348, 0.02318652, 0.0913648, 0.1890835, -0.0057630986, -0.038556334, -0.09659467, 0.07915993, 0.01075665, -0.07513386, -0.01729678, -0.25424606, -0.008174441, 0.030157233, -0.09128517, 0.07808766, 0.16983335, 0.1872388, 0.06507284, -0.05998892, -0.018925793, -0.022520324, -0.014775034, 0.2530372, 0.045760777, -0.2670507, -0.14049731, 0.11803164, 0.226016, -0.0735908, 0.008502343, 0.05242501, -0.00084838126, 0.14549121, -0.016350316, -0.054435153, 0.124564156, 0.11864232, 0.0007024564, -0.13623957, -0.23178956, 0.097509384, -0.0994261, -0.015211824, -0.10072803, 0.056151025, -0.043133114, -0.17833726, -0.05312392, -0.0032739118, -0.21311137, -0.07198826, 0.0349617, -0.08739129, 0.22424097, 0.048259765, 0.12029615, 0.23064747, -0.004208001, 0.051849525, 0.24314746, -0.22142236, 0.122194074, -0.15270334, 0.117572054, 0.24628995, -0.2092696, 0.21669568, -0.26393202, 0.19532229, -0.065902285, -0.12294661, -0.10646917, -0.11818442, 0.17824115, -0.05688309, -0.11900679, -0.05919775, 0.13275757, -0.046349373, -0.037267193, -0.23061103, -0.011494661, -0.057763357, -0.035746664, 0.097420454, 0.10050489, 0.055458087, 0.08410719, 0.012917198, 0.11305123, 0.2911147, 0.035596084, -0.28623593, 0.010068169, 0.18818173, 0.013108828, 0.040490214, -0.12622939, -0.10419073, -0.27337536, 0.023081647, 0.11260442, 0.055550084, -0.06675047, -0.1917215, 0.14631401, 0.2182398, -0.08868214, -0.037377533, 0.08082417, 0.24027056, -0.12996008, 0.063440815, 0.1642112, -0.03684008, -0.16793768, 0.23435421, -0.21952616, 0.20646203, -0.06326624, -0.103145815, -0.019172635, -0.016200503, -0.061271824, -0.13190618, 0.08144764, -0.042108525, -0.077454, -0.17707266, -0.10975561, -0.12075586, 0.18042533, 0.10341915, -0.034121137, -0.14938843, -0.03955502, 0.10870001, 0.32832885, -0.077177465, -0.011638511, 0.113608815, 0.17379984, -0.18222374, -0.039575852, 0.111719824, 0.121276714, 0.053378116, -0.018248474, -0.1232304, 0.14609951, -0.29188138, -0.24794066, 0.21076868, 0.10406955, 0.11398309, -0.08916798, -0.13983423, 0.09242303, 0.050021525, -0.089689784, -0.19234596, -0.006211772, -0.040015128, -0.051875237, -0.0896178, -0.040627427, -0.09590162, 0.06647176, 0.18663907, -0.08845285, -0.16864374, -0.019489901, -0.098835945, 0.13503818, 0.041335396, -0.057168394, -0.030294547, 0.09930542, 0.14311954, -0.020417243, -0.10377974, -0.009284806, 0.023474118, -0.12123265, -0.009239297, 0.040675145, -0.11002108, -0.028660666, 0.18566228, 0.06723906, 0.29680735, 0.1781433, 0.045784544, 0.06578209, -0.067079574, 0.21126892, -0.12314256, 0.13547589, -0.21378458, 0.1502851, -0.14301193, -0.25934303, 0.054820474, -0.12281654, -0.06662377, 0.055974644, 0.09596892, -0.035805214, -0.11903246, -0.045703214, -0.006220059, 0.0039238622, -0.09889542, 0.08476847, -0.009947891, -0.106531106, 0.021075003, -0.003853703, 0.07286529, 0.075689025, -0.024892697, -0.045216717, 0.03781121, 0.09351035, -0.12947685, -0.08278497, -0.06257646, 0.4654641, 0.21908876, -0.32936385, 0.030093303, 0.058255818, -0.23717052, 0.03787432, 0.102036685, -0.0489051, -0.03174326, 0.0640959, -0.14127839, -0.21739517, -0.12437001, -0.22998117, -0.16449875, -0.09085894, -0.03383281, -0.24830964, 0.21178901, -0.13307978, -0.3039089, -0.026432998, -0.08117389, 0.23636128, -0.15894768, -0.13055505, 0.071016684, 0.15675792, 0.0046544117, 0.10462869, 0.1459851, -0.0030136795, -0.055438098, 0.13948674, -0.110228434, 0.021975795, -0.013948137, -0.05416649, -0.11179126, -0.11360433, 0.08781037};
const float gru_b[90] = {-0.31239438, -0.16231126, 0.10277808, 0.14810592, 0.040010344, 0.031495918, 0.078995615, -0.08178997, -0.10329067, 0.027813781, 0.08658262, 0.1175518, 0.1281549, -0.04532086, -0.17938022, -0.10628186, -0.04585838, -0.006731782, -0.0015855983, -0.039935537, -0.03734803, -0.03252766, -0.053170927, -0.063144766, -0.039672222, -0.02576297, -0.00021836099, -0.009092708, -0.06038535, -0.06444375, -0.018424725, 0.04413366, -0.013915874, 0.0036457628, -0.03519672, -0.007277502, 0.039035592, 0.03405049, -0.0058265026, 0.00799102, 0.024759063, -0.0031156375, 0.08553857, 0.012808853, 0.0017664522, -0.31239444, -0.1623112, 0.10277809, 0.14810592, 0.040010344, 0.031495918, 0.078995615, -0.08178997, -0.10329067, 0.027813785, 0.08658258, 0.1175518, 0.12815487, -0.04532087, -0.17938022, -0.10628186, -0.04585838, -0.006731782, -0.0015855983, -0.039935537, -0.03734802, -0.03252766, -0.053170934, -0.063144766, -0.039672207, -0.025762966, -0.00021836236, -0.009092708, -0.06038535, -0.06444375, 0.017475072, 0.020324893, -0.032070063, 0.0045134155, -0.021069203, -0.034687515, 0.012768326, 0.020354455, 0.023539778, -0.021094197, 0.02425868, -0.039173327, 0.060067188, 0.010348941, 0.028139489};
const float gru_Wrec[675] = {-0.2743708, -0.11719997, -0.15869094, 0.045766, 0.026585434, 0.0224171, 0.080609426, -0.24044287, -0.11794738, 0.009881167, 0.07348015, -0.57094854, -0.13787074, 0.019461628, -0.038587317, 0.039684232, -0.09870886, 0.058735814, -0.08938557, 0.34608164, 0.12248834, 0.10996529, -0.22345401, -0.12722585, 0.1049483, 0.0603741, 0.088390306, -0.07934201, 0.19185273, 0.25954553, 0.019930879, 0.042470217, -0.12626714, 0.013529246, 0.0757802, -0.07431389, -0.002340726, -0.060865372, 0.056271896, 0.12586468, 0.039420735, -0.036016062, 0.059500538, -0.14747775, 0.052780446, 0.020189527, -0.20995703, 0.22717902, -0.17321838, -0.006771399, 0.10376468, 0.27657896, 0.07511419, 0.049367268, -0.02500749, -0.23079954, 0.0030517722, -0.0067676, 0.28772694, 0.28646836, 0.00628098, 0.085887775, -0.05047569, 0.091988906, 0.043582257, 0.08271833, -0.26670092, -0.05142393, -0.037648186, 0.17611115, -0.08301568, -0.17046514, 0.12815008, 0.36621654, -0.10550153, 0.013037104, -0.15987815, -0.11874232, 0.11187239, -0.03325493, -0.20814008, -0.17790006, -0.06893377, 0.043956004, -0.030131206, -0.16940366, 0.2244541, -0.03800939, -0.06941222, 0.08579864, -0.052254565, 0.16804768, -0.09050442, -0.085159436, -0.23576015, 0.025314094, 0.3108843, 0.006470943, 0.11119957, 0.0058882493, -0.040254183, 0.06941202, 0.08211003, -0.31718248, -0.06284048, 0.043762945, -0.0049362797, -0.057632666, 0.2714117, -0.08070451, 0.28680632, -0.11429244, 0.04237125, 0.052746728, 0.07406786, 0.0076416247, -0.11428441, 0.17146614, 0.0031021452, 0.43107644, -0.08708476, -0.05512647, -0.09386609, 0.06508941, 0.021355415, -0.20302045, 0.110180676, 0.16572268, 0.063401885, 0.032606356, 0.042709634, -0.17026377, 0.1785593, 0.27567923, -0.05129955, 0.07781019, -0.15750031, -0.2429333, -0.03878717, -0.32912457, -0.033392232, -0.110381134, -0.019218288, -0.22893716, -0.009844517, 0.025496803, 0.3697825, -0.08063333, 0.05179104, 0.009459341, 0.15053432, 0.08782808, 0.2945738, -0.06698417, 0.033445336, 0.21262276, 0.14007795, -0.14782362, 0.017129127, -0.06290963, -0.07325442, -0.01878409, -0.060242817, 0.12898412, 0.09794366, 0.04226586, -0.058659423, -0.14245479, 0.11054625, -0.041878805, 0.056188818, -0.037323046, 0.110498115, 0.10570482, -0.23393874, 0.09919792, 0.1313805, 0.029669797, -0.2728671, -0.33704105, 0.1034235, -0.08980143, 0.13908905, -0.3435868, 0.18902862, -0.22146513, 0.22279881, 0.036347106, 0.0060999854, 0.19428082, -0.13365217, -0.12466126, -0.20023866, -0.08077538, -0.08123889, 0.11993, -0.16514651, 0.044081677, -0.04519969, -0.28824094, 0.034970168, 0.10971546, 0.09134582, -0.033125717, 0.010939214, -0.180098, 0.07768665, -0.1630817, -0.21674885, -0.016864821, 0.04229907, -0.11057146, -0.2632364, -0.10469176, 0.21829557, 0.08900375, -0.071239084, -0.079243325, 0.22707894, 0.04231108, -0.16132759, -0.12833482, 0.010545511, -0.09953178, -0.2296778, -0.19815041, 0.043885574, 0.18481082, 0.08404448, -0.095032915, 0.29763058, 0.14978385, -0.074890666, -0.2765541, 0.20676732, -0.01809317, -0.06326649, 0.12008156, 0.33493206, 0.0018550078, -0.014422703, 0.067976505, -0.14045157, 0.021296853, -0.20670846, 0.022681663, -0.1356536, 0.06926687, 0.14124334, 0.16975406, 0.008580473, 0.10954367, 0.029699575, -0.27210405, 0.12706411, 0.25329757, 0.34347734, -0.107500255, 0.039254293, -0.098453015, 0.20393923, 0.053047676, 0.0860586, 0.06175834, -0.108049475, 0.11198976, 0.020454962, 0.046000347, -0.08274237, -0.06524922, -0.12337756, -0.083118185, 0.22486623, -0.09476477, 0.043420848, 0.060033195, -0.109712355, 0.094087034, -0.1386929, -0.10027628, -0.060264256, -0.11173807, 0.16158488, -0.09481196, -0.17213947, -0.12186058, -0.031219361, 0.13186419, 0.04736132, 0.034553684, -0.004513639, -0.12443865, -0.0066654887, -0.02013154, -0.13593887, 0.3093918, 0.0034271525, -0.1032866, -0.1158276, 0.012800965, -0.21785118, -0.030318271, -0.2992751, -0.1956517, -0.047462698, -0.1268463, -0.2869668, 0.34150815, -0.2289488, 0.059212342, 0.05864527, 0.22515951, -0.16473675, 0.07677056, -0.2326013, -0.07720935, -0.0072936597, -0.08064311, 0.039122574, 0.0038042897, 0.28152984, -0.077536926, 0.100265905, -0.04062887, -0.062620826, -0.30886668, 0.035198513, -0.16862315, -0.04514075, -0.14127778, -0.053196818, 0.016567446, -0.10076463, -0.18312442, 0.23893332, 0.049018484, 0.07734805, 0.3286305, 0.046125796, 0.107463144, 0.018838394, -0.09684346, -0.06241251, 0.16811337, 0.051306747, 0.16908596, -0.027579447, 0.05393788, -0.26783168, 0.19518252, 0.07882477, -0.17023133, 0.06579463, 0.025201201, -0.39986333, -0.13640848, -0.24209061, -0.084662355, 0.18125097, -0.011677273, 0.0027531474, -0.029845271, -0.09861184, -0.013175275, -0.064244345, -0.0048563657, 0.013811249, 0.06420614, 0.15924163, -0.30392876, 0.1641409, 0.07729769, 0.16305473, 0.118230216, -0.0008081725, -0.2568557, -0.36418903, 0.03453485, 0.09987101, -0.08560052, -0.1343078, 0.107923806, -0.095609054, -0.099149376, -0.0050839414, 0.08931736, -0.18165682, -0.019610232, 0.03833503, -0.037970953, 0.3635478, 0.15779693, -0.20950527, -0.040724497, -0.091608986, -0.14923555, -0.022006864, 0.121579126, 0.3421902, 0.034658104, -0.04472684, -0.22911204, -0.22641926, -0.068879135, 0.046061873, -0.059571173, 0.031465735, -0.11474047, 0.17390607, -0.13295402, 0.08633089, 0.0736255, -0.0495352, 0.053331282, -0.2565133, -0.0740503, -0.23845269, -0.16507968, -0.0057903267, 0.30971, -0.23199528, 0.061442304, -0.03187162, 0.12432453, -0.083604984, 0.022288023, -0.006097618, 0.3191952, -0.18065943, -0.16644664, -0.24711218, 0.033675376, -0.0016531695, -0.07328037, -0.1267745, -0.027945435, -0.11664637, 0.1363972, -0.13805136, 0.08546769, 0.05172738, 0.033345707, 0.14866118, 0.21328379, 0.118659325, 0.28052002, 0.22625822, 0.041783612, -0.025714243, -0.24553819, 0.10897279, -0.17681076, -0.012265737, 0.017065369, 0.02986434, -0.030629193, 0.13889013, -0.32550994, 0.00945924, 0.10428533, 0.075668246, 0.12025164, 0.18869454, -0.14678565, -0.0021322186, -0.1728668, 0.037376855, -0.13147143, -0.2832965, 0.040328138, 0.3779999, -0.14249963, -0.06490882, -0.20964092, 0.10150179, -0.18070357, -0.11753523, -0.18997432, -0.12972118, -0.15074532, -0.042020988, 0.2793873, 0.23354396, -0.05087877, 0.09051142, -0.20284799, -0.0005510655, 0.08888617, -0.07751528, 0.015951086, -0.07369965, -0.027454682, -0.22306632, -0.007889401, -0.10177919, 0.0027490428, -0.13958232, -0.23695841, 0.116246365, 0.11908959, 0.12803683, 0.45055562, 0.23618075, 0.03696255, 0.016531566, 0.121686436, 0.19424078, -0.14817715, -0.0077880155, -0.13697693, 0.065172344, 0.058776237, -0.17215529, -0.06271418, -0.026370313, -0.2438602, -0.1838746, -0.10994321, -0.1771482, -0.11342434, 0.11987904, -0.12012426, -0.41725862, 0.020769138, 0.10653308, -0.1226187, 0.012471419, -0.033134583, -0.025431434, -0.0006146372, 0.14104669, -0.053572062, -0.035706706, 0.04074918, -0.01909384, 0.22670448, 0.09637684, 0.037330847, 0.0060807797, 0.12309621, -0.20649028, -0.024408402, -0.17811006, 0.0066599846, 0.16331397, -0.10078626, 0.0018340852, 0.14699909, -0.09087242, -0.026089257, -0.039637014, 0.114731506, -0.30610627, -0.01910261, 0.16517968, 0.24192557, 0.06728667, 0.06099078, 0.0076794988, -0.0027722307, 0.027690565, 0.17002124, -0.041405685, 0.20627326, 0.23761748, 0.06695367, -0.09415576, 0.008610689, -0.20145611, -0.029391699, 0.15118864, 0.1291704, 0.061259203, -0.009058908, 0.1355536, -0.17405133, 0.14973435, 0.28078496, 0.04271328, 0.20321943, -0.09505216, 0.32462832, -0.2527256, 0.18657506, 0.14104342, 0.2959201, -0.048254862, -0.0852011, 0.14256723, 0.26264864, -0.12846397, -0.076736, 0.23496415, -0.09137358, -0.1358367, -0.017734244, -0.09039585, 0.006977724, 0.0052358136, 0.4055874, 0.035936948, 0.023583485, -0.1304826, -0.0076993313, 0.013725482, 0.23137183, -0.05019187, -0.20202151, -0.043213576, -0.023217961, -0.05955092, 0.31584358, 0.06299645, -0.011336517, 0.14976767, -0.13471586, 0.17452587, -0.14569123, 0.004879294, -0.1561229, 0.1737775, -0.17174931, 0.10843534, 0.08766075, -0.15572682, 0.0061102742, -0.17502429, -0.08047206, 0.22896269, 0.025592752, 0.10666729, 0.20426813, -0.14304492, -0.0036578153, -0.008864971, -0.20078444, 0.013123427, -0.300973, -0.09573546, -0.14578585, -0.14643268, -0.11656407, 0.054417673, -0.11558821, -0.005756905, -0.050274726, 0.29373035, -0.059371162, -0.06255315, -0.23978476, 0.0741224, -0.21778718, -0.21997157, 0.054779045, 0.043404266, 0.3251322, 0.014215085, -0.13566339, 0.08743884, -0.22338882, 0.34319663, -0.254403, -0.12431743, -0.08462114, 0.08241891, 0.1281427, 0.06557654, 0.0733885, 0.025829695, -0.08795609, 0.023095323, 0.027782872, 0.07883858, 0.05810021, 0.11977051};
const float dense_W[225] = {0.17568327, -0.3236016, -0.026631981, -0.8434925, -0.2521141, -0.19291966, 0.09304477, -0.19497862, -0.09457686, -0.14196363, -0.23842809, -0.56223184, -0.047267806, -0.049407583, -0.01094651, -0.11074042, 0.11666032, -0.3505612, 0.4422068, -0.4382039, 0.21598394, 0.39151144, -0.12691754, 0.12619925, -0.2718663, 0.28891903, 0.2943575, 0.17815737, -0.36007905, 0.23066424, 0.11355599, -0.008359959, 0.12919043, -0.10773991, 0.08414953, 0.006170662, 0.2550676, 0.081342034, -0.1580008, 0.31941497, 0.1679422, 0.28282458, 0.21406786, 0.42597952, 0.2992643, -0.4269182, -0.43672764, 0.44121474, 0.23568, -0.105441265, -0.11769736, 0.05086057, 0.25321633, 0.31516775, -0.18782967, -0.10646041, -0.28616434, 0.14106277, 0.21177714, -0.28709263, -0.50350916, -0.120021395, -0.26710773, -0.17213437, -0.27733502, 0.28160855, 0.36379, -0.0895668, 0.032016624, -0.3247628, -0.23363684, 0.18040545, -0.0241153, 0.118188046, 0.05937418, 0.05517103, 0.18135056, 0.15900667, 0.16626002, 0.30608678, -0.20621143, -0.02173278, -0.20111373, -0.44702137, 0.35872594, -0.2690304, 0.40205607, 0.023298416, 0.03883672, -0.08188394, 0.13797596, -0.41519856, -0.06727293, -0.10096918, 0.28327066, 0.17768832, -0.32669753, 0.35285053, 0.0754274, -0.43271953, -0.23722467, 0.13866134, -0.15551493, 0.21625069, 0.038479578, 0.42093697, 0.2020708, -0.13595396, -0.35042295, 0.27588838, -0.005814924, -0.31087956, -0.15731634, -0.29527277, 0.30479535, -0.41606236, 0.12701319, 0.33273703, 0.3014196, 0.22031434, -0.18431275, -0.23288517, -0.13192567, 0.0007948315, -0.16682146, 0.14930993, 0.068144225, 0.06637801, 0.36826792, 0.07859226, -0.07858073, -0.543345, 0.009677476, -0.057898376, -0.08941461, -0.4080098, 0.07610824, 0.09173645, -0.24812092, 0.23267607, -0.23962659, -0.26778418, 0.05791437, -0.1772067, 0.44979665, -0.25430706, 0.26524234, -0.16998222, 0.16299815, -0.4679804, -0.116602525, 0.37770447, 0.28267875, -0.0031574115, -0.23104896, -0.18304373, 0.11902715, -0.23916286, 0.20870368, 0.31675947, -0.2630114, 0.45825115, 0.79109573, 0.42605603, 0.35481665, 0.07089836, 0.22209948, -0.23551065, 0.03144887, -0.19092761, 0.30112833, -0.1562239, 0.19504407, 0.3165312, 0.13065007, 0.006609198, -0.11554126, 0.06539172, -0.13206962, -0.3260843, -0.22003132, 0.2420454, 0.061073568, -0.020181485, 0.20128469, -0.16908477, 0.3043998, 0.12420742, -0.11911323, -0.32352757, 0.15591237, 0.07756899, -0.26548925, 0.032731067, 0.1792394, 0.033007048, 0.25143963, -0.19938791, -0.5404557, -0.34004775, 0.14784047, 0.4155971, 0.24330856, -0.15492919, -0.060455453, 0.2561108, 0.16742732, 0.3021747, 0.09553242, 0.08978275, -0.09369134, -0.045238968, 0.22489321, 0.042540204, 0.32799727, -0.13451107, -0.10847365, 0.19197784, 0.10060403, 0.3582412, 0.07209667, -0.7518949, -0.12616618, 0.015458941, 0.28670797};
const float dense_b[15] = {-0.078170404, -0.12880766, -0.07139675, 0.0058926423, 0.04574122, -0.039671358, 0.022425814, -0.19034147, -0.056593087, -0.067187734, -0.12290443, 0.00043780042, -0.0854635, -0.02020569, -0.07746806};
const float dense_1_W[45] = {-0.007117517, -0.06645639, 0.0014694931, -0.08770758, 0.014934018, -0.018757071, -0.029737772, -0.004301714, -0.02058077, -0.06058676, 0.06877394, 0.09109919, -0.06718399, -0.056174655, -0.009097015, 0.038748957, 0.0016567799, 0.039710302, 0.07250216, 0.060517672, 0.010342803, 0.046607144, -0.007606618, 0.04433645, 0.0026933716, 0.04326989, -0.005378078, 0.024959989, -0.015389278, 0.012834411, -0.015829252, 0.037107006, 0.021436704, 0.052361146, -0.08991509, 0.04709629, 0.057216175, -0.04158521, 0.025598, -0.00085543556, -0.0022850658, -0.0013685622, -0.00856665, 0.003102529, -0.031069776};
const float dense_1_b[3] = {-0.0, -0.0, -0.0};


#ifdef __cplusplus
}
#endif
#endif
