/********************
    parameters.h

    Code generated using nn4mc.

    This file defines the neural network weight parameters for all layers.

*/
#ifndef __NEURAL_NET_PARAMS_H__
#define __NEURAL_NET_PARAMS_H__

#ifdef __cplusplus
extern "C" {
#endif

const float dense_1_W[360] = {-0.12140364, 0.10939251, 0.06988751, 0.021751225, -0.05007858, 0.17620255, -0.16393417, -0.11492715, 0.19563565, -0.08605991, -0.098058715, -0.15874432, -0.0010274121, -0.15138628, 0.23317738, -0.0120117795, 0.08081791, -0.2242186, 0.046904333, 0.09746568, 0.1250397, 0.04003785, 0.045528896, 0.118036725, 0.00041189883, 0.039937954, -0.02355756, -0.3585613, 0.09538256, 0.06651052, -0.04624561, 0.15591536, -0.069284685, -0.15828247, 0.18791392, 0.009527271, 0.18666019, -0.011877559, 0.06233117, 0.049811214, -0.14845741, 0.049255554, 0.07957395, -0.25835168, 0.07792383, 0.17984119, -0.20188017, -0.09805392, 0.18808995, -0.1033041, 0.14916083, -0.06648107, -0.066698804, 0.078217864, 0.16538097, -0.0611434, 0.14541125, -0.108978964, -0.06177484, 0.022593075, 0.117376626, -0.09035071, -0.08960043, -0.049537793, -0.13616835, -0.1778251, 0.1931879, 0.119168706, -0.20266372, 0.07175165, 0.07739347, 0.16011906, 0.0022966056, 0.10898474, -0.40755284, 0.01063194, -0.069977924, 0.21713962, -0.037623625, -0.07986878, -0.09239954, -0.05567251, -0.01421145, -0.1145463, -0.03872096, -0.022272283, 0.016119331, 0.3812079, -0.036005925, -0.0044948366, -0.085424244, -0.16431414, 0.0738151, 0.17611851, 0.21051227, -0.0071335156, -0.20810191, -0.0039365687, -0.06898841, -0.06394233, 0.083672136, -0.032461986, -0.0836878, 0.25660884, -0.13918395, -0.17197005, 0.20003033, 0.09997248, -0.18470682, 0.08749166, -0.19445282, 0.08985658, 0.07471047, -0.11746932, -0.022793695, 0.0801056, -0.11899163, 0.09613636, 0.11774486, 0.021500532, 0.09347949, -0.10034811, 0.43734226, 0.21433787, 0.54323477, 1.8993967, 1.3791502, 0.17694147, 0.41537276, -0.53894854, -0.2644017, 0.02300651, 1.7819144, 0.011285577, 0.18880917, -0.023357337, -0.30677983, -0.018863132, -1.5877787, 1.1813664, -0.85412693, -0.80035424, 1.7474972, 1.4326787, -0.8420081, -0.6293126, 1.3443022, -0.12628198, 0.237477, -0.62702894, 0.16263323, 0.1887311, 0.15168224, -0.10248187, 0.06366433, 1.3671579, 0.8519693, 0.32071084, 0.121390715, -0.49800953, 0.1694209, 0.24012116, 1.4822527, -0.15439056, -0.045239933, 0.12880905, -0.63342285, -0.40562662, -1.1543149, 1.1071897, -0.49438474, -0.48912984, 1.4648491, 1.2967379, -0.8744288, -0.64479685, 1.1103642, -0.7484053, 0.36263224, -0.75682765, 0.025290623, 0.05738032, -0.027690055, -0.037782047, 0.10465839, 0.023360308, 0.020617465, 0.014476369, 0.010779359, -0.044918098, -0.28495893, 0.19098434, 0.33669958, -0.28985348, -0.21433157, 0.11872104, 0.34813306, 0.3091899, 0.3603764, 0.3343993, 0.36032525, 0.05775839, -0.20610726, -0.07779953, -0.054281384, 0.12433416, -0.056072146, -0.24590689, -0.15070553, -0.22317497, -0.27280274, 0.09578627, -0.09370491, -0.09834036, 0.20142326, 0.05965659, 0.33289942, 0.2847043, 0.3231776, 0.05329004, -0.17038126, 0.32319608, -0.21433105, -0.25012293, -0.14874549, -0.3311053, -0.07663235, -0.04799983, 0.20631704, 0.27844498, -0.2220851, -0.033194005, -0.29768834, -0.29997128, 0.05778171, 0.07236456, 0.3351876, -0.7405491, -0.056148555, -0.36998785, 0.094113134, 0.015811436, 0.08871529, 0.003988218, -0.045766167, -0.07745686, -0.066232465, 0.0042788144, -0.026337208, 0.17284808, -0.15689996, 0.20738956, 0.05391267, -0.091266274, 0.35358086, 0.20996502, -0.04122615, 0.11248511, -0.2218269, 0.18927386, 0.11758621, 0.07363068, -0.06165309, 0.14759131, 0.13001628, 0.19539684, -0.027703054, 0.06525031, 0.1528005, -0.24071567, 0.4779363, -0.58698225, 0.31369585, 0.041689023, -0.178228, 0.015434507, -0.43224472, 0.25318155, 0.11839928, 0.26160192, 0.18113658, -0.8313813, -0.037549224, 0.5898226, 0.2937477, -0.45352665, -0.01305039, -0.77682567, -0.6514947, 0.038646266, -0.24881141, 1.7492987, -0.30283254, 0.010052299, 0.31997424, 0.95450085, 0.46121672, 0.46451026, 1.177097, -0.5286532, 0.050678436, 0.62467295, -0.39489898, -0.95907605, -0.040141683, 0.13374011, 0.6128846, -0.5078578, 0.104319416, -0.29802305, -0.09745074, -0.8522447, 0.18558022, 0.54630166, 0.15799953, -0.3096147, -0.13354479, -0.19879119, -0.25314802, 0.4004162, -0.2701247, 0.18626839, -0.14647293, 0.47096163, 0.31552833, 0.018412914, 0.19669983, -0.31775516, -0.026091263, -0.13919161, -0.08303728, 0.30540645, -0.09595882, 0.182007, 0.38736457, 0.08711158, 0.08798684, 0.9013909, 0.04766025, -0.16964135, 0.5126365, -0.10865303, -0.1418444, -0.025995098, 0.034971662, 0.23965247, 0.17411624, 0.37403566, 0.26211047, -0.20781243, -0.120156325, 0.13952607, 0.038109913, -0.031155383, 0.024468603, -0.009415989, -0.23524839, 0.015164302, -0.14531602, -0.18322961};
const float dense_1_b[10] = {-0.25392228, -0.018953104, 0.27980483, -0.18144399, -0.15356442, 0.1306757, 0.34180656, 0.01962873, 0.12785986, 0.13875656};
const float dense_2_W[50] = {-0.222496, 0.17305216, -0.18533045, 0.14903605, 0.5048726, 0.8301976, 0.7513596, 0.51133865, 0.17454246, 0.27068397, 0.7998155, 0.39971635, 0.13077883, -0.14803542, -0.25754786, -0.6461411, -0.5848664, -0.39774606, 0.038713437, -0.35608235, -0.027165815, -0.02377148, -0.016026532, -0.56954205, 0.4050646, -0.57842016, -0.0945302, -0.692081, 0.041810922, 0.24041167, -0.27555832, -0.37511763, -0.37172467, -0.2657677, -0.8579467, -0.45132223, -0.40947935, -0.27748504, 0.11954561, 0.14276691, -0.38304165, -0.6061473, 0.02434248, 0.14272648, 0.047775388, 0.2401067, 0.49367088, 0.15237948, -0.5535539, 0.058662653};
const float dense_2_b[5] = {0.008332597, 0.07977346, 0.18562421, -0.060128167, -0.0992286};
const float dense_3_W[15] = {0.040587723, 0.07192163, 0.3941176, 0.116966665, 0.118363604, -0.36488852, -0.25635162, -0.2740217, -0.104791075, 0.004427589, 0.0137036, 0.09588644, 0.16887406, 0.017940015, -0.14914688};
const float dense_3_b[3] = {0.0, -0.0, 0.0};


#ifdef __cplusplus
}
#endif
#endif
