/********************
    parameters.h

    Code generated using nn4mc.

    This file defines the neural network weight parameters for all layers.

*/
#ifndef __NEURAL_NET_PARAMS_H__
#define __NEURAL_NET_PARAMS_H__

#ifdef __cplusplus
extern "C" {
#endif

const float gru_W[10200] = {-0.10970858, -0.13479754, -0.10575495, 0.10057142, -0.1264771, 0.019834576, 0.33750197, -0.09854491, -0.15645336, 0.12914407, 0.1390882, 1.3588504, -0.029171556, 0.0076319277, -0.13947779, -0.010547367, 0.11863148, -0.015920103, -0.42401174, -0.09471178, 0.0026642904, 0.15699345, 0.06531132, -0.1390443, 0.115700126, -0.057972282, 0.16185668, 0.042885434, 0.028822474, -0.14242393, 0.07260926, 0.074273646, -0.12634851, -0.029570539, 0.1236379, -0.16251703, -0.16488585, 0.15282397, -0.16454631, 0.1048171, 0.16350938, -0.16253199, 8.5696534e-05, -0.14541973, -10.125277, -0.03023957, 1.6560273, -0.16172074, -0.21745773, -0.073738955, -0.08664427, 0.11376101, -0.095776, -0.07595005, -0.060565427, 0.07562001, 0.10132399, -0.006640002, -0.042274043, 0.13480338, -0.09154415, -0.024536967, -0.0007674247, -0.096567355, -0.106753185, -0.15659955, -0.10912658, 0.059709564, 0.08029634, 0.07507053, -0.0020334125, 0.1363, 0.04069628, 0.075837165, -0.054438636, -0.088121325, 0.036110654, -0.03181082, 0.106615275, -0.16567528, 0.0313171, 0.030310577, -0.037176043, 0.047752947, 0.007479489, 0.0015919954, 0.05650109, 0.07783249, -0.022956833, -0.13551979, -0.13356085, 0.05124846, -0.038151428, -0.14412518, -0.15249416, 0.13058227, 0.026342198, -0.13123873, -0.072406076, -0.013530701, 0.008166151, 0.15358213, 0.20692727, 1.4009749, -0.07113611, 0.04130909, 0.12272391, -0.06342621, -0.02117537, 0.03726365, -0.034702346, 0.099695176, -0.080489315, -0.056856826, 0.025541306, -0.029923702, 0.05267288, 0.04414746, 0.022928119, 0.04228449, -0.10216994, 0.036383107, 0.11599749, -0.035326995, -0.027926538, -0.06462225, 0.05044402, -0.040527582, -0.16271357, -0.10657488, -0.12565996, -0.03496778, -0.16028592, 0.13192421, -0.010871538, 0.121956855, -0.118965685, 0.08464508, 0.03206684, -0.026130259, 0.06664192, 0.14905974, 0.09128789, -0.05982712, 0.045397997, 0.15217993, 0.14644271, 0.01749058, -0.036157, 0.095546275, -0.14037003, 0.17312711, -0.035321113, -0.041444965, -0.020279357, -0.016048795, -0.16788873, 0.09848865, 0.0928252, 0.030617485, -0.03646366, 0.118677266, -0.15558465, -0.042769015, 0.1345647, 0.015174416, -0.052373607, -0.079966016, -0.80907786, 0.028742446, 0.13807656, 0.12432937, -0.1520793, -0.11816852, -0.013898072, -0.12379729, 0.12966156, 0.03083156, 0.13486929, 0.043460697, -0.053753287, 0.07720405, 0.09968451, -0.04595803, -0.14211325, 0.0451248, 0.015841704, -0.030166734, 0.14588311, 0.051400878, -0.13203952, -0.11252321, -0.028739803, -0.031192554, -2.9263272, -0.041945342, -1.3808465, -0.04897621, 0.08971938, 0.11146254, -0.14526796, -0.16525953, 0.11513662, 0.14663541, 0.085499674, -0.0818377, 0.09088886, -0.11367359, -0.089070655, -0.07861605, -0.06128396, 0.15044752, -0.09854452, 0.06663771, -0.084598236, 0.10309851, 0.14032947, 0.021039933, -0.026015118, -0.06484933, -0.06327675, -0.15340365, 0.010253787, 0.11574581, -0.0822512, -0.05062399, -0.119781084, -0.165434, -0.016333237, -0.065364085, 0.091519386, 0.060059916, -0.071012124, -0.13330078, -0.068969406, -0.09870998, -0.09065383, 0.1582272, 0.1609062, -0.15912138, 0.009075686, 0.08433381, 0.14825147, 0.15913433, 0.085685164, -0.10608746, -0.13840313, 0.08851841, 0.051904947, 0.11568549, -0.11179132, 0.10259357, 0.2506167, 0.268745, -0.021964408, -0.091678, 0.112047344, 0.114979744, 0.010763362, -0.1575516, -0.15007643, 0.13732648, 0.110464275, -0.16185518, -0.0734484, 0.040204328, 0.11170431, 0.06294589, -0.06097722, 0.10715163, -0.15040061, -0.124932, -0.073958874, 0.16350508, 0.044202514, 0.079452574, 0.03526081, -0.12087463, -0.0121399425, 0.14674574, -0.09360557, 0.09104664, -0.07414466, -0.11494793, -0.023496192, -0.10510641, -0.12186086, 0.071916275, 0.13011569, 0.10543713, 0.090333, -0.13592704, -0.1321129, -0.13272038, -0.15739882, -0.124824025, -0.060671076, -0.1559186, -0.055191148, 0.056552764, -0.1498092, -0.15309218, -0.0021634893, 0.10338524, -0.1319847, 0.112513125, 0.1896622, 0.082153186, -0.09946664, 0.18010682, 0.008786535, -1.0662255, -0.03943345, 0.12018731, -0.042850606, 0.12116725, -0.08329634, -0.08692079, -0.32056996, 0.07221286, 0.031139895, 0.03588219, -0.025382102, 0.14853606, 0.0013402639, -0.07312393, 0.029547632, -0.07886373, 0.00019906626, -0.10748153, -0.007970035, 0.110344596, -0.07274062, 0.034610868, -0.011788668, -0.08147614, 0.15649024, -0.032066636, 0.006955661, -0.09654491, 0.0074111754, 0.039460823, 0.02636909, 0.16196683, -3.0379024, 0.1103508, 1.7638379, 0.006123524, -0.13634038, 0.009278896, -0.12916924, -0.10096027, 0.07612439, -0.08417022, 0.098516434, -0.072274715, -0.12113243, 0.013662845, 0.020177111, 0.14506564, -0.06689339, -0.013547584, -0.034820378, 0.024334282, -0.06989623, -0.02730596, 0.08131635, -0.13869354, -0.04006642, 0.101079166, 0.11323807, 0.031001866, -0.16345066, -0.08718739, 0.055628404, -0.04856261, -0.16057874, -0.053717963, 0.11441195, -0.016523257, 0.14494461, 0.13188422, -0.1325675, -0.13777891, -0.11886122, 0.16045228, 0.10601714, -0.16232575, 0.017045528, 0.053187594, 0.16098958, -0.076969504, 0.027359396, -0.04423041, 0.07349099, -0.051946193, 0.15440762, 0.0049455613, 0.0136336535, -0.13203107, -0.13707848, 0.09268421, 0.176127, -0.6624558, 0.121091686, -0.024675906, 0.03647977, -0.0054432163, 0.09061828, -0.068690844, 0.01967811, 0.031980455, 0.016984493, 0.1368629, -0.01667589, 0.13555951, -0.07871698, 0.04746899, -0.13540438, -0.0814386, 0.051585898, -0.14731729, -0.062044226, 0.0964773, 0.13530698, 0.16054809, 0.06520867, 0.11810079, -0.047553707, 0.07568243, -0.10889332, -0.11239556, 0.1629433, -0.12493117, 0.0044694142, 0.117400974, 0.049712718, -0.117487125, -0.07867063, -0.073609576, -0.05727456, 0.054210678, -0.06607227, -0.073725075, 0.017321482, 0.049838737, 0.046022788, -0.054410987, -0.07691012, -0.0027368343, 0.033120114, -0.054591313, -0.145584, -0.15825498, -0.09586314, 0.027857114, 0.14312404, -0.11830868, -0.018971011, 0.07193394, -0.08550766, 0.23150478, 0.08765918, 0.11220786, 0.024522085, 0.15013978, 0.07493096, -0.1481959, 0.57042706, 0.13742396, -0.15984538, -0.11162995, 0.13585854, 0.109832734, 0.14625761, -0.113680355, -0.081110545, -0.07996348, -0.12413666, -0.079054974, 0.13289964, -0.06064457, 0.14296475, -0.067956604, 0.12339641, 0.16302177, -0.03492662, 0.046603724, 0.076939404, -0.06640211, 0.09864643, 0.11530709, 0.100239046, 0.1596867, -1.828381, 0.05451939, -0.723767, -0.03303132, 0.10089237, 0.12768148, 0.0874598, -0.10061354, -0.15377599, 0.020847663, -0.15516305, 0.025238529, 0.14756235, -0.12781753, 0.029194057, 0.13141873, -0.038819134, 0.032040864, -0.11031824, -0.15845403, -0.058770634, 0.024314553, -0.04073874, 0.106484056, -0.12003094, -0.01684606, 0.1616717, -0.11550604, -0.11418316, 0.069539696, -0.105236344, -0.111093104, 0.14402652, 0.12268901, 0.057562545, 0.12871686, -0.14045712, 0.053418666, 0.12370947, -0.031638876, -0.15467665, -0.05653336, -0.08819672, 0.03609389, 0.019210532, 0.11965415, -0.11596233, 0.053718045, 2.1800399e-05, 0.04456401, -0.09967101, -0.09231497, 0.024293706, 0.047690257, -0.11972037, 0.083738536, -0.13902757, -0.046970688, 0.09257087, -0.84604585, -0.02690157, 0.028054073, -0.08810724, 0.01944074, 0.1452148, -0.4827026, 0.11429287, 0.060622662, 0.040335, -0.05870197, 0.118597716, -0.098632686, -0.044342246, 0.09557238, 0.06789532, 0.124718964, 0.07002367, 0.07523197, 0.099574655, -0.046085507, -0.1648806, 0.13668162, 0.10515675, 0.032719284, 0.013440302, -0.15367472, 0.0992499, 0.12430181, 0.11336064, 0.11504918, 0.056231733, 0.07621525, -0.008793786, 0.029398026, -0.10525074, 0.1539912, -0.09476195, -0.16525969, -0.045453068, -0.103162386, -0.055456072, 0.06540534, 0.14122537, -0.014347881, 0.05375487, 0.024424225, 0.057627525, 0.08627377, 0.01848326, -0.022594668, -0.077543974, 0.050561134, 0.01577372, -0.02292457, 0.020563345, 0.10112641, 0.1388829, -3.5619104, 0.1393505, -0.12859145, -0.05180063, -0.14748225, 0.11825622, 0.14124405, 3.7594416, -0.0060742684, -0.12210081, 0.10489434, -0.10238764, -0.02920154, -0.14609577, -0.10528666, 0.048104018, 0.10654348, -0.07087765, 0.14447221, 0.084175974, 0.1192449, -0.11830257, -0.070014514, -0.053498764, -0.16347447, 0.102153994, -0.16544724, 0.09317316, 0.027591735, -0.09844117, 0.063427806, 0.22092727, 0.06995713, -4.905415, 0.13033983, 0.09384574, -0.008545646, -0.024042817, -0.104270406, 0.13664457, 0.14395383, -0.029890537, 0.103746325, -0.1392918, 0.07031886, -0.102390096, 0.14404288, -0.15866244, 0.15603259, 0.09747428, 0.0015470982, 0.07435094, -0.08708083, -0.009340137, 0.15549868, 0.018484943, -0.025088027, -0.112674266, 0.16335356, 0.10866094, 0.10745323, -0.021222755, 0.088947326, -0.15823472, -0.016572535, 0.16456294, -0.09924787, 0.10741636, 0.12883085, -0.14635415, -0.08283772, 0.06555976, -0.028300539, -0.065389715, -0.08339177, -0.11308728, 0.097393066, -0.097605206, 0.116965264, 0.14929175, -0.07477511, 0.1009208, 0.012991741, 0.13928393, 0.15749854, -0.033894897, -0.014878377, 0.0204494, -0.030117393, -0.13355753, -0.08220717, 0.26380107, 0.7857091, 0.06761413, 0.10874674, 0.02750732, 0.043625668, -0.14424795, 0.17227001, -0.1479359, -0.1561543, 0.1556477, -0.15316816, 0.114354074, -0.107205, 0.004624718, 0.08356173, -0.13741967, 0.05855234, -0.08835121, 0.16031235, -0.017268494, -0.058585085, 0.079125725, 0.09184781, -0.15065195, 0.15763852, -0.08191855, -0.026036486, 0.15135488, -0.15026656, -0.0974337, 0.00994429, 0.033410966, -0.13590927, -0.013518125, -0.0010849249, 0.123245224, -0.10754359, 0.0042208447, 0.09816888, 0.05164541, -0.1362017, 0.08591834, 0.012325421, 0.077183574, -0.038879976, -0.12067898, 0.063876435, -0.13397257, -0.14009099, -0.054298006, 0.029854182, -0.015575223, -0.08397152, 0.19614565, -0.07416773, 0.0925186, -0.12543087, -0.050215397, -2.5217354, -0.020188898, -0.05573295, -0.16326958, 0.074865334, 0.10692869, -0.09590214, -1.4330732, -0.15454489, 0.0025130664, -0.16380996, 0.054637343, -0.09125446, 0.09640624, 0.07610969, -0.049599864, 0.12638617, 0.12350073, -0.040350825, 0.14538354, -0.09335002, 0.12090513, -0.0975754, 0.117608055, 0.13390654, -0.10582383, -0.019051233, -0.14535187, 0.11806885, -0.118365705, -0.10290837, -0.18943635, -0.070582435, -1.5375227, 0.018773327, -1.8265669, -0.14495264, -0.12506847, -0.07298361, -0.10660598, -0.025359482, -0.10524703, -0.15978953, -0.021012053, 0.04397963, -0.033520922, 0.052909255, 0.021603808, 0.13514945, 0.07514027, -0.096611455, -0.079812355, 0.119138926, -0.14433739, 0.020468786, 0.004290789, -0.015120804, 0.07262315, 0.05092211, 0.042433918, 0.12360802, 0.02639389, -0.11188805, 0.058476, -0.052296087, -0.024120256, 0.14664349, -0.04524029, 0.10557437, 0.11829686, 0.02039762, -0.15867288, 0.13235372, -0.15955552, -0.028264865, 0.0060870796, 0.092256755, 0.053133473, -0.11120406, 0.14269978, -0.038059905, 0.07326479, 0.11152816, 0.119239, -0.067309536, 0.14433452, 0.14470622, -0.018289015, -0.14163223, 0.046354216, -0.11786435, 0.39028287, -2.7241442, -0.101355486, -0.111846015, 0.09016088, 0.14403476, 0.12884888, -0.5524302, 0.0032679278, 0.13809434, 0.15588102, 0.15098497, -0.049202077, -0.040929183, -0.030948507, -0.11250802, 0.024780408, 0.045205757, -0.10404946, 0.078007594, -0.1105208, 0.007337086, 0.14101022, 0.09218311, 0.09698951, 0.10272238, 0.032523554, -0.028096989, -0.05155252, 0.06800744, -0.06686357, -0.14823738, -0.115986936, -0.06728691, -0.089218505, 0.10315562, 0.0497214, 0.11661303, 0.08423317, -0.06632631, 0.0858441, -0.09198086, -0.08325044, -0.033510834, -0.036521778, 0.135458, 0.14826056, 0.054541234, 0.18235795, 0.04633219, 0.043539226, 0.0785744, -0.043383226, -0.04182067, -0.15907279, 0.014194693, 0.0048143957, -0.007116267, -0.010461349, -0.9090549, 0.15132618, -0.005763933, -0.0749411, -0.13136905, -0.055633802, 0.07035154, -0.48768064, 0.13485242, 0.04948434, 0.15842575, -0.05839566, -0.12535682, 0.16814366, 0.14329413, 0.041197628, 0.14461102, -0.037122503, -0.011095896, 0.07394788, -0.004212055, 0.15542877, 0.07242579, -0.07523257, 0.09386742, -0.0941455, -0.16127019, 0.12722257, 0.087685786, -0.06242309, -0.060772926, -0.12773435, 0.05180756, 0.2268463, -0.09805004, 0.2837167, -0.027625732, 0.047625013, -0.10803978, -0.09273487, 0.08990875, -0.15857519, -0.15397719, 0.10983783, -0.025276974, -0.031572297, -0.07933968, -0.11884251, 0.11113089, -0.109310895, 0.035868794, 0.10435104, -0.035035476, 0.15570897, -0.10527083, 0.060813464, 0.13130197, -0.11755508, -0.0031383932, 0.1615667, 0.11555296, -0.11196305, 0.009621203, 0.11533821, 0.123024255, 0.041652218, -0.094972745, 0.029540434, -0.15657511, 0.12871343, 0.009823611, 0.11003351, -0.055075526, -0.12576652, -0.12274195, 0.11017379, 0.11025849, -0.16412671, 0.09351176, -0.102370754, 0.015620396, 0.02057454, 0.03456165, -0.005240783, 0.051285416, 0.052365065, 0.026573464, -0.05245284, 0.11095756, 0.11032554, -0.051211283, 0.12191698, 0.38894692, -0.09052764, 0.09922394, -0.15536833, 0.12316702, 0.08932066, 0.22402056, 0.07645232, 0.1474244, -0.13614821, 0.022811666, 0.14164978, 0.12110087, 0.00897945, -0.071014576, -0.06730906, 0.085119426, 0.041220605, -0.14859945, -0.13568267, -0.12279351, -0.029186852, -0.04241746, -0.07183856, 0.13501403, -0.0632784, 0.040381163, 0.12610826, 0.10137112, 0.13187486, 0.084069565, -0.046940163, -0.13911562, -0.13163161, -0.14186227, -0.06635075, -0.16529354, 0.025402982, 0.15822881, -0.13608882, 0.09739512, -0.0072524995, -0.06245491, -0.020089462, 0.14548987, -0.1276764, -0.1377102, 0.04701644, -0.115810044, 0.03070691, 0.06836022, 0.12942065, -0.082457036, 0.049913563, 0.09773674, -0.013432551, 0.14107662, 0.13140023, 1.0461594, -0.040911175, -0.01620908, -0.013454304, 0.12024934, 0.03325271, 0.1468567, -0.5205307, 0.1472191, -0.099213205, -0.124712825, -0.0017940009, 0.006909975, 0.10007126, -0.02254033, -0.046069026, -0.10677448, -0.0066949315, -0.13526349, -0.09550035, 0.078874305, -0.054072246, 0.028217806, 0.08980377, 0.14053944, -0.11289111, 0.13886325, -0.069183126, 0.045301966, 0.12857205, -0.12493505, 0.061287746, 0.03219955, -10.5637, 0.12669279, 1.5544341, 0.15801495, -0.1076325, -0.12837212, 0.1429854, 0.0615602, 0.06473474, -0.12824005, -0.14335954, -0.11511505, 0.11705038, -0.029564947, -0.1338636, -0.13896978, -0.10597893, -0.07603663, 0.16003242, 0.11637804, 0.052400425, 0.12727845, 0.13773386, 0.10060018, -0.029820189, 0.0750317, 0.029533744, -0.10941805, 0.09802523, -0.016896874, 0.0575476, 0.09689325, 0.1573345, 0.07704094, -0.057609618, 0.009543136, -0.15542176, -0.0023464886, 0.121905446, 0.13424921, -0.078417175, 0.0021036267, 0.04987374, -0.15057544, -0.14684537, 0.026180774, -0.09363927, -0.14246579, -0.02365464, 0.120900065, -0.086818784, 0.07655008, -0.13222888, -0.060802944, -0.12102026, 0.07452181, 0.13057731, -0.11095344, 0.30075064, 1.4966776, -0.023514763, 0.10010329, 0.019859925, 0.039313193, 0.08099149, 0.08367453, -0.079789095, 0.0918777, -0.12664045, -0.13292657, 0.1637581, -0.035567753, 0.041386105, 0.0130447, -0.046012267, 0.11872211, 0.0062475055, 0.026016772, -0.009804264, 0.075219624, 0.04635105, -0.07882098, -0.11516157, 0.010800153, -0.11101078, 0.103033245, 0.036303446, 0.03997315, 0.008078575, 0.050531, -0.025091995, 0.08609927, -0.021343902, 0.11971653, -0.12260108, 0.033115253, -0.11863778, -0.10801491, 0.085685, -0.0730419, 0.051125616, 0.12104803, 0.080064, -0.1429833, -0.07155578, 0.0045245364, -0.03706015, -0.014468185, 0.024500659, 0.024579564, 0.056938846, -0.093991205, -0.3703332, -0.016031764, 0.050954666, 0.045976833, 0.024273016, 0.13338327, 0.0468688, 0.059471294, 0.16619931, -0.03683022, -0.08936646, -0.16023487, -0.77657706, -0.053038973, 0.014904108, -0.13274753, 0.07414769, -0.110873744, 0.014644367, -0.054949507, 0.049320266, -0.047885083, -0.118423626, -0.031181231, -0.13168019, -0.05672719, -0.062410332, 0.114089705, -0.15977071, -0.06464484, -0.043983888, 0.10589871, -0.16612257, -0.08272143, 0.012746739, -0.007671252, -0.048776038, -0.10702229, -3.1389875, 0.104681596, -1.3687682, 0.13985914, 0.23536757, -0.13109443, -0.04932303, 0.1070278, 0.05910883, 0.026477233, 0.10518184, 0.026778623, -0.14797103, 0.07632759, 0.0981085, -0.013221729, -0.12405585, 0.022656381, 0.14871994, 0.123999685, -0.13631117, -0.098540924, 0.0136678, 0.094230324, -0.034834743, 0.039183944, -0.01982817, -0.11492242, -0.032932088, 0.12848094, -0.09322605, 0.113265395, -0.06761556, 0.13713896, 0.025384367, -0.067046344, 0.16186878, -0.13494568, 0.15075442, -0.114186525, -0.00496985, 0.023122162, 0.14190179, -0.0051018745, 0.11928132, -0.049290717, 0.028342813, -0.06077502, -0.12366807, -0.08664348, -0.00076694787, -0.029167041, 0.09290239, -0.09066823, -0.022085339, 0.15887555, 0.12627621, 0.15402564, 0.18705332, 0.26160702, -0.17653774, -0.016886085, -0.12962309, 0.092589356, 0.064138085, -0.19428523, 0.08635197, -0.13596861, -0.029324815, -0.06380939, 0.14034116, 0.120005436, 0.05639169, -0.13319099, -0.009530231, -0.16555665, -0.09956371, -0.0901841, -0.064692385, -0.04516244, 0.14104512, -0.15664347, -0.15630528, -0.044717, -0.15801358, -0.117468104, 0.13532653, -0.13543797, 0.14109635, 0.12656948, 0.04938399, -0.08474158, -0.12398742, -0.028146697, 0.11063009, -0.12320842, -0.10577241, -0.0013180077, 0.028718695, 0.018739685, -0.0507245, 0.07439606, -0.11163393, 0.08727008, -0.10713606, -0.14395082, 0.05607262, -0.18483867, -0.0067195613, -0.096259505, -0.040191445, 0.09825982, 0.1393004, 0.08250759, 0.14383258, -0.11312567, 0.03917424, -1.0715182, -0.10499119, -0.09984964, 0.04952739, -0.06335029, 0.16061313, 0.102785826, -0.26913285, -0.087780006, -0.15995169, 0.06233697, 0.059910107, -0.13249104, -0.14978786, 0.09184104, 0.11638799, -0.14901532, -0.114575736, -0.08369432, 0.08122957, -0.10596076, 0.10949269, 0.015067246, -0.15621261, 0.058924973, -0.10238647, -0.14490232, -0.06445527, -0.06486902, -0.037424006, 0.010912001, 0.047358762, -0.13439201, -2.97623, -0.025728786, 1.5213042, 0.07666671, -0.17241293, -0.076892, -0.108263, 0.091145754, -0.091759466, 0.13387895, 0.06444299, -0.06554477, -0.11319487, -0.011276737, -0.10048329, 0.14965835, 0.11411473, -0.026259005, 0.070400745, -0.016510949, -0.11568169, 0.113057345, -0.13234809, 0.05651185, -0.03509073, 0.13969266, 0.055052698, 0.16389701, -0.15272787, -0.14954486, 0.14318025, 0.14103007, 0.15092742, 0.09184465, 0.09861392, 0.089298815, 0.13010684, -0.07014364, -0.04915224, 0.023732483, -0.15364632, -0.0436977, -0.085584745, -0.0042437166, -0.09235745, 0.037642136, 0.08418062, 0.15833685, -0.036132768, 0.046187848, -0.15333413, 0.01695989, 0.09100756, 0.018835291, 0.024430722, 0.025223494, 0.11180831, 0.11613232, 0.43936214, -0.8167332, -0.13262615, 0.1132893, 0.07291727, -0.086064465, -0.15574393, -0.2255615, -0.07000965, -0.089229345, 0.08953014, 0.031536743, -0.060301878, 0.18113674, -0.10877462, 0.13771889, -0.12361301, 0.15018836, 0.12757447, -0.029603032, -0.099042624, 0.05336194, -0.094821334, 0.065176964, 0.05213447, 0.10844198, -0.105125375, -0.13867415, -0.14729442, 0.10498964, -0.02408886, -0.13063225, -0.05364944, -0.108260036, -0.0698282, 0.115118414, -0.08524172, -0.08321516, 0.14633861, 0.07731521, 0.113819934, -0.1028863, -0.07139298, -0.09929593, 0.060574636, -0.06746522, -0.09987828, 0.08663711, -0.008154839, -0.012391405, -0.14331965, -0.0054442687, -0.165412, -0.0652718, 0.3172061, 0.05307778, -0.030664545, 0.29383877, 0.11736891, 0.179258, 0.0013831109, -0.15794758, -0.15469898, -0.14797132, 0.0950777, -0.12174773, 0.57829523, -0.070572436, 0.11019348, -0.03968863, -0.025647804, -0.025451625, -0.1590507, 0.04481691, 0.04277733, -0.088007905, 0.12664707, 0.07972716, 0.10513303, -0.13699046, 0.14855129, -0.03652749, 0.12267259, -0.15059644, 0.06582953, 0.15221937, -0.028078891, -0.097733416, 0.05570253, 0.0016521215, 0.014667745, -0.149881, -1.9209054, -0.019483231, -0.6365418, -0.109641045, -0.01594961, 0.021751031, -0.082376584, -0.055252016, -0.07762958, 0.06692876, 0.009756923, -0.030167982, -0.09978454, 0.142369, -0.07745969, 0.1086933, 0.14184123, 0.026227921, -0.019858658, -0.057266332, -0.02861388, -0.042878583, -0.14487475, -0.025284126, -0.09301571, 0.04528804, -0.07459312, -0.05492439, -0.01015304, -0.063564904, 0.16411579, 0.08536601, -0.15803291, -0.10526209, -0.1429561, 0.035279676, -0.118894055, 0.063446596, 0.0043148845, -0.120059624, -0.15156235, 0.099012494, -0.016316146, 0.09261933, -0.09306756, 0.14619502, 0.10855672, -0.06699018, -0.021081984, -0.047728106, -0.12564394, -0.15095247, 0.031662717, -0.07779341, -0.12863076, -0.005607173, 0.08317124, -0.16467892, -0.02330453, -0.6600683, 0.014303567, 0.093058884, -0.045277156, 0.08367855, -0.07279279, -0.7039824, 0.11909868, -0.098014385, 0.08780426, -0.012661979, 0.08750361, 0.00128286, -0.12631749, -0.14513214, -0.002245903, 0.14618593, -0.062750496, 0.14730571, 0.03347294, -0.028293623, 0.07397413, -0.048624508, -0.0954697, 0.0040906817, 0.09386542, -0.06399976, -0.067217775, 0.029349443, 0.027108312, -0.005704716, -0.066122666, -0.1290535, -0.07303241, -0.00737918, 0.0508375, 0.06498951, -0.15073664, -0.03464274, 0.13883138, -0.12130177, -0.14144537, 0.04242474, -0.11751671, -0.16084881, 0.08967537, -0.08012447, 0.14448346, -0.06174659, -0.12020947, -0.10419622, -0.00012176182, -0.1648726, -0.06429141, -0.15925705, -0.025287328, -0.06868401, -0.06978062, -3.8330724, -0.069948085, -0.04642129, -0.0049528372, -0.005133342, 0.018638123, 0.11806461, 4.014299, -0.121911384, 0.08568195, -0.14979121, 0.066837154, 0.012250018, 0.14015208, -0.13170713, -0.15229093, 0.16357782, 0.027142696, -0.16035257, 0.060889095, -0.025997085, -0.10749075, 0.107254416, -0.18815987, -0.018978119, -0.017645577, -0.08224252, -0.11546545, 0.15373293, 0.15011314, -0.0017460585, 0.09757425, -0.08310266, -4.5556607, -0.048839692, 0.09809385, -0.013051054, 0.18340138, 0.0023153957, 0.1106672, -0.13749589, 0.06874297, -0.13844669, -0.13826865, 0.09583858, -0.046258487, -0.047815003, 0.1073986, 0.12205067, 0.037371546, -0.120904885, 0.09122765, -0.09815089, 0.16545224, 0.08965397, -0.026180938, 0.09139949, -0.15645075, 0.018275216, 0.019026697, 0.07638669, -0.11432848, 0.04555933, 0.16409475, 0.16553497, -0.08561188, -0.14221492, -0.12058608, 0.016095713, -0.032436594, 0.03685781, -0.045495458, 0.03291717, -0.13074082, 0.07552244, 0.1247471, 0.09652081, 0.076406464, -0.06392156, -0.124234274, -0.030942887, -0.060301483, 0.09936881, -0.008345053, -0.0028018355, 0.09126526, 0.012540862, 0.14209881, 0.09964654, -0.03784192, -0.024424225, 0.17219543, 0.7643551, -0.0054754, 0.114186525, 0.040431708, 0.122464, 0.13598055, 0.28357077, -0.03390732, 0.08914015, -0.06915286, -0.078355744, 0.086420864, 0.052306134, -0.14727503, -0.15245113, -0.0064207166, 0.12953433, -0.10824187, -0.10146058, -0.13712175, 0.0005277673, 0.0985743, 0.15179476, 0.07327898, -0.039540797, -0.024872322, 0.12323487, -0.1262645, -0.004509695, -0.043416433, 0.04709141, -0.12568854, 0.096181184, -0.093154736, -0.1204048, 0.05563109, -0.060546122, -0.0827985, 0.11129075, 0.22946113, -0.087327205, -0.13760565, 0.05462216, -0.09779158, 0.029470295, -0.14578696, 0.13770229, -0.007034164, 0.034363538, -0.10349171, 0.15932763, -0.12069398, -0.0900046, 0.11882163, 0.021929506, -0.08871503, 0.031583052, -0.08118297, -2.3201108, 0.048070803, 0.10080019, -0.014850646, 0.17285721, 0.085624814, 0.060861573, -1.5352072, 0.0035402204, 0.00854609, -0.028114328, -0.012946594, -0.06571829, 0.08806213, -0.08686522, 0.15329638, 0.004965491, 0.046517726, -0.044268303, -0.10565838, -0.09358844, -0.009470463, 0.1066167, -0.087746225, 0.054789826, 0.002604188, -0.011971657, -0.012100194, -0.14034228, -0.126454, -0.060700506, -0.08621541, 0.048795953, -1.5637673, 0.12796567, -1.8771309, -0.16436537, -0.14610127, 0.036417987, -0.11040823, -0.08108306, -0.02928268, 0.021619126, -0.095673874, -0.08425396, 0.090765625, -0.03940718, -0.006279081, -0.02532286, -0.06665164, -0.15788406, -0.030870542, 0.094955474, 0.08443892, 0.045956656, -0.0027212424, -0.017648876, 0.058230802, 0.05298665, -0.16587965, 0.15742749, -0.052319147, 0.044687882, -0.0886657, -0.15057664, 0.12386662, -0.07354708, 0.13949865, -0.057263047, 0.15685192, 0.024696365, 0.08637175, -0.15828913, -0.15688802, 0.031909853, 0.08292645, 0.10194531, 0.01990743, 0.031221151, 0.086824, -0.04652939, -0.06545969, 0.05445707, 0.013103038, 0.12864795, -0.011315525, -0.057762884, 0.020244509, -0.010645762, -0.07601426, -0.00138928, 0.21787025, -2.6709409, -0.12351203, 0.050846636, -0.08829204, 0.1513044, 0.02188401, -0.2661703, 0.11277035, 0.1616408, 0.09295702, 0.05089782, -0.001248911, 0.06742016, 0.10116136, 0.07491429, -0.14936146, -0.002994895, 0.07320902, -0.06081755, -0.056892425, -0.07608961, -0.13656051, -0.05923947, -0.10206125, 0.1429233, 0.0020377787, -0.065123364, -0.15554565, 0.095694326, 0.05956748, -0.06751458, -0.100019835, -0.051823974, -0.005999431, -0.107546724, 0.093218416, -0.103945866, -0.09446801, 0.15735951, -0.058450673, -0.11203508, -0.111597255, 0.041894212, -0.12494273, 0.15952739, -0.11159684, 0.0023519169, -0.06341668, -0.07009108, 0.025614504, -0.16496356, -0.121298365, -0.09320465, -0.16980131, -0.07456725, -0.14528076, 0.070191585, 0.14385064, -0.8883211, -0.15094337, -0.045884542, -0.06905839, 0.083555296, 0.03448739, -0.092168145, -0.527901, -0.115496546, -0.049077477, 0.15397227, -0.115778714, -0.14951837, -0.055223677, 0.03314428, 0.04515873, -0.05959932, 0.14398485, -0.03554374, -0.07892121, -0.056142595, 0.09769511, 0.036798425, -0.02660018, 0.15897939, 0.0032934842, -0.08478498, 0.013193663, 0.07174315, -0.058491133, -0.15018572, -0.11269622, -0.16083597, 0.35508463, 0.016159127, 0.093688205, 0.1188172, 0.0100613125, 0.092270896, -0.045401476, -0.025838047, -0.039411616, 0.029608145, 0.085189044, 0.038720846, -0.03702435, -0.002492562, -0.04012786, -0.053981625, 0.08307494, 0.13382104, 0.100406826, -0.08664997, 0.12689212, 0.044730842, -0.121733405, 0.14771584, 0.04369311, -0.06905152, 0.124920964, 0.15458775, -0.032227784, 0.09204742, 0.123773545, 0.12993449, 0.038147673, -0.035118297, -0.126713, -0.023481831, 0.10784456, 0.055624038, -0.16101241, -0.13990095, -0.12434733, 0.0481783, -0.08951504, 0.03540589, -0.060328938, -0.14762607, -0.0004748404, -0.02382879, -0.012419909, -0.042465284, -0.00681147, 0.10978225, 0.15840426, 0.04868412, -0.0068069994, 0.12465, -0.024785206, -0.092869274, -0.04134805, 0.27034274, -0.105270736, 0.13957602, -0.15725821, 0.14652105, -0.029167354, 0.15847476, 0.097972885, 0.012769252, -0.10469209, 0.03266573, 0.08564752, -0.15103151, -0.051649734, -0.16496055, 0.14082983, -0.0021374375, 0.13878217, 0.12968904, 0.031129703, -0.030138807, 0.14132911, 0.02016446, -0.0875069, -0.06406724, -0.16149531, -0.02753082, 0.14740571, -0.032121465, 0.024164483, -0.15181372, -0.1436756, 0.13701552, -0.011121362, 0.07211771, -0.18709238, -0.13320237, -0.10185036, -0.13903648, -0.18496086, -0.13842936, 0.09337494, -0.08233659, 0.09647578, 0.014005825, -0.12504722, -0.067820534, -0.1557856, 0.022477802, -0.13710332, 0.15191093, 0.008296721, -0.017291676, 0.28667322, 0.15447722, 0.09426445, 0.10262937, -0.10519641, 1.0116547, -0.05007427, 0.11903578, 0.12792659, -0.18814999, -0.025431113, 0.07150172, -0.38412285, 0.09420786, -0.058571484, -0.07454283, 0.075232685, 0.03449548, 0.17297572, -0.11853728, 0.00923793, 0.04007018, -0.038777497, 0.16141427, 0.11445227, -0.052384265, -0.002212599, 0.07078593, -0.06248449, -0.13366958, 0.015352675, -0.030031579, 0.026595276, 0.16155502, 0.0027720153, 0.028010488, 0.0835395, -0.097586416, -10.8963585, -0.13886684, 1.7302791, 0.009275377, -0.1710902, -0.051557124, -0.027727917, 0.10308248, -0.005871646, -0.076313, -0.1377473, 0.06558384, -0.09931116, -0.13222446, 0.09549913, 0.06090559, 0.08869493, 0.011980191, -0.1255155, 0.100408226, -0.13567065, -0.09454192, -0.094884, -0.15566759, 0.01811415, 0.01336956, -0.0043792278, -0.079354085, -0.11803652, 0.011321381, 0.10823983, -0.0029647946, 0.118148476, -0.07489764, -0.0527945, 0.085038036, -0.03814657, 0.090353414, -0.15301149, 0.05620648, -0.10002534, -0.01071313, 0.12660065, -0.032256022, -0.10152541, 0.008793473, 0.02311477, 0.06466727, 0.09964329, 0.121022165, -0.10371507, -0.14508112, 0.043174952, 0.12195364, 0.052511767, -0.15386271, 0.076884456, -0.07278753, 0.3616417, 1.5511369, -0.040283084, 0.12304902, -0.053747, 0.1364492, 0.1505675, 0.12857226, -0.12159815, 0.11892685, -0.06824573, -0.041833848, 0.0069366544, -0.1375823, 0.16733412, -0.036031634, 0.102832824, -0.09582141, -0.008546889, 0.10630453, 0.061192393, 0.1290173, -0.13799696, 0.12880275, -0.16581826, 0.09253189, 0.041450243, -0.038451612, -0.10654724, -0.16893148, 0.07673377, 0.10958737, -0.0027667347, 0.06481017, 0.08227034, 0.07907083, 0.04840432, -0.16461848, 0.08058776, -0.105235994, 0.09911504, 0.018646374, -0.054269858, 0.011522323, -0.06271098, -0.14511067, 0.037066985, 0.086473346, -0.10279612, 0.050499175, -0.09940161, 0.14448206, -0.02568653, -0.090320155, -0.25606623, -0.13908921, 0.005633143, -0.07786231, -0.09343248, 0.1746287, -0.1580386, 0.08515072, 0.094734095, 0.044072133, 0.040169302, 0.02297847, -0.75962347, -0.1471282, -0.028655555, -0.0392863, 0.08441883, 0.056038998, -0.0859141, 0.0001796186, -0.047246933, 0.0007669959, -0.025289727, -0.094681434, -0.03338623, -0.12568198, 0.040735513, 0.026423879, -0.1011822, -0.09018738, 0.13494617, -0.02625596, -0.08733971, -0.10931523, -0.01741411, -0.09776967, 0.098233886, 0.039764363, -3.364466, -0.12468958, -1.4178632, 0.06163156, 0.004533942, -0.0803803, -0.09766358, 0.08742371, -0.025515722, -0.113263145, 0.057911575, 0.09778434, -0.15299162, -0.070959754, -0.022535384, -0.112010635, -0.15211381, -0.10473251, 0.1371581, -0.13356085, -0.0851194, 0.1510835, -0.1252221, -0.13538423, 0.061074883, -0.1385945, 0.04161112, -0.047777705, 0.15742734, -0.08686067, 0.114365906, 0.15226308, -0.12869772, 0.073472485, -0.15800434, 0.11521649, -0.05218949, -0.16448706, -0.04414347, -0.052337028, 0.043525726, 0.12712717, -0.11200319, 0.043351054, -0.16553222, -0.117699645, -0.056699567, 0.08530092, -0.10736675, -0.03718695, 0.08822784, 0.04020138, -0.05220183, 0.06421426, -0.0108371675, -0.12585784, -0.037554238, 0.04906462, 0.38920718, 0.22256279, -0.045980502, 0.035793632, 0.14706615, 0.12072113, -0.14310794, -0.164008, 0.11460435, -0.03770104, 0.03782274, 0.03978184, 0.008633196, 0.13495444, 0.08159471, 0.039943412, 0.07670224, -0.047694407, 0.012573853, -0.1411169, -0.0033469945, -0.14871943, 0.15660724, 0.077852935, -0.15652797, 0.08706814, -0.13119051, 0.07513647, 0.096476585, -0.04694448, 0.1455523, -0.08077394, -0.061594844, -0.08650279, -0.068837695, -0.0812706, 0.052069787, 0.1273801, 0.008867969, 0.16528255, -0.061545964, 0.061099723, 0.057553887, 0.14120784, -0.11716923, 0.15628949, 0.1055445, 0.017725095, -0.059258483, -0.063702606, -0.019188091, -0.048102356, 0.039349474, -0.07562697, 0.24979515, -0.10197979, 0.11030012, 0.071453005, 0.022146085, -0.815201, -0.08290166, -0.057521768, -0.14188293, 0.10679191, 0.13004717, -0.03302306, -0.16436987, -0.16325761, -0.10427594, -0.13861184, -0.071780935, 0.0957976, 0.17230506, 0.113147885, 0.123624176, 0.009388277, -0.020125046, -0.065445885, -0.07195413, -0.07460318, -0.12980847, 0.09221205, -0.07417147, 0.10314411, 0.09454432, -0.15667164, -0.17433208, 0.072914846, -0.103979796, 0.10594234, -0.029830087, 0.12836415, -2.7182405, 0.045300145, 1.6921396, 0.14637312, 0.08244939, 0.14136058, -0.008389309, -0.15701392, -0.13758905, -0.090895265, -0.15225185, -0.12331359, 0.16398373, -0.012079313, 0.01457262, 0.12783295, 0.025740147, -0.00836201, -0.019235104, -0.029309243, -0.015208602, 0.0660499, -0.15500183, 0.026786223, 0.090402454, -0.033734545, -0.075212255, -0.09229041, 0.10220149, -0.030478403, 0.14190069, 0.021100208, 0.009925857, 0.12602296, -0.15945925, -0.10731462, 0.15699697, 0.05306537, -0.14861694, 0.12910503, 0.07998742, 0.023554996, -0.13678986, 0.07847966, 0.118190914, 0.095425785, 0.07989906, -0.0780165, -0.116175085, -0.11998423, -0.042681247, 0.12977639, -0.009647042, 0.06389043, -0.12855726, -0.09577319, 0.09400267, 0.14200747, 0.2742713, -0.64877325, -0.13731939, 0.04569006, -0.053429462, 0.1348083, 0.037170187, -0.27426144, -0.15456165, -0.117371984, 0.04039754, -0.12130865, 0.01143384, -0.1125427, 0.007419099, 0.102543056, -0.06529712, -0.16170962, 0.12563789, -0.15999353, -0.10843529, -0.111788005, -0.015051337, 0.033491418, 0.10991329, -0.06264908, 0.13657157, -0.1603136, 0.11178926, 0.15506491, 0.053519398, 0.13799515, 0.105044805, 0.13614619, 0.03307262, 0.12145562, 0.1470907, 0.16572326, -0.07523357, -0.074820675, 0.1037607, 0.14432746, 0.0913654, 0.0062266737, -0.091737285, 0.018050104, -0.041246634, 0.07666917, 0.0367113, -0.040362652, -0.08033803, 0.053076882, 0.15159926, -0.039817326, 0.11766362, -0.004297737, 0.11712324, 0.080051675, 0.08044733, 0.08962986, 0.11884311, 0.12148324, -0.12422913, -0.06395969, 0.06589777, -0.022513077, 0.71314186, -0.09775937, -0.14552607, 0.12538101, 0.02835504, -0.07547572, 0.16969849, -0.116166785, -0.1324052, 0.030050218, 0.12583439, -0.08547301, 0.06158413, -0.1458796, -0.0529185, 0.04161, 0.11928592, 0.089851856, 0.11301856, -0.04007754, 0.1200087, 0.1377977, 0.06708434, 0.15454659, -0.1461656, 0.0900661, -2.058685, -0.07631317, -0.79566467, -0.14744982, -0.1570196, -0.06365096, -0.11504626, -0.023470953, 0.16291143, 0.030145362, 0.06567526, 0.11541787, 0.15384093, 0.042810068, -0.05802311, 0.12606096, -0.13519287, 0.05133395, -0.040369883, -0.12795308, -0.12444937, -0.021046504, -0.099855706, -0.07405962, 0.116476536, -0.12716019, 0.09135184, 0.008812219, -0.03746268, -0.07755241, -0.15527977, -0.16553435, -0.05771064, 0.0737973, 0.047118142, 0.0738866, -0.06383589, -0.16410156, 0.12828419, 0.11105043, 0.05381483, -0.104730375, -0.09657143, -0.113750085, 0.030256748, 0.009240419, -0.11130021, -0.1268337, 0.0700022, 0.1306471, -0.026285082, -0.065679766, 0.04074426, 0.0067848116, 0.07156196, 0.10475066, 0.07510031, -0.14713652, 0.03626931, -0.5900876, -0.034745593, -0.06260363, 0.0988839, -0.14295349, -0.10937849, -0.71466774, -0.007494704, 0.15309474, 0.10379559, -0.08711287, -0.06369413, -0.18345417, -0.06998807, -0.15551412, 0.022005916, -0.0637054, 0.12608093, 0.13033083, -0.059199363, -0.14268444, -0.11087081, 0.072774276, -0.04116025, -0.05203171, -0.006743559, 0.047914997, -0.10772942, -0.074758194, 0.15310118, 0.024519086, -0.012917681, -0.08410884, -0.0068710297, -0.06358842, 0.16660053, 0.045643583, 0.15908118, 0.12809259, -0.09056159, 0.09641698, -0.06639928, 0.11323646, -0.020697474, -0.041277923, -0.067841545, -0.077078916, 0.006689169, 0.07268683, -0.0317666, -0.023769172, 0.12129238, 0.045296755, -0.21188955, -0.08514153, 0.057440817, -0.024384415, 0.16004518, -3.9213507, 0.15506163, -0.06566679, -0.10118714, -0.17064956, -0.10286497, -0.06463962, 4.2671266, -0.14961895, 0.08192776, -0.017529853, -0.119625345, 0.027522268, 0.13324347, -0.10859481, -0.008277848, 0.0068492936, -0.10162626, -0.096173316, -0.15929127, -0.14653449, -0.011463061, 0.03801167, -0.06517217, -0.11499022, 0.021497877, 0.063510954, -0.15497887, 0.11199325, 0.05825443, 0.116068095, 0.1279107, 0.11179014, -4.2822886, 0.06637761, 0.14394318, -0.06453537, 0.072310634, -0.14731145, 0.002665326, -1.218915e-05, 0.024169836, 0.070445, -0.10392775, 0.08187108, 0.07263778, 0.09316313, 0.06604959, 0.14912888, 0.14186406, -0.15938564, -0.11883792, -0.018584758, -0.09207595, 0.007319376, -0.032329913, -0.0104715675, 0.112609744, -0.038162187, 0.14899018, 0.061569378, -0.15690103, 0.10251391, 0.15649179, -0.037140206, 0.14964035, -0.14688982, 0.0055781454, -0.083864234, 0.12948743, -0.09746395, 0.05652553, 0.08383046, 0.10092223, -0.09459244, 0.049647138, -0.12429562, -0.043167517, -0.07253336, -0.10328904, 0.10124126, -0.0878062, 0.016151533, 0.09391445, -0.050630957, -0.1288553, 0.033493236, -0.11738512, -0.070575565, -0.13004158, -0.06317028, 0.005788314, 0.6309319, -0.07305608, 0.092987925, 0.0670314, -0.045663755, -0.12421118, 0.21560937, -0.045244996, -0.15540491, 0.04788506, -0.13973933, 0.15480581, -0.12613939, 0.11163132, -0.092861526, 0.109521955, -0.15246512, -0.06764895, 0.17569283, -0.01035805, 0.051191807, 0.1254824, 0.010124609, -0.1524306, 0.13922185, 0.11691163, 0.098597884, 0.015917733, -0.12947764, -0.06495771, -0.066921, -0.1530255, 0.0658644, 0.12359989, 0.053618874, 0.10407875, 0.10960728, 0.041244924, 0.024582371, 0.05247295, -0.09357361, -0.10205128, -0.046990193, 0.15855923, -0.10327891, -0.13080573, 0.087926, -0.09960015, -0.15749553, 0.15226026, 0.05411564, -0.036358625, -0.00072675216, 0.24973483, -0.1577121, -0.09479319, -0.2071176, 0.107906446, -2.0403821, -0.08700907, -0.008725837, -0.15267582, 0.1721609, 0.022025045, -0.12673257, -1.7360592, -0.073058106, 0.09098457, 0.12318711, 0.119385414, 0.007233632, 0.027675152, -0.07649799, -0.12782659, 0.0051222323, 0.16029905, 0.009224251, 0.0828564, -0.14231178, -0.128609, 0.030473107, 0.16691117, -0.053349994, 0.16980459, -0.13510709, -0.110611945, 0.12820247, 0.16182083, -0.013829127, 0.0653107, 0.124853104, -1.6218338, 0.17270288, -1.7050589, 0.06409511, -0.014506763, -0.12505355, 0.091460615, -0.13381329, -0.08697812, -0.010235757, 0.12410337, -0.024967581, 0.077825844, -0.15312389, -0.051700406, -0.10999952, -0.10435529, -0.016135395, 0.112947226, -0.14201634, 0.004825279, -0.00080919266, -0.08481967, -0.059283964, -0.0010391176, -0.14055498, -0.15898378, 0.044058666, -0.05015552, 0.06083633, -0.09747203, -0.023053378, 0.121894, -0.10011659, 0.050319225, 0.15716967, -0.011471137, 0.052217197, -0.052191824, -0.055783615, 0.1138705, -0.043339305, 0.027486563, 0.11578593, -0.11114168, -0.1351938, 0.021093652, -0.06758653, -0.022502512, -0.12099463, 0.008156657, -0.09397354, 0.020702183, -0.14145222, -0.067278445, -0.15027425, -0.13090904, 0.08328734, 0.25446317, -2.5649607, 0.13805556, 0.0570243, 0.16586676, -0.058343668, 0.06711723, -0.44447178, -0.025839113, 0.06462897, 0.07710236, 0.1523641, -0.033471555, 0.14418903, 0.053729713, -0.14589263, 0.052832156, -0.06774554, -0.034376547, -0.06727075, -0.05191756, 0.16049139, 0.03432422, -0.13060777, 0.1332835, -0.1308721, 0.06393456, -0.0089600235, -0.0296513, 0.12414731, -0.0050665587, 0.06422356, -0.12944174, 0.1198909, -0.052767962, -0.054317832, -0.13321306, 0.05129926, 0.07089578, 0.067744225, 0.16247791, 0.15553394, 0.15869784, -0.079478756, 0.08966723, -0.0034466684, 0.036503635, -0.14494766, 0.10794058, -0.111923404, -0.08897578, -0.13769683, 0.123352535, -0.12643906, -0.14285606, -0.114684455, -0.07930577, 0.08015171, 0.14569391, -1.0505809, 0.105068445, 0.047447354, 0.0041215317, 0.014736719, 0.0027603025, -0.06945236, -0.5107402, 0.12994006, 0.1193059, 0.11134393, 0.16156894, -0.09306924, 0.08497839, -0.098258905, 0.15179023, 0.0387262, 0.0012721554, 0.09204462, -0.14151807, 0.104071096, -0.13336134, -0.047182687, -0.10827841, 0.06456305, -0.13372041, 0.07344926, 0.08741672, 0.092345975, -0.028812438, -0.11207962, -0.040453583, 0.006796567, 0.35056806, 0.08434523, 0.20121726, 0.097593635, -0.09228704, -0.0023932026, 0.021782637, -0.13576613, 0.045315, 0.12635526, -0.13390367, -0.02666381, 0.13892719, 0.031011552, 0.014022157, -0.025795333, -0.024125487, 0.12848318, -0.026625797, 0.11339247, 0.16423053, 0.06806798, 0.12372432, 0.026589796, -0.16172794, -0.01551792, 0.13422135, -0.12655367, -0.16355093, -0.10250876, -0.15938975, -0.013155103, -0.13550745, 0.13659593, -0.12900323, -0.10368532, -0.09382331, 0.13718326, 0.16269127, 0.059865326, -0.017693296, 0.147665, 0.012438223, 0.15708143, 0.14195642, 0.042451322, 0.027932256, 0.091418356, 0.15452325, -0.092855036, -0.1504511, -0.048745863, -0.0690391, 0.099948555, -0.0045006275, -0.14921653, -0.021005541, -0.055087157, -0.05869092, 0.3446587, -0.049041677, 0.08606905, -0.07528476, -0.160955, 0.1159803, 0.27191955, 0.03196493, -0.0898092, -0.07602567, -0.037161082, -0.046345703, 0.0968494, 0.031533312, -0.14204173, -0.12458041, -0.024230227, 0.03228186, -0.001910456, -0.16144952, 0.098166496, 0.11868875, -0.04127527, 0.11332896, -0.08547336, -0.08128152, 0.07477601, -0.09556439, -0.08028543, -0.10798719, 0.104854524, -0.0122388, -0.085406594, -0.076638326, -0.063674554, -0.18952422, 0.055477038, -0.06995949, -0.093795545, 0.015943531, -0.036697596, 0.0030774772, 0.12993398, -0.047003202, 0.011636198, 0.10635217, -0.09917707, 0.09143772, 0.07282394, 0.14663315, 0.09972225, -0.06263737, 0.0014093595, 0.27122742, -0.1033449, -0.13985358, -0.03988263, 0.068792254, 0.9843886, -0.020829946, -0.05551046, -0.16341636, -0.09870854, 0.16583204, -0.1150541, -0.31390056, 0.02753914, -0.032705586, 0.049919933, 0.010716241, -0.09138221, 0.14747725, 0.021396548, -0.08605595, 0.15650958, 0.0802519, -0.051249653, 0.07771434, -0.070031516, 0.16060168, -0.10251795, -0.114226915, -0.01499629, -0.071150176, -0.057783227, -0.051923946, -0.063265264, 0.10273251, -0.11322035, -0.0609829, 0.025657723, -11.185995, -0.03284059, 1.6912943, -0.05669059, 0.09480034, 0.058875833, 0.06395471, -0.018059835, -0.060540855, -0.09578379, -0.030480549, -0.07232657, 0.01495792, 0.008532494, 0.10002616, 0.16419715, -0.09722252, -0.11980142, -0.15440804, -0.03125651, 0.08859557, 0.09423658, -0.059652045, 0.07145089, -0.1494257, 0.13297993, -0.09327909, -0.09027357, 0.084658235, -0.15565446, 0.08774546, -0.00017118454, -0.09537465, 0.110892296, 0.0875642, 0.038492426, 0.14887586, 0.011273858, 0.015728936, 0.041447088, -0.055776812, -0.10756713, -0.12735705, -0.13466492, -0.08581574, 0.085811734, -0.13963129, -0.053456552, 0.065690055, -0.14560227, 0.08204678, -0.15393212, 0.08405037, -0.05344876, -0.014199436, -0.03925684, 0.032683652, 0.11459297, 0.22631583, 1.6131864, 0.009420556, -0.05804997, 0.12952182, 0.032864965, 0.13819346, 0.05258193, 0.028864503, -0.12436817, -0.16024941, -0.09586389, -0.13397898, 0.101803504, -0.01636065, 0.08631688, 0.13087651, 0.041828513, -0.010751024, 0.08053461, -0.06542504, -0.003869437, -0.0020205562, 0.012958437, 0.12354851, 0.120073885, 0.044501062, 0.14886007, -0.030239463, 0.05624343, 0.0712322, -0.07688715, -0.105889924, -0.080740675, -0.03021948, 0.063314445, 0.07537852, 0.13550815, 0.119702354, -0.014980942, -0.11780977, 0.05904922, 0.065442085, 0.05341138, -0.046823114, -0.08638377, 0.07093748, -0.018273009, -0.0671813, 0.01806264, -0.05288711, -0.11235073, 0.15641367, 0.013694868, -0.21518852, -0.10239816, 0.11383852, -0.048015386, 0.049538054, 0.010684848, 0.013040319, -0.09266297, -0.100547455, 0.035557, 0.12237753, 0.04325117, -0.55811167, -0.13914296, 0.025430871, -0.042301163, 0.16720736, -0.054960918, 0.09319312, 0.012952864, -0.01516439, -0.015060781, 0.1414369, -0.08741766, 0.0033180863, 0.0462448, -0.09053177, -0.1392499, 0.05480234, -0.13213739, 0.01058162, 0.07211393, 0.02613945, 0.046528094, -0.15617377, 0.15066895, -0.08255969, 0.10335302, -3.4172068, 0.044981908, -1.5711513, 0.09138813, 0.17296605, -0.116274595, 0.116910666, 0.15495065, -0.15746884, -0.053109273, 0.09477356, 0.053812265, 0.0338144, -0.106967375, 0.023636043, -0.13207647, 0.15225866, 0.027067214, 0.12058309, -0.061821416, 0.14408013, -0.11534632, -0.101080805, 0.15389398, -0.042731397, -0.0048991293, -0.084869854, 0.16141626, 0.06825705, 0.08538967, -0.005253166, -0.10303957, 0.13415468, 0.0052340627, -0.10471835, 0.11235431, 0.036872104, 0.05067541, -0.13212612, -0.12180445, 0.07860628, -0.06260747, -0.09045045, -0.11556105, -0.06963652, 0.017992437, -0.07171685, 0.014210865, -0.10844977, -5.64754e-05, -0.08256324, -0.016759902, -0.06523245, 0.07275237, -0.15946451, 0.09952471, 0.0041275653, 0.053747356, 0.39349937, 0.06705037, -0.07633293, 0.14137137, -0.05344516, -0.05853828, -0.019209504, -0.013402522, -0.0036479582, 0.120494604, 0.097821, 0.034116432, -0.12250942, 0.13044414, -0.11497811, -0.013616458, 0.058032364, -0.10201972, -0.084528066, -0.16764343, -0.12846008, 0.15223236, 0.05756887, -0.14739698, 0.05701801, 0.04971406, -0.003321375, -0.15578808, -0.10866356, 0.063284755, 0.04950632, -0.08434861, -0.16956478, -0.14941308, -0.15101619, -0.002168223, 0.019177128, 0.149988, 0.13170707, 0.1336061, -0.013097052, 0.1092408, -0.09297497, 0.08086112, -0.039897606, 0.05600682, 0.18431203, 0.14994729, 0.02293878, -0.10059969, 0.07687173, -0.07791341, -0.0922914, 0.018316584, 0.12180344, -0.17993167, 0.059548646, -0.0010264344, -0.03853527, -0.6505261, 0.07028651, -0.0119192, -0.06810133, 0.08280809, -0.037400264, -0.09836993, 0.07400856, -0.16919243, 0.12317251, -0.016073536, 0.14264739, 0.14990315, 0.101102486, -0.11387856, -0.13039774, -0.09784151, -0.1404701, -0.15412934, 0.01651135, -0.058406837, 0.06427565, -0.050537083, -0.05812037, 0.085693, -0.13330868, -0.11058438, 0.041749995, -0.015300513, 0.11322266, 0.05387579, -0.030014647, 0.05037212, -2.892912, 0.0071688774, 1.7375921, 0.0598024, -0.17308152, 0.11895687, -0.08846714, -0.11062827, -0.081504986, 0.031969696, 0.1501736, 0.035392836, -0.0138735175, 0.08357419, -0.12190433, -0.09061377, -0.05534453, 0.029679894, -0.07976576, -0.1555055, 0.14485294, -0.015623763, 0.11609951, 0.107226044, -0.123396255, 0.11087069, -0.11290032, 0.14759871, 0.040391713, 0.07279818, -0.15828015, 0.09690443, 0.07776478, -0.095365316, -0.05941841, 0.11923504, 0.09680629, -0.029558001, -0.09163077, -0.0707235, 0.013899222, 0.14849094, 0.071071446, 0.013349548, -0.08403178, -0.005764872, -0.13863848, 0.01915726, -0.123339295, 0.006415263, -0.08073075, -0.08935785, -0.123154975, -0.13025111, 0.15861598, -0.030289978, -0.080585755, 0.041630507, 0.19261602, -0.87973243, 0.12170019, -0.0049033165, -0.14841545, 0.1097545, 0.12511984, -0.32668203, -0.055331692, 0.116437525, -0.11962461, -0.033816025, -0.12267452, 0.067232154, 0.13298343, 0.14824268, 0.036759973, -0.0037596226, -0.00071561337, 0.035581443, -0.0046200007, 0.0045935228, -0.016521106, 0.033838898, 0.12553203, -0.13477445, -0.09114334, 0.10392192, -0.030951545, 0.04524217, -0.01556538, -0.15145816, -0.12856501, -0.09717917, -0.024700314, 0.104711324, -0.06728776, -0.030765176, -0.09966788, -0.1551475, 0.045305427, -0.050092548, 0.028244257, 0.08871192, -0.060009457, 0.12348366, -0.0897611, -0.1389258, -0.110047616, -0.019842627, 0.0922233, 0.04403442, 0.034830503, 0.10247225, 0.29685852, -0.076279685, 0.15089284, 0.09753721, -0.04053128, 0.17293353, 0.16409215, -0.061631083, 0.056609534, 0.067059994, 0.00920464, -0.009407103, 0.89690465, -0.085975185, -0.16266388, -0.058135428, 0.13735761, 0.088555306, -0.14445935, -0.05766855, -0.07613504, -0.06966502, -0.058543425, -0.15280105, 0.058652773, -0.13223602, 0.079924956, 0.037788555, 0.00829402, 0.033737004, 0.08590276, 0.16302654, -0.05630392, 0.008674171, 0.046581235, 0.05555539, 0.110890426, -0.08677717, -2.4471507, -0.12421771, -0.69636154, 0.08378781, 0.07672343, 0.036265206, 0.050540224, -0.06730835, -0.09549541, -0.14606652, -0.042722814, -0.017265916, 0.0790447, -0.016864136, 0.037984446, 0.15568769, -0.0736591, -0.10665284, 0.014098182, 0.04564196, -0.062142, 0.09033209, 0.08691793, 0.14716151, -0.048468985, -0.07313762, -0.11562106, -0.11167229, 0.1051397, -0.04471071, 0.15190852, -0.05212304, -0.13889048, 0.06071873, -0.05253412, -0.042802677, -0.044810586, 0.023352763, 0.123696595, -0.0063439906, -0.025149643, 0.07601151, 0.027660355, 0.016541451, 0.061001197, -0.0023333877, -0.12907925, 0.12997136, 0.0615146, -0.044076547, 0.008543447, -0.094771616, -0.16431047, -0.15359992, 0.115893334, -0.124787636, -0.1469539, -0.02872166, 0.21936163, -0.63949054, -0.047477283, -0.045606837, 0.105024785, -0.03314525, 0.075742275, -0.5727915, -0.123339735, 0.016481131, -0.09313053, -0.04740396, 0.07908164, -0.0076804245, -0.004187539, -0.15173489, -0.077203944, 0.039740667, 0.08406007, 0.1582011, 0.102828264, -0.097942665, -0.043072935, -0.014382169, 0.04768364, 0.077177, -0.09066195, 0.107352495, 0.15752155, 0.0026562721, -0.13263668, -0.12682723, 0.052927, 0.038853034, -0.1536867, -0.059678756, 0.082584076, -0.09948741, -0.15131558, 0.012072623, -0.0644244, 0.02974607, 0.090230525, 0.12457785, -0.14841826, -0.09578249, -0.06667864, 0.04847069, -0.10203895, 0.014624793, -0.13397262, -0.025141858, -0.029285347, -0.07643256, 0.05373149, -0.17071739, -0.13407034, -0.1816692, 0.10996592, -3.758921, -0.12667201, 0.05056621, -0.07962244, -0.14953066, 0.06049147, 0.068843424, 4.396777, 0.027961653, 0.10267972, 0.12962402, -0.12812646, -0.046257667, -0.09847545, -0.013671473, -0.055373408, -0.09903758, -0.1728186, -0.04947915, 0.08792758, 0.106414914, -0.13277805, 0.14960186, -0.101146504, 0.14134389, -0.020576986, -0.061643448, 0.08168036, 0.03777901, 0.07270462, 0.14148912, -0.12288255, 0.15228443, -4.0716825, -0.067902036, 0.08534591, 0.10027352, 0.005490832, 0.13113263, 0.14298332, 0.11373234, 0.13693824, -0.1641071, 0.16129106, -0.10232891, -0.04698465, -0.0069188178, 0.057968765, 0.12024158, 0.075684175, -0.011311382, 0.1304492, -0.035465017, -0.031342253, -0.07062643, 0.029756904, -0.11089482, 0.02618374, 0.059783325, -0.1377814, 0.1633909, 0.122636735, -0.04054016, -0.024670929, -0.0029265434, 0.010213047, 0.051962167, -0.041706644, -0.09275647, 0.08765438, 0.0076554134, 0.079722166, -0.0147218555, 0.07843275, 0.038746446, 0.08735579, -0.15801787, 0.15877888, -0.046653233, -0.156979, -0.037990376, -0.08681103, 0.13873449, -0.13643779, -0.048079774, 0.11268377, 0.01169391, -0.053250402, -0.15480793, -0.06807321, -0.031505898, 0.11721108, 0.4183334, -0.103768125, 0.106122434, -0.13931802, -0.102183975, 0.061258808, 0.35432303, 0.047827452, -0.011262968, -0.055226862, 0.11975983, -0.018442988, -0.010785344, -0.03388297, 0.046836287, -0.043663204, 0.06935838, -0.03893523, -0.008589496, -0.03263697, 0.14794509, 0.10403429, 0.12024331, -0.15766466, -0.048104383, -0.007220288, -0.06788781, -0.041209966, -0.10337097, 0.12203035, -0.102175914, -0.02636617, 0.11009616, 0.16429612, 0.0728971, -0.04596563, 0.08066192, -0.16232385, 0.0124414265, 0.22274826, -0.040275156, 0.13248676, 0.0053135753, -0.12141627, -0.06882911, 0.09440806, 0.092212886, 0.019576985, -0.17887565, 0.11398191, 0.13722801, -0.09722687, 0.10656802, -0.051169995, 0.005881467, -0.078538425, 0.013231225, 0.01753921, -1.9728372, 0.04519774, 0.086464435, 0.11829528, -0.09258462, 0.097985856, -0.0036017597, -1.6590998, 0.14496075, -0.046286203, 0.012716331, -0.13599378, 0.07418908, -0.114580356, -0.09698006, -0.062603, -0.09668893, 0.05846505, -0.108426705, 0.03549093, -0.06173543, -0.092369355, -0.026365103, 0.037698146, 0.024296552, -0.08769793, 0.043215133, 0.021942258, -0.12339506, 0.109352425, -0.08549187, 0.12944232, -0.1485108, -1.779708, -0.108238526, -1.5890269, 0.15120126, 0.08684338, -0.050916094, -0.048827223, -0.12696104, -0.07079096, 0.0047406703, -0.029379055, 0.13956302, 0.0286123, -0.15694992, 0.13945982, -0.16241214, -0.059645526, 0.042295486, -0.0066220015, -0.07271265, -0.120930314, 0.011055782, -0.00085938885, 0.1068759, 0.038191736, 0.0152293, 0.11442718, -0.15960263, 0.08444011, -0.009970948, -0.068110816, -0.04418342, 0.048444346, -0.012013808, -0.05003816, -0.09836867, 0.15052453, 0.0838661, 0.0416224, -0.09405862, -0.12703721, 0.14315566, 0.08169037, 0.05581352, -0.08083082, -0.13741049, -0.017964587, 0.11799291, -0.07336956, -0.07649451, 0.01137127, -0.1419716, -0.1156881, 0.07636987, 0.15671381, 0.08681598, 0.00016725592, -0.08882439, 0.309185, -2.5815763, 0.11603101, 0.12416953, 0.010867581, 0.054477587, 0.053352416, -0.3134651, -0.07075401, -0.113527596, -0.0123580545, -0.10835421, -0.084328, 0.0038636334, 0.13388097, -0.13350414, -0.10028006, 0.12103632, -0.09798488, 0.09124977, 0.12010938, 0.03415006, -0.031426184, -0.023387447, 0.09239045, -0.13247684, -0.11731575, 0.07726976, 0.06918609, 0.042905934, 0.08787313, -0.03425294, 0.041276608, -0.12708397, -0.10230676, 0.0043206364, -0.025606547, 0.046415627, -0.044511802, 0.019842207, 0.13117214, -0.11345324, -0.073530704, 0.14617011, 0.06126225, -0.006603688, -0.01995493, 0.09726262, -0.0038101445, 0.09841888, 0.1429514, -0.13287571, 0.10578254, 0.13333257, -0.17341372, -0.121671855, -0.09671269, 0.12450259, -0.0013593419, -0.89717877, -0.14339624, 0.016295657, -0.1457264, 0.15271151, 0.165186, 0.04974191, -0.4405449, -0.14563236, -0.06255817, -0.16147864, 0.14683107, -0.13299325, 0.16836658, 0.10537419, 0.024302125, -0.013462998, -0.009629134, 0.1423082, 0.06481163, 0.020385232, -0.112759426, 0.12422593, -0.0048173275, 0.07621969, -0.0036360507, -0.034446474, 0.121788755, 0.08666634, 0.012408642, 0.10108328, -0.036569845, 0.030141477, 0.4848601, -0.12725835, 0.15115565, -0.014338048, -0.15079364, 0.0066900435, -0.121606685, 0.037620857, -0.15985934, 0.14112595, -0.049496114, 0.15278614, -0.14474246, -0.10887489, -0.046312004, -0.09965124, -0.107792065, -0.13343127, -0.16495773, -0.013706356, 0.10610399, 0.049641714, -0.02308705, -0.07128006, -0.12143249, 0.08576146, -0.011832625, 0.13464323, 0.11834788, 0.042311966, 0.059364334, -0.104726374, 0.093241245, -0.058160365, -0.13040704, 0.06634866, -0.0035517216, 0.03430888, -0.060666963, -0.06775503, 0.11991182, -0.099203646, 0.097448796, 0.07082412, -0.13025314, 0.11727619, 0.0067994446, 0.057258338, 0.09322369, 0.038992226, 0.06285013, 0.10882124, 0.08802453, 0.024000809, 0.1407465, -0.06907486, -0.101146124, 0.042618632, 0.029000318, 0.31228063, -0.109634586, -0.13163735, 0.15831867, 0.11577906, 0.15910828, 0.31155837, 0.038237765, 0.053875193, 0.022492781, 0.06656605, 0.1382035, -0.10314279, 0.04604594, 0.008507416, 0.08843431, -0.041188724, -0.04502864, 0.10887527, 0.09914285, -0.08310063, -0.08077152, 0.041152462, 0.045077458, 0.038345173, -0.10766805, -0.02043204, -0.026636228, -0.028184107, 0.06487998, 0.062298596, -0.0934609, -0.024378821, 0.061680928, 0.10346099, -0.10220802, 0.14161995, 0.14271948, 0.11334461, -0.08790727, 0.13719901, 0.14485261, -0.13957317, -0.07219945, -0.06708083, -0.15825932, -0.07091078, 0.09842407, -0.11583382, -0.011895211, -0.06316555, 0.1418957, 0.019281624, 0.21749093, -0.082580954, -0.13695696, 0.103024915, -0.1148173, 0.9845745, 0.1245648, 0.0073380917, -0.13715804, -0.050550833, 0.0010048916, -0.12330916, -0.29906654, -0.14181307, -0.091794774, 0.019446513, -0.12958573, -0.11901378, 0.1527807, -0.12885502, 0.08803949, -0.14745492, 0.01879584, -0.046749033, -0.07669718, -0.16356595, 0.099533916, 0.10031029, -0.094938904, -0.045801915, 0.0679476, 0.025663696, 0.089339584, -0.1579951, -0.119329475, 0.11502284, -0.05090707, -0.07869982, -11.082245, -0.14873314, 1.7835877, -0.143802, -0.16960983, -0.027708936, -0.094147734, 0.09503043, 0.1582266, -0.032698244, 0.04186988, 0.085113555, -0.06785862, 0.14142966, -0.10461752, 0.07467662, 0.033839002, 0.052117974, -0.15104672, -0.09054569, -0.11287995, -0.026922286, 0.047108043, 0.10383618, -0.12251805, 0.12192118, 0.12800822, 0.0300996, 0.08374475, -0.04163398, -0.121503964, -0.059532523, -0.051662557, -0.12185706, -0.038911894, -0.114169754, 0.08837217, 0.14782564, 0.057768345, 0.10639188, -0.09414955, -0.16565439, 0.13691488, 0.07123774, -0.029524207, 0.07402675, -0.045502774, 0.11634004, -0.04394471, -0.017184272, 0.043509424, 0.036438525, 0.022450939, -0.035180718, -0.12421023, 0.04959923, 0.11431185, 0.03999175, 0.2708825, 1.6901901, -0.037572026, -0.16097444, -0.09617403, -0.14902282, 0.15883243, 0.12573116, -0.073739335, 0.06310688, -0.09254134, -0.0028868318, -0.09042798, 0.012170488, 0.122363076, 0.12752128, -0.04329112, -0.02653411, -0.12247592, 0.07377505, -0.12540522, -0.006979949, -0.13747631, 0.15528935, -0.005918935, -0.016764104, -0.055296406, -0.009962916, -0.096722364, 0.105650015, -0.15101911, -0.08478422, -0.007033023, -0.078223675, 0.10708377, -0.017877141, 0.07145725, -0.054867633, -0.026432171, 0.064481094, 0.103715196, 0.14119375, -0.10603283, 0.05523227, -0.14506637, 0.11637792, 0.12690306, 0.025018036, 0.08950683, 0.03393061, 0.11351882, -0.1394303, -0.05345623, 0.060650058, -0.19371676, -0.0258143, 0.013579174, -0.096887864, 0.10463917, -0.22470653, 0.031718224, -0.14499164, 0.10714016, -0.0294711, -0.02535565, 0.1246655, -0.52781534, -0.1304863, 0.02461194, -0.031044932, 0.03597041, -0.026730293, -0.052351106, -0.14571093, 0.007942945, -0.016453508, 0.0757463, -0.08595165, -0.0715031, 0.161386, 0.057221085, -0.13557598, 0.07839865, 0.072394446, 0.12315255, 0.07790005, -0.005100645, 0.09775401, 0.044057384, 0.102081746, -0.05758283, -0.16465913, -3.6547632, -0.09573994, -1.3438122, -0.1557184, 0.06401909, -0.15644154, -0.063213825, 0.15427285, -0.08109654, -0.05416801, -0.039243832, -0.08841165, -0.076692, -0.01887995, -0.15864587, -0.031876236, -0.12053755, 0.1646449, -0.069108166, 0.06275006, 0.12544373, 0.092077345, -0.093003266, 0.067345336, 0.11509317, -0.082766935, 0.12493235, 0.12916717, -0.09370283, -0.064787745, 0.016111419, 0.0633097, -0.04430093, -0.15682323, -0.09048146, -0.001813218, 0.15390101, 0.033236936, -0.03306672, 0.08697295, -0.12081549, 0.11290762, -0.15582779, 0.015264377, 0.10434461, -0.023156181, 0.10111952, -0.03959748, -0.11632899, -0.08360943, -0.15840265, 0.053610817, 0.050275683, 0.07867676, -0.14323656, 0.121831, 0.06023742, -0.084982656, 0.37702504, 0.109415606, 0.10890377, 0.039354503, 0.1214053, 0.13705745, -0.15427253, -0.05795985, 0.01711121, 0.0063317567, -0.116277814, -0.018371686, 0.12167722, 0.1387501, 0.08954837, -0.053319894, -0.040861577, 0.083464265, -0.07304598, -0.1374379, 0.05605717, -0.02898695, -0.007463547, 0.020697877, 0.011026904, -0.07172001, -0.055986483, -0.0713401, -0.08638056, 0.13763133, -0.008306876, 0.06359339, 0.012101577, 0.044103682, 0.16391751, 0.06011838, -0.15240991, -0.16327457, 0.10263069, 0.1344139, 0.09817912, -0.112403795, -0.028846413, 0.022565126, -0.11540858, 0.0651117, 0.14965084, -0.11826503, -0.054257628, -0.03427364, 0.03836716, 0.06315732, -0.020520424, 0.07154075, 0.29250932, 0.099101335, -0.04890393, 0.021941084, 0.16296925, -0.7424907, 0.020879433, 0.0406684, -0.15856943, 0.20068955, 0.15950164, 0.0031666309, 0.107249774, 0.045118496, 0.10786122, -0.08744052, 0.050871927, 0.019269641, 0.006181398, -0.07028718, -0.0668377, 0.10263391, 0.021352315, 0.14906555, -0.16227216, 0.12167719, 0.15465382, -0.119736165, 4.4561216e-06, 0.09061581, 0.1171747, -0.010116435, 0.1361726, 0.011403844, -0.050782472, 0.033901423, -0.09531046, 0.10838504, -2.902255, -0.038990755, 1.6084322, 0.085613966, -0.060139224, 0.016911557, 0.043364137, -0.090151384, 0.10153428, 0.09488985, 0.071599975, -0.07044666, 0.08550879, 0.107472, 0.12650827, 0.13159072, -0.12896162, 0.041518956, 0.032215014, -0.11993088, 0.09084433, -0.033988997, 0.06798281, 0.15969336, -0.09288106, -0.10410665, -0.047535002, 0.13714427, 0.04826604, 0.13426098, -0.03817287, -0.1617945, 0.12034741, 0.107976794, 0.016804606, 0.06364252, 0.15596235, 0.013408997, -0.023306206, -6.0513616e-05, -0.01362665, -0.033695668, 0.016771495, 0.044532597, -0.15709311, 0.00993982, 0.106883556, -0.075635284, -0.09336888, 0.1371367, 0.119937, -0.122890875, 0.13255924, -0.060774192, -0.073792554, -0.016941741, 0.022644877, 0.13741678, 0.43101254, -0.82241505, -0.17130227, 0.08935624, -0.13679966, -0.09653573, -0.090307854, -0.21939129, -0.15049887, -0.121748015, -0.109213315, 0.008936733, 0.012373239, 0.039703153, 0.036214128, -0.14504038, 0.095173, 0.066992596, -0.016888455, -0.09036757, 0.051841885, -0.02212466, 0.002302847, 0.07037261, 0.022516593, 0.142793, -0.033304088, 0.14829844, -0.09518329, -0.08916997, -0.07667665, 0.033981442, 0.09739719, -0.019218683, -0.055380523, 0.16073303, 0.12789202, 0.08865392, 0.058797777, -0.071607284, -0.06729548, -0.08613672, 0.002543509, -0.112630874, 0.121386915, -0.15822513, -0.038107824, -0.09824783, -0.14575891, 0.14360248, -0.09710852, 0.004429034, 0.1454496, 0.07033443, 0.0811213, -0.14900996, 0.14151484, 0.14238161, -0.0076302025, 0.16066062, -0.0790524, -0.12697211, 0.005251525, -0.07629905, -0.05602895, 0.0777906, 1.1196742, -0.16477671, 0.058164995, 0.15659241, 0.10971705, 0.08619329, -0.050386995, 0.11395785, 0.12484479, -0.03754491, -0.07126179, -0.02868259, 0.07287234, -0.12329185, -0.08472564, -0.15819862, -0.0025100543, 0.15891957, -0.11610317, 0.14465624, 0.023386428, -0.14709291, -0.04870238, -0.10976074, -0.028758107, -0.11909179, -2.7358205, 0.09096242, -0.55203134, -0.10488853, -0.16989315, -0.00048049388, 0.027860463, -0.1050205, 0.1456878, 0.014253616, -0.08604274, -0.13135664, -0.14854077, -0.0543335, -0.02688159, 0.09970203, -0.050331727, 0.08078197, -0.13419679, -0.12223104, -0.13605183, -0.036233902, 0.10389297, 0.13186699, -0.050558254, 0.023990005, -0.016796723, -0.08097203, -0.0452997, -0.016217828, -0.10828428, 0.029993787, 0.0842863, 0.09453905, 0.019116908, 0.16176552, -0.14176698, -0.014573404, -0.111986265, 0.11109719, 0.046638712, 0.08243726, 0.033659115, 0.09432757, -0.12718329, 0.033117786, -0.041941985, -0.11454421, 0.15334386, -0.026353195, 0.13702065, 0.10621697, -0.08446079, 0.024190947, -0.04755581, 0.03189771, -0.0965947, -0.16021465, -0.039155547, -0.5713807, -0.12701355, 0.061786413, -0.033901975, 0.14111762, 0.14739391, -0.7146595, -0.15903828, 0.027859002, 0.1295391, -0.0047767907, -0.12378871, -0.13857473, 0.10214422, 0.0012407601, -0.14255743, -0.11667817, -0.0065811872, 0.11571007, -0.035433263, 0.11744968, 0.16391143, 0.14696857, -0.022098318, 0.08724132, -0.14010018, -0.07772213, -0.08301312, -0.16526517, 0.036860555, -0.13883519, -0.11405002, -0.12931883, 0.15431643, 0.089399174, -0.038948886, 0.032862425, 0.021068553, 0.15636384, -0.061486714, 0.032792687, -0.12658566, -0.025296986, -0.048197724, -0.044466943, 0.14397958, 0.030108804, -0.011565072, 0.091284096, 0.01367867, 0.008332145, -0.1619767, -0.105439916, 0.0034601532, -0.020500325, 0.07261202, 0.08625747, -0.124704845, -3.8966377, 0.009663209, -0.07282337, -0.1132258, 0.10516492, 0.07853089, -0.11587697, 4.7440705, -0.041165456, 0.01654773, 0.06568838, 0.10194053, -0.14000162, -0.03383011, -0.13868318, 0.020827293, 0.08418668, 0.030857371, 0.10313615, 0.16507465, 0.15406929, 0.13329616, 0.14392363, 0.08910695, -0.11749488, 0.023302987, 0.078179255, 0.10591272, 0.1095645, 0.17478248, -0.09898733, -0.089037165, -0.111130014, -3.5500166, 0.13625279, 0.16540535, 0.16593388, -0.023311302, 0.15184855, -0.16364498, 0.06291963, -0.14601542, 0.06701581, 0.15127051, -0.13771412, -0.1122209, -0.16339315, -0.06065929, -0.0062844353, 0.15201646, 0.05438745, 0.014413938, -0.111113355, 0.075819, -0.06599323, 0.113776475, 0.07018632, -0.081716195, 0.08185209, -0.14956042, 0.16517136, 0.16162473, 0.13402668, -0.05471535, -0.070358574, 0.15628847, -0.044941783, -0.022129878, 0.128265, -0.015066609, -0.09635857, 0.0032502562, 0.15109637, -0.016227439, -0.15020669, -0.09713918, 0.011998817, -0.11508241, -0.113740996, -0.13587546, -0.096994534, -0.15881726, -0.028720051, -0.05548867, 0.119997084, 0.11470485, 0.02878432, 0.025814936, -0.082508534, -0.11616667, -0.01891902, 0.104166396, 0.45076373, -0.040044844, 0.07950835, 0.042810977, 0.15569326, 0.10042992, 0.32553965, 0.09793127, 0.08727461, -0.0064021647, -0.07518291, -0.12379856, -0.025149714, 0.07045052, -0.031187326, 0.016573563, -0.12771283, -0.069999546, 0.16131216, 0.11963016, -0.033110276, -0.0016720705, -0.11242314, -0.07515098, -0.08832388, 0.16348623, -0.043357894, 0.10256231, -0.10200757, -0.036876976, -0.018197522, 0.061427373, -0.13374794, 0.05587028, -0.1463328, 0.0028616493, 0.116710335, -0.088420756, 0.11205086, 0.024229096, -0.12252967, -0.1613214, -0.116126396, -0.050047137, -0.11955298, 0.0065583456, 0.094213754, -0.14850722, -0.07344241, 0.014159475, 0.03355034, -0.14656049, 0.046391405, -0.018805625, 0.028343031, 0.14152794, 0.07190072, -0.016370993, -1.8513585, -0.025702298, 0.03461659, -0.11501117, -0.058628723, -0.07280076, 0.07410337, -1.4743187, -0.074053146, -0.16658029, 0.1053738, 0.13565561, 0.03714931, 0.12551887, 0.067033485, -0.16456224, -0.011036669, -0.14010064, 0.038982734, 0.04924281, 0.15544155, -0.090216964, 0.14512783, 0.11820863, 0.056624174, 0.106140405, -0.14860046, 0.12967041, -0.05347506, -0.11360738, 0.03102547, 0.11899162, -0.085154004, -1.601159, -0.105347075, -1.6008489, 0.050048158, 0.13118197, -0.051511172, 0.03656304, 0.04918684, 0.13223524, 0.13842526, 0.06661703, 0.048255995, 0.09153113, -0.050191276, 0.028703913, -0.022350196, 0.017531916, -0.07799367, -0.1408069, 0.114231944, 0.051708832, 0.076363, -0.057478935, 0.14766863, 0.05208914, 0.10825318, -0.151515, -0.08884195, -0.06861825, 0.12175584, -0.081312545, 0.16300541, 0.13752946, -0.0017528236, 0.15967655, 0.10116473, -0.08811745, 0.113326825, 0.011305362, 0.011974692, 0.010155812, 0.027569905, -0.11782828, -0.16503502, -0.12579867, -0.15543501, 0.09380171, 0.15474021, 0.039374948, 0.036370486, 0.13404533, 0.07945399, 0.072800025, -0.09434091, -0.01350309, 0.105144024, -0.043919038, 0.04261875, 0.18530962, -2.7085176, -0.11993701, 0.09238598, 0.06476255, -0.08405349, 0.010025561, -0.43590987, -0.13291302, -0.03406091, -0.013786733, 0.13302651, -0.051986933, -0.08615026, 0.07145622, 0.09601152, 0.095003396, 0.012155056, 0.06544402, 0.056953378, 0.12699443, 0.13471472, 0.07444939, 0.04184124, 0.056469396, 0.01391615, -0.07386811, 0.07278238, -0.09011772, -0.07557882, -0.046695396, -0.07833308, 0.17264019, 0.021130398, 0.060900047, 0.057646956, 0.02552437, -0.010128245, -0.13323778, 0.054636165, 0.059939586, 0.09086791, -0.052619398, 0.13157853, -0.06779751, -0.0025554448, 0.1589358, 0.1069164, 0.03932825, -0.10794757, -0.14495307, -0.0940901, -0.13699174, 0.14998429, -0.16066074, 0.01402185, -0.10836645, -0.03961128, 0.07268301, -1.0736753, 0.09810433, 0.02134201, -0.028924687, 0.16464782, -0.12603709, 0.13380525, -0.36568815, -0.021815326, 0.110873125, -0.048434664, 0.01708204, 0.15377748, 0.11816305, -0.11169017, 0.11779249, -0.02769472, -0.14126454, -0.019205034, -0.09507151, 0.03961875, -0.053658195, 0.057102554, 0.007186905, 0.13672629, 0.085358605, 0.0048586302, 0.08565149, 0.07320624, 0.13095759, 0.004406959, -0.25609633, -0.019181397, 0.21000807, -0.08716628, 0.13762383, -0.12470175, 0.08684149, -0.16298932, -0.0027935207, -0.15446492, -0.030786265, -0.1628208, -0.07829657, -0.034647524, 0.10806769, -0.017115936, 0.019524157, -0.07946001, -0.050333746, 0.09376192, -0.036293402, -0.15869816, -0.017120317, -0.0944061, -0.1403735, -0.004464984, -0.16024178, 0.0025602728, -0.12708053, -0.037809804, -0.03147833, 0.13115847, 0.05573173, -0.11872864, -0.085362375, -0.09071965, 0.1155552, 0.15686214, 0.12667894, 0.14228158, 0.1180079, -0.05954743, 0.008613542, 0.13343439, 0.11506984, -0.124839015, 0.06691535, 0.11434206, 0.04474801, 0.002424568, -0.049480453, -0.0076658726, -0.07059218, 0.031688437, 0.051366895, -0.01636903, 0.078354046, -0.05779536, 0.045085628, 0.15043008, 0.070151314, 0.28512675, 0.020743879, 0.13023558, 0.15382233, 0.07050131, -0.055216692, 0.08254711, 0.12520231, 0.07744162, -0.064568385, 0.15960702, -0.09711723, -0.087992564, 0.09292238, -0.030737132, 0.13789168, 0.10388565, 0.03829415, -0.090446666, 0.16266453, 0.061156977, 0.101545796, -0.14279835, -0.10954082, -0.07053534, 0.01298663, -0.07602207, 0.057132438, 0.14887103, 0.12423515, 0.14130378, 0.022410087, -0.021972254, 0.028484508, -0.07989469, 0.029581478, -0.14677145, 0.039742384, 0.0014897883, -0.13514851, -0.11519416, -0.12436421, -0.122834, -0.03611046, 0.04595816, -0.01887898, -0.04806829, 0.14019, -0.02127482, 0.10294244, -0.12090824, 0.025869304, 0.044228885, -0.026881685, 0.12219745, -0.02095669, 0.13601494, 0.02766771, 12.232089, -0.034908786, -0.09133119, 0.060245596, 0.039583668, 0.043532696, 0.008415446, 10.560159, -0.1568894, -0.036357045, 0.11774788, 0.044934846, -0.14418373, -0.0959943, 0.08272603, 0.047452733, -0.05591851, 0.01800351, 0.06256503, 0.095477134, -0.1496955, 0.07753976, -0.010352213, 0.023055539, -0.0780937, 0.14580557, -0.04062054, -0.112645455, -0.011500999, 0.09431231, 0.038869724, 47.93168, 0.034361854, 1.4326453, 0.112754546, 0.13287053, -0.1072017, -0.19162142, -0.15890609, 0.091434926, -0.09454687, -0.09566806, -0.020901188, -0.13361034, -0.030986592, -0.13522357, 0.11327949, 0.058708742, 0.13255808, 0.16054183, 0.025916591, -0.044190302, 0.09730065, 0.10583913, 0.086547166, -0.16042012, -0.0323209, -0.13917957, -0.108386874, 0.055833265, 0.008664444, -0.08193441, 0.034693763, 0.0599906, 0.06901568, 0.028788626, 0.11798838, -0.12724504, -0.119508356, 0.062483117, -0.13329378, -0.14152555, 0.11533758, 0.040674493, -0.14147575, 0.11772165, 0.08837032, -0.059861526, 0.06531951, -0.03360592, -0.08579181, -0.058442064, 0.12264913, -0.15036845, -0.09254363, -0.011744693, 0.0274705, 0.16278547, -0.16321906, 0.049260095, -0.045618504, -0.028643295, -0.2547875, 0.087320946, 0.015504345, -0.03668806, -0.16499883, 0.052213505, -0.25570938, -0.16551961, 0.1644302, 0.08562237, 0.09079936, -0.08791478, 0.046217375, -0.02070931, 0.091484964, 0.16346917, -0.12189859, 0.012114197, -0.14514206, -8.98689e-05, -0.08366828, -0.009860858, -0.06427157, -0.096333, -0.1408459, -0.15132633, 0.03434585, -0.15038662, 0.108648814, -0.08337041, -0.07785116, -0.007499805, 0.14465848, -0.12812075, 0.06352516, -0.12060695, 0.103244275, 0.041083615, -0.13749751, 0.11093666, 0.067955405, 0.15249112, -0.015280083, -0.11175263, -0.079653345, -0.050549317, 0.07430382, -0.14194624, -0.00024353461, -0.035351004, 0.084344156, -0.15148142, -0.05927183, 0.1819271, -0.042550463, 0.09406261, -0.12030064, 0.14319667, -12.360566, 0.069782436, 0.0748626, 0.08763061, 0.015228575, 0.0045924927, -0.046323866, -28.596937, -0.07794824, 0.160949, -0.027360687, -0.06630508, 0.14462653, 0.16083936, 0.15084532, -0.1016841, 0.015549795, -0.1652625, -0.13105282, 0.1125865, 0.024289954, -0.16058333, 0.13437761, -0.09105106, 0.09171131, -0.12397789, -0.02397291, -0.006731095, 0.09871334, -0.02001433, 0.0005645156, 4.6286263, -0.05247711, 6.3726144, -0.11720461, 0.36093977, 0.14708954, 0.013324779, -0.010074173, -0.077188835, -0.12097038, 0.034210913, 0.04162231, -0.13940483, -0.01830341, -0.014266431, 0.012323722, 0.14803392, 0.1241675, 0.095995516, 0.02756776, 0.120159954, 0.039787963, -0.091949254, -0.045973502, -0.1299132, -0.13707346, -0.12437944, 0.04420106, 0.03942585, 0.09777096, -0.11240795, -0.15863745, 0.04969448, 0.06383778, 0.008256331, 0.1548731, 0.069205314, -0.0005494803, 0.040737733, -0.007536442, 0.13725948, -0.15142165, 0.004250169, -0.1351194, -0.09051338, 0.10455847, 0.0354636, 0.10194662, -0.11432757, -0.14937657, 0.16028276, -0.116920084, 0.12191668, -0.112879984, 0.031199828, -0.16185716, 0.08964014, -0.06596744, -0.058521606, -0.15070918, -0.010340091, 0.857527, 0.09619338, -0.05115132, -0.15813373, -0.07699522, 0.14817658, 0.15331163, 0.1378836, -0.0017110109, 0.14916018, -0.055688336, -0.0032643676, 0.034052383, -0.15709822, -0.06419638, 0.025898442, 0.04588221, -0.07028445, 0.09156812, -0.065756574, -0.1637362, -0.12917307, -0.12869582, -0.08574707, -0.037040174, 0.07011595, -0.08572572, 0.11563748, 0.10360882, 0.096119285, 0.11993879, -0.14907727, 0.03869775, 0.029341787, 0.14158186, -0.010267799, -0.040475935, -0.1456109, 0.022420004, -0.017119085, 0.07731968, 0.15488732, 0.13962704, -0.046404995, -0.096700765, -0.020484323, -0.033656195, 0.13335091, -0.054001562, 0.0863899, -0.07305341, 0.1519663, -0.05193156, -0.068914786, 0.117444485, 0.08905193, 0.091683865, -0.061727278, 0.15173489, -0.035318717, -0.1015957, -0.112628184, 0.06132917, -0.008505866, -0.10466495, 0.030360535, 0.027710393, 0.055141866, -0.032618344, -0.029288873, -0.046639115, -0.054372974, 0.050095677, 0.063235894, -0.14967406, 0.045301005, -0.07750265, 0.058171436, 0.10997686, -0.027840331, -0.1575341, -0.0124605, -0.1421656, 0.0152082145, -0.0099185705, -0.01160866, -0.03871128, 0.1301629, -0.08675016, 0.1508081, 0.16420859, 0.011668041, -0.014976621, 0.101572484, 0.13165542, 0.046610907, -0.012764618, -0.03824751, -0.005420357, 0.01351966, -0.13700041, 0.09273079, -0.10173861, 0.062446013, 0.04281138, 0.0011794567, 0.041197658, 0.11446515, 0.025176585, 0.0037716478, 0.15009016, -0.010103717, 0.026641503, 0.061746657, 0.0646223, -0.12162915, -0.1448413, -0.05219388, 0.1161868, 0.1400983, 0.027539805, -0.1509262, -0.11975925, 0.10278824, -0.075593114, -0.022187829, 0.1400227, -0.043257073, 0.067371234, 0.09802595, -0.04447137, 0.0014162958, -0.021456987, 0.10211384, -0.14359191, -0.081413485, 0.1245746, 0.036810175, 0.08742347, -0.05326567, 0.16370225, -0.147033, 0.16183236, -0.062209994, -0.08328857, 0.055082604, 0.020787895, 0.09319964, 0.14058197, 0.08001867, -0.118263684, -0.025081977, 0.048941776, 0.041701347, 0.121913195, 0.11376873, -0.08035151, -0.10410376, 0.0021847486, 0.114643216, 0.12726623, -0.12611957, -0.057334043, -0.002737835, 0.117411405, -0.13665846, -0.07367413, -0.10972059, -0.16305105, 0.15082219, -0.018221065, 0.08676103, 0.11746663, 0.108106375, -0.087315105, 0.16112566, 0.0066207796, -0.1227876, -0.06927642, 0.13876319, -0.08619004, 0.04855703, -0.015481487, -0.012952626, 0.09659386, 0.15700096, -0.1549213, -0.10426012, 0.138975, -0.07568694, 0.07972972, 0.054765195, 0.057486683, 0.010091811, 0.034904942, 0.12540978, -0.16376938, 0.059810787, -0.10697551, 0.017011097, -0.14342271, 0.043793753, -0.11475534, 0.011359708, -0.07506996, -0.0926635, -0.06971268, 0.07169707, 12.093446, 0.13920102, 0.045078278, -0.0827745, 0.04829289, -0.0074835746, -0.019774735, 10.371285, -0.10916994, 0.07144319, -0.0284879, 0.15858479, 0.06368448, -0.016717732, 0.03785193, -0.0020640343, -0.060587637, -0.06804007, -0.010594711, -0.16036728, -0.14021459, 0.054243907, -0.16721152, -0.076865785, -0.032696664, -0.014563081, 0.163136, 0.1430614, -0.12323345, -0.099904604, 0.12828636, 47.541576, -0.13076854, 1.6865237, 0.047295935, -0.040847044, 0.1440212, 0.06962884, -0.16348377, 0.14121577, 0.13067496, -0.105370075, 0.13540387, -0.017796218, 0.14974418, -0.112061456, -0.11353682, 0.10026151, 0.15877846, 0.065159276, 0.0566604, 0.15158823, -0.16142784, -0.11565147, -0.008994997, -0.12327479, -0.03831163, 0.0073592067, 0.06646775, -0.08992838, -0.0502548, -0.088590555, 0.13131672, -0.13223675, -0.033372074, 0.035535827, 0.165367, 0.06978303, 0.089006096, 0.14537647, 0.0750417, -0.135739, -0.023415923, 0.056671247, 0.03569819, 0.10126194, -0.027336657, -0.12715852, 0.06646016, -0.042801768, 0.15836516, 0.013751179, 0.066502914, 0.12156761, 0.009439185, -0.109954715, -0.04759133, 0.07980317, 0.04269916, 0.1012187, -0.026276648, -0.05030971, -0.10469586, -0.14800455, 0.15813902, -0.062262125, -0.09773138, -0.15238978, -0.30466145, 0.01733773, -0.14458044, 0.16402858, -0.071242444, -0.037749574, -0.15750988, 0.14469321, 0.05202134, -0.07353067, -0.007432744, 0.13177371, -0.07390557, -0.021989658, -0.013509907, 0.12679729, 0.12619156, 0.005836591, -0.16110252, 0.08576748, 0.08441219, 0.057311177, -0.16501798, -0.07543747, 0.15675995, -0.024572497, 0.12367755, 0.015209511, -0.06422944, -0.08011821, 0.0041941553, -0.07875575, -0.03965515, -0.0061306073, -0.06474784, 0.012799591, -0.054549776, 0.08109456, -0.038112193, 0.0041439864, 0.033944458, -0.07375064, 0.036550708, 0.14607827, 0.1205532, 0.14612931, 0.014663578, -0.010193635, 0.111508615, 0.110809654, 0.11850581, 0.065930374, -12.1714, 0.01618068, -0.097235695, 0.14667785, -0.062244397, 0.13478304, 0.13672158, -28.576916, 0.124150224, -0.010152798, 0.056763243, -0.15771703, 0.14381206, -0.12778568, -0.07002474, 0.09096667, -0.068266906, -0.03991267, 0.09951612, 0.102093905, 0.16136141, -0.023876727, 0.07980434, -0.10191916, -0.16139418, -0.13851826, -0.05441907, -0.08190845, 0.10677293, 0.09314316, 0.14581335, 4.7445636, -0.040105432, 6.2660594, -0.11592003, 0.46029526, -0.10525571, -0.032496493, -0.04992945, -0.08998336, -0.12054953, 0.041065402, -0.018774018, -0.009003267, -0.04131166, 0.14767545, -0.05295319, 0.0790589, -0.07733775, -0.0012027174, -0.0942571, -0.12331149, -0.058483757, -0.007209733, -0.0607984, 0.14412832, 0.076314926, -0.11458345, -0.011620209, -0.12758397, -0.14481172, -0.16332677, -0.0114692, -0.11901117, 0.09904334, 0.0016976446, 0.019256383, -0.08944515, -0.11347495, -0.13804398, -0.10369714, 0.062057152, -0.08533034, -0.12507558, -0.01661411, 0.124655575, 0.14544904, 0.04327099, -0.09748808, -0.1584689, -0.14933152, -0.16045502, -0.004788369, -0.05444876, -0.06683331, 0.07809782, 0.04309514, 0.07563904, 0.12281191, 0.0888921, -0.101883456, 0.060069084, 0.9588181, 0.0248955, -0.078152284, 0.05169432, -0.037889823, 0.04316087, 0.21218781, -0.015165517, -0.026579082, -0.018440828, -0.03636819, -0.063443795, -0.1342057, 0.01384151, -0.060361803, 0.051637754, -0.12946197, 0.06884992, 0.10307346, 0.06679633, -0.08173882, 0.015609726, -0.07998481, 0.041566983, 0.060069934, -0.11519095, -0.12685579, 0.05283445, -0.12921578, -0.0020414144, 0.06968936, -0.051285256, 0.089930266, 0.13517064, -0.0919674, 0.1543196, 0.13254777, 0.034002643, -0.001180917, 0.06076897, -0.021413043, -0.052567422, 0.08571279, 0.008270055, -0.14695244, -0.14640602, -0.13940603, -0.05652442, 0.004662156, -0.09629554, -0.023531154, 0.053647086, -0.11298587, 0.16172442, 0.0036412776, -0.0153187215, 0.1100876, 0.09851462, 0.15392247, 0.09831223, -0.057629198, 0.10975456, -0.061324783, 0.067499235, 0.09122652, -0.04830721, -0.070572205, -0.06678252, -0.012030423, -0.119316645, 0.041907385, -0.06225378, -0.0060982704, -0.051984802, 0.022935748, 0.049416542, -0.050200097, -0.14075394, 0.14664277, 0.06088367, 0.00046285987, -0.06856778, -0.042001434, 0.15138069, -0.08242476, -0.106855795, 0.13246894, -0.07477175, -0.13540773, -0.0045751333, -0.15465806, 0.058763042, 0.10509831, -0.08288406, -0.12863103, 0.07943168, -0.09549007, -0.035777137, -0.00089755654, 0.12013903, 0.069428906, -0.09122056, 0.13297218, 0.16059077, 0.04828775, 0.11188921, -0.11670792, -0.10597141, -0.07888019, -0.09640178, -0.0006135106, 0.014145881, 0.017808482, -0.06221217, 0.027621046, -0.14254248, 0.041561365, -0.053133756, 0.043007374, -0.11701086, -0.0051499307, 0.16007137, -0.0045885444, 0.017020956, 0.017644092, -0.10944012, 0.03102757, 0.0392797, -0.13578163, 0.068653926, 0.032198086, -0.13736415, -0.031847164, -0.08155889, 0.027865797, -0.09042885, -0.10938375, -0.0045188963, 0.10975233, 0.067971185, 0.08637923, 0.05502723, 0.16078058, -0.016109884, 0.14161503, -0.10868345, 0.12454754, 0.14071411, 0.016096309, -0.14539406, 0.08531284, -0.09724673, -0.111978, -0.010303989, -0.0773122, -0.04442454, -0.09974866, -0.057791404, 0.10622811, -0.12775856, 0.036311314, -0.019681856, 0.039649367, 0.057095185, -0.14106563, -0.10288309, -0.09739944, -0.15454625, 0.11041483, -0.061861917, -0.09912387, -0.107661225, -0.002686575, 0.05666314, 0.01931259, -0.017379, 0.07303114, -0.07757029, 0.05404626, -0.013482675, -0.033851504, -0.14812624, 0.1437692, 0.031219915, -0.108119495, 0.10275462, 0.048160627, 0.032124043, 0.07076515, -0.10649748, -0.072583355, -0.070366606, -0.004000932, -0.16140364, -0.11281488, 0.061534375, 0.14705539, -0.0032821477, 0.119253136, 0.10248706, -0.034996208, -0.13987218, 0.0644595, 0.10007365, 0.010839645, -0.01608858, 0.03203026, 0.07151852, 12.151846, -0.1254411, 0.11562067, 0.028924853, -0.053979903, 0.04270995, 0.06406498, 10.306604, 0.05326028, -0.14439243, -0.00018743792, -0.0051198145, 0.04103993, -0.03274169, 0.08131239, 0.121477336, 0.007931965, 0.016896678, -0.07326103, -0.1658255, -0.101535365, 0.15425745, 0.14631806, 0.005055662, -0.07382894, 0.09128263, 0.10482526, 0.104115166, -0.15068927, -0.07389022, -0.019606546, 47.43597, -0.13898592, 1.4875051, -0.16297163, 0.0019044458, 0.0747558, 0.070766605, -0.16046245, 0.020555526, -0.12622023, -0.057955436, -0.071670175, 0.020427167, -0.15785792, -0.029095337, 0.13925564, -0.12896621, -0.15407753, 0.15649486, 0.09687808, -0.10336985, -0.008076519, 0.09527734, 0.048808083, -0.0106401, -0.07715901, 0.010460779, 0.11378068, -0.08245561, -0.16008016, 0.14803064, -0.14312261, -0.1314496, -0.020567909, 0.0011000633, -0.15547825, 0.10420945, -0.017027885, 0.09906182, -0.1285269, -0.03330393, 0.08072874, -0.15143767, 0.034753606, -0.15210356, -0.14668748, 0.14906818, -0.06782749, -0.12950197, 0.04855746, 0.06899911, 0.094201595, -0.03875111, -0.11734888, 0.050521508, 0.086175054, 0.047064275, -0.15813345, -0.096313976, -0.012190819, 0.09105553, -0.3433678, -0.035456467, 0.05086492, -0.1219387, -0.16440868, 0.05456449, -0.20237294, -0.15075338, -0.079888456, 0.10634741, -0.09394921, -0.023347467, 0.14582177, 0.039065354, -0.034727663, 0.040900543, -0.08418727, 0.079879075, -0.016454926, -0.03464052, 0.026364733, 0.04836069, -0.122136585, 0.045552135, -0.113767534, 0.09181407, 0.11721483, 0.13255447, -0.083439164, -0.06019216, -0.06674625, -0.06733458, 0.15925673, -0.001818955, 0.013317745, -0.035271198, 0.050660774, -0.107831344, -0.065730825, 0.11798573, -0.16484888, 0.11901054, 0.1314297, 0.02730766, -0.12371826, -0.053616352, -0.1537535, -0.067223646, -0.114701554, -0.10787969, 0.15896828, -0.08482866, 0.11901395, 0.07666548, 0.0590069, 0.039064262, -0.15510942, -0.047990505, -12.283923, 0.06621331, 0.15024123, 0.068681, 0.08817749, 0.040365696, 0.08829689, -28.508062, 0.034163613, 0.12937634, 0.10061365, -0.116138615, -0.042530708, 0.1399607, 0.14345014, -0.13910803, 0.1419845, -0.017561778, -0.15486279, -0.044379048, -0.051402234, 0.05288726, -0.11540898, -0.15580902, -0.0799002, 0.14608157, -0.041862063, 0.14303064, 0.07506895, -0.0439648, 0.10885689, 4.8396363, -0.030392958, 6.316382, 0.02556463, 0.26233482, 0.08051805, 0.065389715, -0.05337205, -0.010036483, 0.10340509, -0.06087813, 0.11551651, -0.16277282, 0.15371254, 0.13543108, -0.08085021, -0.003697753, 0.08825198, 0.15539381, 0.09792337, -0.00685814, -0.13934733, 0.009952426, 0.0012029111, 0.082462974, 0.006848052, 0.05909565, 0.075194374, -0.14780486, 0.13136989, -0.118381634, -0.052036062, -0.07512128, -0.1254943, -0.15880491, 0.121258825, 0.0910697, 0.015276164, 0.1272023, -0.072142154, 0.01224184, -0.12808484, -0.07633028, 0.072582886, 0.1023733, -0.11178146, -0.04383736, 0.16352335, 0.13521513, -0.16557533, 0.117991716, -0.09859994, -0.071485616, -0.036878318, 0.0024220347, -0.057494357, -0.060577534, -0.1256255, 0.13385275, -0.040265143, 0.11979449, 0.9939548, -0.13863513, 0.06210071, 0.08956629, 0.11209762, -0.016901314, 0.23615609, -0.06400319, -0.089711346, -0.037530288, 0.042635366, 0.1618095, 0.007633222, -0.099956736, 0.16484794, -0.03461276, 0.0349174, -0.053674497, 0.0035324213, 0.11826891, 0.09286638, -0.11837835, 0.07361606, 0.16079631, -0.15233278, 0.10351631, -0.12841602, -0.048444897, 0.09028831, 0.11359036, 0.092238605, -0.020233817, 0.08471975, 0.050674424, -0.07465491, 0.016271308, -0.090430945, -0.068150386, 0.07604079, -0.12967351, 0.09988132, 0.0091744065, -0.14073104, -0.09242188, 0.15965956, 0.06366225, 0.011992618, -0.1394284, 0.09883505, 0.06873834, 0.069797784, -0.019050062, 0.12425521, -0.101052664, 0.005008012, 0.093604505, -0.051087163, -0.11071624, -0.031776324, 0.05482614, -0.13870727, 0.111910075, 0.048844665, 0.074652016, 0.1490503, -0.09035726, 0.00018119812, -0.10293677, -0.0075692832, 0.057167724, -0.08161798, 0.03833714, -0.095180795, 0.03526564, 0.145751, -0.008049145, -0.07012291, 0.032389835, -0.13491482, -0.039144307, 0.08929592, -0.024179518, -0.028693303, 0.08610219, -0.10512389, -0.1586806, -0.09313575, 0.04359944, -0.08083375, 0.12613907, -0.1094237, -0.13688965, -0.10218521, 0.10962939, 0.042885378, -0.011594221, 0.16106763, -0.13188729, 0.003600061, 0.010719925, 0.06403342, -0.13829167, 0.13667092, -0.059250504, -0.0027570873, -0.02972874, -0.058497794, 0.05154738, 0.0037649274, -0.12261696, 0.036700964, 0.032359228, -0.03004533, 0.15510446, -0.083382316, 0.029704109, -0.052508727, 0.14811465, -0.096826866, 0.0133037865, 0.1333738, -0.16221659, 0.031043231, -0.016016528, 0.09088859, -0.106481895, -0.09641365, 0.10674372, 0.11800113, -0.02979812, 0.13500327, 0.035842925, 0.11487341, -0.057307824, 0.16305855, 0.13793254, -0.018880263, -0.12571779, -0.10613461, 0.1384925, 0.15153426, -0.049059644, 0.054809093, 0.0036633462, -0.15196814, 0.029679582, 0.0021759272, 0.04971382, -0.044103555, 0.09630892, 0.06688616, -0.097262114, -0.13857757, 0.026934117, -0.093182184, 0.1395145, -0.068029374, -0.1374966, -0.11964367, 0.15275186, -0.007320255, -0.09353184, -0.04571288, -0.087607406, 0.019556984, -0.14717418, -0.15839823, -0.037105396, 0.034997374, 0.046655327, -0.07083567, 0.04601203, -0.1280852, -0.07618836, 0.08662355, 0.10807681, -0.14741854, -0.08725522, -0.038024306, 0.09682238, -0.114292964, -0.03220868, 0.054942667, 0.12614101, -0.046953447, 0.019643888, -0.002992168, -0.10353862, 0.067460194, -0.13164076, -0.11075552, -0.016575038, -0.077296734, -0.023248062, -0.08862678, 0.11198729, 0.061878294, -0.05100494, 0.022206467, 0.149243, 0.019791272, 0.012758981, -0.01992403, 0.12424712, -0.031725094, 0.055854365, -0.09595417, 0.12049236, 12.223341, 0.09581643, -0.15314303, 0.032002687, -0.025342014, 0.076289795, 0.13413635, 10.210354, -0.07715606, -0.07450403, -0.011944602, 0.07334541, -0.036132142, -0.035440423, -0.05850567, 0.14741102, 0.021418141, 0.10390473, -0.15271728, -0.12505054, -0.13707742, -0.105234995, -0.13303289, -0.11221869, 0.100801975, 0.044268254, -0.08662134, 0.14479062, -0.085993536, -0.15976156, 0.07112113, 46.949203, -0.018918902, 1.501615, 0.10231671, 0.12614703, 0.008941938, -0.14480713, -0.10408181, 0.08396119, -0.13174517, -0.025858369, 0.044777915, 0.14668638, 0.03764376, 0.1075705, -0.15176494, 0.1582483, -0.112216115, -0.1553754, -0.061467372, -0.039653167, -0.099729754, 0.022954255, 0.0048294365, 0.12720348, 0.012664825, -0.0059779882, 0.07376242, -0.10910502, 0.14327553, -0.102462955, -0.037315696, -0.048498057, -0.0396114, 0.07814148, 0.102210134, 0.12266955, 0.15565619, -0.035411626, -0.035513997, 0.03546205, 0.07243, 0.10308954, 0.053671524, 0.14579463, -0.06605497, -0.06665322, 0.056475773, 0.15855905, 0.14243713, 0.014468208, -0.13657615, 0.08455607, 0.086212456, 0.13527966, -0.029762402, -0.082366295, 0.1275954, -0.15944672, -0.017778218, 0.17059447, -0.13672057, 0.023530765, -0.10371839, -0.123173766, 0.103150964, -0.091170125, -0.13891277, 0.04691555, -0.006121725, -0.144452, -0.08229194, -0.084992625, 0.046828497, -0.071296915, 0.11863324, -0.11895323, -0.15367267, 0.11713827, -0.14865403, 0.09606585, -0.09692978, 0.04841183, -0.15124853, 0.11857629, 0.08851883, -0.15582858, -0.13627566, 0.07397458, 0.065131076, 0.12437865, -0.015704647, 0.07292276, 0.08539477, 0.07778661, 0.14196488, -0.100637086, 0.12100357, 0.092409745, -0.15100017, 0.05455758, 0.085375905, -0.032959566, -0.12463504, -0.10319913, -0.003347829, 0.011064811, 0.014542282, -0.075445324, 0.15343048, 0.111093454, -0.036535125, -0.04056176, -0.10053626, -0.05164367, -0.06881375, -0.12581708, -0.11801793, -0.0054386677, -12.253036, -0.050429784, -0.10894688, 0.10762208, 0.08931871, -0.16453978, 0.122403055, -28.671154, 0.16042572, 0.13495211, -0.06552568, -0.014313226, -0.03664349, 0.11730654, -0.013515189, 0.07229592, -0.11785309, -0.03315339, 0.16074055, 0.06761707, -0.05092371, 0.13592255, -0.11596139, 0.045372162, 0.030622348, -0.117812015, 0.12398716, -0.019369628, 0.14508057, -0.05274352, -0.07237411, 4.7654037, -0.043769926, 6.22459, 0.09632944, 0.38998902, 0.07650074, -0.008465078, 0.15116301, 0.11365932, -0.16585648, 0.008955117, 0.1561063, 0.12690917, -0.0017538071, -0.11599417, -0.16434275, -0.055159144, -0.16059816, -0.13149449, 0.09109825, 0.12563044, 0.04853876, -0.015561223, 0.06732488, -0.16357733, -0.14046128, -0.07287249, 0.09226653, -0.14748704, -0.12483965, 0.1545142, 0.027778983, 0.004470721, 0.15746918, 0.003306061, 0.0876244, 0.034540653, -0.051719435, -0.07369556, -0.06403551, -0.025273606, -0.016764015, 0.04520279, 0.08049442, 0.11205736, -0.051563904, -0.04765252, -0.124722525, 0.15744746, -0.0554289, 0.1259115, -0.10751566, 0.12294909, -0.0046926886, -0.13719395, -0.02200742, -0.13910392, -0.13057351, 0.13139433, 0.12101418, -0.09287699, 1.0484264, -0.14635019, -0.14684635, -0.09115921, 0.031365246, 0.08380875, 0.14609852, -0.015578459, 0.07121281, -0.12364493, -0.06111289, -0.013912395, 0.038083486, -0.12678443, -0.09369769, 0.15622553, 0.13456789, 0.08991128, 0.015865277, 0.054296866, 0.032676827, -0.06704405, 0.08313581, -0.029378414, -0.10034948, 0.10124901, -0.09287707, 0.048487738, -0.13592166, 0.010057256, -0.10066536, 0.013560913, -0.15888172, 0.14322439, -0.00050935155, -0.0521845, -0.11076228, 0.16423076, 0.02907215, 0.10608683, -0.12117982, 0.063888416, 0.07225181, -0.136051, 0.052304864, 0.048949, -0.11065659, -0.09863412, -0.04654561, 0.0033195466, -0.099244505, 0.11353633, 0.1529442, -0.005006075, 0.07044378, -0.013505578, 0.040523425, -0.039257824, 0.1330044, 0.08478236, 0.08048196, -0.1246469, 0.11505908, 0.1597296, 0.04278353, -0.041255377, -0.023954377, 0.104822606, -0.15004686, -0.070215434, -0.109123014, 0.002260536, -0.111586936, 0.0038149208, 0.011898905, 0.14627734, 0.047007993, 0.12664267, 0.087845325, 0.008531943, 0.04627806, -0.15504834, -0.027270317, -0.14700615, -0.13624786, -0.09138989, 0.08542895, 0.12853813, -0.016044855, -0.15041406, -0.15846345, 0.041071177, 0.105315596, 0.08009109, 0.1278449, -0.0470799, -0.14392275, -0.06524123, -0.040609345, 0.041991115, 0.07994695, -0.12221198, 0.14202401, -0.08457577, 0.13883379, -0.11691138, 0.034401655, 0.09874788, 0.051914155, -0.10156564, -0.1361235, 0.017430067, -0.12898247, -0.12572783, 0.15642199, 0.09455913, 0.1632731, 0.12848642, -0.084235564, -0.08299259, -0.12909916, -0.15430236, 0.0032907128, -0.038234144, 0.10032627, 0.08686489, 0.08107926, 0.01980333, 0.15452096, 0.14868617, -0.07614833, 0.01759927, 0.05640632, -0.15927272, -0.11276152, 0.080792174, -0.115314156, -0.16354693, -0.07935808, 0.113033414, -0.02353257, 0.07993643, -0.029794991, -0.016382486, -0.1626279, -0.06122467, -0.013605058, 0.15379202, -0.07632225, 0.13131177, -0.154365, -0.005802572, -0.03165114, -0.15173504, -0.04109364, 0.082809374, 0.09162223, -0.12826018, -0.012923747, 0.025402442, 0.03570044, 0.11871067, -0.022365734, -0.1652837, 0.0214829, -0.08421029, -0.14230111, 0.011606604, 0.15931353, -0.0114492625, 0.0047206134, 0.15501255, -0.05091898, 0.039246082, 0.10221827, -0.0028414577, 0.008059114, 0.021998554, 0.0007098317, -0.13579287, 0.03853886, -0.11850199, -0.11025081, -0.038312063, -0.16465728, 0.15527159, -0.07315122, -0.062481254, -0.093379006, 0.08542919, -0.07119399, -0.15529744, 0.01487121, 0.097304285, 0.1590679, -0.11029199, -0.02353558, -0.055585735, -0.16760474, 0.111073256, -0.07843421, 0.13456522, -0.0041677556, 0.1480664, -0.0050627156, -0.16261758, 0.16301566, -0.026121577, 12.192132, 0.009353429, -0.007750392, 0.041131586, -0.088103406, 0.059768282, -0.024443924, 10.121165, 0.018315462, -0.06082178, 0.03983353, 0.13302583, 0.14924967, 0.11257313, 0.117901266, 0.07027879, 0.095766276, 0.075755276, -0.09485048, -0.07588957, 0.07583352, 0.026034191, 0.010089029, -0.021401802, -0.050745815, 0.16209391, -0.15760687, -0.04761698, -0.054944806, -0.07767595, -0.091858245, 46.798767, -0.15404212, 1.5663838, -0.04974055, -0.00333508, 0.0035884932, -0.14837036, -0.029353514, 0.009762302, -0.11310062, -0.0290627, -0.0069293827, 0.048458695, 0.04004447, -0.045273714, 0.024972603, 0.12672812, -0.012032643, -0.008625209, 0.006183788, -0.003985435, -0.115128174, -0.022242963, 0.05301003, 0.11229486, -0.018430218, 0.061979994, -0.12434207, 0.16273886, 0.110471964, 0.10464874, -0.03295119, -0.057739824, 0.10005796, 0.16107076, 0.117640585, -0.15577008, 0.031994388, 0.027162135, 0.05475308, 0.12301171, 0.14870602, 0.07608572, -0.004643336, -0.15952693, 0.006578386, -0.07640116, 0.09952021, -0.112780586, -0.0563543, 0.14522254, -0.12929863, -0.050161332, -0.027869835, -0.09665144, 0.122448266, 0.024827361, -0.105897605, 0.1349535, -0.02680181, -0.025609866, -0.17168567, 0.08040869, 0.033460915, -0.025714114, 0.15429449, -0.08359215, -0.32236454, 0.008947071, -0.063109085, -0.063919544, 0.048162803, -0.14934145, -0.12917921, 0.13710867, -0.06222692, -0.07964476, 0.16120514, -0.08327667, -0.026572572, 0.14949918, -0.020334382, -0.029184014, -0.03610152, -0.1549372, 0.016230002, 0.1212942, 0.10382241, 0.03776203, -0.0902884, -0.084401175, -0.010733888, -0.053577732, 0.14559844, -0.098676, -0.012099356, 0.09705842, 0.045883402, -0.046130784, 0.14906406, -0.12709022, -0.05376029, -0.14323403, 0.15710872, -0.008987471, 0.1376414, 0.08946592, -0.094832644, 0.0171361, -0.15316859, -0.13802749, -0.16099012, 0.10611272, -0.059923172, -0.0036922733, 0.0486947, 0.022954319, -0.080231845, -0.08026639, -12.37198, 0.08118214, -0.068662666, 0.12944646, 0.101543166, 0.13814957, 0.094788015, -28.571125, 0.14787436, -0.02864101, 0.02845474, 0.10248516, 0.08488014, 0.10203283, -0.053895794, -0.022067264, 0.023900244, 0.096658744, 0.085387796, 0.03992918, -0.13152702, -0.05799412, -0.030923402, -0.062727235, -0.056611992, 0.045423668, -0.020741295, 0.15343028, 0.1307356, -0.16060558, 0.044807017, 4.7566037, 0.0622565, 6.373046, -0.14251599, 0.32745105, 0.1572337, -0.025185449, -0.1461321, -0.022089496, -0.043151617, -0.09085862, 0.13716826, 0.08443886, -0.024065837, -0.04213687, -0.16072288, -0.15908219, 0.06559536, -0.007879376, -0.16185343, -0.05739381, 0.16588068, -0.11632373, -0.06426271, 0.07595994, 0.073239625, 0.008170024, 0.14529637, 0.15665948, -0.16175926, 0.10226202, -0.0568598, 0.08760443, -0.10994616, -0.05798795, -0.049113356, 0.16074023, 0.020702347, -0.017698675, 0.015527832, 0.09142414, 0.13476011, 0.094613075, -0.0076723546, -0.13178548, 0.045280203, -0.08111011, -0.08892589, 0.09844169, -0.02055876, -0.15311167, -0.042706087, 0.10049155, 0.046095923, -0.05459906, 0.115921974, 0.0137296915, 0.0129933655, 0.12224108, 0.09782383, -0.017896103, 0.97398585, -0.13297498, 0.16099524, -0.07337969, 0.0595939, -0.06696882, -0.039821967, -0.024809258, 0.12969053, -0.1343062, 0.14070171, 0.09944779, 0.11893273, -0.0483576, -0.09651447, 0.098828495, -0.07176333, -0.06851735, 0.044198725, -0.09054063, -0.1354674, -0.09649873, 0.16191143, 0.033593297, 0.01378119, -0.07948825, -0.11392472, 0.06676136, -0.09794458, -0.11711654, -0.007759407, 0.052111864, 0.14976215, 0.035829782, 0.007498621, 0.013757316, 0.041142404, -0.14663388, 0.008472368, -0.11790289, -0.0853227, -0.013171002, -0.034133643, -0.16212304, -0.027728394, 0.039278414, 0.099791884, -0.121688485, -0.075521365, -0.023206607, -0.09722672, 0.08639848, 0.030794129, -0.073231995, -0.054902755, -0.013609484, -0.16473517, -0.000393793, -0.018135577, 0.14110991, -0.14537168, -0.11800267, 0.04555723, 0.14859942, -0.039976478, -0.091090426, -0.11681503, -0.1623108, 0.050128892, 0.02881731, -0.08425072, -0.049307838, -0.117356084, 0.10426974, -0.014711812, -0.005524233, 0.06321961, -0.008442193, -0.029947087, 0.16332686, -0.1345714, -0.087721676, -0.016027734, -0.13516666, 0.0039601177, -0.051028073, 0.15721071, 0.07069443, -0.003024906, 0.14592016, 0.04871489, 0.028487831, -0.022675753, -0.043001235, 0.08356126, -0.012379169, 0.0080982745, 0.09734121, 0.1018818, 0.017744318, 0.08633855, -0.11789955, -0.12335516, -0.15909868, 0.043175474, -0.057384796, 0.110997945, -0.049456403, 0.11922267, -0.0892136, -0.10197482, 0.057936206, -0.08341356, -0.13899581, -0.038063064, -0.048879832, -0.1266816, -0.037065133, -0.1260659, -0.023119986, 0.107548, -0.0021149367, 0.13159591, 0.108132124, -0.049643457, -0.10416752, 0.07548675, -0.13731731, -0.13704012, 0.07573135, -0.085127026, 0.06631559, 0.008520544, 0.012878895, 0.054071933, 0.11278716, 0.13680235, -0.1250462, -0.12458528, -0.11946829, 0.043044463, 0.058005393, 0.0022137016, -0.14862311, -0.084851936, -0.14539786, 0.117191315, -0.03523858, -0.09530863, -0.0016927421, -0.002192542, 0.025248498, 0.14951718, 0.12353104, -0.079602204, 0.0015387237, 0.12638256, 0.06712711, 0.012512505, -0.041007765, -0.056328982, 0.05761029, -0.023721606, 0.13462532, -0.16257483, -0.07633661, 0.035188347, 0.12992966, 0.0093866885, 0.060283765, 0.03227237, -0.10292008, 0.0946168, -0.13574335, 0.104135364, 0.0042117983, 0.06138134, -0.1140117, 0.13596979, -0.05073949, 0.15298668, -0.054226227, 0.024072483, -0.102183156, 0.055941284, 0.1511403, 0.106948346, -0.0075431317, 0.094216645, 0.09967336, 0.070813164, 0.15097332, 0.05914399, 0.1342287, -0.1451696, 0.14148057, 0.15636319, -0.054758184, 0.038130485, -0.09804356, -0.03402292, 0.07828327, 0.03985753, -0.103234485, -0.06419894, 0.17287914, -0.28000867, -0.040954325, -0.419487, -0.11945591, 0.052746564, 0.12666376, -0.030396532, -0.11087071, 0.05538389, -0.02813317, -0.16200717, 0.13021372, 0.0031918588, 0.03284101, 0.028200883, -0.10280185, 0.042296544, 0.07568678, 0.1173059, 0.09041763, -0.016240492, 0.103652745, -0.052796263, -0.054020785, -0.115176454, -0.029497905, -0.039028257, 0.09986206, 0.009350854, 0.10095681, 0.012380459, -0.044885516, 0.017028153, -0.019014183, 0.00793864, -0.18550359, -0.167957, 0.22175589, -0.124683246, -0.08793384, 0.06389598, -0.16092388, -0.048098132, 0.08489678, -0.12569228, -0.0100554675, -0.11254212, 0.072982684, -0.08603526, 0.13603362, 0.05263736, 0.0074846298, -0.14816733, -0.14772643, 0.14700884, -0.13542205, 0.13246354, 0.16032906, 0.01837489, 0.10660371, -0.07875765, 0.13394174, 0.13595152, 0.13428813, -0.010970861, -0.094080016, 0.11034039, -0.07960315, -0.06708357, -0.12815595, -0.07778396, -0.026359439, 0.1502003, -0.15251642, 0.09048301, 0.06262274, 0.0043121427, 0.072671756, 0.011530742, -0.051143132, 0.09037396, -0.14011487, -0.16236985, 0.1041224, -0.13374221, -0.092790246, 0.047625497, -0.05142068, 0.10433906, 0.09328103, 0.075372756, -0.118478954, -0.00097186863, 0.2507786, -3.1460388, -0.09232793, -0.07906095, -0.10214665, -0.013098036, -0.08382108, -0.31426743, -0.13374192, 0.14714953, -0.1366274, -0.13770162, -0.1041121, -0.0637784, -0.034932844, -0.1106791, 0.0005054176, 0.13293433, -0.084038, 0.03426884, 0.07309586, -0.0099075055, 0.02042267, 0.082885236, 0.13276449, -0.14732468, -0.0051976833, -0.13648637, -0.04445847, -0.10260755, -0.14964229, 0.09268218, 0.14400661, 0.0070537776, 0.05368106, -0.0048480607, -0.027962716, -0.06250925, 0.091995224, -0.124248005, -0.090930015, -0.14276849, 0.069433615, 0.08150932, -0.019017994, 0.039387405, 0.03151411, -0.14594588, -0.112771556, -0.070074454, 0.023660991, 0.1496517, -0.07615699, 0.082106516, 0.3963772, 0.10040795, -0.0013658575, 0.06717776, -0.14597385, 3.2809541, -0.08213697, -0.08121983, 0.1532811, 0.1016976, -0.15706156, -0.085144, 11.002211, 0.094036244, -0.0074355127, 0.06276259, 0.024833174, -0.033842824, -0.15413179, -0.14658083, -0.023887455, -0.0063240603, -0.0941548, -0.12651613, 0.019481838, 0.03255061, -0.04921212, -0.017050676, -0.07165204, 0.046010643, -0.022652047, -0.16438785, 0.1418501, 0.13539852, 0.07140023, -0.05622559, -0.34476858, 0.09990835, 2.5223722, -0.16899838, 0.5697322, -0.14422145, -0.16323124, 0.13202402, 0.07243012, 0.13118988, -0.027826162, -0.10226499, 0.11304596, -0.10985448, 0.1464451, 0.01572965, -0.09951438, -0.081738465, -0.089823954, 0.09336007, -0.086923756, 0.097498536, -0.1469931, -0.02669707, -0.08063334, -0.025521934, -0.07801436, -0.03971052, -0.011036918, 0.042604983, 0.16219312, 0.00022011995, 0.01872912, -0.045917377, 0.059682623, 0.112288564, -0.064912066, 0.08782107, -0.08450766, 0.042857658, -0.15043408, -0.12189214, 0.1595582, -0.011163011, 0.12380794, 0.10733047, 0.121236295, 0.022788048, 0.00025610626, 0.07036328, 0.12809956, 0.020606354, -0.13545136, 0.029590026, 0.034312785, 0.14019972, -0.04869535, -0.086673066, 0.08199818, 0.15925473, -0.10389295, 1.4469379, -0.15325505, -0.03544885, 0.051890507, 0.09750638, -0.1638933, 0.32285544, -0.07331069, -0.15872402, -0.06666232, -0.034214213, 0.057725832, -0.10754913, 0.056162994, 0.09343454, 0.108974695, 0.07888526, -0.16456746, 0.075902656, 0.11737457, 0.12248415, 0.14823937, -0.13991453, 0.0560171, -0.018363252, -0.06299051, 0.06022407, 0.109953046, -0.09602346, -0.033260778, -0.02591391, 0.04149364, 0.037003234, -0.10988371, -0.12534705, 0.13626646, 0.084759176, 0.027678045, -0.109770074, 