/********************
    parameters.h

    Code generated using nn4mc.

    This file defines the neural network weight parameters for all layers.

*/
#ifndef __NEURAL_NET_PARAMS_H__
#define __NEURAL_NET_PARAMS_H__

#ifdef __cplusplus
extern "C" {
#endif

const float dense_W[1800] = {-0.07378563, -0.04761409, 0.12058322, -0.18499392, -0.05607363, 0.04291087, 0.1744895, 0.19012174, 0.018474896, 0.013100505, -0.1450899, 0.16012979, -0.088458404, -0.05061294, 0.1530066, 0.017550921, -0.1493429, 0.04110895, 0.1460496, -0.11617124, -0.0754479, 0.19757624, -0.089114316, 0.20177285, -0.05929075, -0.04170237, 0.0477498, -0.02966975, -0.12227714, -0.2130038, 0.07070024, 0.09573519, 0.035195313, -0.09571665, 0.11909892, -0.17295401, 0.008922726, -0.10040897, -0.095441006, -0.23470004, -0.14149451, -0.105375916, -0.124098375, 0.032861553, -0.08604415, 0.08394395, 0.15094858, -0.17562188, -0.060806766, -0.02585031, 0.17382807, 0.0134039745, 0.17739134, 0.065252066, -0.17445521, -0.09368345, 0.19552806, 0.017360885, 0.060209088, 0.018830882, -0.17355974, 0.23157357, -0.035657413, 0.087090656, 0.11573003, 0.05393565, 0.09273007, -0.15285373, -0.03845077, -0.1590638, -0.11545522, 0.11914748, 0.060708534, 0.0007438768, -0.095059484, 0.06102422, -0.10894406, 0.03244083, 0.11205071, -0.23223327, -0.06705498, -0.11151825, 0.04445224, 0.22357857, 0.08981437, 0.10069745, 0.12397922, -0.12371063, 0.23704925, -0.040050592, -0.11106739, -0.21055458, -0.001971804, 0.06925964, 0.027839482, 0.18648373, 0.14469449, 0.13966814, 0.24807164, 0.065276094, -0.03965459, 0.009407923, -0.020931544, 0.25691897, 0.016868806, -0.16390122, -0.170611, -0.01674149, 0.1419851, 0.17439154, 0.2508632, 0.07277393, -0.067013666, -0.20971519, -0.20271605, -0.08334253, -0.0130809145, 0.0253479, -0.094887294, 0.12118752, 0.012684463, 0.13092527, 0.12897067, -0.044937707, -0.062457863, 0.14230439, 0.06172231, -0.028613277, -0.20143622, 0.26054144, 0.033547692, 0.15376733, -0.0845072, 0.18778104, -0.18323015, -0.0076310374, 0.06656783, -0.18976322, 0.21193217, 0.36144933, -0.026951985, 0.07902958, 0.17616414, -0.05944686, -0.08845322, 0.055496305, 0.21486208, -0.16292092, 0.066169895, 0.043455135, 0.04344757, -0.13495354, 0.016211439, 0.074234985, -0.056458607, 0.13704452, 0.013026881, -0.04031083, 0.05236929, 0.021426842, 0.13664022, -0.24516565, 0.013906683, -0.2122358, 0.21856242, -0.011375363, 0.06934473, -0.021908937, -0.020768296, -0.16086167, 0.0935274, 0.17554584, -0.026796574, 0.05632078, -0.004321644, -0.032831468, -0.015330771, 0.13137336, -0.15024324, -0.19316837, -0.06994206, -0.0587691, -0.13946728, 0.07704554, -0.16364448, -0.05336341, 0.033497132, -0.13078938, -0.10309343, -0.069596395, 0.08130027, -0.052921884, 0.0209716, -0.19126403, 0.16264805, -0.12424189, -0.11346574, -0.13606495, 0.04569592, 0.042426404, 0.06361439, 0.12211969, 0.15063229, 0.16954213, 0.043451514, 0.1618429, 0.20302974, -0.2318482, -0.007476458, 0.06583404, 0.14979008, 0.17313455, -0.07882914, -0.086615495, 0.021063164, -0.0699633, -0.022784412, -0.1312691, 0.124998935, 0.1763569, -0.024538916, -0.025635172, -0.003620914, -0.09588372, -0.010902039, -0.020025168, -0.038147148, -0.09135487, 0.10887917, -0.08256053, 0.25358593, 0.15956397, 0.23294489, -0.09044129, 0.059582166, 0.09557637, 0.06580891, 0.17122638, 0.23995413, -0.013355701, 0.002379622, -0.09896032, -0.14030859, -0.060074475, 0.017062131, 0.07951358, 0.10691544, 0.08257853, 0.20057671, 0.19126229, -0.14433135, -0.03580514, -0.18561819, 0.22935107, -0.25851533, 0.08919295, 0.09100506, 0.009405598, -0.15231825, -0.17403513, 0.2927934, 0.20663898, 0.25885335, 0.025480065, 0.0814542, 0.23679619, 0.19252616, 0.063231476, 0.029165834, 0.06333824, -0.09866752, 0.07085254, -0.3602175, 0.21413313, -0.10250614, 0.06239599, -0.1323508, 0.044413697, 0.17436495, -0.066809505, 0.28097257, 0.07752341, 0.027048783, 0.0067276075, -0.008904907, 0.10479194, 0.14237976, 0.03286021, 0.09089248, 0.21010482, -0.072728224, 0.024461191, 0.095414884, 0.016200393, 0.047952406, 0.088813625, -0.13970163, 0.2361678, -0.017470548, -0.026684934, 0.035777707, 0.0648076, -0.19080117, 0.050228626, 0.029350761, -0.28013948, -0.15855528, -0.21154167, -0.06203811, -0.04705695, -0.086153634, 0.065845005, 0.15307678, 0.08216422, -0.15352558, 0.1661347, 0.14097942, -0.034751993, -0.15854159, 0.087720305, 0.06993703, -0.07937617, 0.16589776, -0.1702146, 0.09671784, 0.020279411, -0.07409909, -0.12883697, -0.13394299, 0.0435904, 0.05333604, -0.2604837, 0.0068639517, -0.043504328, -0.06705886, 0.19790336, -0.10304946, 0.07935524, -0.054887854, 0.14533873, 0.18697895, 0.25369078, 0.14422339, -0.011244997, 0.1125005, -0.031599477, 0.1353224, -0.0033583408, -0.10006012, 0.013240154, -0.16179234, -0.058741216, -0.25409913, 0.024031064, 0.17524335, 0.29116988, -0.16746545, -0.018383319, -0.11507369, -0.071267486, 0.19448732, -0.2323155, 0.054517757, -0.034679946, -0.21946965, -0.06626763, 0.118042834, -0.035438333, 0.035322763, 0.15182658, 0.11763161, -0.044677928, 0.061288375, -0.16852397, -0.04550576, -0.03959471, 0.1299385, -0.01681433, -0.0634211, -0.12579602, -0.04340048, -0.03391428, -0.010845653, 0.021791542, -0.1841367, -0.04033432, 0.15203704, 0.13546222, 0.015185738, -0.025430486, 0.032383047, 0.18439868, -0.017752908, 0.09745662, 0.041975997, -0.2633784, -0.023550717, -0.033755373, -0.25468373, -0.08024724, 0.054952826, -0.011609562, -0.03899736, 0.21208891, 0.020504324, 0.07016631, -0.055900723, 0.056483086, -0.089080445, -0.11588481, -0.079583496, 0.15978342, 0.03185936, -0.14590272, 0.13314655, -0.11579044, 0.027175846, -0.015851542, 0.12400329, -0.09756492, -0.019925404, -0.19339624, -0.250369, 0.060310856, 5.1025204e-06, -0.09387789, -0.012636015, -0.031269237, 0.26963598, -0.14259042, -0.14472958, -0.18300214, 0.032401636, 0.24893023, 0.11009854, -0.0041410453, 0.058352083, 0.20486523, 0.017914386, -0.091405235, -0.034897733, -0.15125416, -0.13410927, 0.05914581, 0.012072679, 0.0643801, -0.106189944, 0.25205478, -0.1526772, -0.028463593, -0.07396654, 0.17405345, -0.15524587, 0.0022099076, 0.06393615, -0.14434175, 0.0060553127, 0.08061221, -0.013295683, -0.011787386, -0.13068847, 0.25086343, 0.023384871, -0.1013899, -0.02996649, 0.07325476, -0.065981604, -0.08079019, 0.024940616, 0.15616927, -0.071622044, -0.28103274, -0.07948234, -0.18788624, -0.12458297, 0.030527653, 0.016660277, 0.07070783, -0.18243076, 0.16127254, 0.15184535, -0.04154965, 0.10394052, -0.18870729, 0.12512335, 0.062115464, 0.115054764, 0.106129564, 0.19329186, -0.21201368, -0.054141276, -0.09381232, 0.04204093, 0.20716691, -0.17690167, 0.09254085, -0.17230165, 0.097647816, 0.08816857, -0.03942826, -0.034785528, -0.041291986, 0.04306803, -0.13053836, -0.059705805, 0.21429545, -0.22535342, 0.22516826, -0.016450316, -0.10676069, -0.14046519, 0.055726487, 0.06540964, -0.044902626, -0.08710837, -0.085480556, -0.062333066, -0.0644894, 0.008750003, -0.1759144, 0.01746625, 0.18338223, 0.023254056, -0.08065743, -0.15461627, 0.008889122, -0.0106395725, -0.019979568, -0.13758205, 0.090347506, -0.023738174, 0.18219917, -0.24332373, 0.008919571, -0.050004985, -0.0881313, 0.048521996, -0.13274072, -0.072415665, 0.07115312, -0.0394395, -0.13004667, 0.07383999, 0.054772865, -0.0699285, 0.089896806, -0.02163868, -0.03122868, 0.056972105, -0.15712541, 0.12912287, -0.02755697, -0.16773987, -0.17407514, 0.2625894, -0.060272876, -0.105383046, -0.007954713, 0.12399329, 0.18764204, -0.0710585, -0.124266095, -0.26157734, 0.14662217, -0.088006526, 0.08416105, -0.1887912, -0.07149487, -0.055690553, -0.07524817, 0.07675292, 0.27628002, -0.11137528, -0.19699655, 0.073283486, -0.10087663, 0.1098312, -0.0099558085, -0.122809805, 0.07565916, -0.13267319, -0.045431655, 0.019663462, 0.1667389, 0.235808, -0.114490375, -0.20695917, -0.052923173, 0.08318462, 0.19807597, 0.065765664, -0.07440091, -0.10620344, -0.018879384, 0.054444492, 0.06753337, 0.12843104, -0.16333762, 0.113300115, 0.010510703, -0.041373573, -0.5089238, 0.02940918, -0.05225353, 0.3523533, -0.19928245, 0.8285954, -0.9395316, 1.3798605, -2.8909664, -0.024030471, 0.022796849, -1.4918885, 0.2159318, -0.15471384, 0.6751857, -0.0471323, 0.30298188, 0.33762857, 0.3157174, -0.7839709, -0.09888568, 0.27469373, 0.014398043, 0.8268708, -1.2710199, 1.2993528, 0.1493214, 0.0749517, 0.75495666, 0.062009707, 0.1927158, 0.6448048, 0.096259415, -0.053237718, -0.19648273, -0.06477029, 0.18996537, -0.25453493, 0.13806865, -0.46258944, 0.14259464, 2.2467234, -0.33623102, 0.66424567, 0.054861825, -0.110569514, -0.47433752, 0.096351154, 0.7384772, -0.41063026, -1.5740432, -0.23327573, -0.2271113, -0.16305356, -0.028637828, -1.1222156, 1.6897974, -1.1467413, -0.61992097, 0.02788887, -0.17781764, -1.8198152, -0.018286591, 0.0686809, -0.26956466, 0.16434185, -1.1687258, 0.9599928, 0.124705, 0.7239351, -0.1616009, -0.15198441, 0.9670463, 0.51369387, 1.5233024, -1.2400817, 0.11076396, -0.16127264, 0.4727892, -0.38687396, 0.13666816, 1.3194036, 0.012285668, 0.124379635, 0.6325951, 0.14230868, -0.11924965, -0.05510862, 0.13975523, 1.8197727, 0.00019106502, 0.6651248, 0.10906228, -0.8323589, 0.16265137, 0.11746598, -0.5917744, -0.067238525, 1.8993007, 0.853045, 1.9272567, 0.20834541, 0.15521994, -0.7885639, 0.3357643, 0.854501, -0.20989797, -2.0067992, 0.8386041, -0.15480348, -0.03553694, -1.048233, -0.09947008, 0.040384814, -0.20135853, 1.5559525, 0.6029989, 0.34615666, 0.13570791, -1.5153031, 0.10137339, 0.18938938, -0.43893376, 0.47784254, -0.6768135, -0.6892825, -0.14501543, 0.08886307, 0.6570563, -0.09513996, 0.24925543, -0.85691786, -0.109477475, -0.002432241, -2.3367302, 0.2915587, 0.24173334, -0.033019383, 0.019766869, 0.8069013, -0.12919374, 1.1238451, -0.2318848, 0.037850574, -0.06293416, -0.26330662, -0.074967615, -0.2222725, 0.4951918, 0.11621723, -0.4744533, -0.021050902, 0.19629239, 0.29033554, -0.06761271, 1.2334416, -1.1517872, 1.5122254, -2.4131496, -0.18290877, 0.20989735, -1.3568276, 0.12910844, 0.15870011, 0.6399405, 0.17818384, 0.04189206, 0.3432037, 0.12410047, -0.87991107, -0.07579994, 0.07073002, -0.42449763, 0.8624976, -1.0278612, 1.1798432, -0.0022604389, -0.13175493, 0.6744025, 0.06919034, -0.13326702, 0.6042716, -0.045327745, -0.025074584, -0.35281444, -0.13697602, 0.22481647, -0.14877574, -0.22497548, -0.42754614, -0.17909388, 1.8898516, -0.23069222, 0.49492562, -0.02342591, -0.2018907, -0.1919767, 0.008331418, 0.90186304, -0.7300906, -1.3140798, -0.15219045, -0.12590836, 0.16022082, -0.2672588, -1.0038645, 1.548873, -0.99204737, -0.19675444, -0.18247384, -0.23117632, -1.7121494, 0.11862506, -0.19013369, -0.2725356, 0.0926263, -1.1376746, 0.8933175, -0.03741283, 0.6458933, -0.043283723, 0.29520366, 0.6343617, 0.7203564, 1.3654128, -0.9656288, -0.37160277, 0.05983589, 0.80353373, -0.18779974, 0.054478455, 1.1675862, -0.016028373, 0.16377401, 0.62534016, 0.24532351, 0.25857753, 0.19610584, 0.1489728, 1.7277266, -0.2426838, 0.6731747, 0.2938785, -0.7619341, 0.1937787, -0.23446174, -0.34939346, 0.13315314, 1.5643857, 1.0258015, 1.7867581, 0.07148672, -0.23170611, -0.64427936, 0.34653252, 0.63602966, -0.35026765, -1.4722484, 0.70937884, -0.16702051, -0.06582259, -0.7811336, -0.15463978, -0.23828797, -0.017793344, 1.150913, 0.46503547, 0.3903872, 0.07428652, -1.5378785, -0.182345, -0.20467174, -0.19784078, 0.4929799, -0.34283566, -0.62019527, 0.045146298, 0.24067394, 0.75520897, -0.012412914, 0.20774727, -0.53877586, 0.045907512, -0.050902463, -1.952446, 0.12733401, 0.20132555, -0.124789014, -0.14317949, 0.9427863, 0.058993183, 1.1265737, -0.4488239, 0.019434812, -0.11097734, 0.15709527, 0.015866695, -0.02678802, 0.2457571, -0.1463095, -0.050833452, -0.18064445, 0.21119629, -0.08442798, 0.15422021, 0.2204874, -0.17422357, -0.19559968, 0.040196404, 0.2530709, 0.0051206555, -0.12659638, 0.050244186, -0.13718206, 0.2904233, -0.24004082, 0.07805728, -0.05980456, -0.14495194, 0.027996847, 0.26948565, 0.27500078, -0.011283321, 0.18741357, 0.02736605, 0.16317926, 0.16679902, 0.11551359, 0.23811382, 0.12696303, 0.25604397, -0.023860088, 0.16553062, 0.2924367, -0.040343974, 0.000631683, -0.06800568, 0.2484711, 0.13560061, -0.040277153, 0.21745273, -0.039786596, 0.032685846, -0.15223059, -0.11996876, 0.25263408, -0.21005926, -0.041021366, -0.08619253, -0.1600163, -0.030745843, -0.0063720457, -0.08144723, -0.10250093, -0.10643993, -0.10036309, 0.04604925, 0.042172484, 0.04757618, 0.07779284, -0.14644901, 0.023733243, 0.16037247, 0.27842134, -0.11442767, -0.082064055, 0.23931368, 0.059664655, -0.21930028, 0.052479077, 0.19626102, 0.1411568, -0.031784885, 0.15232915, 0.15331289, -0.056378357, -0.13114627, 0.0697438, 0.013050102, 0.14488402, 0.15086752, -0.017128337, 0.16287978, -0.16720378, -0.12444829, 0.04588382, -0.015414239, 0.23959482, 0.15116802, -0.041318096, -0.14299405, 0.09263597, 0.032504886, 0.27072516, 0.19703399, -0.14441034, 0.00028931262, 0.12834646, -0.042088352, 0.19817276, -0.12795955, 0.25853288, 0.018842336, -0.0905411, 0.029934283, 0.14812988, 0.22733942, -0.23646022, 0.015601806, -0.07425661, 0.1513312, 0.25075394, 0.24743368, -0.23646893, -0.024090482, -0.18271257, -0.072083235, 0.06592207, 0.04489528, 0.010965288, -0.051562175, 0.16481332, -0.21617523, 0.23122278, -0.23006807, -0.0918717, 0.11231845, 0.22583471, -0.029711438, 0.11789713, 0.10319508, 0.005834145, 0.037827812, -0.053083938, 0.07323013, -0.18042879, -0.060247254, 0.19190088, -0.041686814, 0.077637024, 0.21600756, -0.08639078, 0.15836039, -0.08732535, 0.04319834, 0.14526397, 0.26850933, 0.2023705, -0.21128821, 0.16274677, 0.09974669, -0.013603907, -0.1477018, -0.10108186, 0.118958935, -0.10116995, -0.022733558, 0.20976804, -0.13719743, 0.24221855, -0.17200275, -0.15033129, 0.2037821, -0.11171654, 0.01708508, -0.05539974, -0.10199924, 0.03882635, -0.18932569, 0.09851063, 0.07562885, 0.18987806, 0.11057554, -0.09858281, 0.17739508, 0.06893421, -0.21062812, 0.2207553, 0.27879578, 0.17409627, 0.123322524, 0.13931906, 0.12879194, 0.07530905, -0.22193888, 0.27268964, 0.16445728, 0.055761952, 0.030066952, 0.2501417, 0.23408452, -0.24028131, 0.050472204, -0.068171725, 0.09719617, 0.28366786, -0.06316066, 0.10640993, -0.21198463, -0.020766906, 0.12533419, 0.12494709, -0.19623478, -0.12854569, -0.009523744, -0.2127323, 0.21604405, -0.105987385, -0.255454, -0.17383099, -0.09666765, 0.1628908, -9.056387e-05, 0.056506574, -0.048089277, 0.04916973, 0.063337676, 0.08432108, -0.0071926364, 0.20599285, 0.23533523, 0.2573544, -0.15648404, -0.122823626, 0.157611, -0.090886086, -0.037041765, -0.17194209, -0.041295443, -0.21592726, -0.030406283, 0.032326277, -0.10548767, 0.14400354, -0.22568637, 0.032867912, 0.039256576, 0.26130524, 0.15325554, -0.21107143, 0.14062181, -0.070732206, 0.044563614, -0.07653053, 0.15821166, 0.18705484, -0.10131193, -0.18353951, -0.15902518, 0.04326364, -0.17553563, 0.18924507, 0.06987157, -0.05315593, -0.04092663, 0.027535928, -0.12918101, 0.0006913705, -0.06146862, -0.03857279, -0.0388713, -0.16056052, -0.08947299, -0.074349195, 0.11556901, 0.24228148, -0.21932235, 0.17570928, -0.1415974, -0.22462708, -0.15046005, 0.22532694, -0.17212376, -0.22498918, 0.09301087, 0.08393602, -0.035810146, 0.024095349, 0.03508703, -0.14486627, -0.005939135, -0.21805364, 0.05796524, 0.0960502, 0.01501766, 0.119133025, -0.077059634, -0.03403603, 0.11170007, -0.22314112, -0.0666906, -0.19020824, 0.05218226, -0.22123519, 0.31170425, 0.29390088, 0.08389215, 0.11078375, 0.2378781, 0.12224647, 0.101300366, 0.056135252, 0.09191919, 0.32526705, 0.14698257, 0.13900276, -0.068293385, 0.3111132, 0.05061375, 0.07930588, 0.27196506, 0.032300923, 0.03904697, 0.11319388, -0.074482314, 0.049234796, 0.102472425, -0.1471199, 0.036326043, -0.032717753, 0.26283613, 0.0852195, 0.25662538, 0.075042605, 0.14614221, -0.24098347, 0.17453846, -0.19488609, 0.26474726, -0.14744641, 0.10517451, 0.15260293, -0.07759348, 0.09252753, -0.07156296, 0.02894491, -0.09344269, 0.10853267, 0.07629417, 0.23475464, 0.20365408, -0.045435358, -0.1515919, 0.2342724, 0.08861669, -0.047653392, -0.12585144, 0.1890584, 0.17508878, -0.20970489, -0.14466025, -0.007523632, 0.19135493, -0.21229534, 0.100926414, 0.22961813, -0.19234791, 0.053016633, 0.09183519, -0.2439294, -0.032778617, -0.21954556, 0.20129456, -0.04995936, 0.2709617, -0.0037862419, 0.14482799, -0.15234159, 0.18087336, -0.15416877, -0.13486458, 0.08831659, 0.12686625, -0.20839301, -0.18691148, -0.16284466, 0.027965061, 0.06452649, 0.06377148, 0.28088602, 0.24654809, -0.123810105, 0.090271376, 0.1333419, 0.08253807, -0.100590765, 0.2671652, 0.24924776, 0.031470314, -0.22195923, 0.11654221, -0.02833636, 0.03938997, -0.07727264, -0.106903195, 0.13496749, 0.16272874, 0.0729405, 0.15804549, -0.06452199, -0.048943955, 0.09110138, 0.30742165, -0.053995892, 0.16756724, 0.00022128205, 0.010584088, -0.0032239545, 0.109550774, 0.012031092, 0.13473818, 0.25082833, 0.063277185, 0.14153647, 0.04510749, -0.019522047, 0.13474324, 0.063888334, 0.15305693, -0.096686326, 0.09885392, -0.0160717, 0.023716593, 0.24971959, -0.048672505, 0.09852712, -0.059290983, 0.23776571, -0.16086848, 0.19752531, -0.05417977, 0.21345411, 0.13963361, -0.21889515, 0.040063962, 0.1566961, -0.18174884, -0.14341441, 0.052304532, 0.19272417, 0.23879851, 0.19651377, 0.21293528, 0.19487728, -0.15288103, -0.14027323, -0.16555928, -0.1374546, 0.048603594, 0.18937251, -0.20945333, 0.10945321, -0.08626838, -0.050684266, 0.23473577, -0.09202116, -0.031426392, -0.15500869, 0.13557635, 0.22366628, 0.21115969, -0.15068261, 0.27248922, 0.11981091, -0.0061832536, -0.24525832, -0.09522413, -0.14520378, 0.19794624, -0.118658476, -0.055432163, -0.08623884, 0.030601406, 0.21768545, -0.07387742, -0.11075356, 0.0658358, 0.012314914, 0.08763611, 0.16505142, 0.0774458, 0.15498036, 0.24303173, -0.04878083, -0.09106863, 0.27524203, -0.06080514, 0.049356963, 0.069532424, -0.28107253, 0.15878473, -0.021900887, 0.08210985, -0.07086417, 0.18869187, 0.10486923, 0.16797455, 0.23223941, -0.019639526, 0.16120403, 0.24268688, 0.22439308, 0.071158625, 0.016713006, -0.021737467, -0.016485544, -0.024737582, -0.04156598, -0.06453502, 0.42026845, 0.03691307, -0.08975891, -0.16305526, 0.2649852, -0.0010546198, 0.15004446, -0.12667233, -0.23627736, 0.21764569, 0.24591772, -0.1367974, -0.048826423, -0.0796866, 0.17321022, -0.076456435, 0.14112146, 0.054593626, 0.12802933, -0.17383146, -0.18495488, -0.07968529, 0.11945572, -0.15955089, 0.29054332, 0.16767155, 0.11516811, -0.049485162, -0.2232578, 0.10248114, 0.05093928, 0.07600906, 0.027850421, -0.10334442, -0.014882229, -0.17869239, -0.01312967, -0.11300577, -0.11954985, -0.080970295, -0.10491685, 0.19179448, 0.098296255, 0.03832371, 0.24941073, 0.2271205, -0.11560504, 0.12994479, -0.10332531, -0.01712716, -0.13964847, 0.18616699, 0.17935762, 0.18147843, 0.11026222, 0.013380882, 0.04530761, -0.09798812, -0.011742673, -0.16528343, -0.04884124, 0.30953896, 0.11316355, 0.047938205, -0.10879804, -0.13536628, -0.038426146, 0.13804063, 0.060282048, 0.0892463, -0.05526916, -0.22719282, -0.080560654, 0.14542945, -0.062406767, 0.24664293, 0.061400875, -0.08624715, 0.031851348, -0.09967593, -0.05320533, -0.21856217, 0.2234958, -0.08835554, -0.0570632, 0.018395692, 0.25323138, 0.10936053, 0.020590123, 0.052990705, -0.036244154, -0.19777797, -0.2217231, -0.1995053, -0.14301617, 0.11006408, 0.11548309, -0.031310312, -0.13595974, -0.047480732, -0.03200047, -0.26993918, 0.16496377, 0.19563867, 0.17667864, -0.07099347, 0.052243814, -0.08340318, -0.07333302, -0.077880636, -0.047796022, -0.15182592, 0.37392467, 0.11066323, -0.1412284, -0.070055746, 0.06440766, 0.28234082, -0.041620523, 0.15159081, 0.13899551, -0.19308975, 0.08800661, -0.036243875, 0.2495295, -0.018457197, 0.18542688, 0.049973704, 0.20104933, -0.025848392, 0.11630795, 0.23043792, 0.048121516, 0.07457714, 0.10096908, -0.0266157, -0.08260027, 0.24911521, -0.22751139, -0.09539671, 0.14239994, -0.1387835, -0.024630148, -0.102988295, -0.05879151, -0.14469074, 0.03223847, 0.021525882, 0.007818677, 0.030894428, -0.024971183, 0.06332613, -0.13984674, 0.16000327, -0.106368706, 0.023043884, -0.070702545, 0.053352747, 0.07461878, -0.2654267, -0.0056672655, 0.004795387, 0.17146866, 0.010520766, -0.01359903, -0.09389634, 0.057614025, -0.3091486, 0.10027549, 0.07356601, 0.0012283273, -0.21669762, -0.014558647, -0.015951827, -0.037294187, -0.09884209, -0.34735608, -0.09916608, -0.033981234, -0.3217066, -0.00151792, -0.1791906, -0.17848578, -0.027189596, 0.12334184, -0.012598715, 0.22423944, 0.27175274, -0.16438991, 0.0054930015, 0.008888689, -0.15817949, -0.10018328, 0.027714247, 0.26759592, -0.14997074, 0.054003496, -0.04478292, -0.050666194, 0.059977625, 0.16287903, 0.21025908, -0.17966248, 0.23198973, 0.19498308, 0.21620944, 0.057670515, 0.14655147, -0.025666555, -0.091902025, -0.051294863, -0.0015474347, -0.15142162, 0.22095124, -0.25394848, 0.086080246, -0.039377354, 0.19649825, 0.2354103, 0.26237634, 0.22203077, 0.07591227, -0.050166123, 0.164108, 0.23266435, -0.09023038, 0.036899038, 0.123469174, -0.2448621, 0.092618786, -0.31017354, 0.19830687, -0.10436201, 0.05239202, -0.18596391, -0.1768951, -0.16895087, -0.037686028, -0.13269073, 0.019251293, 0.07292491, 0.05001406, 0.14585467, -0.009084359, 0.0038153816, 0.18839069, -0.29723927, 0.16069688, -0.021074668, -0.074250944, -0.03963425, -0.33398974, -0.00431623, -0.2372673, 0.015753387, 0.2100299, 0.2382649, -0.04140903, 0.124535345, 0.010580928, -0.034417383, -0.08011691, 0.019424517, -0.21113853, 0.1824814, -0.14140351, -0.15006228, -0.14563781, -0.12489531, 0.087414294, 0.14116575, 0.08241452, 0.0815094, 0.1683081, -0.048206013, 0.19795255, 0.13429675, 0.073311865, -0.029105261, -0.22951452, -0.1246588, 0.11581024, 0.05454328, -0.11753504, 0.13159022, -0.19146676, 0.14516535, 0.16090515, -0.17602348, -0.18856813, 0.02680073, 0.18801676, -0.01846236, -0.21578602, -0.12476814, 0.001228993, 0.26500088, -0.09093371, -0.0196903, 0.1813461, -0.26506472, 0.16522937, 0.1544065, -0.103984036, -0.1460102, -0.148941, -0.09015803, -0.1975573, -0.12479629, 0.03061517, 0.20142794, 0.096893124, 0.25875866, -0.032140456, -0.18477276, 0.21665353, -0.14084144, -0.19804665, -0.04542255, -0.2300429, -0.30383596, -0.17202634, 0.2826562, 0.09948711, 0.1195368, -0.1762937, -0.27169818, 0.077585995, -0.16522701, 0.09532788, -0.13604045, 0.24257116, -0.031020526, 0.14582554, -0.21825366, -0.30927828, 0.16368632, -0.12852748, -0.12087349, 0.041181277, 0.15563484, 0.14613807, -0.1563786, -0.057844244, 0.102527335, -0.011245842, -0.21744533, 0.098681584, 0.16945139, 0.04426851, 0.21510452, -0.23395337, 0.16197498, 0.14142524, -0.2560033, -0.102112964, -0.051094133, -0.08951295, 0.080312505, -0.2520453, -0.08903151, 0.035151683, 0.20266552, -0.14667036, -0.06987376, 0.14208274, 0.14464128, 0.15809879, 0.14455512, 0.024609815, 0.015950188, -0.003918744, -0.017557755, -0.14166225, -0.23528726, 0.046560254, 0.16728748, -0.18611422, -0.11471968, -0.1169612, 0.27276936, 0.07744486, 0.10252135, 0.1428287, 0.17232619, 0.07514149, 0.023351857, -0.123138465, 0.0029011678, 0.14090055};
const float dense_b[50] = {-0.016213927, -0.03442961, -0.02897494, -0.0682257, -0.0406883, -0.050556723, 0.013433447, -0.0142812105, -0.022159226, 0.0017739801, -0.006454692, -0.061765183, -0.038011268, -0.042978965, -0.028333902, -0.06420889, -0.012308387, -0.018440364, -0.044958618, 0.0023473834, 0.015705263, -0.052220214, -0.0009303244, -0.024938261, -0.019258194, 0.011650916, 0.02954786, -0.035409283, -0.031764206, -0.03452333, -0.048113722, -0.038946476, 0.039370466, -0.034042045, -0.052518953, 0.0025886907, -0.043563183, -0.01463122, -0.018960807, -0.047751818, -0.028047154, -0.013874457, -0.024590388, -0.025567932, -0.036546405, -0.05969609, -0.056085046, -0.03362494, -0.01844789, -0.009841473};
const float dense_1_W[750] = {0.13553476, 0.008841693, -0.01794482, 0.22495057, -0.056675587, 0.09821704, -0.15731928, 0.19538762, -0.30244142, 0.11803052, -0.29418814, 0.08553409, 0.15873317, -0.090113625, -0.23136891, 0.27809036, -0.15694597, -0.08727003, -0.24026996, 0.41116202, 0.1339021, -0.28875574, 0.003039388, -0.08576166, -0.15344068, 0.26184434, -0.20472114, 0.23718978, -0.08221298, 0.13485442, 0.1867324, -0.26532492, -0.116786726, -0.0874464, -0.27679107, 0.20311949, 0.2688406, 0.19531566, -0.010586732, -0.24224393, -0.27785033, -0.11505357, 0.1583062, 0.28087044, -0.06375262, 0.18586755, -0.05378462, -0.19886869, -0.026594039, -0.24696265, 0.10723899, 0.09784398, 0.12222582, 0.055650696, 0.2736566, 0.079740934, 0.2569513, 0.14186761, 0.07364565, 0.15143609, 0.26566088, -0.25877646, -0.31533778, 0.029933069, -0.08540887, 0.057533648, -0.025383031, 0.031862997, -0.17353658, 0.12857659, 0.06273287, -0.036612578, 0.011118194, 0.2372503, 0.031019006, 0.084255055, -0.2921857, 0.17728277, 0.17084461, 0.07525091, 0.10737788, 0.15725508, 0.1311939, -0.33206332, -0.0628987, -0.15136921, -0.07138453, 0.031618327, 0.20129271, -0.2778494, 0.2619468, -0.24306922, -0.026233505, -0.102931954, 0.009102111, -0.30805016, 0.13355832, -0.16941765, -0.013817065, 0.30905783, 0.16219026, 0.0062492974, 0.18169378, -0.42687762, 0.18974142, -0.23033808, -0.08130426, 0.10477265, -0.32698074, -0.29236165, 0.18425427, -0.18664023, -0.17618197, -0.2196043, 0.2162084, 0.19065814, 0.24482514, -0.15275912, -0.08197849, -0.21259563, 0.27359927, -0.20882504, -0.27859038, 0.29722193, 0.14908223, -0.3528667, 0.23638019, -0.18005908, 0.11451002, 0.11998932, -0.1063396, 0.12849037, -0.19184293, 0.35371602, 0.08600893, -0.0037911474, -0.100829974, -0.13665678, -0.16597688, 0.3461296, 0.4511322, 0.09955241, -0.010604043, 0.17657872, -0.23653512, 0.017292658, -0.3482064, -0.16595683, -0.3761376, 0.26324242, -0.049517505, -0.0788091, -0.02921081, 0.121329755, 0.10537695, -0.075165235, -0.22980152, -0.2735877, -0.21365497, -0.35715342, -0.02913232, 0.14640135, -0.06480646, -0.23959924, -0.2078469, 0.17874411, -0.20876019, 0.10080325, -0.09198669, -0.17800179, 0.18072025, 0.10227753, -0.23708567, 0.1053398, 0.08830852, 0.16840066, 0.18045758, 0.13751619, -0.027910389, 0.25268155, 0.3034193, 0.058534022, -0.15725103, -0.08174244, 0.2652071, -0.021520127, -0.05894301, -0.30394587, -0.0041097235, 0.2517115, -0.19887473, -0.27732113, -0.22959265, -0.27824932, -0.25111312, -0.023836432, 0.26395816, 0.05793929, -0.0858722, 0.25876766, 0.023489702, 0.21664429, -0.1243505, 0.19205748, 0.08658112, 0.23500039, 0.15053128, 0.030889194, -0.18081683, 0.22296822, -0.14123748, -0.13613069, 0.20017108, -0.25484413, -0.22455332, -0.22698414, 0.2629523, -0.16296417, 0.12231991, 0.0031734644, 0.08177081, 0.22655162, -0.026051655, 0.11403339, -0.17788158, -0.14191672, 0.11937595, 0.15489557, 0.2825653, 0.062469255, -0.08518795, 0.15441737, -0.24583523, 0.14081854, 0.096588455, 0.16618502, 0.062715024, -0.05632229, -0.11168845, -0.10036951, -0.0012735124, -0.19389662, 0.04432873, 0.059211362, 0.1676408, 0.18358602, 0.070205234, -0.020353429, -0.2626337, -0.09632276, 0.14167954, -0.0346436, 0.19392015, -0.10231323, -0.077673726, 0.15875165, -0.1482795, 0.23026703, -0.30764887, -0.18292738, 0.075377256, 0.034709606, -0.16091524, 0.19487211, 0.32760823, -0.24323568, -0.12949567, 0.13490346, -0.1566344, 0.054439347, -0.15539096, 0.12925877, 0.2446054, 0.20161942, -0.17397253, -0.07069714, -0.23594162, -0.17881288, -0.08166715, -0.13121648, 0.049437646, 0.042141832, 0.005178477, -0.11430564, -0.13429622, -0.028296635, -0.29843754, -0.17924313, -0.073814124, 0.08516567, 0.035607006, 0.011590442, -0.019718843, 0.1527894, 0.35014492, -0.08026819, -0.055158008, 0.05550786, -0.0851889, -0.14955333, -0.019175794, 0.15121734, -0.032454055, -0.036799766, -0.28912407, 0.058361724, -0.14260598, -0.22682811, 0.12514433, -0.19193934, -0.05905089, 0.096129864, -0.33321455, 0.20048046, -0.24816687, 0.17514859, -0.14861415, 0.18265754, 0.31995606, -0.2564105, -0.19294691, -0.19307263, 0.16675174, -0.02621218, -0.0064913468, -0.22361732, -0.04542145, -0.18296179, 0.22508365, 0.08365502, -0.23677333, -0.17138074, -0.04956594, 0.23134504, 0.09234995, -0.041226014, -0.22363174, -0.03389561, -0.051528774, -0.1747356, 0.17296867, -0.04641219, -0.18825911, 0.123671174, 0.0061568134, -0.06645879, -0.15470107, 0.090435974, -0.06362242, 0.091903485, -0.022978198, 0.16309755, 0.068586156, -0.11686307, -0.2987551, 0.09419768, 0.15327126, -0.07796368, 0.14826366, 0.1858005, 0.14876372, -0.2271421, -0.2665679, 0.15578084, -0.11657036, 0.08104225, 0.20718698, 0.04090351, -0.014363446, 0.20066097, -0.17348844, 0.22443938, 0.09618715, -0.043337088, -0.09205352, -0.30532226, -0.22524768, 0.2575295, -0.21591023, 0.0665859, 0.16137655, 0.11748406, -0.031808224, -0.17063618, 0.16003959, 0.055802107, -0.024014873, -0.19911651, 0.09289834, -0.07743372, 0.17710473, -0.004625482, -0.12890536, 0.11205646, -0.18189667, -0.31609583, 0.013887382, 0.041230284, 0.27733812, -0.07032044, 0.18770625, 0.105270095, -0.01985231, -0.12288096, -0.04715341, -0.0738795, 0.07742662, 0.22379121, -0.103137, 0.13096464, -0.045696147, -0.31596372, 0.17679217, 0.016969562, -0.11985679, 0.20108742, -0.1440001, -0.0762428, 0.09790507, -0.07995822, -0.116538286, -0.08440951, 0.066089064, 0.2985796, -0.003451164, 0.2446913, 0.0073886793, -0.12208058, 0.041524418, -0.14824419, 0.16575226, -0.22832456, 0.1593459, -0.28227937, 0.24045677, 0.29997668, 0.11453147, -0.17477186, 0.1258585, 0.28597558, 0.00071372814, 0.44087827, 0.2502454, -0.41071308, -0.22062503, -0.0062087323, 0.4598753, 0.16832317, -0.05340229, -0.001721645, 0.11848165, 0.25576645, -0.21487185, -0.17149104, -0.04066584, -0.0010584876, 0.2048893, -0.1536156, 0.23373564, -0.27633214, -0.11744662, -0.09486734, 0.08129302, 0.061457247, 0.2855538, 0.112429924, 0.09373933, 0.1937114, 0.042875517, -0.019391257, 0.18593155, 0.08178863, -0.23523267, 0.032759458, 0.14325517, -0.200481, -0.054464664, -0.040668108, -0.19874202, -0.06792968, -0.2567372, 0.08365793, 0.120348416, -0.24872945, -0.0692929, -0.15417354, -0.06009012, -0.17099342, -0.08718424, -0.06608541, 0.22264105, 0.26276946, -0.15505145, 0.08928663, -0.2535198, -0.04403269, 0.22670507, 0.12764546, 0.017643403, -0.13372448, -0.07552912, -0.2737496, 0.20090896, 0.23330297, -0.014862743, 0.036738396, -0.15682806, -0.008760562, -0.18673736, 0.27881932, 0.17792316, -0.19282572, 0.17916182, -0.09710852, 0.18098153, 0.07545802, -0.031159323, 0.0979332, 0.06834062, -0.15148908, 0.18699871, 0.14224315, -0.11692715, -0.17131893, -0.012104988, 0.038643714, -0.10100712, -0.1502212, 0.0106679555, -0.34109843, 0.055400793, 0.18724087, -0.0039756373, 0.100223385, 0.24736096, -0.3341811, 0.041485056, -0.38846302, 0.27563545, 0.0436482, -0.031996876, -0.2561333, -0.2202862, -0.2780511, 0.19375291, 0.12900257, 0.2543446, -0.2600829, -0.09483471, 0.068893686, -0.11274563, -0.20088398, 0.12267448, 0.21572056, 0.107702516, 0.13510664, 0.017125906, -0.18174252, -0.008276948, 0.063235335, 0.08399683, -0.16099456, 0.05297233, -0.27702978, 0.24091727, 0.054283883, -0.077688076, 0.041245144, 0.13670214, -0.0730454, 0.1512436, -0.2507897, 0.1670841, -0.26240295, -0.07095692, 0.21863753, -0.0933688, -0.054417327, -0.12295388, 0.24081014, -0.14287573, 0.19270983, -0.22324106, 0.0048332517, -0.26001188, 0.09547333, 0.21759093, -0.1302324, -0.22302954, -0.119339675, 0.18502086, -0.2884127, -0.09146249, 0.1637681, -0.025582753, -0.32161927, 0.1963664, 0.11013746, 0.061689828, -0.22529978, -0.01648073, 0.022869684, 0.014085559, 0.009782476, -0.2340052, 0.36486012, 0.036695883, -0.031983692, -0.11550529, 0.12008091, 0.16260695, 0.08338017, 0.11567738, 0.120768346, -0.07352803, -0.093862444, 0.02228856, 0.20135123, -0.018385908, 0.120839745, -0.07719899, 0.014329913, 0.301475, 0.25627807, 0.2550336, 0.2933279, 0.16346735, 0.1270568, -0.011611834, -0.24738362, -0.28252274, 0.2401228, -0.23679343, -0.1377811, -0.17838693, -0.20269106, -0.048561793, -0.21372004, -0.035327237, -0.09744986, -0.19131224, 0.021794638, 0.37438297, 0.03910408, 0.029958913, -0.033938598, 0.018134816, -0.20265119, 0.108919404, -0.022359392, 0.010572655, 0.20160562, 0.24848537, 0.1948264, -0.25444797, -0.18212973, -0.13543147, -0.023424229, 0.089799635, -0.16556709, 0.21270691, -0.3322734, 0.054545913, 0.09896252, 0.09960831, 0.004947496, -0.0431245, 0.25678015, 0.11244648, 0.097214244, 0.004737893, -0.09448953, 0.08130826, 0.13462006, -0.07008218, 0.13324766, -0.30764875, -0.08049014, -0.09608899, 0.2225448, -0.19019412, -0.18821934, 0.27315205, -0.06687254, 0.020581938, 0.051920857, 0.15308435, -0.031928215, 0.16824661, 0.23045254, 0.1305843, 0.21105605, -0.29966706, 0.3237231, 0.23849325, 0.31248197, 0.087114915, 0.07688567, 0.02817324, 0.29340988, -0.2096238, 0.2333171, -0.0014135176, 0.22077921, -0.0031423473, 0.27164054, -0.15542392, -0.09986287, -0.36087134, -0.09665618, 0.10977012, -0.13267255, -0.028802808, 0.025634164, 0.00755859, -0.0034340725, 0.015071772, 0.04546315, 0.18610506, 0.22614215, 0.021874875, 0.047484696, 0.01793158, 0.11354817, 0.21557146, 0.26383308, -0.02224034, 0.016083628, 0.21170634, 0.15204223, 0.2604557, -0.05478117, 0.27809775, 0.035612583, -0.019387633, -0.29107925, 0.22009991, 0.0415155, 0.18220423, -0.16447833, -0.016815199, -0.012179012, 0.2717297, -0.27505824, 0.26769775, 0.006144516, 0.41354105, 0.10358689, 0.020662913, 0.14280912};
const float dense_1_b[15] = {-0.007719357, -0.08012857, -0.026758851, -0.008790115, 0.020066582, -0.039461546, -0.06709814, -0.0037466784, -0.06655596, -0.01579518, -0.02037579, -0.03718291, 0.03013426, 0.042960808, -0.030211713};
const float dense_2_W[45] = {-0.010962327, -0.063097574, -0.012033849, 0.09718957, -0.017190844, -0.028263615, -0.0072541926, -0.0003385983, 0.10932672, -0.067138895, -0.042020395, 0.020765476, -0.01149534, -0.052969426, 0.014273166, -0.08451985, 0.049117707, 0.036310833, 0.07468965, 0.0016923812, -0.017613282, -0.036674954, -0.018465292, -0.05806072, -0.0038483315, -0.0023939663, 0.078752294, 0.007588535, 0.011672519, -0.02065845, -0.0020618506, 0.013906451, 0.0285988, 0.010019176, 0.048693012, -0.011211301, 0.06994661, 0.010451362, 0.09251678, 0.041879676, 0.03334379, -0.0184169, -0.048493236, 0.04258252, 0.034832995};
const float dense_2_b[3] = {-0.0, 0.0, -0.0};


#ifdef __cplusplus
}
#endif
#endif
