/********************
    parameters.h

    Code generated using nn4mc.

    This file defines the neural network weight parameters for all layers.

*/
#ifndef __NEURAL_NET_PARAMS_H__
#define __NEURAL_NET_PARAMS_H__

#ifdef __cplusplus
extern "C" {
#endif

const float gru_W[14280] = {0.089423254, 0.12228535, -0.00049526186, -0.122236036, 0.0566615, -0.043838996, 0.13127284, 0.024897669, -0.05268094, 0.07425601, 0.10379788, 0.114254504, -0.06259294, -0.0150898, 0.031661727, -0.095371686, -0.12278819, 0.11251325, 0.046504196, -0.10259721, -0.00047206788, 0.014019445, 0.09602706, 0.021839518, 0.065679036, -0.045914743, -0.04411807, 0.012484374, -0.082303055, -0.14058281, 0.0072111078, -0.022096073, -0.014262113, -0.04034175, 0.07273288, 0.11447176, 0.05363297, 0.07755533, 0.022453783, -0.12756623, -0.12105021, 0.12454154, 0.10963962, 0.10950122, 0.0061143474, -0.006025036, 0.10062334, -0.020108236, 0.09291899, -0.0050484133, -0.01614555, 0.06511461, -0.012065635, 0.09594568, 0.09025043, -0.083991595, 0.121972874, 0.052879408, 0.07332857, -0.06644447, 0.028284503, -0.07439278, 0.057865214, 0.12665735, -0.056875423, 0.08911608, -0.0645406, -0.059207562, 0.06836694, 0.08429065, 0.13203838, 0.048606794, -0.04543638, -0.14268689, -0.13599576, -0.029666929, -0.052475445, 0.005849757, -0.025793863, -0.0048796656, 0.10060648, -0.13323915, -0.00854489, -0.0927267, 0.13809486, -0.11125462, 0.027298538, -0.003290777, 0.11869808, 0.1387384, -0.033211228, -0.048266433, 0.07613495, 0.13942385, 0.087728105, 0.008054328, -0.07589746, 0.046668954, -0.030625377, 0.031217273, 0.1300782, -0.11546113, 0.053136095, -0.055379357, -0.14362213, 0.09870525, -0.040464826, -0.13444787, -0.030947525, 0.06838905, -0.10158758, 0.030048352, 0.116589524, -0.05808211, 0.12063851, -0.0011825926, -0.038684912, 0.07929102, 0.040765725, -0.049842995, -0.12375399, -0.020237144, 0.103791125, -0.1007487, -0.09233292, 0.06259299, -0.0057825083, -0.07747927, -0.03271733, 0.014076039, 0.02596805, -0.0052696173, 0.14292075, 0.098887324, -0.0021488958, -0.12284182, -0.05670803, 0.0085916845, -0.036522463, -0.01691574, 0.11452007, 0.07291938, -0.13542181, 0.03957878, -0.123905025, -0.05237682, 0.054282084, -0.050740838, 0.013266547, -0.10489944, 0.05985625, -0.12016274, 0.13165905, -0.011866446, 0.023941843, -0.087692514, 0.024532882, -0.032603916, 0.093452364, -0.0077834544, 0.026424626, -0.017739583, -0.026429182, 0.019554505, -0.034256697, 0.12634975, 0.035326328, -0.014866934, 0.080199644, -0.02286023, -0.03011054, -9.219013e-05, -0.03571886, -0.05622278, -0.113604315, 0.07438028, 0.10076315, -0.10424605, 0.065177135, -0.007663485, 0.10673128, -0.061533112, -0.05506356, 0.010082915, 0.12125836, -0.0079664765, 0.0785613, -0.077308096, 0.11539428, -0.063708425, -0.1082852, -0.08982067, -0.0018330417, -0.14296326, -0.052339755, 0.1257579, 0.07817671, -0.10963891, 0.10781416, 0.054742754, -0.13187106, -0.06723009, 0.02133453, 0.0037835303, 0.15418118, -0.050462704, 0.07005109, 0.14055064, 0.10349533, 0.09878516, -0.05076832, -0.03872995, -0.1282918, 0.027649863, -0.03482687, -0.032716803, -0.13109602, -0.059356607, -0.012288445, -0.05792364, 0.04392221, -0.112237535, 0.014043277, -0.11582701, 0.08775678, 0.10158455, -0.08259131, -0.041222487, -0.05641667, -0.045502316, 0.08246485, -0.054113973, 0.043087386, 0.12495562, -0.044429954, 0.005873317, -0.027763989, -0.099046804, -0.10347874, -0.14442766, -0.06979884, 0.15732105, -0.04015062, 0.013692438, -0.066049464, -0.0060029267, 0.03698273, -0.13388781, 0.11156975, 0.061619647, -0.10110253, -0.034259476, -0.04945798, -0.08560049, -0.00060924416, -0.13406672, 0.026467385, -0.080032855, -0.056627568, -0.084523745, 0.17128485, 0.11582093, -0.0727666, -0.017031068, -0.11090666, 0.096347824, -0.03696871, -0.15546516, -0.11869692, 0.099113554, -0.10488584, 0.104224406, 0.07268105, -0.08898568, -0.0548063, -0.025697757, 0.014145005, -0.042561807, 0.043452352, 0.16254227, 0.026856499, 0.04932383, 0.07864936, -0.00021565674, 0.002996733, -0.13188703, 0.02029075, 0.06524504, -0.06518285, 0.06827519, 0.069478646, 0.020055862, -0.13715117, -0.11939677, 0.08839545, -0.107183665, 0.019812552, 0.13126098, 0.01866504, 0.03243825, 0.080217645, 0.14648731, -0.077184945, 0.091598734, -0.09264707, 0.039630607, -0.10180595, 0.022186058, -0.10676723, -0.07070646, 0.014408524, 0.13816422, -0.06287644, -0.059784863, -0.14161687, 0.016966132, 0.08631646, 0.054772444, -0.056590218, -0.13370316, -0.048670445, 0.068308346, -0.096309215, 0.053555474, 0.051501196, -0.0592899, 0.010508624, 0.07640998, 0.07739443, 0.114924595, 0.035517216, -0.115417555, -0.08141937, -0.03717644, 0.07096871, 0.04558671, 0.14234681, -0.04601302, -0.00026772227, 0.12443321, -0.11339998, -0.12822129, 0.07043467, -0.12645464, -0.09429954, 0.14031541, 0.10317654, 0.025965031, 0.10510485, 0.01004755, -0.11352677, -0.025799673, 0.0864867, 0.047202934, -0.12599508, -0.09438757, -0.050421137, 0.049186278, -0.06268469, 0.034090195, -0.086727254, -0.10326164, -0.1210691, 0.04674844, -0.050907727, -0.13535553, -0.007889297, 0.10714997, 0.008980385, -0.08332314, -0.018583588, 0.060248263, -0.061101235, 0.13153444, 0.04698753, -0.072099335, -0.084459, -0.042194992, 0.07953476, -0.11651764, -0.0072189313, 0.09559288, 0.06772523, -0.13609678, 0.07849411, 0.115145996, 0.06793598, 0.113017134, -0.055865977, 0.03702567, -0.013872478, 0.111545004, -0.06584967, -0.14081883, -0.06958028, 0.10044052, 0.04655762, -0.049743332, -0.0723195, 0.06356932, -0.08248722, -0.0012945569, -0.07047374, 0.015680633, 0.1175133, -0.12347542, -0.09287872, -0.13580301, 0.06832065, 0.01551708, -0.033679783, -0.0021210425, -0.13116312, -0.12458828, -0.05436986, -0.018533707, 0.037423097, 0.0025056207, -0.044810448, -0.12611648, 0.1607665, -0.08184462, -0.036500093, -0.014780753, 0.10982653, -0.099519506, 0.102952234, -0.07060837, 0.080337346, -0.11083345, -0.10715238, 0.030883817, -0.027346037, -0.11972849, 0.06388653, 0.10918847, -0.013219229, 0.08656801, -0.00950736, -0.13477309, 0.08450281, 0.18144636, 0.04073459, 0.042938884, -0.082741946, -0.009088245, -0.037721936, 0.045180973, 0.057098694, -0.023404613, -0.15416159, 0.023594286, -0.16493005, 0.10156132, 0.008458985, -0.15993129, 0.053179447, -0.02422908, -0.05984826, 0.057473198, 0.0722744, -0.06111044, 0.048407335, -0.04789538, 0.025820477, 0.09508577, 0.097586095, 0.1069104, -0.027941862, -0.08505632, -0.047036976, 0.041512586, -0.024294032, -0.054267213, -0.0540887, 0.04707595, -0.010543023, -0.05691387, -0.07774842, 0.09334379, -0.01394131, 0.09409803, 0.09230354, 0.12563613, 0.009659357, 0.06534184, -0.065960996, -0.12710221, -0.030554477, -0.06609495, 0.14679338, -0.019982949, -0.12977518, 0.13476963, -0.068221435, 0.05074526, -0.009174604, -0.038549993, -0.004366791, -0.08152666, -0.0602165, 0.022548659, -0.054357696, 0.119047195, -0.08143763, 0.116233744, 0.113287635, 0.015858293, -0.022519013, -0.04869568, 0.08692327, 0.10165411, -0.07326844, -0.002383311, -0.123466365, 0.009928668, 0.13005033, 0.048756164, -0.009253269, 0.02605531, -0.10072114, 0.03412438, 0.08257963, 0.066005535, 0.040872924, -0.09102212, -0.009637975, -0.124506645, 0.027493246, -0.0051831678, -0.05021546, -0.08288066, 0.10208877, -0.07329873, -0.036722068, 0.015992422, 0.0691833, -0.10790662, 0.12786792, 0.09994171, -0.015767943, 0.12009895, 0.06989192, -0.088168785, 0.10489408, 0.14225687, -0.11076803, -0.11294926, -0.06566228, -0.075659305, 0.08939578, -0.069228485, 0.07576835, -0.08518582, 0.034409627, 0.11149072, -0.14229278, 0.12703152, -0.04285243, -0.0695345, 0.10672349, 0.10050528, -0.005902582, 0.058589283, 0.03298216, -0.09812314, 0.13010709, 0.024966381, 0.11489538, -0.079325676, -0.0018640916, -0.055963714, 0.038938645, 0.0043498585, -0.007953028, -0.09702122, 0.012954678, 0.05404284, -0.11755995, 0.07259137, -0.010862117, -0.079979815, -0.056289144, -0.04914498, 0.088093184, 0.06415619, -0.06681793, -0.10283261, 0.11784703, 0.103673294, -0.055066552, 0.09736186, 0.034361795, 0.10794008, -0.042723782, 0.045076724, -0.055471413, 0.036065836, -0.06425437, -0.049365815, -0.06445187, 0.034402307, -0.11623795, 0.036736775, -0.11767123, 0.09153639, -0.09579792, 0.026937712, 0.107762955, -0.09183018, -0.13715613, 0.06550807, -0.025859576, -0.13392808, -0.0043742917, 0.03755905, -0.032624215, 0.033872254, 0.090293236, -0.07579993, -0.05970729, 0.0068289735, 0.10101922, 0.08366115, -0.099406295, 0.10666249, -0.021951659, 0.13535532, 0.01702468, 0.06750206, 0.076296024, 0.08609479, 0.031675175, -0.056793746, -0.003056775, -0.070703514, -0.061248634, 0.10509686, -0.12735282, 0.0031796219, -0.16680726, 0.005460947, 0.053474844, 0.015589176, 0.12768194, -0.09556511, -0.03904229, 0.07255488, 0.029161064, 0.042795733, -0.01137903, 0.008833034, 0.086715855, -0.053322244, -0.11845506, -0.14492893, -0.061320174, -0.047915835, 0.093406804, 0.114636324, -0.02459108, -0.015194963, 0.07435096, 0.14303572, 0.0068786694, 0.085410155, -0.07549125, -0.08247233, 0.066948354, 0.03737739, -0.057864495, -0.021660216, 0.03416572, -0.13188589, 0.016790954, 0.056364715, -0.08140832, 0.07722932, -0.063243285, -0.06515644, 0.049350493, -0.065803535, -0.09637301, 0.0505695, -0.09445515, -0.1340599, -0.060330138, -0.07396463, -0.05773019, 0.06991856, -0.05125708, -0.0007044593, 0.04767824, 0.0043388107, -0.10864338, -0.16393809, -0.06679253, 0.029927999, 0.12569886, 0.06033345, -0.058355194, 0.098704614, -0.046136573, -0.07028532, 0.09548208, 0.137296, 0.10286979, 0.060707547, 0.041373383, -0.048035126, -0.088935725, 0.12472683, 0.04330751, -0.10361363, 0.12688272, -0.1375051, 0.07243126, 0.04702648, 0.023006817, 0.13445587, -0.12626567, 0.1372118, 0.12728046, 0.03049144, -0.0075909966, -0.10882949, -0.11666349, 0.062852144, -0.102635495, -0.11515277, 0.14417261, -0.056543227, 0.14190945, 0.08965723, 0.13087335, -0.08856689, 0.027534893, 0.034545954, 0.1256797, 0.12813833, 0.06465836, -0.00953912, 0.09363687, -0.13937235, -0.08113318, 0.010233117, 0.06255856, -0.119307205, -0.062293116, 0.11101675, -0.059195112, 0.090708196, 0.1430497, 0.007822926, 0.05177617, -0.030003492, 0.09825152, -0.11599443, 0.046265982, -0.041253366, 0.05977417, -0.098123536, 0.026180534, -0.013391681, 0.05504003, -0.11673619, 0.09766161, 0.13328522, -0.11568452, -0.09447444, 0.16042273, -0.08654251, 0.09798056, 0.116868526, 0.024348157, 0.10219139, 0.051974352, -0.015067604, 0.06936319, 0.012359983, 0.1448329, 0.13430922, 0.007189277, -0.0076222275, 0.07736804, -0.060248837, -0.11421402, -0.03494836, -0.0737703, -0.083536364, 0.06780528, -0.11276881, -0.10202797, 0.0030856025, 0.10670048, 0.109586306, 0.083356075, 0.021046767, 0.06491405, -0.10014526, 0.006513266, -0.08857823, -0.08705894, -0.057079725, -0.05773077, 0.0636534, -0.06753547, 0.10903185, 0.048012577, -0.031931, 0.087768, -0.105749086, -0.12366227, 0.012854662, 0.06555164, -0.038296208, 0.08816016, -0.13525921, -0.08182517, 0.124148495, -0.023565711, 0.095793545, -0.12987827, 0.040938046, -0.054417875, -0.12703691, -0.023663664, 0.06927633, 0.07427824, -0.06287499, -0.14505294, -0.054968752, -0.06470364, -0.07748604, -0.0025969257, 0.041136347, -0.15372904, 0.16185026, -0.103471436, -0.038211927, -0.101177074, 0.112009086, -0.13510698, 0.041676067, -0.051041845, 0.020101393, 0.11339468, 0.074225076, 0.11844933, 0.120123856, 0.025996322, 0.027123833, -0.0173928, -0.067996316, 0.005749221, -0.068163835, -0.118337035, 0.049817823, 0.054849334, -0.12203354, -0.115078956, 0.17186032, 0.09787167, -0.055111296, -0.085745394, 0.047445465, -0.06362201, -0.060724176, -0.002068837, -0.088872425, -0.042515382, -0.079306014, -0.048186287, 0.08263108, 0.047165964, -0.010930823, 0.0041089645, 0.06632574, 0.053784166, -0.049552653, 0.13245092, -0.15491915, -0.04164244, -0.1237655, 0.030862214, -0.104499586, -0.015915493, -0.08325553, 0.12078009, 0.012320856, -0.029066255, -0.073972166, -0.14650331, -0.033197165, -0.006880707, 0.06742957, -0.07431795, -0.11251608, -0.035420727, 0.02611546, -0.10451134, 0.09509685, -0.04188361, 0.1399952, -0.11816148, 0.0025331115, 0.06597895, 0.029770939, 0.107410625, 0.1301742, -0.12217914, 0.14256985, -0.027695572, 0.14334981, 0.011368154, -0.06120713, -0.120838515, -0.10139759, -0.046130322, 0.102445915, 0.024986317, -0.12811284, -0.05374638, 0.015735982, 0.045198735, 0.097845845, 0.07568819, -0.11631352, 0.024754707, -0.100851744, -0.11493984, -0.13699305, -0.12638797, 0.14700782, -0.12234013, 0.073700964, -0.042033743, -0.04763789, 0.034272965, 0.13104178, -0.124394976, -0.14554301, 0.023777032, 0.0743482, -0.13066022, -0.07754587, 0.036120173, 0.11469462, -0.13751766, 0.0767323, 0.08422647, 0.010475332, -0.1225942, 0.051704183, -0.012927291, 0.048511937, -0.14470553, -0.042921457, -0.08250308, -0.13203864, -0.077533774, 0.051693987, -0.010061041, 0.030144516, 0.09826001, 0.14301059, -0.07531186, -0.0017236883, 0.012417375, -0.08910752, -0.04348055, 0.11782694, 0.1377108, 0.10477138, 0.106645666, 0.0031207018, 0.14321384, 0.12539843, 0.05163943, 0.080184676, 0.04015753, -0.15042207, 0.07127023, 0.101952426, 0.0598415, 0.10848184, -0.08645683, -0.10095936, -0.08831499, 0.035756953, 0.026168691, 0.08284001, -0.041898508, -0.07480618, -0.07347709, 0.00043806026, 0.105860665, 0.03162125, -0.053466424, 0.04630616, -0.04443521, -0.048494983, 0.0064496063, 0.09675966, -0.07110047, -0.02557211, -0.045457706, 0.05554403, 0.082101874, 0.08598888, 0.023837443, -0.045104068, 0.12803848, -0.091347374, 0.052925937, -0.1083368, 0.103533186, 0.06770789, -0.099097855, 0.05467761, -0.052823793, 0.033327837, 0.10680078, -0.1428261, -0.05693557, 0.016233146, 0.09680629, -0.030744363, -0.047380764, 0.033667136, 0.07354154, 0.08412362, 0.05516025, 0.09154963, -0.029882144, 0.00043161208, 0.10981672, 0.10287643, 0.058250297, 0.09445287, 0.13852747, -0.13152368, -0.10833242, 0.10235983, 0.115045406, -0.1328282, -0.0026794472, 0.076127134, -0.08272227, 0.009008561, -0.10488945, -0.114757895, 0.10267372, 0.01861794, 0.13056797, -0.12904647, 0.032451, 0.01813143, 0.12017247, -0.029680848, 0.06163916, -0.12754157, 0.112970814, -0.17584853, 0.14860773, -0.09780007, 0.014678979, 0.07064511, 0.11512577, 0.055342514, 0.087219, 0.019596707, -0.013762092, -0.04760318, 0.15146752, -0.0057434975, -0.12297437, -0.033393577, 0.13836063, -0.10545814, -0.08563341, 0.07712699, -0.026939621, 0.1299499, 0.06346043, -0.052687474, 0.0427958, 0.028514221, 0.052123774, 0.08703354, -0.10097923, -0.0073513687, 0.023308976, -0.0643512, 0.01348392, 0.0070504467, 0.13190874, 0.009531309, 0.105775416, -0.069389224, -0.10846262, -0.04357916, 0.043827727, 0.035744153, -0.026720839, 0.04721085, -0.07787085, 0.0389375, -0.08442548, 0.019682497, 0.13471922, 0.0013510382, -0.033707313, 0.08599298, -0.18951343, -0.106238425, 0.019440211, 0.07596266, -0.07886481, 0.04955871, 0.1323125, 0.04117124, -0.04904309, -0.13028689, 0.019520104, -0.085467786, 0.08569352, 0.09853432, 0.14592518, 0.08401285, 0.03736087, 0.120273925, 0.14345095, -0.1308803, -0.068301916, -0.07842775, -0.0076063923, 0.028255314, -0.03298247, 0.05084092, 0.03337477, 0.008000441, 0.04509561, -0.030178206, -0.14586543, 0.069019854, -0.07906638, -0.11330254, -0.058229193, -0.11113033, -0.049329557, 0.10404897, -0.036124796, 0.09173457, -0.016879959, 0.089406155, 0.11921509, 0.062095627, 0.11029371, 0.12689373, 0.05059106, -0.04013011, -0.01681684, -0.027067225, 0.13626024, -0.11680603, 0.054115698, 0.0059678345, 0.03724917, 0.14308275, -0.040297825, 0.056430433, 0.07050993, 0.08356216, 0.012227099, -0.11821836, -0.012916133, -0.08714911, 0.13878591, 0.06630259, 0.030599821, 0.114186384, -0.13655382, -0.11379589, -0.07244731, -0.04310972, -0.034590796, -0.12175809, 0.12555997, 0.13557549, -0.109126836, 0.1414805, 0.075311475, 0.10312232, 0.10629708, -0.111431256, 0.01847328, 0.040332243, 0.058544043, 0.12831265, 0.10458621, 0.10591194, -0.08111967, -0.09053436, -0.08914252, -0.1152722, -0.020202206, 0.11793318, -0.071627036, -0.01749397, 0.0055345856, 0.06997016, 0.019557344, -0.11228166, -0.008406816, -0.012960476, -0.016833166, 0.050783504, 0.13949831, -0.034699004, 0.05433029, -0.12231484, -0.18974985, 0.14233825, -0.079592794, -0.05947129, -0.004005719, 0.026529988, 0.08589395, -0.035648093, 0.13913806, -0.039536845, -0.047871884, -0.045000557, 0.1208848, 0.038170226, 0.10188052, 0.036681045, -0.071797326, 0.07217589, 0.0013582356, -0.024546385, 0.036255375, -0.028091174, 0.025440615, -0.06605007, -0.1274913, 0.071814515, 0.11045824, -0.031217687, -0.10320047, -0.09507665, 0.102975875, 0.10624255, 0.03988787, -0.052827522, -0.056288987, -0.10586788, -0.07553162, -0.0025854614, -0.013530294, 0.016443359, -0.092796266, 0.14745666, 0.025801409, 0.0317995, -0.04129885, -0.11135402, -0.105776176, -0.14106798, 0.032124598, 0.104731485, -0.04397624, 0.06237753, -0.064489774, -0.085572004, -0.055523112, 0.11598785, 0.03214051, -0.037304886, 0.07390455, 0.0032891617, -0.06198066, -0.124537915, 0.0051113, -0.24296522, -0.042536184, 0.13785832, 0.11209051, 0.104403794, -0.28376538, 0.041606393, -0.07153737, 0.026898028, -0.085986845, 0.14587957, -0.21136706, -0.023856519, -0.019096196, 0.111302406, 0.09615572, 0.0069414675, -0.12203484, 0.022777362, -0.115777574, 0.033645228, 0.15143335, -0.017474629, -0.03467022, 0.004399646, 0.07596749, -0.07284324, -0.040482417, -0.032581616, 0.10515488, 0.089921065, -0.05184172, 0.03753783, 0.048609722, -0.15900244, -0.07403759, -0.019567797, 0.064058654, 0.029586451, -0.1177534, -0.021567019, -0.081134826, -0.089450024, -0.050325617, -0.05381629, -0.019806026, 0.12596734, -0.12748773, -0.12323594, -0.10672289, 0.13880883, 0.09221684, 0.03854856, 0.12655383, 0.11762434, -0.14408568, -0.120547526, 0.036769714, -0.069562756, 0.01948411, -0.14022858, 0.023222327, -0.1221445, 0.057095073, 0.0018120315, 0.07675588, 0.030331029, -0.015282937, -0.124905355, -0.13073845, -0.030579383, -0.08455619, -0.07827187, -0.06770482, -0.05785353, 0.04863571, 0.14588699, 0.10573276, 0.020437125, 0.055304922, 0.028861318, -0.06264979, 0.110292695, 0.09219042, -0.12706435, -0.13314168, 0.08216893, 0.00067660795, -0.07655946, -0.10429842, -0.02092942, 0.031155014, 0.086183675, 0.071964696, -0.009725923, -0.14253956, 0.098228544, -0.028304996, 0.08451212, -0.115653954, 0.062066305, -0.061528604, 0.10948749, 0.02687593, -0.037443146, 0.13776018, -0.12526208, -0.11291835, -0.06690051, 0.063793525, 0.11223687, 0.08568814, 0.13212854, -0.09225452, 0.13140063, 0.0049408255, 0.11195553, 0.09037743, -0.12382703, 0.034152262, 0.04261888, 0.032676652, 0.10143591, -0.00036715702, -0.10377506, 0.023747707, 0.02178471, 0.08584676, 0.05286262, 0.11920756, -0.014342186, -0.059224732, 0.07146892, -0.011864203, -0.07569761, 0.060384568, -0.11655401, 0.09439748, 0.071183935, -0.0062789153, -0.011845084, -0.12503006, -0.10206347, 0.14641532, 0.0109541, 0.08582756, -0.055575117, 0.0762389, -0.052215267, 0.07864012, 0.008836887, -0.07003416, 0.14250721, 0.107250884, 0.046431907, -0.11786178, 0.1303774, -0.04385196, -0.056838945, -0.062018532, -0.15073359, 0.1123166, 0.07663941, 0.010704308, 0.13760181, 0.08424423, -0.0886345, 0.031823035, 0.043050766, -0.078033544, -0.05549112, 0.12488344, -0.08725605, 0.00576491, 0.10332749, -0.031171883, -0.07794118, 0.1561985, 0.02892536, -0.0014077212, -0.002597057, -0.007434882, 0.037131652, -0.05757805, 0.10195239, -0.03307468, 0.1269644, 0.010370785, 0.07291772, -0.109278925, -0.116315685, -0.06977837, -0.00061624835, 0.019063754, -0.121248566, 0.08162836, -0.015141336, -0.014955581, 0.019648837, 0.06597232, 0.040545117, -0.11228596, 0.06001201, -0.028642958, -0.04523572, -0.001172799, -0.112424254, -0.05783888, -0.010924041, 0.099409275, 0.042966302, -0.10972534, -0.05868878, 0.040687263, -0.046778385, -0.051891565, -0.058673993, 0.11437421, 0.1105832, 0.08496086, -0.014712596, 0.0063033295, -0.10404498, 0.07148673, 0.039918795, -0.1280649, 0.11047401, -0.0014419126, -0.01825478, -0.015609296, -0.070269465, 0.04143326, -0.111915305, 0.0036429896, -0.021026423, 0.025991403, -0.069318056, 0.022266027, 0.0517766, -0.04248127, 0.09021507, 0.001973738, 0.08727305, 0.061299115, -0.07287898, 0.015091571, 0.054567177, -0.044100255, -0.047970306, -0.11835994, -0.060460396, -0.093678415, -0.1169431, 0.081788994, -0.097510464, -0.05982609, -0.13355735, -0.063787274, 0.018031616, 0.022077948, -0.10437026, 0.090942465, -0.10739866, 0.100002795, -0.08729646, -0.059329122, -0.026586395, 0.118226595, 0.095777355, -0.008728857, 0.10160829, 0.015871027, -0.06300621, 0.14122239, -0.011481128, -0.015853427, -0.004602051, -0.018638317, 0.100543976, 0.033035237, -0.0012178966, 0.14894393, -0.0457484, 0.02667989, 0.09035897, -0.1224059, 0.10777231, -0.07690642, -0.023348723, -0.05979957, -0.09525672, 0.08557482, 0.08279477, 0.123893544, 0.12968962, 0.09628303, 0.06351148, 0.09234726, -0.1110728, 0.083955534, 0.06880286, 0.12688437, 0.052400116, 0.08530717, 0.0067273583, -0.10972661, 0.09552537, -0.07136819, -0.09908223, -0.0067709023, -0.1229045, 0.06875155, -0.11808462, -0.059355624, -0.0020439345, -0.10610532, 0.070304565, -0.05910013, -0.06537317, -0.032036994, 0.012249186, -0.11439868, 0.09231258, -0.118224554, -0.0042772642, -0.107258156, 0.05484421, -0.040270124, 0.102311306, 0.0240597, -0.091079004, 0.037057143, 0.040958725, -0.110802755, 0.09221345, -0.009345203, -0.042537108, 0.054455884, 0.09689832, -0.06496351, 0.04837622, 0.033242285, -0.052929223, 0.030689914, -0.086918816, -0.12583424, 0.0055588237, -0.04830669, 0.009131638, 0.04994658, -0.04423674, 0.03247706, 0.046336114, -0.06585372, 0.08874855, 0.09209459, 0.053167384, -0.05290008, 0.11152922, 0.12521042, 0.023778295, -0.060225334, -0.051898003, 0.09136525, 0.049070716, 0.14801471, 0.09526948, -0.07810336, -0.004649399, -0.1052367, -0.027225753, -0.022806332, 0.006699114, -0.12718996, -0.08198469, 0.09024167, 0.04765019, 0.007975857, 0.13458984, -0.030294256, 0.15957427, -0.08308317, -0.105531365, -0.1373231, 0.10221828, 0.14612295, 0.12831657, 0.06890826, 0.11199217, 0.05984243, -0.019250773, -0.06614566, -0.07879599, -0.12451308, 0.035753246, -0.0839116, -0.04161336, -0.013565281, -0.12588772, -0.10246238, 0.013754421, -0.06195952, 0.047336556, -0.10929931, 0.037698623, -0.02462015, -0.0323939, -0.15933284, -0.04796352, 0.118653014, -0.022878716, 0.1382661, 0.10610671, -0.045849625, 0.040557332, -0.021091219, -0.02261405, -0.050990947, -0.02712541, -0.053421535, 0.011719712, 0.06829369, 0.00970156, 0.12830284, 0.08670346, -0.017718015, -0.091310285, 0.0044358294, 0.074586175, -0.05596274, -0.016751815, 0.07559469, 0.016296893, -0.16166277, -0.14231268, 0.08125893, -0.088081785, 0.09112745, -0.03028202, -0.092673585, -0.07257507, -0.12008855, -0.042299554, -0.09650207, 0.013221973, -0.022464838, -0.09980819, 0.0026188313, 0.0047748685, -0.0039135874, -0.1556398, 0.108053915, -0.13121338, -0.012056695, 0.014846743, 0.047444157, 0.0010641027, 0.08672776, 0.032034565, -0.019514512, -0.12131022, -0.035861187, -0.020987917, -0.12062851, 0.17137343, -0.07204667, -0.1161101, 0.08190835, -0.06706627, -0.021686474, 0.11364134, -0.11375231, 0.0040119532, -0.04151059, 0.059145838, -0.07876272, 0.012387986, -0.021533543, 0.09790436, 0.041817807, -0.10542277, -0.12417637, 0.08771191, -0.043098547, 0.062406298, -0.03092931, -0.08695372, 0.010219806, 0.04286136, -0.047829296, -0.10140667, -0.036452737, -0.03692924, 0.08802463, 0.042231362, -0.0008401947, 0.11605803, -0.040251806, -0.0018345577, -0.08551921, 0.03555374, 0.0630656, -0.05665326, -0.14039344, -0.07927601, 0.049306266, -0.08469403, 0.05201313, 0.059305575, -0.0037030177, 0.07761937, -0.07202699, -0.10576485, 0.14675981, -0.061559465, 0.11937146, -0.14059986, 0.00236353, 0.07736516, 0.007963351, 0.07374632, -0.0071904603, 0.06616047, 0.07238342, 0.10715701, 0.09239163, 0.14474276, -0.14248115, -0.14129229, 0.018330019, 0.036204517, -0.027066886, -0.09021426, -0.035450444, 0.067487575, -0.07816728, -0.048229758, -0.11966534, -0.086869285, -0.005591219, 0.06547984, 0.06743097, 0.06513411, -0.06624186, 0.107909836, 0.0043310304, -0.061091617, -0.02428362, 0.13094217, 0.026390929, -0.012319175, -0.114551835, -0.08095797, -0.11099209, -0.0978585, -0.020114483, -0.06801666, -0.0008579436, -0.12986796, 0.01616533, 0.051104546, -0.05630715, -0.04500842, -0.07751266, -0.0025194432, -0.103427626, 0.064261645, -0.0882135, 0.0077871485, 0.10929461, -0.0099563105, -0.074906535, 0.038527425, -0.047917075, 0.09611377, -0.101624615, -0.00055690395, -0.14509127, -0.114301756, 0.008671955, 0.11465143, -0.10085357, -0.08634305, 0.058845725, 0.0757984, -0.068132475, -0.12404038, 0.030217143, 0.0030947605, -0.15445869, -0.07125057, -0.043303717, 0.03988438, 0.09823575, -0.04036218, 0.030319538, 0.06226815, 0.06294419, 0.06938852, 0.023171755, 0.038471114, -0.13024639, 0.014863545, 0.028596127, 0.048986018, -0.02673029, -0.049670044, 0.06863231, -0.036872882, 0.091234274, 0.097235665, 0.12673797, 0.03322367, -0.10807105, -0.059706192, 0.06553116, 0.0869727, 0.026062792, -0.14651352, 0.1192086, 0.11685868, 0.10394788, -0.051701855, 0.092736535, 0.019737035, -0.003487536, 0.066530086, 0.121344484, -0.06267713, 0.019906856, 0.024499487, -0.0074994345, 0.043797445, 0.014561832, -0.05326705, -0.036562044, -0.09988217, -0.06042872, -0.11787505, 0.12512204, 0.057625264, 0.041007258, -0.0666563, 0.063816436, 0.0025361404, 0.1218344, -0.04630475, -0.014842289, 0.13316856, -0.10960079, 0.032566547, -0.03213483, -0.10691931, -0.023803962, -0.07876395, -0.03722073, 0.043736484, 0.041344024, 0.060995296, -0.1437799, -0.15070778, 0.0014564251, 0.067667894, 0.00893561, -0.08928617, -0.11708705, 0.049869116, 0.044046268, 0.020937346, 0.08023499, 0.014006726, 0.0181619, -0.07376346, 0.039210364, -0.054304484, -0.06279732, 0.011029894, -0.14173709, 0.050031513, 0.13978262, -0.12918107, -0.0015394486, -0.006126847, 0.10720699, -0.046633106, -0.09239587, 0.02850542, -0.055443764, 0.036332883, 0.09535044, 0.1427547, -0.10400154, 0.11861206, -0.044226147, 0.06372205, -0.08019122, -0.13196765, -0.10708885, 0.13028108, 0.067285635, 0.049775068, -0.10442861, 0.05884774, 0.10318351, -0.05498343, -0.0728508, -0.09966395, 0.12792483, -0.05638332, -0.07704069, -0.0048464397, -0.085102476, 0.059966434, 0.07246247, 0.060884207, -0.07559978, -0.05160739, -0.032963373, -0.10299322, -0.022987723, -0.06040744, 0.12405485, 0.0075252494, 0.12307877, -0.062233537, -0.071176834, 0.027775345, 0.017810656, 0.0085738795, 0.040817708, 0.14225666, 0.020930665, 0.06561636, -0.13817805, -0.13211654, 0.059627693, 0.1287657, 0.013662399, 0.060093995, 0.015063939, 0.08954703, -0.075929224, 0.07806205, 0.11297616, 0.0785948, -0.016334174, 0.06879419, -0.06208642, 0.0022522944, -0.049568184, -0.066304624, -0.04244932, -0.032591343, 0.08119855, 0.034601472, -0.15043634, -0.10922474, 0.01895689, 0.11959267, -0.07549135, 0.05573292, -0.0607269, 0.10875127, 0.126466, 0.08644976, 0.112015106, 0.108725056, 0.09593344, -0.020375738, 0.07917746, -0.06253895, 0.10343524, -0.08462622, -0.078900464, -0.030738682, -0.06612838, 0.0640187, -0.08807872, 0.015801717, -0.06747299, -0.073195145, 0.17182654, -0.14482057, 0.010165028, 0.09630675, 0.10492991, 0.012130285, 0.06014543, -0.05425807, 0.054632194, 0.059059396, -0.052771304, -0.06698347, -0.13493949, 0.10691346, 0.02003846, 0.11600155, 0.087219685, 0.026042737, -0.006521905, 0.107383735, -0.10175173, 0.035401482, -0.030436972, 0.015971921, -0.004181811, 0.015817484, -0.13595289, 0.12241869, 0.021638827, -0.010485831, -0.019306913, 0.0015993965, 0.104609594, 0.024387574, -0.009845371, 0.10336234, -0.1296504, 0.056566946, 0.028018396, -0.114840254, 0.02914184, 0.00050809246, -0.0735417, 0.011789611, 0.015031817, -0.14089939, 0.033735402, -0.038301624, -0.019064838, -0.08972093, 0.060604874, -0.00885042, -0.15888579, 0.08122164, -0.116306044, -0.08866747, -0.012790982, 0.05073813, 0.028240886, 0.0965143, -0.07007799, 0.029283587, -0.10092341, -0.049906045, 0.08448416, 0.12979072, -0.12768467, -0.08909139, -0.14424089, -0.07602285, -0.004094316, 0.0438641, -0.059987318, -0.15243267, -0.0776336, -0.09605511, 0.066489294, 0.015374581, 0.0889384, -0.005824157, -0.0268165, 0.01869653, 0.011436776, -0.051209264, 0.15546171, 0.07447543, -0.017666591, 0.007924118, 0.08986347, 0.011364093, 0.11390482, -0.057358634, 0.13078728, -0.06477326, -0.15380396, -0.072158754, -0.11518317, -0.0014226197, 0.123568945, 0.07025036, -0.12481543, 0.018725475, -0.052878175, 0.122424066, 0.14333947, 0.036242675, -0.024918864, -0.034225952, 0.013358261, -0.06425375, -0.051360205, -0.0474475, 0.024478098, 0.13898396, 0.07619037, 0.0110023515, -0.05412212, -0.10010081, 0.1228801, -0.12175143, -0.091503486, -0.05322131, -0.0839487, 0.07368549, 0.11077793, 0.07533238, 0.05361221, -0.014643344, 0.081885286, -0.055119272, 0.14556254, -0.01828434, 0.14041358, 0.074410744, 0.13948937, 0.015645947, -0.07297303, 0.1436536, -0.004783249, -0.020724997, -0.054489054, 0.092224635, -0.047488738, 0.019695986, -0.0939041, 0.05940285, -0.1425292, 0.0804214, -0.024785547, -0.12928687, -0.013066316, -0.013749982, 0.13372888, -0.04518814, 0.035623442, -0.019437017, -0.11137518, -0.119991116, 0.012588669, 0.051974535, 0.09913059, -0.1331119, 0.044842795, 0.14196765, 0.124706104, -0.03415054, -0.041101225, 0.015665667, -0.098826714, -0.1286222, 0.061527032, -0.08709048, 0.012532513, 0.13680445, 0.14798994, 0.049964275, -0.03684229, 0.0477258, 0.10213434, 0.09407158, -0.092699535, -0.12527393, -0.020085745, 0.002349253, 0.076105945, -0.10184892, 0.029074788, -0.06733587, 0.09355453, 0.07724998, 0.04398096, 0.028556345, 0.10609141, 0.07387407, -0.12165042, -0.11322303, 0.08714472, -0.081492394, -0.011156453, 0.0646795, 0.09847991, 0.025256291, 0.047380686, 0.089770496, 0.0084048575, -0.10293974, 0.08886473, 0.010771056, -0.14562601, 0.07903354, 0.12205233, 0.11730482, 0.13131155, 0.045242943, 0.073363416, 0.11406062, -0.009090568, -0.13976584, -0.03354724, -0.06854587, 0.11257058, 0.100120485, 0.10109725, -0.04283549, 0.02597113, -0.108165935, 0.074143656, 0.08506546, -0.048265424, -0.056510933, -0.022963842, 0.084637344, 0.098827265, 0.04916135, 0.1277056, 0.058160353, -0.047607325, 0.038510345, 0.0101835, 0.07260037, 0.1353604, -0.011123938, 0.00854077, 0.067662716, 0.06161722, -0.08733768, -0.069640264, 0.15107013, 0.12705685, -0.08153375, -0.06151973, 0.094089165, -0.1252607, -0.035809398, -0.13323887, -0.017660392, -0.02221189, 0.07501722, 0.025812745, 0.079480335, 0.0035829355, 0.069680706, 0.08732284, -0.010780172, 0.033654816, 0.07140533, 0.079243965, -0.032736994, 0.1172106, -0.16904317, -0.10689301, 0.088888615, 0.08347128, -0.039003626, -0.09918284, -0.082478695, 0.050263632, -0.080602445, 0.032908045, 0.04777185, -0.055977102, 0.011916389, -0.0070057292, -0.06671301, 0.096240826, 0.10110364, -0.09594039, 0.035459585, 0.016473839, -0.15737864, -0.17271866, -0.06682753, -0.14906144, 0.08252732, 0.039413128, 0.01882787, 0.113218196, -0.12960555, 0.0651922, -0.03690009, -0.10202025, 0.063927226, 0.014862431, -0.15090209, -0.117717385, 0.09104582, -0.104768254, -0.061968993, 0.13317092, 0.09245082, 0.047092393, 0.075223215, 0.109999254, 0.037283428, 0.021524172, -0.13371696, 0.10219183, -0.12672831, 0.105610244, -0.080745175, 0.13120675, -0.09441016, -0.12898311, -0.073002845, -0.076577425, -0.07106016, 0.064202264, -0.067503735, -0.03627643, -0.12918177, -0.13511895, -0.092285104, -0.12864687, -0.08122128, -0.12645668, 0.087207966, -0.14139907, 0.0757351, -0.10891305, -0.035309263, 0.06648042, -0.12574252, 0.00452851, 0.06413574, -0.100908734, -0.0040986654, -0.08956458, -0.0563975, -0.13467288, -0.1352439, -0.12193399, -0.06754573, -0.01047025, 0.046303876, -0.0020441168, 0.00971552, 0.10017521, -0.0010539305, -0.07549088, 0.025101893, -0.08284074, 0.08765226, 0.06672722, -0.07448081, -0.120158285, -0.11381894, -0.009654842, -0.07339929, -0.06965944, -0.090289444, -0.06843205, -0.1260688, -0.040507782, -0.12264109, 0.07996691, -0.13606861, 0.017877713, 0.017698802, 0.037197035, -0.054448467, 0.046455033, -0.0811652, 0.066094816, 0.025746498, -0.07673064, -0.08867995, -0.044229124, 0.069485314, -0.04690798, 0.022820069, 0.07692407, -0.03554871, -0.06678897, 0.07076786, 0.07056684, -0.1013551, -0.054162405, -0.08316726, 0.077017225, 0.016884077, -0.14521778, 0.043827273, 0.03922774, -0.11614463, 0.018478334, -0.037150096, 0.095066115, -0.03035175, 0.010520398, -0.020337507, -0.05461854, -0.023284646, 0.05122884, -0.040107496, 0.07300134, -0.08145098, -0.097797304, 0.029703412, -0.037222892, 0.1627612, 0.03504638, 0.06837826, -0.10314337, -0.120188095, 0.0036010335, 0.05538979, 0.017217897, -0.12763575, -0.02602162, 0.0006792944, 0.09913977, -0.0204803, -0.003819246, 0.036543507, -0.088159256, -0.039854836, -0.056888644, -0.06101802, 0.1214164, -0.068024926, -0.078736454, 0.06680062, -0.071293086, -0.10828545, 0.009976629, 0.12214889, -0.03382884, 0.098501064, -0.0055950275, 0.09683759, 0.031701136, 0.08608796, 0.061386216, 0.02375531, 0.05217563, -0.0032846471, -0.06337256, -0.12657216, -0.068739474, -0.029972954, 0.024357092, 0.08434613, -0.041913636, 0.06385153, 0.09369888, 0.071076885, -0.12192922, -0.09454656, -0.1269138, -0.007885158, 0.12350265, -0.0008606303, -0.10041829, -0.1447016, -0.11002762, -0.05368005, 0.02155981, -0.050758608, -0.015207543, 0.022035236, 0.053606994, -0.078016974, -0.054492768, -0.09168259, 0.09536574, -0.049254384, -0.12346438, -0.041133687, -0.122262545, -0.11188352, -0.038492452, 0.13216615, 0.05256744, -0.006769315, 0.12775649, 0.09164272, 0.030720744, -0.0054497262, -0.069402486, 0.06342817, 0.106967166, -0.095167026, -0.07291082, -0.07040902, 0.062503815, -0.1324115, 0.086264454, -0.12050629, 0.06993813, 0.047976483, -0.054029908, -0.017238785, -0.11562241, 0.059733685, -0.07771793, 0.037115008, -0.11591423, 0.07579282, 0.042826544, 0.07887814, -0.17541648, -0.115386166, -0.08455511, 0.14179958, -0.055573814, -0.11511882, 0.11503319, 0.105805814, 0.00441053, 0.118526906, -0.080004714, 0.03561158, -0.08612823, 0.14227533, -0.099537976, -0.13442247, 0.1033359, -0.13798898, -0.06935095, 0.101837404, 0.01111356, 0.0059928233, -0.115328215, 0.10283282, 0.13897327, 0.100538686, -0.096295826, -0.11372754, 0.14728673, -0.1062564, 0.03820714, 0.07170794, 0.07000072, 0.036325566, -0.06790906, -0.01955208, 0.0073943348, 0.04849299, 0.07257578, -0.08883656, 0.0581854, -0.04996664, -0.037348077, -0.0035781164, 0.016029183, 0.1338964, -0.04693703, -0.014018812, -0.0070527177, -0.096311666, -0.14322077, 0.08590449, 0.10234512, -0.036505148, -0.096642226, 0.117797606, -0.10640489, -0.1066641, -0.025679592, 0.02352028, 0.010885577, -0.04631165, -0.026996017, 0.07201182, -0.078463405, -0.045958027, -0.090824164, 0.08292111, -0.115045786, -0.12124646, -0.042406987, -0.07227744, 0.14408475, 0.02869524, -0.12259909, -0.022911264, -0.0037253918, -0.12191717, 0.013635685, -0.13331018, -0.025512021, -0.15723631, -0.07160484, -0.09438681, 0.1564567, 0.042917825, 0.15242228, 0.019726181, -0.061085697, 0.093191765, 0.05423513, -0.10697558, 0.12662257, -0.14829268, -0.038423084, -0.0040586866, -0.016683906, 0.13241014, -0.010435032, 0.06291817, -0.09322451, -0.13506585, -0.031701103, -0.027739776, -0.06930757, 0.017333098, 0.0029260698, 0.026019871, -0.09908118, -0.06501063, 0.076117754, -0.1134329, -0.046451826, 0.10490021, 0.03517745, -0.019767942, 0.017999206, -0.11281886, 0.027311666, -0.028898655, -0.021733092, 0.016798016, 0.13486053, 0.08984941, -0.08220147, -0.110315554, -0.013866144, -0.09265022, 0.10183767, -0.011056587, -0.11014234, -0.120531306, -0.031178884, 0.020024348, -0.11969267, 0.11418774, 0.08886348, 0.030851124, -0.034499243, -0.13997503, -0.052371714, 0.101512074, 0.027115298, -0.018305153, 0.13242908, 0.027003402, 0.037834376, 0.025399325, -0.091590285, 0.08929021, -0.17587234, -0.044220448, -0.10421696, 0.00888143, -0.14590457, -0.11386622, 0.06193953, -0.003850063, -0.06452606, 0.08548034, 0.13348798, -0.15297407, -0.036545668, 0.10482303, 0.01601449, -0.012774033, 0.040566664, -0.08078115, 0.074806735, -0.23070373, -0.10855666, 0.08039902, -0.09245269, 0.14478445, -0.23086025, -0.07354779, -0.12748621, -0.08638186, 0.078598745, 0.11273438, -0.18878306, -0.020646822, -0.151775, 0.10430859, -0.09086362, 0.044785693, -0.13123825, 0.022877628, -0.055381753, -0.03499236, 0.10818315, -0.00678293, -0.09859169, -0.040748157, -0.002392784, -0.08061336, -0.09487273, -0.037674844, -0.006341479, 0.08491609, -0.013692976, -0.083858, -0.034781795, 0.033508085, 0.0015019897, 0.059775047, -0.043606903, -0.10884634, -0.021500422, 0.011378431, 0.100987196, -0.123817906, 0.011486043, 0.0012464661, 0.05182051, 0.05957796, 0.06418342, -0.093100764, -0.114957415, 0.13714139, -0.05675275, -0.019940075, 0.033344585, -0.08914597, 0.010621879, 0.12001877, 0.030077819, 0.030751102, 0.13370383, -0.038584154, -0.031738196, 0.01572176, -0.038551774, 0.14334504, -0.02839302, -0.13124819, -0.069568925, 0.009533671, 0.104630485, -0.087981634, -0.06646499, -0.101196475, -0.022227235, 0.10791651, 0.031698037, 0.11940581, -0.03065469, 0.01768981, 0.06072372, -0.05051731, -0.112970345, -0.06143641, 0.025851784, 0.11017469, 0.0031374826, -0.14648914, 0.005774338, 0.09162111, -0.105997115, -0.06160877, -0.06811089, 0.0880709, -0.05035454, 0.120829634, 0.13842608, -0.065839514, -0.08090876, -0.03687388, 0.031168189, -0.09869923, 0.064812146, -0.052247435, 0.08181513, 0.111202106, 0.035910048, 0.0402533, 0.10350628, -0.101373546, 0.04572023, 0.02339301, 0.0466754, 0.053696703, -0.0478611, 0.13285418, -0.0148551185, 0.0004241463, -0.12783022, 0.104660526, 0.02186788, 0.035996947, -0.052786164, -0.054864395, 0.09807213, -0.07082859, -0.079377055, 0.0036882712, 0.041575853, -0.036361903, -0.09774908, 0.10274845, -0.05561618, 0.12291568, 0.0065221502, 0.12630528, 0.049759433, 0.04976685, 0.06318864, 0.0069160787, 0.032882165, 0.14126638, -0.028676534, 0.1601949, -0.07711205, -0.0026161242, -0.13937852, 0.083128266, 0.026542503, -0.047823437, -0.022533186, 0.060461584, -0.017284654, -0.10275545, -0.13396421, -0.029031247, 0.06906226, 0.03321186, 0.0698815, 0.10007406, 0.04916993, -0.043577448, -0.0364862, 0.079323545, 0.08803163, 0.08588075, 0.019739773, 0.046239134, -0.042016037, 0.086293116, -0.09051261, 0.07273316, -0.034699716, -0.09048906, 0.04305515, 0.068732254, -0.07181154, 0.0066739093, 0.10873157, 0.11268534, 0.09979129, -0.09308605, -0.14220682, 0.03660516, 0.07048516, 0.14624722, -0.06702169, 0.061685584, 0.055218365, 0.16162671, -0.07933251, -0.0411686, 0.12539585, -0.12692615, 0.05718441, -0.10814959, -0.11011845, 0.07781494, 0.15321271, -0.01572534, -0.1563295, -0.06776635, 0.11201154, 0.12592396, -0.031526655, -0.03288723, -0.16031872, 0.13260433, -0.103350535, -0.12581159, -0.04943311, 0.027452864, -0.019532833, 0.041141942, 0.060826417, 0.05549593, 0.020489356, -0.0671521, 0.0695349, -0.13494636, -0.09743879, 0.03777466, -0.055121474, -0.07130561, 0.026122369, -0.07298412, 0.02712082, -0.027486503, -0.03167827, -0.035104815, 0.1133446, -0.040286854, -0.10122338, 0.121059, 0.012359631, -0.09392228, 0.07242784, 0.037049897, 0.11192681, -0.09985342, -0.026204014, 0.024484755, -0.016530039, -0.007956668, -0.022156483, 0.029513521, -0.115346804, 0.007938096, -0.084567904, 0.13316338, -0.15600222, -0.07545562, 0.056592345, 0.13190314, 0.038050465, 0.038377196, 0.07190561, 0.07224648, 0.09274725, -0.05877622, -0.039998714, 0.012255327, -0.097612165, 0.1264194, -0.1125473, 0.067243546, -0.12758334, 0.056568787, -0.1288739, 0.1395118, -0.033847123, 0.12060731, -0.040678445, -0.08617405, -0.07224965, 0.03592828, -0.0947226, 0.13534187, -0.13372616, 0.10528011, 0.08953966, -0.116764836, -0.108713984, -0.10878196, -0.14524332, 0.051473133, -0.08288446, -0.053356655, -0.0508438, 0.05112756, -0.04711304, -0.06472534, -0.055341635, 0.121110894, -0.1388338, 0.0422953, -0.12901929, 0.11782379, 0.1375838, 0.03298718, 0.111299485, -0.07963501, 0.14547293, -0.06930957, 0.049943335, 0.039052665, -0.01812527, 0.07341348, -0.03532577, 0.08881312, 0.03254062, 0.12757847, 0.09568057, -0.10978678, 0.12850977, 0.098201066, 0.076150805, 0.07615182, 0.046260446, 0.13695799, -0.028001642, 0.014644592, -0.13903494, 0.058838345, 0.13429569, 0.02233859, -0.11779268, 0.04681928, 0.1263634, -0.02298181, -0.0028497314, -0.11885277, 0.05540485, 0.06397803, 0.055188328, -0.08993043, -0.0018923191, 0.105695374, -0.0154784545, 0.0007577903, -0.13467467, -0.013376108, 0.037369136, -0.09130518, 0.01362006, -0.11090907, 0.0022359386, 0.034953445, -0.011225906, 0.0029833182, -0.09726808, -0.11919068, 0.031195207, 0.080294766, 0.040723767, -0.060856607, 0.14291435, -0.04504607, 0.05477592, 0.12719093, 0.05376316, -0.014738145, 0.044436883, 0.04649462, -0.05131069, -0.029966695, 0.040225875, -0.11206683, -0.019539364, -0.043706432, -0.09947476, 0.035780843, -0.03648608, 0.13541314, -0.12353759, 0.0010372945, 0.036504477, -0.092409104, -0.09268687, 0.11178811, -0.046149183, -0.10309349, -0.03313159, 0.046079747, 0.0838868, 0.002704987, 0.012970024, -0.09652875, 0.10366296, -0.14121626, -0.15000589, 0.12421566, 0.034983274, -0.038502716, -0.11523065, -0.042811405, -0.017787414, -0.062638015, 0.10773504, 0.04597251, -0.0069153844, 0.067359716, 0.09037913, 0.04711862, 0.10443153, -0.07834702, -0.120091036, -0.02379039, -0.08359962, 0.12133778, -0.07881348, -0.10462422, 0.040361032, -0.06674966, 0.020928355, -0.133724, -0.00713653, 0.073387496, 0.007231822, 0.10055285, -0.02022018, 0.12035937, 0.019283187, -0.05853632, 0.13328753, -0.06188869, 0.026106188, 0.14599656, 0.14070226, -0.12760249, 0.008289686, 0.06531804, -0.04851007, -0.03798876, -0.065155394, 0.023513537, 0.04025205, -0.14933425, -0.012137439, -0.09379339, 0.055385657, 0.0963183, 0.15169406, -0.117852256, 0.020083154, 0.04116682, 0.03071525, -0.044473186, 0.1372247, -0.0031384828, -0.0008433916, 0.07173414, -0.050210707, 0.09000426, -0.03554537, -0.036935814, -0.097012706, -0.03736267, -0.11988894, 0.0012445935, -0.08161496, -0.0018731771, 0.026421627, 0.12543397, -0.026249094, 0.13273028, -0.019544689, 0.13749892, 0.051497217, -0.011281769, -0.023143196, -0.0065709124, -0.08783439, 0.13144939, -0.0031973864, -0.061516404, -0.04559121, -0.075328715, 0.12754902, -0.09903956, 0.08049271, -0.103765525, 0.0028604527, 0.06539553, 0.1383198, -0.04503021, -0.13624011, -0.016469419, -0.09090709, -0.11243491, 0.11236771, -0.13976699, 0.013744891, 0.1206679, 0.10051759, -0.050285112, 0.14293249, -0.058471512, -0.042623278, 0.07126429, -0.07976939, 0.085425496, -0.046870336, 0.08998349, -0.026524596, 0.09758875, 0.04654113, 0.04479547, -0.1241713, -0.028034925, -0.029330729, 0.08726898, -0.0328332, 0.118584, 0.07559338, -0.07655063, -0.1410161, 0.05910164, -0.08138236, -0.034687147, -0.060772743, 0.019086327, 0.10703476, -0.114370845, 0.13781206, -0.02335958, 0.0738243, 0.023687921, -0.049215317, 0.11217702, 0.13414696, -0.00621864, -0.052522738, -0.11052073, -0.06110902, 0.019183433, 0.12613691, -0.003908868, -0.015425151, 0.11885533, -0.051909216, -0.10444969, 0.089042135, 0.0028098875, 0.17664815, -0.0052795345, 0.037923668, -0.0395077, -0.10246901, -0.023173828, -0.051548872, -0.09282162, -0.0742469, -0.13510032, 0.06557182, 0.007857832, 0.112253055, -0.088578254, 0.101048745, -0.0933234, 0.1020486, 0.117388986, 0.11017725, 0.10814891, -0.100161485, -0.09724827, -0.10245275, -0.12150888, -0.084948026, -0.108867764, 0.005673599, -0.0068956595, -0.13747014, 0.13052604, 0.11496835, -0.11063737, -0.049830724, -0.0015815876, 0.12159152, -0.11804733, -0.09908404, -0.06856612, -0.06980666, 0.13116491, 0.11653847, 0.0019894536, 0.027261406, -0.0149058355, -0.031577915, -0.06563671, -0.012949287, 0.06867916, -0.08885688, -0.021252736, -0.09378668, -0.047970146, -0.11857055, -0.09141705, 0.029036611, 0.0007468999, 0.11561111, -0.054502357, -0.023328345, -0.11717409, 0.03193829, 0.016751835, -0.09608531, -0.103593074, -0.11145668, 0.039847188, 0.1230308, -0.013176895, -0.07134783, -0.11217815, 0.06660798, 0.04181383, -0.08652663, 0.1116478, -0.039994385, -0.016610075, 0.11426554, -0.05086984, -0.031925295, -0.08829666, -0.03948897, -0.14897546, -0.07231016, -0.0051352857, 0.08669715, 0.021548087, -0.10241581, -0.038344868, -0.07310122, 0.0672079, -0.054050997, 0.0505378, 0.080938265, 0.13595559, -0.04508771, 0.098539606, 0.13050096, -0.025961204, -0.07090529, -0.032985393, -0.07192824, 0.12126783, 0.06352421, -0.062900156, -0.10446979, 0.043726776, 0.17607103, 0.037657365, 0.009296041, -0.027185032, 0.07620735, 0.14528742, 0.07982535, -0.094199456, -0.015584259, 0.10750468, 0.104102366, 0.056795802, -0.108570695, 0.06359996, 0.018442856, -0.11387575, 0.12439562, 0.111359514, -0.011886146, -0.005967295, 0.052540008, -0.008801308, -0.08762698, -0.0016929706, 0.11227433, -0.04434269, -0.035492428, -0.08540343, 0.1282089, -0.011476193, 0.04321739, -0.13581297, -0.0009239738, -0.08356059, -0.11850351, 0.07799683, 0.12601979, 0.032722767, -0.04782283, -0.029717222, -0.030597012, -0.092602424, -0.048493743, -0.070774525, -0.13596551, 0.1049252, -0.10539784, -0.08086252, -0.12194299, -0.1233195, -0.09559733, 0.0034488053, 0.111516036, -0.05500004, 0.05450063, 0.06384368, 0.07753112, -0.020689782, -0.1355576, -0.10999928, -0.001284256, 0.122965604, 0.11014609, 0.123061806, 0.060149867, -0.053920284, -0.026992343, -0.03411288, 0.13417462, -0.032574706, -0.010790151, -0.005533159, 0.08909876, 0.014544706, 0.083137766, 0.014859884, 0.12553038, 0.07106201, -0.029214364, -0.0829666, 0.06373162, -0.043292202, -0.0044726585, -0.127946, -0.13167034, -0.039774645, -0.06607132, -0.1448625, -0.14094795, -0.07620429, 0.10294186, 0.08247515, 0.09732618, 0.04873453, 0.060927045, 0.054152686, -0.008883083, -0.009893945, 0.07617503, -0.07057622, 0.030229326, 0.07306278, 0.0014709333, -0.053598102, 0.009257223, 0.017642623, 0.11612305, 0.115661144, -0.056597233, 0.025966462, -0.061412543, 0.119824, -0.11598363, -0.11351005, 0.058676608, -0.11098865, 0.06729307, 0.11197641, -0.09661266, -0.031867463, 0.15049717, -0.06466268, 0.113933235, -0.0833606, 0.016642692, -0.056765452, -0.0073035797, 0.14796339, 0.051998697, -0.044237804, -0.04630305, 0.10513123, -0.07262933, -0.036035016, 0.039746657, 0.028831642, 0.08328288, -0.13720043, -0.002290526, -0.045897946, 0.050286856, -0.0020885204, 0.09788057, 0.0916327, -0.09937381, -0.020790508, 0.041854374, -0.008917655, 0.016374893, 0.09189937, -0.08496653, 0.061093908, 0.06527316, -0.03354169, -0.0401234, -0.0657635, 0.09591638, 0.08308872, 0.123386525, 0.07261565, -0.023950474, 0.0707908, 0.022862447, -0.12198864, 0.10466673, 0.077583715, -0.03230766, -0.15055065, 0.14320268, -0.07519888, 0.13885488, -0.029923048, -0.13846369, 0.02800772, 0.015330116, -0.086748466, 0.12497506, -0.015139299, 0.057117086, -0.02057085, 0.11359919, 0.018913146, 0.057530485, -0.073326275, 0.030560609, 0.064453416, 0.05862968, 0.054006036, -0.07799285, 0.056905065, 0.12795027, 0.06915416, 0.05391374, -0.017553119, -0.045122433, 0.070987225, -0.051779896, 0.12375134, -0.0640932, -0.13904455, -0.11719551, 0.07363084, 0.13711035, -0.06586749, -0.05948386, 0.010213634, -0.07042679, 0.044845425, -0.008054221, -0.09602489, 0.026220199, 0.036551103, -0.032276884, -0.061493356, 0.1279938, -0.06156687, 0.013237614, -0.13288976, 0.116757035, 0.0815974, 0.000749586, 0.12804626, 0.044706527, -0.05041467, -0.029405905, -0.021078553, 0.10713651, -0.076659165, -0.10094085, -0.010383072, 0.16169646, 0.11121091, -0.1244919, -0.13885292, 0.15151392, -0.02094496, 0.013276578, -0.019133085, 0.11974621, -0.012359516, 0.02198461, -0.0065848106, 0.083750725, -0.017239256, -0.11550865, -0.039518736, -0.0029500648, -0.052456733, 0.089637496, 0.13476527, 0.09959519, 0.106476784, -0.12774967, -0.12641215, 0.017863596, 0.05360215, -0.032467514, 0.07432776, 0.11884518, 0.005712185, 0.12511459, 0.021615667, -0.12972675, -0.12567349, 0.081905745, 0.1039859, 0.07009759, -0.028303945, 0.040187206, -0.095290095, 0.090430826, -0.09409905, 0.034456324, 0.045617595, -0.11127513, -0.08042937, -0.13029228, 0.06468491, 0.0077478443, -0.023406794, 0.039952677, -0.11415392, -0.14602527, 0.06701834, 0.03338123, 0.033039264, 0.077957176, 0.1149533, 0.12866244, -0.051730204, -0.104098484, -0.051137563, -0.07485989, 0.0995421, 0.034042764, -0.03590847, -0.13942242, -0.01275915, 0.07867444, 0.07035604, 0.12265488, 0.09125656, -0.112446226, -0.051371362, 0.06552435, -0.10966603, -0.10707791, -0.12546313, -0.028699864, -0.07353081, 0.11334587, -0.10406038, -0.10314523, 0.020613058, -0.08123195, -0.017010037, -0.11729384, -0.10602118, 0.0067790146, -0.14399396, -0.041913714, 0.096915446, -0.1410678, 0.054596804, -0.014328202, -0.09751742, 0.10702381, 0.005553888, 0.11333886, -0.029098079, -0.02639133, -0.066114776, 0.10293783, -0.13446692, -0.12447888, 0.041219924, -0.09742302, 0.016603818, 0.11192474, -0.12761287, 0.08345566, -0.03125291, -0.03826805, -0.04360309, 0.0033864116, -0.038941473, -0.15591356, -0.020374307, 0.10467888, -0.054763127, -0.021712031, -0.15237498, -0.15141782, 0.15418074, 0.12563723, 0.07397801, -0.12662369, 0.04032174, 0.06707564, -0.15535381, -0.03881734, -0.11051139, 0.12775634, 0.00366278, 0.12320912, 0.07829257, -0.13218547, -0.00075734063, 0.10153261, 0.019029032, -0.100712515, 0.07377887, -0.0016881784, -0.123071484, 0.021975348, 0.0013256639, -0.012211638, 0.0703793, -0.06969094, -0.026555832, 0.019588845, 0.013187252, -0.108588755, 0.03723314, 0.1024204, 0.10853361, -0.13178325, -0.101921454, 0.081479445, -0.060611524, -0.11560351, 0.016673617, 0.08175989, -0.14684834, -0.074683845, 0.10391605, -0.0735281, 0.0035038618, -0.10451, 0.0021872788, -0.03305482, 0.016101008, 0.056425884, -0.14120144, -0.019265857, -0.06314089, 0.012084454, 0.13507412, 0.028856698, -0.03462716, 0.079191245, -0.03886785, -0.0043438147, 0.084440194, 0.11266282, 0.02855237, -0.0001355447, -0.09091117, 0.028562078, 0.040105056, 0.11027923, 0.09033577, -0.10137454, 0.03786077, 0.122634195, 0.04169202, 0.07803131, 0.09895405, 0.06776834, 0.13031168, 0.02980634, 0.017988764, 0.0037952126, 0.015801476, 0.085356794, 0.12345236, 0.079940885, -0.03147413, -0.023485312, -0.035784483, 0.11065579, 0.033962466, 0.022652796, -0.10663418, -0.07063449, 0.028932579, 0.07151887, -0.006761123, -0.018721102, -0.043359652, -0.08304693, -0.01942593, -0.078054726, 0.13046114, 0.10840699, -0.076677375, -0.13228668, 0.07924569, 0.05443207, -0.13881765, 0.117140986, -0.13568895, 0.07237804, -0.121101685, -0.13449606, -0.09059851, -0.097523935, 0.02700445, 0.044981748, -0.05881626, 0.12429161, -0.047583144, 0.1445824, -0.09036785, -0.052847564, -0.048565418, 0.04696136, 0.004150472, 0.021685563, 0.04911709, -0.0044958782, -0.0840339, -0.08123923, -0.05859305, 0.0912608, 0.037205704, 0.11939061, 0.096512035, 0.07047085, -0.12868938, -0.063857466, 0.031349692, 0.12769589, 0.12539983, -0.06733401, 0.04605094, 0.06504445, 0.06528894, 0.13443886, 0.003452161, 0.08687736, -0.028176576, 0.0019449536, 0.074572384, 0.054166887, 0.087544456, -0.13601427, 0.00648306, 0.12137099, -0.01547439, -0.027783241, -0.12033722, -0.071372, 0.07407477, -0.01747012, 0.009450233, -0.08732907, 0.08884211, 0.014759603, 0.0013153176, -0.049531136, -0.058381584, 0.10215401, -0.057604354, 0.04694616, 0.10086548, 0.11491489, 0.04182827, 0.052435294, 0.1331356, -0.0028480254, 0.12776446, 0.055990018, 0.11699468, 0.032834478, 0.07438078, -0.06756551, 0.0914502, -0.13845052, -0.046423525, -0.045407705, 0.09194386, 0.16091223, -0.15365523, -0.005253146, 0.04504719, -0.1468866, 0.102209345, -0.082260616, 0.044929102, -0.13682131, 0.018954633, -0.10913633, -0.020554768, 2.2449702e-05, -0.002152803, 0.14836885, -0.113302976, 0.07513212, -0.14349662, 0.026529586, -0.038783528, 0.012404849, -0.09382104, -0.021329714, -0.16243188, -0.14742635, 0.1102408, -0.13111538, -0.11727383, 0.086280026, 0.08685271, -0.0077240793, -0.11992718, 0.002241616, -0.04828321, 0.038780376, 0.08378759, 0.0036644763, 0.057550374, 0.017907184, -0.050297007, 0.03947093, -0.06878498, -0.011480757, -0.023707198, -0.054955233, -0.109943256, -0.04411198, -0.08968605, 0.124619216, 0.0078812, 0.030998562, -0.020319536, 0.0335357, -0.006413792, -0.07220031, 0.042250194, 0.036047958, 0.06923039, 0.13579069, -0.059450027, -0.14117439, -0.10471027, 0.06289914, -0.1186456, 0.14424019, -0.03626468, -0.0025016554, -0.06685294, -0.0154533, -0.10397416, 0.051125377, -0.03370144, -0.035841722, 0.031876136, 0.11035531, -0.027999362, 0.01415273, -0.09975684, -0.11776174, -0.13594204, -0.0051343166, -0.12282318, -0.10897213, 0.02041282, -0.010994322, -0.09383501, 0.0333394, -0.035907175, -0.06891346, -0.07083811, 0.009483672, -0.09161681, -0.10070758, -0.07029268, -0.08570302, -0.10634404, -0.08174761, -0.070154674, 0.123788394, -0.15692846, 0.00630991, -0.0055481344, -0.16177468, 0.12840816, -0.026899144, -0.026218545, -0.09567952, 0.054638237, 0.039480746, -0.07188597, -0.015387968, 0.084670216, 0.0033638054, 0.058046542, -0.064280376, 0.026248528, -0.07818036, 0.12839302, 0.037174806, -0.028021105, 0.012216301, -0.012028342, -0.117376275, -0.0026763075, 0.10880906, 0.09536709, -0.008830317, -0.05248795, -0.0018600374, -0.0010376668, -0.0027049982, 0.1281605, -0.08783329, -0.06301395, -0.012970664, -0.120622545, -0.03833473, 0.043617424, -0.1435186, 0.07462438, 0.051022425, 0.05899223, -0.120369084, 0.094783954, -0.12993169, -0.019346591, -0.109746575, -0.048673235, -0.0653087, -0.10396916, 0.024697272, -0.07671045, 0.10920712, -0.08629493, 0.038812157, 0.0600201, -0.016314363, 0.08435691, -0.039693575, -0.034205884, -0.09444505, 0.010241949, 0.038487203, 0.08012902, -0.14023036, -0.008957667, 0.10866839, 0.09171941, -0.06273062, 0.094544426, -0.13994408, 0.13811211, 0.09886376, 0.04188255, 0.07424404, -0.13742903, 0.02993661, 0.0678296, 0.051973924, -0.12713583, -0.04073151, 0.055420343, -0.113086775, 0.00026563936, 0.088233136, -0.00563936, 0.110166244, 0.030268326, 0.060335305, 0.11321111, 0.12541643, 0.03467594, 0.131621, 0.06528413, -0.03925574, 0.016316397, 0.061224684, 0.068288185, 0.06887244, 0.10200979, -0.010103072, -0.035393227, 0.042388555, -0.009458407, 0.04525386, 0.10703255, -0.13007975, -0.093326904, -0.013688015, -0.037251193, 0.07763077, -0.03901522, 0.04286044, -0.14305209, 0.07290747, -0.0440068, -0.010423835, -0.106987506, -0.09694137, 0.051513456, 0.09448981, 0.014026409, 0.10527792, -0.120793425, -0.020983456, 0.030203301, 0.095809445, -0.002485405, -0.03868877, 0.08684153, -0.018911881, -0.056351144, 0.041729234, 0.061471656, -0.0074124155, -0.026395941, -0.029175058, 0.024450934, 0.117135644, 0.0040038205, 0.05887745, 0.039460797, 0.016077857, -0.05929087, -0.1039974, 0.073125824, -0.09855418, 0.11137975, -0.059143264, 0.016908877, 0.02299438, 0.12882029, 0.099113174, 0.059483588, 0.08969595, -0.11466525, -0.06828993, 0.14007877, 0.05802843, -0.025816578, -0.069219075, 0.06257562, -0.15804657, -0.08670578, -0.15209413, -0.14491676, -0.105080046, -0.12042725, -0.117899366, 0.048728194, 0.03010509, -0.05840523, -0.1373283, 0.03148826, 0.0478505, -0.041181702, 0.09460043, -0.05380231, 0.12587781, -0.10983218, -0.118206024, -0.021594634, -0.063537225, 0.020499174, -0.14151238, -0.06396806, -0.0684989, 0.00770055, -0.09555012, -0.12413439, -0.11027218, -0.07531916, -0.031464495, -0.060591843, -0.038250696, -0.035086356, 0.13652903, -0.01073811, -0.1006598, 0.043612946, 0.08642112, 0.098112494, 0.07698482, -0.12758857, -0.1536326, -0.084861495, 0.08957602, -0.025338767, 0.16581202, 0.0125534525, -0.1281663, 0.15943633, -0.016724825, 0.082258716, 0.14546403, -0.073830165, -0.13252047, -0.094960414, 0.036322862, -0.15707223, -0.1378727, -0.17140867, -0.0390373, -0.10241869, -0.0892347, 0.012250828, 0.11174513, -0.058535144, 0.0026179226, -0.015644914, 0.027884368, 0.00042961168, 0.078906775, -0.050953332, -0.017855944, -0.092287116, -0.10666496, 0.03981244, -0.0764185, -0.077522814, 0.004388003, -0.09356647, 0.034743052, -0.015375646, -0.059564695, -0.11902013, 0.012250653, 0.142872, 0.008963672, -0.018009521, 0.05510779, 0.033229105, 0.11405547, 0.027033014, 0.12419759, -0.08232421, 0.055845868, 0.14050445, 0.018321043, -0.002636128, -0.05730935, 0.06925603, -0.1129406, 0.06543977, 0.092610694, -0.13458212, 0.096413516, 0.1022827, 0.037122525, -0.052617222, 0.115624964, 0.008200575, -0.004920675, 0.13627395, -0.13114785, -0.14603847, 0.075397596, 0.07325344, -0.0012020542, 0.0009296801, 0.12394499, -0.115734465, -0.03566055, 0.036316067, 0.10899874, 0.120146215, -0.13416865, 0.07203801, -0.01609752, 0.008357512, 0.1352522, -0.10995218, 0.12768708, -0.12211356, 0.031987406, -0.0019039771, -0.13249172, 0.1255202, -0.101699114, 0.063655294, 0.097362936, 0.011697139, -0.0037654808, -0.13309611, 0.053889386, 0.09475973, 0.090167314, 0.071284115, 0.020085331, 0.048557136, -0.12988871, -0.003491537, 0.07021131, 0.051254794, 0.021429062, 0.01498449, -0.041473474, -0.013686676, -0.11029162, -0.03884131, -0.12844609, -0.10235125, -0.1108242, -0.0639986, 0.12522253, -0.06364888, -0.011240467, -0.0075276946, -0.04047088, -0.039863117, 0.052375447, 0.15241419, 0.11125844, -0.07189123, -0.031074954, -0.0025242127, 0.13923544, 0.1352635, -0.11958416, 0.106574446, -0.025543924, 0.11160181, 0.090356186, 0.020349447, -0.025131004, -0.010712968, -0.07575073, -0.00864478, 0.1375283, 0.14695081, -0.016303249, -0.05174319, -0.02145706, 0.13073851, 0.00062074914, -0.085871495, -0.07784791, -0.067369744, -0.16077003, -0.093549795, -0.08493185, -0.058023885, -0.15679513, -0.13332935, -0.06328785, -0.0024036565, -0.1201827, 0.15947881, 0.06841639, 0.093873754, -0.09042358, 0.076979116, 0.038470946, 0.093892545, 0.018414741, -0.113280155, 0.027101947, 0.0012831633, 0.04585695, -0.052613348, 0.13435665, -0.053062007, -0.08225629, 0.0046985922, -0.056048796, 0.06976519, 0.07672959, -0.12613894, -0.00089383195, -0.04170194, 0.13680063, 0.0030764234, 0.015710723, 0.080671676, -0.07681215, -0.008118938, 0.10566221, -0.0005574163, -0.122998044, -0.07787232, 0.035121452, -0.015819196, -0.09346771, -0.07949534, 0.029431377, 0.12208573, -0.07670484, 0.10849622, 0.08475225, 0.0010896513, 0.049639016, 0.11453428, 0.029376639, 0.09942557, 0.04113168, -0.08290692, 0.09368, -0.11806294, 0.082091585, 0.07870088, 0.096313655, 0.10641096, 0.02582319, 0.11901544, 0.10273996, -0.10679092, -0.0072050034, 0.0022473312, 0.041044105, -0.13944317, -0.007886311, 0.053541172, -0.032321215, 0.09563479, 0.008501391, -0.1359898, 0.12152281, -0.093438774, 0.003730752, 0.067622885, 0.11290052, -0.045310676, 0.14392138, 0.03683994, -0.08262432, -0.09448649, -0.08852909, 0.115141734, 0.10273848, -0.08119966, 0.12093663, -0.089231275, 0.1156326, -0.009193433, -0.104216605, 0.025542635, 0.11392019, -0.05013152, 0.03632828, -0.03740256, 0.13181773, -0.042827826, 0.14491372, -0.012551783, 0.13384296, 0.10306663, -0.025506828, 0.05856764, -0.13280533, 0.033677123, 0.100152984, 0.12293037, -0.09595459, -0.04749816, -0.12269928, 0.038566068, 0.11877014, 0.111429036, 0.1079751, 0.047881998, -0.045848787, -0.027921312, 0.14230838, 0.052955147, -0.13622202, 0.06558, 0.030407654, -0.003884469, -0.066098675, 0.09616289, 0.14573929, -0.06669259, -0.035353273, 0.034644693, -0.11668116, 0.124993026, 0.14597961, -0.0038733075, 0.10789687, 0.10689199, -0.048855692, -0.078930795, -0.11476336, -0.048822626, -0.0077902526, -0.010420483, 0.09703754, 0.056847587, 0.063635506, 0.09954483, -0.035062708, -0.11499673, -0.034104764, 0.022708317, -0.10875438, 0.025383154, 0.014906968, -0.041099206, 0.03539259, -0.0861521, 0.12419187, -0.019468924, 0.07791256, 0.03304046, 0.00054155674, -0.115786284, 0.13369283, 0.07927699, -0.014771519, 0.086987235, 0.049883217, 0.10403174, -0.065371946, -0.03809158, 0.005195766, -0.08792799, 0.061805207, -0.044921476, -0.06912065, 0.10308092, -0.060326334, -0.116378896, 0.039209746, -0.015705196, -0.03034537, -0.040606767, 0.110433035, 0.073503755, -0.10995858, -0.08553015, 0.0870466, 0.062906876, -0.042019047, 0.067005835, 0.009623254, 0.11473014, -0.10168947, -0.061863687, 0.022955, -0.082628384, 0.10785802, -0.121787965, -0.11623594, -0.091357306, -0.06408039, -0.061088238, -0.012608399, 0.057084374, -0.024699897, -0.077933386, -0.13940735, -0.03755995, 0.0062105563, -0.09965069, 0.041570198, 0.014195169, -0.024401786, 0.13511531, 0.1256868, -0.102380715, -0.047448296, 0.14619224, 0.09495193, 0.14847091, 0.12175565, 0.11827121, -0.17751573, 0.096119486, 0.086766295, -0.16201183, -0.055181507, -0.09501532, -0.06527446, 0.011744142, -0.1390211, -0.015587124, 0.009441691, 0.000417448, 0.015596388, -0.013617449, -0.067114115, -0.031775683, 0.10618127, -0.11357678, 0.04702622, -0.061003063, 0.016455352, -0.07422483, 0.12939428, -0.02826887, 0.04282697, -0.14421201, 0.11780385, -0.08800271, -0.1441169, -0.025727576, -0.09066374, -0.053717352, 0.026679704, -0.0670587, -0.06411993, 0.11218176, -0.010305421, -0.04685292, -0.0954741, 0.036100496, 0.006641647, 0.040204518, 0.08156017, 0.12081743, 0.1263348, 0.12545317, -0.06694417, 0.096123844, -0.043933082, 0.08122027, 0.0011005036, 0.090879194, 0.12364581, -0.08026917, -0.0014923871, 0.103511006, -0.1217926, -0.0011924518, 0.027727973, -0.038703002, -0.10740864, -0.12642835, -0.0002419737, -0.08704505, 0.08861752, 0.08010876, 0.12682994, -0.13757284, -0.11350739, -0.0077939625, -0.04191315, -0.08089432, 0.14659253, 0.006066607, -0.072320215, -0.12394189, -0.006326954, -0.037695862, -0.08486872, 0.05111321, 0.14055899, -0.09149968, -0.032655, -0.12533626, -0.05631149, 0.026420522, -0.055662885, -0.065657124, -0.06333731, 0.08155456, 0.06681029, 0.09556643, -0.09927378, 0.076087244, 0.04091634, 0.09401977, -0.07822706, -0.09368913, 0.10905196, 0.03237814, -0.008969766, 0.07905384, 0.0043173484, 0.015077809, 0.092507735, -0.01067914, 0.07889909, -0.031205215, -0.017761588, 0.13075641, -0.024098182, 0.11743009, -0.12336236, -0.08601902, -0.11093296, 0.004017858, -0.03797452, -0.13527393, 0.02718353, 0.066786535, 0.0821793, -0.052458055, 0.025993967, -0.054426245, -0.07161454, -0.0915936, -0.14478709, -0.07168733, 0.03315375, 0.097837836, 0.051747404, -0.05666314, -0.13104491, -0.060751263, -0.03201519, 0.021664627, -0.0051144045, 0.0036681043, 0.13343617, 0.059870467, -0.12462467, 0.12601298, 0.042831574, 0.12979989, 0.01510207, 0.090951234, 0.005764496, 0.14524552, -0.06299187, 0.06277094, 0.0020375468, 0.04194917, -0.13152775, -0.125368, 0.02393832, -0.056373257, 0.033902094, 0.07586897, 0.14485776, 0.09223059, 0.03171745, 0.05795278, 0.051832754, -0.0053031845, 0.08512485, 0.10642661, 0.0144604705, 0.027241059, -0.105009325, -0.002627312, 0.111030966, 0.097736746, 0.09331752, -0.12569724, -0.045415755, -0.06811062, -0.07013576, -0.018081747, 0.16403864, 0.052228794, 0.09196735, 0.04588449, 0.08390365, -0.04411581, -0.080189385, 0.09167853, -0.1017913, 0.063227795, 0.10495101, 0.10035744, 0.09698203, -0.13499552, 0.11747995, 0.031582456, -0.06894384, -0.020400643, 0.037083272, -0.04857445, 0.123534285, 0.035771165, 0.022869393, -0.015983494, 0.12424966, -0.117625274, -0.034960967, 0.108974054, 0.10134433, -0.12875311, -0.08481341, -0.07572813, -0.010037096, -0.117826335, 0.05628101, -0.1244233, 0.038094338, -0.0040981756, -0.108811565, -0.0010608144, 0.054712012, -0.108688034, -0.025536355, 0.03348882, -0.050743315, -0.11948709, -0.0029927965, 0.02385783, -0.10536985, -0.063466765, -0.05948214, 0.08565307, 0.108850814, 0.05988926, -0.108532794, -0.032859802, 0.045560554, -0.051375788, 0.03831996, -0.09793585, 0.12518454, -0.06430853, 0.017022626, 0.07000991, -0.06227861, 0.064225264, -0.047653902, 0.040900588, 0.04211083, 0.11966048, -0.04250537, -0.098835416, 0.10495029, 0.046803124, -0.13312146, -0.14499308, 0.054715298, -0.07792565, 0.08861454, 0.08429969, -0.016773622, -0.09912697, -0.098192655, -0.09241555, -0.040694967, -0.03638706, -0.09724369, 0.075429715, 0.116642736, -0.064537436, 0.129657, -0.06345347, -0.09515805, 0.10210186, 0.040717483, -0.077143386, 0.11048341, -0.13377793, -0.058748648, 0.055471543, -0.0854906, -0.023613438, 0.07421777, -0.09207624, 0.044649012, -0.0042003, 0.047686305, -0.106948666, -0.021718891, -0.12416977, -0.06317478, 0.12684062, -0.13772787, -0.05090874, 0.054298535, -0.13276723, -0.07189367, -0.01944066, 0.06810977, -0.10013545, -0.020066509, -0.009113862, 0.047683917, -0.10018264, -0.028760891, 0.06202113, -0.007850489, 0.015966814, 0.13818581, 0.111659266, 0.04451292, -0.053073373, 0.018385474, -0.09660382, -0.06452458, -0.12402048, -0.052062858, -0.008708831, -0.11733171, -0.09403021, -0.034907885, -0.07084307, -0.14569737, 0.037713975, 0.004499291, 0.0897873, -0.044547692, -0.011123504, 0.11563353, -0.08073262, 0.11392592, -0.008795162, 0.12451816, 0.13077375, 0.044478353, -0.025793292, 0.048861388, 0.106117114, 0.14106452, -0.024650514, -0.05797747, -0.052873373, -0.018442128, -0.060074672, 0.07161497, 0.10133489, -0.09577903, -0.04399229, 0.014129556, -0.028783133, -0.11396707, -0.0061648553, -0.075814806, -0.07073623, -0.05167405, -0.1315695, -0.064503185, -0.092838265, 0.0009496394, -0.023039306, -0.055424757, -0.07920367, 0.09191351, 0.017611811, -0.084627666, 0.01958981, 0.037077002, -0.048655994, -0.040551774, 0.09116688, -0.08772036, -0.019315695, 0.12843138, 0.005354502, 0.12029037, 0.043643843, -0.11734297, 0.045005567, -0.012795338, -0.09300524, -0.07641335, -0.09099282, 0.06539454, -0.09503049, -0.077832185, -0.035858367, 0.07940485, 0.011282669, 0.14635313, 0.057612535, 0.0024586802, 0.0068205544, 0.08043387, -0.12794068, -0.023704564, -0.13710077, 0.08431262, 0.071317725, -0.10715528, 0.035361536, -0.032413173, -0.1344517, -0.010187182, -0.050472498, 0.09639249, -0.057327334, -0.045622483, -0.009151852, -0.05853204, 0.017982146, -0.07784935, 0.0135850515, -0.059256937, 0.1090547, 0.065916225, -0.023686845, 0.10759234, 0.06589488, -0.049320042, 0.07404502, -0.10285594, 0.16524617, 0.1413935, -0.053361543, 0.0045688003, 0.006600359, -0.09258719, -0.0130578885, 0.01580104, 0.11780569, 0.09549853, -0.051732384, 0.01514478, -0.0379894, 0.11130908, -0.019894907, 0.06405677, -0.00042468213, 0.06895852, -0.00085064536, -0.00048748427, 0.06297852, -0.1372831, -0.13597748, -0.011336656, 0.068511866, -0.07041135, 0.05662538, 0.04566328, -0.06768111, 0.01064193, -0.076802455, 0.07816631, 0.11646266, 0.081583165, -0.09345923, 0.013111986, -0.069429256, -0.09562462, -0.0523163, 0.010103, -0.059276186, -0.10438874, -0.1520618, -0.13133168, 0.009553578, 0.005969409, 0.068022676, 0.06392748, -0.1494058, 0.11911719, 0.044222303, -0.007535932, -0.031360585, -0.0786547, 0.044228096, 0.05575584, -0.056560878, -0.05470952, -0.06904603, -0.02788323, 0.14191899, 0.09784182, 0.08906033, 0.052678365, -0.115113325, 0.10971756, 0.053416587, -0.13755733, -0.12443779, -0.08364542, 0.040226802, -0.002749914, 0.09155824, -0.10859535, 0.015609712, -0.12522884, 0.13088895, 0.08812907, -0.07412522, -0.014987678, 0.047612358, -0.1146349, -0.08785174, 0.06467641, 0.14309832, -0.060686134, 0.10681121, 0.085930414, 0.013954401, 0.14031509, -0.041182633, 0.06030734, -0.05608518, -0.090056, 0.071689434, -0.038074613, 0.09612402, 0.06610579, -0.022123925, 0.0041229664, 0.09944641, 0.13834932, 0.1444962, 0.084029235, -0.003991994, -0.10148107, 0.08176202, 0.11634888, -0.13802421, -0.054408118, 0.0656898, 0.10658087, -0.038620185, 0.10784534, -0.03177377, 0.084326826, 0.10244686, -0.08073943, 0.072748385, 0.07407, -0.11938612, 0.110114135, 0.13692583, 0.020530097, 0.071954064, 0.0018699827, -0.12854183, 0.0784749, -0.012244106, -0.07735656, -0.015818387, 0.07132477, 0.07322976, -0.07428383, -0.066819474, -0.05125661, 0.10839446, -0.015736112, 0.053181577, -0.0030784213, 0.119883955, 0.036259733, -0.06513142, -0.038162217, 0.12389295, 0.11285006, 0.13157922, 0.079115145, 0.030891398, -0.0881426, -0.08207522, -0.14045258, -0.075634286, 0.034538753, -0.05514561, -0.09115848, 0.07979108, -0.0961178, 0.046291154, 0.02015075, 0.15249944, 0.14753978, -0.017313877, 0.11062838, -0.13263997, 0.062158693, -0.007745074, -0.04504713, 0.14448202, -0.0023205704, -0.066731595, 0.095453896, 0.11175604, -0.06440715, 0.010615348, -0.14083351, -0.039839447, -0.03912168, -0.094404675, -0.081929065, 0.10201746, -0.045649465, 0.10039988, 0.015205903, 0.04311917, 0.098419465, 0.12288458, -0.05699512, 0.07940561, -0.087025, 0.052897546, 0.036150306, 0.027060846, -0.06227314, 0.047084913, 0.12677282, 0.0107039865, -0.054054182, -0.11550954, 0.082055934, 0.0019399252, -0.07902341, -0.11417034, 0.098759785, -0.13456114, -0.023732075, 0.11156812, 0.13059258, -0.0028772345, -0.08019459, -0.019842926, 0.084455125, 0.013886726, 0.035037383, 0.016645014, 0.097729824, -0.08689756, 0.095707886, 0.046846975, -0.03612757, 0.023284765, -0.10874922, 0.041531827, 0.1461843, -0.014100558, 0.049927685, 0.10544958, -0.06563275, 0.09521031, 0.12897447, 0.014475074, -0.081362344, 0.07390974, -0.0061491188, -0.08675134, 0.021289635, -0.013598685, -0.12086096, -0.12929198, -0.020041106, 0.0058865477, -0.134248, 0.04440161, -0.06628455, 0.0771616, 0.037572216, -0.048325915, 0.04998135, -0.076619774, 0.08534102, -0.13536036, -0.09478278, -0.024145374, 0.06997783, 0.09111738, -0.1408664, -0.020907968, -0.03801511, 0.114557974, 0.11063302, -0.05115754, 0.040855903, -0.047134943, -0.059350695, 0.01562705, 0.010097482, 0.010042887, 0.062962994, 0.109909385, 0.039186962, 0.02218532, -0.0643454, 0.09510772, -0.06307615, 0.018418502, 0.032483786, 0.043401744, 0.08094957, 0.056678116, 0.013565998, 0.11960079, -0.004302663, 0.0141127305, -0.0916897, 0.14809406, 0.08539281, 0.12318567, 0.042407684, -0.071403205, -0.017053647, -0.10472969, 0.039443783, 0.08842763, -0.02692535, -0.10743818, -0.09352003, -0.07653693, -0.031771857, -0.07845537, 0.109013624, -0.10019516, -0.09173935, -0.09208467, 0.04198526, -0.06350454, 0.02617859, -0.057559546, 0.1235772, -0.03160818, 0.042368945, 0.13715571, 0.14700331, 0.12246003, 0.014830544, 0.02848721, -0.028238963, 0.060832962, 0.1176552, -0.07338257, 0.020911613, -0.01334973, -0.12233041, 0.085725665, -0.026675543, 0.0905954, -0.033832762, 0.0070887366, 0.029425606, -0.10540267, 0.06914717, -0.06365945, 0.01729811, 0.094834015, -0.06674999, 0.045554288, -0.012238887, -0.115108185, -0.09271855, 0.11582419, -0.054095637, 0.07711062, 0.003921471, 0.04916852, -0.11124668, 0.045561343, -0.071825884, -0.017702537, 0.061600342, 0.018539233, 0.10057681, -0.058323283, 0.07557424, 0.049487017, -0.041143015, 0.021636926, 0.12924086, -0.050086442, 0.061013784, -0.012948471, 0.09303395, 0.016322555, 0.11840652, 0.04019022, 0.0497506, 0.043084275, -0.080969416, -0.007063404, 0.022979222, 0.013889372, 0.03145931, -0.12839432, -0.016526677, -0.02757065, -0.11065499, -0.11693188, -0.056149624, -0.08271902, 0.08179763, -0.060846657, -0.0181726, -0.12783138, -0.08427089, 0.114400685, -0.087288745, 0.072764315, 0.11033421, 0.077497505, -0.04211823, -0.090004824, 0.12086992, 0.0030241269, 0.03628375, 0.04994966, 0.06524516, -0.097598836, 0.11668008, -0.055228014, -0.051154528, 0.052517265, -0.10762877, -0.091152914, 0.07792815, 0.034170948, -0.08041821, -0.08728547, -0.075051315, -0.11992716, -0.049029622, 0.013545132, 0.0973322, -0.05233428, -0.06473275, -0.0692726, -0.03662641, -0.013661172, 0.045180835, -0.064712346, -0.007056748, -0.12787095, 0.122825496, -0.044926472, 0.058584616, -0.107350506, -0.11070541, -0.088192426, 0.031921726, 0.038870912, 0.054867666, 0.055805508, -0.030411026, 0.112821035, -0.072868824, 0.02482747, 0.009024447, 0.024461798, -0.0026297735, 0.053967305, 0.018051112, 0.021331195, 0.11577342, 0.06529734, 0.034133874, -0.017713929, -0.06375156, 0.05615891, -0.08327727, 0.11805776, 0.107964486, 0.051824186, 0.11514382, 0.09372894, 0.10956126, -0.12952596, -0.090956524, -0.028975144, -0.0931771, -0.08193854, -0.044979688, 0.09852063, -0.0959806, 0.040795475, 0.0052058143, 0.1071843, -0.10683437, -0.037440423, 0.10044427, -0.14882068, -0.10047177, -0.07583728, 0.041415762, -0.13474354, 0.112070434, 0.088903315, -0.09988369, -0.10998928, -0.0741254, 0.096021175, -0.1143436, 0.07740881, 0.006362899, -0.12437504, 0.11664773, 0.13404311, -0.060243372, -0.13999018, 0.039417733, 0.09652811, 0.046535823, 0.09737846, 0.068174444, 0.13501023, -0.14629656, 0.09266082, 0.0176691, -0.06592932, 0.026108434, -0.02799389, -0.13828383, 0.08477213, -0.086584926, 0.062482134, -0.097508475, -0.0048479736, -0.117468424, 0.04863229, 0.12377818, 0.10743576, 0.004922312, -0.13735676, 0.014051576, 0.13896318, -0.0026013185, 0.018564131, -0.103703044, -0.045366757, -0.07600007, 0.145565, -0.11788934, -0.006244508, -0.124564104, 0.1270067, -0.08394134, 0.03463314, -0.06180954, 0.03517925, 0.123047, 0.046556838, 0.06018092, 0.033611547, -0.11585517, -0.092029706, -0.09751775, 0.115216985, 0.12961055, 0.09441245, 0.05088766, 0.10387759, 0.07434274, -0.0155363465, 0.0050302316, -0.09187563, 0.07779887, 0.02650462, -0.0072632264, -0.020264436, 0.07542153, 0.0753865, -0.07809237, 0.07554652, 0.059841674, -0.09321906, -0.1327, -0.09995606, -0.0014711091, 0.054991104, 0.01824083, -0.08306322, -0.06078016, 0.011834995, -0.13507952, -0.10411987, -0.11029902, 0.05075505, -0.053546365, -0.1649452, -0.005743011, -0.082310446, -0.14804713, 0.13350166, -0.002623472, 0.07651188, -0.034872647, 0.08463595, -0.12597919, -0.09010564, -0.014095037, 0.10536114, -0.090708986, 0.010301518, -0.0029925185, 0.10675139, 0.114527285, 0.07871335, 0.08837699, 0.12656297, -0.06622478, 0.11295082, -0.10526643, 0.04795122, 0.0146054, -0.08633223, 0.03916766, 0.1120832, 0.02228353, -0.07775066, -0.0031559418, -0.07395267, -0.115079984, -0.015707059, 0.13780323, 0.11142647, -0.07647242, 0.06690745, -0.10962914, -0.05466994, 0.15625563, -0.013146357, -0.03860495, 0.010505117, -0.104220524, -0.03229437, -0.04074454, -0.107402205, 0.107357696, -0.094489746, 0.030994263, -0.076085106, 0.010518932, 0.10254445, -0.08130022, 0.12859191, -0.024245882, 0.033237655, -0.018789457, 0.010619259, -0.14114715, -0.05418809, 0.0047515854, -0.09609645, -0.05513892, -0.028737357, -0.031565264, 0.06754151, 0.006872999, 0.006722922, 0.087442495, -0.13645057, 0.069209665, 0.06864548, 0.022109551, 0.05561445, -0.0175911, 0.15120095, -0.121276595, -0.18271576, -0.16393872, 0.13238429, -0.03626461, 0.15523045, -0.27128604, 0.02037506, 0.14957434, 0.1197347, -0.11184967, -0.089600585, -0.05012149, 0.11911952, 0.0872775, -0.12685935, 0.025257563, 0.04982944, 0.06906703, -0.07073344, 6.537826e-05, 0.02457979, -0.021749994, -0.06641005, 0.111551195, -0.07759689, 0.064880185, -0.036363203, 0.11274192, 0.011564229, -0.067338444, 0.059090756, 0.047393784, -0.019760992, -0.07584726, -0.031547528, 0.043851595, -0.114746965, -0.124177925, 0.11617773, -0.040228307, -0.0038052907, 0.12596196, -0.15414865, 0.13210861, 0.043638892, 0.0067915735, -0.13362509, -0.05442342, -0.13912754, -0.13137056, 0.04055921, 0.03102431, 0.13702299, -0.107277796, 0.09776076, -0.1148546, -0.04202769, 0.01343418, -0.06958567, -0.082351774, 0.050284483, -0.0907842, 0.07268943, -0.0318548, 0.07737779, 0.1196515, -0.12338668, 0.06655783, 0.06258278, -0.03365417, 0.05839949, 0.0045494987, 0.028576223, -0.01035317, 0.10277608, -0.13381134, -0.03610702, 0.021481473, -0.12280974, 0.039963882, -0.03580662, 0.10387346, 0.11756718, -0.022037243, -0.0706617, 0.07356016, -0.14091675, 0.048823588, -0.01834066, 0.07857368, -0.029138295, -0.008186383, -0.10959608, 0.090416275, -0.019986311, -0.010125268, -0.019526796, 0.1400984, -0.008061665, 0.037929658, 0.04145635, -0.010899131, 0.061062075, 0.017369745, -0.13313381, 0.008265321, 0.014054344, -0.025283666, 0.061371684, 0.08489326, 0.08130539, -0.024560802, 0.13299726, -0.059581995, -0.05571841, 0.06375291, -0.07201414, 0.07412433, 0.114502184, -0.03007076, 0.12345236, -0.0868857, 0.08297786, -0.06562549, 0.056757588, 0.032625325, -0.10847488, 0.045282926, -0.07706046, -0.1393922, 0.008231071, -0.08812261, 0.03510971, -0.074163176, 0.10441476, 0.043968644, 0.13028324, 0.10297613, 0.09615245, 0.043341503, -0.05325412, 0.057587687, -0.06072518, 0.01772385, 0.13262592, 0.04629571, 0.08136881, -0.0012864918, 0.017275611, -0.015512565, -0.1378038, -0.0043327617, -0.027798494, -0.121338144, -0.12390966, 0.009806274, -0.052957714, -0.112032, -0.1101288, 0.14086518, 0.13370538, 0.005254889, -0.022138627, -0.06616228, 0.051064778, -0.05540595, -0.07733113, -0.026970528, -0.11628321, -0.113329224, 0.0577463, 0.119987816, 0.00812922, 0.11265299, 0.050569214, 0.02667997, 0.059359916, 0.019328741, -0.09235906, -0.09313162, -0.04469707, 0.1065162, 0.044376813, 0.00027407403, -0.1022552, 0.16046327, -0.00027341107, -0.1314714, -0.11418049, 0.07382462, 0.10163088, -0.09246062, 0.028392866, 0.0311134, 0.07538996, 0.027926048, -0.003193654, -0.04137648, -0.04437495, 0.055955175, 0.09682953, -0.1068993, -0.117592335, 0.12588216, 0.095660634, 0.06104557, -0.12777255, -0.071289636, -0.004892283, -0.057679173, 0.058136977, -0.023850799, -0.07276888, -0.1015093, 0.08323681, 0.022337217, -0.0027506205, -0.030328562, 0.10341548, -0.0054212366, 0.07347521, -0.03665926, 0.00037779068, 0.04284783, 0.1391811, -0.055375706, -0.123029694, 0.034692846, -0.013803921, -0.053833384, 0.090830736, 0.02677772, -0.04780994, 0.0069183526, -0.0506596, -0.035476085, -0.061311573, -0.006717956, 0.087200105, -0.06747916, 0.047739085, -0.04059538, -0.06003079, -0.12815942, -0.058477663, 0.10083506, -0.16503347, 0.047571406, -0.040409867, 0.045180567, -0.024537746, -0.08527127, 0.037398987, -0.026302729, 0.003410445, -0.11909197, -0.044480335, -0.011565863, -0.007523818, -0.059907842, 0.011406239, 0.14089517, -0.06590681, -0.07111075, 0.059182554, -0.09433483, 0.146162, 0.1392431, 0.012917099, -0.05430967, -0.00968424, -0.098620296, -0.02366551, 0.09139985, -0.0031090167, -0.08657089, -0.065519206, 0.07547253, 0.068827905, 0.054401074, 0.12100035, -0.06325828, -0.033237915, -0.10098108, -0.05816237, 0.09929826, -0.11483614, 0.051492963, -0.04368275, 0.046288963, 0.072612286, 0.045892265, -0.031992257, 0.07225648, -0.06697806, -0.05643537, 0.14106968, 0.040786058, -0.13293058, -0.11810051, -0.057290412, 0.14126325, 0.10880693, 0.05325377, 0.092300095, -0.10446008, 0.089016266, 0.053463377, 0.12982455, 0.05600615, -0.10697621, 0.079333186, -0.117430225, 0.030137459, 0.034233537, -0.09495007, 0.09499989, -0.07816506, -0.069991104, 0.14149067, 0.097049095, -0.1130603, -0.084498495, -0.12958102, -0.038407635, 0.1258573, -0.13693179, -0.1001374, 0.006580348, 0.10485228, 0.07388671, -0.09667529, -0.025815513, 0.053781543, -0.11896691, 0.12817521, 0.14898936, 0.11957362, -0.0187304, 0.093450986, 0.06680236, -0.1231213, -0.08790063, -0.1126656, 0.13318387, -0.022801524, 0.123122, -0.12899636, -0.10365249, -0.04144869, 0.02003885, -0.127352, -0.021138899, 0.06733773, 0.096704215, -0.13431302, -0.021445518, -0.040129222, 0.039297733, 0.077445544, 0.040598907, -0.07645449, 0.063185, -0.084159, -0.029579313, -0.114883274, -0.012275068, -0.084821105, 0.12580518, 0.11147347, 0.053494375, -0.04141831, -0.11813054, 0.14880683, -0.099186316, 0.1260098, -0.04646613, -0.005488521, -0.036537964, 0.0635715, 0.012181869, 0.016911844, 0.028807063, -0.054944646, -0.08914274, 0.065342166, -0.008545182, 0.025136253, -0.019969072, 0.02154555, 0.016034458, 0.084922075, 0.005428005, 0.02990276, 0.010774622, -0.037856765, -0.13017221, -0.039049793, -0.106235266, -0.09288048, -0.020037942, 0.054996494, -0.08833379, 0.060938437, 0.07935015, -0.03332888, 0.08456155, -0.13369173, 0.06710972, -0.039907508, -0.1840579, 0.10700823, -0.042458963, -0.11309626, -0.004874961, 0.018345272, -0.10710165, 0.10527713, -0.09919265, 0.07789891, -0.07068409, 0.15718535, 0.068056084, -0.09147173, 0.10067418, 0.10399284, -0.086701564, 0.08399202, -0.11672604, -0.054955762, -0.0009948334, -0.08747322, 0.08194211, -0.033699982, -0.048819967, -0.09895537, 0.036137354, -0.03466584, -0.11721002, 0.09098982, -0.12320272, -0.029156253, -0.02605546, -0.00085156667, 0.0986913, -0.066386834, -0.07625026, -0.105418384, 8.197487e-05, -0.02933996, -0.065559074, 0.1316029, -0.13095026, -0.099405505, -0.07375989, 0.005344963, -0.0366165, -0.08462901, 0.01574693, 0.06785217, -0.10114122, 0.006935877, -0.012950176, 0.05563297, 0.048625413, -0.10245716, 0.03506575, 0.05427806, -0.011213666, 0.07481673, 0.013276359, -0.11424776, -0.09077963, -0.10477926, 0.065075524, -0.11009692, -0.01193465, -0.0067200507, -0.07205868, 0.014543436, -0.10871121, 0.006729538, -0.0011502237, -0.12940446, -0.04789937, 0.061802696, -0.056091614, -0.08347223, 0.12029382, -0.017071012, -0.11457289, 0.105880335, 0.07641351, 0.021666521, 0.060712073, -0.069968216, 0.086020865, 0.10975993, 0.08122639, 0.020363875, 0.064554125, -0.0540025, -0.09674225, 0.046852965, -0.115836665, -0.10924844, 0.11525489, 0.0020288213, -0.09143252, -0.10481172, 0.11112425, 0.032545917, 0.06865652, 0.00084373576, 0.014245594, 0.05424523, -0.054338396, 0.08623031, 0.13572468, -0.09893501, 0.0504822, 0.1353677, 0.0017246142, 0.021038076, -0.12439606, 0.076225385, 0.027839243, -0.09703171, 0.031064095, 0.02949138, 0.04351886, 0.09482707, 0.07938163, -0.057805795, 0.117354274, 0.004235235, 0.029741727, 0.12798405, -0.01087965, 0.025142018, 0.10396188, -0.021631027, -0.074444026, 0.060793847, 0.012557905, -0.13833624, -0.04938371, -0.075286664, 0.06319715, -0.054905538, -0.09399437, 0.10060252, 0.094389655, 0.047547087, -0.0064594746, 0.031693794, -0.0075050476, -0.034671634, 0.069023825, 0.055305175, -0.055341244, -0.12304428, 0.07723236, -0.023142654, -0.06858088, 0.068392664, -0.05986837, 0.023017446, -0.112001024, -0.067229, -0.11527639, 0.1682252, 0.009912797, -0.056363262, 0.052162923, -0.020054733, -0.016343167, -0.12716536, 0.10766846, -0.023251068, 0.06555445, -0.013182608, -0.07878874, 0.12543668, -0.12858176, 0.073244125, -0.08577451, 0.011405884, 0.057586387, -0.056692254, 0.054855432, -0.023695594, 0.06177254, 0.11221243, 0.15846212, -0.11256336, -0.11132909, 0.0015022216, -0.010697466, -0.048104808, -0.089496225, 0.067705095, -0.10356972, 0.021133602, -0.056715924, 0.0013907368, -0.11427121, 0.01999594, 0.10534048, -0.13790797, -0.010844681, -0.05768382, -0.0899182, 0.06607031, 0.11566357, -0.077905424, -0.12911113, 0.04652339, -0.081632935, 0.11983402, -0.06902331, -0.00520007, 0.18363006, 0.037305024, 0.092581704, -0.07479446, -0.119074576, -0.03602148, -0.045295734, 0.08981685, 0.077329494, 0.07315644, -0.10204976, -0.11671707, -0.014145987, 0.039656054, 0.13097526, 0.07085817, -0.087632775, -0.098345414, 0.083709486, -0.0743279, -0.010795898, 0.057824142, 0.12534219, 0.025488866, -0.14432411, 0.042687207, 0.015148409, 0.046216317, -0.10125622, 0.014304855, -0.10111711, 0.019507317, 0.051752, 0.1303338, -0.10978999, -0.009002265, 0.08559695, -0.03446976, -0.15913442, -0.07554405, 0.086199924, 0.0978431, 0.069866225, -0.08404288, 0.09730842, -0.010677059, -0.04870411, 0.035057448, -0.023208443, 0.14472388, -0.06446488, 0.11934634, 0.11816685, -0.08552713, 0.011098119, -0.13406207, 0.06091711, -0.11722466, -0.10553047, 0.035542857, -0.06845938, 0.040684387, 0.104031645, 0.059660792, 0.07122951, -0.016011754, 0.00085943396, 0.09359181, -0.056396037, -0.00017834005, 0.017046316, -0.0167377, -0.07063661, 0.14494142, -0.1140455, -0.108580016, -0.013424528, -0.057778012, -0.10725009, -0.12555882, -0.044194985, 0.090548374, 0.12457491, 0.13837546, -0.08837389, 0.12132964, -0.1005555, -0.035027005, 0.11833466, -0.11996755, -0.068111114, -0.0027649698, -0.12575443, 0.09483843, 0.04826903, 0.02623105, 0.13803329, 0.13509277, -0.105079606, -0.018835284, 0.019369405, -0.09522856, 0.13808888, 0.11587444, -0.08831158, 0.057637215, -0.054321233, 0.012907892, -0.06770997, 0.0022352794, 0.078604795, 0.12519632, -0.012150112, 0.0044337106, -0.03576076, 0.065181985, -0.07251969, 0.13739143, 0.09160228, 0.11976975, 0.09963402, -0.03738032, 0.091801636, 0.13293825, -0.093273774, 0.03935791, -0.015535856, -0.0940991, -0.05663421, -0.03771721, -0.032507688, -0.0728457, 0.075917184, 0.09807906, 0.017493377, 0.13435164, -0.00329991, 0.112398624, 0.059789587, -0.06545528, 0.124464385, 0.006857542, -0.034992713, 0.11361383, 0.10727374, 0.053527292, 0.12900385, -0.119196534, 0.052333493, -0.07310405, 0.18229908, -0.062312823, -0.04922363, 0.10818459, 0.052299663, -0.002948286, -0.09990531, 0.13502972, -0.1053918, 0.042667143, 0.04406214, -0.017333481, 0.040272124, -0.08488108, 0.106166564, -0.0012776856, 0.06435182, 0.001509502, 0.053747762, -0.073642924, -0.10700439, -0.08339674, -0.081780955, -0.07881342, 0.11090459, 0.050750133, -0.07301579, -0.09557546, -0.07519465, -0.06264444, 0.05807817, 0.12683323, -0.055834632, 0.007859497, -0.027855666, -0.06819935, -0.09134067, -0.10354335, -0.08379631, -0.022394145, 0.01948565, 0.06255391, -0.05113056, -0.09226586, -0.08719563, -0.09237142, 0.036816005, 0.013618545, 0.086967446, 0.09034694, 0.017465461, 0.059535068, 0.018811684, 0.11130568, -0.0050990414, -0.14048208, -0.080669865, -0.100294344, -0.0052884254, -0.0723941, 0.040977694, -0.034565307, -0.06217343, -0.116968684, -0.10193042, -0.010284212, -0.01697185, 0.056239095, 0.01239633, -0.107567705, -0.028752143, -0.027789682, 0.10903756, 0.14571714, -0.16215138, -0.10670555, 0.14359124, -0.032580417, 0.01134893, 0.096326515, -0.15662745, 0.13894776, 0.0010518134, 0.0074005486, -0.1517499, 0.054568574, 0.00040710854, 0.0626658, 0.09952654, 0.023562836, 0.06771952, -0.057465535, 0.06921654, -0.077336766, -0.14097767, 0.026539315, -0.12190614, 0.071377195, -0.03302201, 0.10108269, -0.031132305, 0.08166415, 0.021927396, 0.060089998, 0.14059234, 0.11445601, 0.04349011, -0.0006634006, -0.082542755, 0.058207422, 0.07563806, 0.12748009, -0.07658481, 0.06858917, 0.09359137, 0.10950792, -0.0932416, 0.06549729, 0.0122401025, 0.09539319, 0.061925963, 0.09796335, -0.08790307, 0.012264429, -0.09395137, -0.12760708, -0.089826755, 0.031531624, 0.11734211, -0.13690926, -0.016290572, 0.111350626, 0.026769547, 0.07217867, 0.11019922, -0.09828418, -0.054237805, -0.016593417, 0.14603238, 0.04416609, 0.09681096, -0.13377862, -0.08204503, 0.05345273, 0.10386021, -0.04767601, 0.104104444, 0.08621166, 0.0044196886, 0.027968595, 0.061558533, 0.14000794, -0.05882842, 0.05210914, 0.028540146, 0.0982922, 0.09895782, -0.077632666, -0.07122183, 0.083611906, -0.06772171, -0.12259776, -0.07757971, 0.045205165, -0.053466935, 0.046531897, 0.038548805, 0.12008896, 0.00064964703, -0.06792484, 0.011523348, 0.055227436, -0.12976196, 0.045088347, 0.12594883, -0.07901508, 0.10576336, -0.07192748, 0.08573204, 0.13818043, -0.027281305, -0.022538867, -0.111905016, -0.08115278, 0.060337972, -0.11500507, -0.007441735, 0.066916354, 0.15302648, 0.052224204, -0.082431905, -0.0339775, 0.03218448, 0.042115193, -0.0188701, 0.10973457, -0.13543291, -0.09031348, -0.027258284, -0.06750935, -0.10973033, -0.051143203, -0.09784868, -0.0359378, -0.07886263, 0.102621906, -0.01588566, 0.10268981, -0.006801124, -0.033096466, 0.1157962, -0.09963842, 0.07628513, -0.0053648334, 0.13317612, -0.037007846, 0.08006696, 0.028577099, -0.034202337, -0.08799015, -0.04779092, -0.10517805, -0.11753787, -0.12925646, 0.10670001, 0.051756233, 0.10347641, -0.019479001, 0.09451708, 0.10377496, -0.14828692, -0.0647039, -0.06914348, 0.12864982, 0.08067804, 0.108288795, -0.016892703, -0.01837464, -0.009989684, 0.026335126, -0.13773149, 0.094265796, 0.09472766, 0.09443173, 0.11686585, -0.13111915, 0.06960448, 0.056084607, -0.03632357, -0.10672789, -0.044970263, -0.09659999, -0.13914624, 0.09057161, 0.0556685, 0.11045306, 0.030925542, -0.061273064, -0.09523845, 0.048163503, -0.09354556, 0.008578954, -0.1207766, 0.03149208, -0.154749, 0.09903519, 0.082862005, -0.002176579, 0.08259381, -0.08911455, 0.07135131, -0.19417815, 0.09783501, -0.043656398, -0.039954036, 0.06793552, -0.07868384, 0.119633555, 0.059078343, -0.050865997, -0.09919063, -0.093824975, 0.10174482, 0.0066834586, -0.08540122, 0.17520888, -0.094448395, 0.096180424, 0.061767645, 0.048396207, 0.00017132939, 0.078481205, 0.12306469, -0.13076742, -0.013645171, 0.12679775, -0.08896976, 0.010513445, 0.05781675, 0.1002806, -0.07192192, -0.11621201, -0.033418406, 0.046751242, 0.07067391, -0.009987151, 0.09746449, -0.026774257, 0.10349923, 0.036707558, 0.06547476, -0.111743666, -0.082654566, 0.06771183, -0.007124589, -0.09625178, 0.0027076418, -0.012697598, 0.1318309, 0.029204614, -0.014324746, 0.07913136, 0.08696524, 0.07351181, 0.026642922, -0.0089676455, 0.12401626, -0.046126835, 0.077079125, 0.13767073, -0.13671575, -0.11889116, 0.13918683, 0.002763778, -0.11263406, -0.080005646, 0.056653067, -0.11763764, 0.09417265, -0.12348528, -0.079106204, 0.009319745, -0.010152128, -0.024203736, -0.07896949, -0.046628032, -0.10969827, 0.007981865, 0.051118173, -0.010060816, 0.088203035, -0.07569786, 0.080514334, 0.037785787, -0.015424433, -0.043329757, -0.093224615, 0.1429518, 0.0037200127, -0.09089276, -0.07566569, -0.13946548, 0.014200602, 0.033513017, 0.12190388, 0.011021945, 0.07579293, 0.06379042, -0.045274284, -0.13387533, 0.14215706, 0.04565251, -0.12826405, 0.08008746, 0.035173412, 0.0859661, -0.0119639095, 0.110242225, -0.08987443, -0.11517784, -0.09284982, -0.030764706, -0.12993567, -0.019258302, 0.028879978, 0.07163514, -0.10950542, -0.08107069, 0.012145323, -0.06403141, -0.06878581, -0.07752245, -0.081518434, -0.12997907, 0.1129122, -0.0968973, -0.004092591, 0.03070566, 0.11111985, -0.059738837, 0.024855202, -0.06392713, -0.09803727, -0.061074767, 0.1067786, 0.12653202, 0.012396758, 0.13041346, 0.01599772, -0.079113185, -0.08918537, -0.0920415, 0.029788407, -0.04883121, -0.008513752, 0.043723464, -0.11653888, -0.11152385, -0.08071093, -0.04658417, 0.09004711, -0.09294836, -0.15031596, 0.0138593735, 0.043702487, 0.13278836, 0.07939358, 0.01437161, 0.021871114, -0.051379133, 0.09618054, -0.0483903, 0.0013601102, 0.0003309903, -0.045452327, -0.083524294, 0.13431264, -0.029067189, -0.006293107, -0.052926093, 0.117127426, 0.08393719, 0.043106817, -0.026784193, 0.05269169, 0.12454049, 0.06939374, -0.03856744, -0.051579934, 0.14558592, 0.0018819266, 0.072670266, 0.02472657, 0.09681844, -0.005390719, -0.013503747, -0.021176934, -0.024073381, 0.11591517, -0.06566589, 0.02290679, -0.049658567, -0.08981828, 0.004420872, 0.15717013, 0.15765329, -0.12309682, 0.052403722, 0.13085894, -0.0023774742, 0.12627053, -0.035297904, 0.012822192, 0.053154215, 0.034912053, -0.06921387, -0.12462144, 0.01520813, -0.095644936, 0.038029797, 0.009837674, -0.14230245, -0.04069114, -0.08874935, -0.08187045, -0.018668283, -0.07161227, -0.06816965, 0.09828644, 0.087671526, 0.049208812, 0.13142939, -0.12218729, -0.11980648, -0.104981296, -0.1290022, 0.014003861, 0.053924315, 0.07574873, 0.11303251, -0.10587695, -0.014606563, 0.12258095, 0.025581524, 0.0033362373, 0.04777986, -0.17009208, -0.052791085, 0.0279601, -0.0873623, 0.0019659672, 0.024433557, 0.048278302, 0.031094586, 0.107971065, -0.045212217, 0.004985225, -0.10777215, 0.08878291, -0.12391149, -0.048629433, 0.014720336, 0.019537482, 0.011568449, -0.045524146, 0.029781044, 0.108350135, -0.0017091467, 0.028152365, -0.17328472, -0.08270558, -0.053554468, 0.051075257, 0.105489954, -0.0034367428, -0.09336144, 0.027194109, -0.04394404, 0.042724084, -0.039333433, -0.017820477, -0.14262532, 0.10998147, -0.06980821, -0.13856885, -0.040922366, -0.059527814, -0.12359572, -0.11910471, -0.04343556, 0.086178094, -0.044822007, -0.034778606, 0.040600665, 0.11149716, -0.094450615, 0.12106289, 0.039912924, 0.018351678, 0.09054814, -0.004362033, 0.026222082, 0.010743013, -0.023868904, 0.07913493, -0.041088484, -0.055588856, -0.036034126, 0.067920744, 0.08775923, -0.08196281, 0.08860429, 0.11439991, 0.14533593, -0.131275, -0.088534355, 0.11239902, 0.06640834, -0.12300322, -0.006043345, 0.06521722, -0.094075106, -0.05658485, -0.13046525, -0.028139833, 0.13790925, -0.13842878, 0.071134195, 0.08548934, -0.099244915, 0.14658728, -0.004650102, -0.050861835, -0.02696838, -0.009120893, -0.10637722, 0.048133835, -0.033198256, 0.14666022, -0.13261154, 0.0773887, -0.11835201, 0.13496134, -0.1444118, -0.064323306, -0.049326044, 0.03088773, -0.15005977, -0.106472984, 0.020543465, -0.086587295, -0.080981195, 0.0059808968, -0.12842004, 0.0769909, -0.1116223, -0.10511843, -0.11099078, 0.024073457, 0.11234211, -0.04201884, -0.026393723, 0.13247569, -0.018595831, -0.04956421, 0.009843986, -0.052090757, 0.11093388, -0.011573044, -0.036561187, 0.13984582, -0.09019087, -0.004196712, 0.031934578, 0.084069096, 0.1109497, 0.042428218, -0.039330907, 0.034760952, 0.0392327, -0.1455285, 0.018757043, -0.07610192, -0.086257204, 0.0789477, -0.12962043, 0.07138179, 0.038303554, 0.028837325, -0.008387431, 0.0710746, 0.021490721, 0.04980341, -0.01318661, -0.07101617, -0.026613306, -0.055484936, 0.102503836, 0.10394728, -0.12354438, -0.06646938, -0.14456417, -0.06349257, 0.10747561, 0.038057294, -0.042520456, -0.128242, -0.03028028, 0.096490964, 0.06688667, -0.065341026, 0.055787403, -0.05235948, 0.085172325, 0.1351071, -0.10878891, 0.0023981591, -0.07700654, 0.076496124, -0.0901819, -0.06278527, 0.032404445, 0.06542063, 0.053938217, -0.033576317, 0.13082299, 0.04677564, 0.022467164, -0.073123336, -0.03534595, 0.11364217, -0.038397577, -0.1176305, -0.12984656, -0.13883635, -0.10094237, 0.15479887, 0.04530169, -0.17765789, 0.067231245, -0.119014, 0.072876744, -0.084491804, -0.29743123, -0.02355319, -0.09514006, -0.11815012, 0.0720008, -0.07328387, -0.08436342, 0.027028466, -0.07984734, -0.14156722, 0.06442937, -0.117592596, -0.09035358, 0.07395645, -0.1150437, -0.009347165, 0.1275823, -0.010511079, -0.027239008, 0.051555276, 0.10356539, 0.1574148, -0.11583718, -0.038646676, -0.122111335, -0.043544695, 0.14759326, -0.06942961, -0.07747235, 0.07628906, 0.0006006759, -0.0756078, 0.09519091, 0.035007007, -0.073784664, 0.04451066, -0.06539331, -0.08039256, 0.09071446, 0.030539108, -0.09445683, 0.044173606, 0.12709092, 0.093545675, -0.14785142, 0.113004565, -0.08757341, 0.10832006, 0.018937564, -0.12876089, -0.0144211715, -0.09509595, -0.061246797, -0.08814422, -0.02374178, 0.08949069, -0.09779116, 0.12582582, -0.12134109, 0.07129704, -0.09690114, -0.113646805, 0.09497708, 0.031510793, -0.046528995, 0.026823524, 0.09156024, -0.10505981, -0.097762115, -0.06890958, -0.020690572, -0.001931923, 0.08497534, -0.01584972, 0.0039313505, 0.11511789, 0.06331753, 0.0012920963, -0.06654563, 0.11329643, 0.06269057, -0.06792044, -0.07335274, -0.083902135, 0.1435463, 0.05470684, 0.09991972, -0.020906286, -0.07850339, -0.024771754, -0.0021596963, 0.07801835, -0.10791496, -0.1310537, 0.08821431, -0.124872334, -0.090591654, -0.011384159, 0.07822172, -0.046028942, 0.13014312, 0.11078474, 0.07058768, 0.13301864, -0.08238075, 0.07853622, 0.12905009, -0.03795587, 0.07094924, 0.12800916, 0.11026365, -0.11454046, -0.10423271, -0.0925148, -0.015854562, -0.020936737, -0.11582643, 0.044103112, 0.035019185, 0.07924202, -0.04538606, -0.05220968, 0.06158398, 0.023095975, 0.13955028, -0.023951191, -0.0076694675, -0.14217193, -0.026175601, -0.1463055, -0.1094823, 0.0826713, -0.11135209, 0.10034584, 0.00047893813, -0.09106764, 0.09484913, 0.028845323, 0.14408539, -0.08921372, 0.11114449, 0.037867233, -0.052030522, 0.073540986, -0.020256817, 0.11611496, 0.024511697, -0.12809895, 0.06189314, 0.058721043, 0.1060716, -0.040412582, -0.11645211, -0.023518262, -0.07436501, 0.076010525, -0.0109276995, -0.014510297, 0.07149696, -0.08342039, -0.07383312, -0.0890814, -0.13486226, 0.078177325, -0.0285955, 0.14168693, -0.06488289, -0.09746867, 0.049775507, -0.051324308, 0.07446901, -0.053236272, -0.023717722, 0.15201625, 0.10325911, -0.09130192, 0.002259012, -0.12203573, 0.09758454, -0.068966225, -0.05736373, -0.11343986, 0.06903732, -0.031412777, -0.08424213, -0.0029154299, 0.088637955, 0.019757329, 0.11919327, 0.019553363, -0.03948218, 0.108524956, -0.079727806, 0.015160119, 0.052538022, -0.11833803, 0.022832034, -0.07952334, 0.011423029, 0.04022195, -0.04188828, 0.054765284, -0.13904692, -0.12017448, 0.07466752, -0.11375847, 0.10802729, -0.037440114, -0.053533275, 0.05245564, -0.08070368, -0.0004049045, 0.07776502, 0.084921286, 0.10340003, -0.12588236, -0.09962035, -0.052124053, -0.12423973, -0.12121364, 0.019510597, -0.04541387, -0.18787393, 0.027509136, -0.03528955, 0.07154181, -0.111246094, -0.014799672, 0.0003094762, 0.049318247, -0.054548226, 0.08521355, 0.04891018, 0.15278907, 0.01480012, 0.05260407, -0.043826696, 0.16246244, 0.12074234, 0.098392546, -0.050124094, -0.0745469, -0.07740347, -0.059434604, 0.045277786, 0.1262896, 0.0616035, -0.11291104, 0.05802712, 0.07388976, 0.13218653, 0.10715819, -0.14178428, -0.057468344, -0.096521765, -0.060727727, 0.09597631, 0.024412345, 0.067948334, 0.08060322, -0.057048295, 0.006023554, 0.04184861, -0.023108067, -0.049162675, -0.077913314, 0.027173195, -0.042438347, -0.11985913, 0.038206365, -0.031644177, -0.017509915, -0.0012726679, 0.0927362, -0.057507038, 0.0058378247, 0.0049603907, 0.0049480316, -0.118053526, 0.07800237, -0.07176628, 0.14192714, 0.0060395557, -0.001405938, 0.123638615, -0.069097735, 0.13277772, -0.13174355, -0.089321144, 0.10075958, -0.122392215, 0.123766385, -0.024928246, -0.07481864, 0.019409606, -0.06619915, -0.07306972, 0.07739431, -0.025745708, -0.13202587, 0.1257565, 0.04351857, 0.07039838, 0.015436983, -0.07808805, -0.07735269, 0.12689541, -0.13387242, 0.13546123, -0.06220033, -0.11228886, 0.053814173, 0.045005307, -0.1291567, 0.07727877, -0.023222482, -0.06587803, 0.0024399452, -0.053722702, -0.13596468, -0.23057435, -0.2872061, -0.2530003, -0.34160173, 0.056063194, 0.015125709, 0.6541267, 0.12782128, 0.23297237, -0.1681124, -0.30574554, 0.17644383, -0.165948, 0.109926306, 0.2641628, -0.28828076, -0.5914672, -0.50957286, -0.31342414, 0.31294587, -0.30162668, 0.31520215, -0.035765696, -0.026001131, -0.1547228, 1.7651677, -0.41229287, -0.66868716, -0.4221866, -0.042929754, 0.37654823, 0.26291618, 0.2929447, -0.12496591, -0.06907778, 0.30313864, 0.9700369, 0.17476569, -0.34487322, -0.21606192, -0.21400972, 0.12837104, 0.5065808, 0.20135047, -0.0009375115, 0.023005145, 0.2518695, -0.015275804, -0.3000493, 0.41657886, -0.19491625, 0.4326723, 0.2920997, 0.19455077, 0.096086785, 0.09416665, 0.016803423, 0.3566756, -0.09273949, 0.2966113, 0.103588685, 0.007945044, 0.58480746, 0.0951741, -0.101242244, 0.3123893, 0.16178912, -0.84169936, -0.47102487, 0.15338501, 0.09731649, 0.007827599, -0.021898914, 0.07451083, -0.0840854, -0.026142925, -0.07492034, 0.084248066, 0.116068944, 0.1771096, -0.054208923, -0.06301904, -0.06377851, -0.015592786, 0.11439866, -0.06403953, 0.07048477, 0.07288729, 0.120989785, -0.14385834, -0.14705808, 0.0066148187, 0.080516845, -0.09329214, -0.059125043, -0.14196254, -0.109581776, -0.008144493, -0.008935063, 0.1593947, 0.076068245, 0.026627796, -0.09845611, 0.15886472, 0.10289639, -0.11553614, 0.021143178, 0.13801576, 0.084141314, 0.02304983, 0.0952451, -0.07333626, -0.107037686, -0.07919347, -0.013713398, 0.03788467, -0.10049941, 0.04815414, 0.13471696, -0.0590906, -0.0012987343, -0.0010674292, 0.042650297, 0.11705755, 0.07619212, -0.08041622, 0.1108595, 0.014555183, 0.110963926, -0.05688551, -0.008409043, 0.05861306, -0.09263353, 0.049837094, -0.078581795, 0.15968457, 0.03316974, -0.09715268, 0.10256902, 0.127097, -0.040893055, -0.14598168, -0.0561317, -0.121502005, -0.08182945, -0.054805115, -0.1417428, -0.010343128, 0.08734586, -0.11188814, 0.12621987, -0.12196097, -0.03376623, -0.014898015, 0.04429009, 0.1378687, 0.04334909, 0.03811499, 0.042469747, -0.12696779, 0.0027619735, 0.14064887, -0.12564065, 0.013499962, 0.03295957, 0.088188685, -0.060597297, -0.003989276, -0.10479696, 0.00063870865, 0.14273502, 0.050152466, -0.08566748, 0.07620619, -0.067134164, -0.11152093, 0.10826185, 0.10169501, 0.08515798, -0.10500698, 0.05233433, -0.0468436, -0.08529202, -0.0129331155, 0.041695494, 0.016313903, 0.14266066, -0.13841903, -0.09444094, -0.10780533, -0.1211475, -0.08893096, -0.101636015, 0.024548512, 0.008565402, -0.04762748, 0.00865828, -0.027602227, -0.12121858, 0.11933792, 0.06161623, -0.020796793, 0.059474707, 0.0069794054, -0.0034681626, 0.055840217, 0.1322625, -0.047428273, 0.13153633, -0.070948526, 0.40392753, -0.2052059, 0.027360238, 0.023455512, -0.51153356, 0.41840774, 0.43406856, 0.090880975, -0.6558717, 0.32573918, -0.5107712, 