/********************
    parameters.h

    Code generated using nn4mc.

    This file defines the neural network weight parameters for all layers.

*/
#ifndef __NEURAL_NET_PARAMS_H__
#define __NEURAL_NET_PARAMS_H__

#ifdef __cplusplus
extern "C" {
#endif

const float gru_W[1620] = {0.15232353, -0.012359381, -0.0092776865, 0.060674462, 0.16597027, -0.070998326, 0.066602856, 0.016070131, -0.16769692, 0.00072248874, -0.128818, 0.24341394, 0.1678229, 0.03953444, 0.1944866, -0.042481303, 0.18015234, 0.009217555, -0.16812651, -0.0474415, -0.22045061, 0.15409681, 0.04616532, -0.21964131, -0.052398518, 0.115579166, -0.19037542, 0.26602808, -0.19482455, -0.18279506, 0.112279244, 0.1009082, 0.18381195, 0.049603496, 0.15476905, 0.16232237, -0.05392287, -0.053412482, 0.16448618, -0.028032217, -0.19430192, 0.022643598, -0.110002294, -0.06484656, 0.119632825, -0.025320355, -0.10266526, 0.031922977, -0.2622603, 0.100706644, 0.19499905, -0.09638782, 0.03896746, -0.00577467, 0.098689444, 0.22010745, -0.11891729, -0.09946566, -0.032012068, 0.0061988747, -0.24371625, -0.067717955, 0.13418421, 0.0015437189, -0.23794506, 0.075125724, -0.15324947, 0.17161693, 0.012372453, -0.08096272, -0.07066147, -0.2363265, 0.09329611, -0.13003016, -0.026160559, -0.13572824, -0.05178723, 0.09585531, -0.07986766, -0.09826766, -0.112730704, -0.052446123, -0.07805068, 0.046940077, -0.020299582, -0.14655305, 0.042992722, 0.07201868, -0.040570084, -0.024419723, 0.08653776, 0.13006379, -0.17064777, 0.07100183, -0.11115429, -0.1679964, 0.14477257, -0.08716394, 0.2078086, 0.14746523, -0.16675475, -0.1105535, -0.17578031, -0.05220475, -0.10034702, 0.026483895, -0.0966604, -0.14444424, -0.11042278, 0.011947845, -0.16503477, 0.04252561, 0.12516384, 0.10095496, -0.21707529, 0.24158442, -0.23645633, 0.10028495, -0.16806847, -0.1736088, -0.0764198, -0.14220484, -0.05444725, 0.0428304, -0.075364985, -0.106246516, 0.022063624, -0.08315183, 0.03317189, 0.014448598, -0.1006655, 0.026932135, 0.09965259, 0.021119447, 0.017448707, -0.06957292, 0.21509099, 0.15945035, 0.08547623, -0.0015061308, -0.051761482, -0.18464908, 0.11906495, 0.10591714, -0.11339958, 0.07841872, 0.094028756, 0.09406267, 0.23517725, 0.21501762, 0.048879918, 0.23814042, -0.2138282, 0.11046923, -0.111347504, 0.21921003, -0.13350639, 0.032462478, 0.10761038, 0.011325901, 0.19208023, -0.1479616, -0.0017460274, -0.19431607, -0.19904785, -0.12210404, -0.20353857, -0.16376345, 0.015680475, -0.025976725, -0.32861063, 0.15235217, -0.018995304, 0.03286457, -0.08949797, -0.014661891, -0.022386301, 0.18241967, 0.105106205, -0.090855, -0.019754404, -0.13452022, -0.02639924, -0.027620269, 0.054001026, 0.044876292, 0.01919927, -0.15588634, -0.18255004, -0.004704736, -0.005192364, -0.09429459, -0.06172318, -0.046366632, 0.12643896, -0.16100465, 0.2119265, -0.248715, 0.007377228, -0.08403493, 0.19965304, 0.22985272, -0.06327135, -0.20085919, -0.23800157, 0.07911416, 0.24473836, -0.14818323, -0.08252838, -0.17486137, -0.05977769, -0.013956725, -0.01483183, -0.2141286, -0.057584878, 0.13922413, -0.006686513, -0.03726157, 0.15478301, 0.119585864, 0.0058642747, 0.050772175, 0.12264279, -0.057232387, 0.038567528, -0.0064757452, 0.026136892, 0.033256564, 0.036908165, -0.045505837, 0.15406126, 0.037508003, 0.015052414, -0.044896647, 0.06296045, -0.027948312, -0.08739986, -0.055175815, 0.06060657, -0.14718573, 0.15266475, -0.16887525, -0.019118994, 0.03998227, -0.016057462, -0.20066199, 0.18947476, 0.22775078, 0.20328566, 0.05398373, -0.15815464, 0.00038286328, 0.07616217, -0.15407886, 0.047849998, 0.123891406, 0.077622205, -0.120874576, -0.07549418, 0.14395972, 0.06923282, 0.083742276, -0.0826399, -0.098470226, -0.1032749, 0.04583348, 0.06892991, 0.067617044, -0.07960428, -0.036842078, -0.18065311, 0.046102133, -0.01392268, -0.057374094, -0.18906504, 0.043420117, -0.06030617, -0.0555017, 0.15126006, 0.009534555, 0.1169937, -0.18372244, -0.15110265, -0.06638071, -0.1833941, -0.050821174, -0.012097966, -0.20236784, -0.0075240918, 0.036521703, 0.27035344, 0.024822675, 0.10564269, -0.015721504, 0.05059369, -0.10277018, -0.08794518, 0.022747109, -0.110225715, 0.05243313, -0.111621, -0.02949728, -0.16861814, -0.062334027, -0.14924254, -0.14380246, 0.06694351, 0.09164451, -0.12238055, -0.063251995, 0.21969031, -0.12734112, 0.0876465, 0.069252804, -0.12970203, -0.04347268, 0.08064539, -0.05078419, -0.21417588, -0.10682623, -0.21464892, 0.12244785, -0.06020467, -0.020446697, -0.011176653, -0.26253706, 0.17421274, 0.12615445, -0.0121988645, 0.0339111, -0.04821506, -0.0364064, -0.020300977, -0.05764757, 0.07350874, -0.22366467, 0.20482899, 0.2713294, -0.22271256, -0.15953387, -0.18618578, -0.24034733, 0.08589012, 0.19797726, 0.22348438, 0.04842331, 0.15397751, -0.15698887, 0.07446356, 0.04614357, 0.07103989, 0.08647359, 0.05748035, -0.028922481, -0.037467305, 0.15763031, -0.118426226, -0.029284414, 0.0009030552, -0.02374351, -0.020282915, -0.11314119, 0.13881177, -0.03499961, 0.05402732, 0.20716752, -0.14856784, 0.08185363, -0.16131407, -0.11842136, 0.20022087, 0.12209614, 0.11354327, 0.044552505, 0.08342258, -0.22482641, -0.07066921, -0.005010794, -0.037843734, 0.052862152, -0.06589537, 0.13726573, -0.098974034, -0.25968757, 0.13612145, -0.2315971, 0.10656631, 0.029454121, -0.12251311, 0.06693087, 0.005859107, 0.18456022, 0.039325498, -0.039734337, 0.074289784, 0.059346642, -0.03519866, 0.072314344, -0.12639284, 0.023030382, 0.113681845, -0.0038369528, -0.10868607, -0.0074482495, 0.02013443, 0.09597725, -0.21248342, -0.13818333, -0.24733001, 0.066626675, 0.09520637, 0.1731926, -0.15892558, -0.08097782, 0.091963835, -0.042940456, -0.11028309, -0.18329172, -0.17462166, -0.24552102, 0.25676706, -0.1814287, -0.09453229, -0.095193, -0.1142123, 0.036047947, 0.2454385, -0.018174198, -0.104639575, 0.1857021, -0.20957644, 0.205945, 0.0016191782, 0.26629913, -0.20224787, 0.17007533, 0.11417151, 0.11954596, 0.03610371, 0.010751193, 0.25588655, -0.1425066, 0.018860526, -0.06216236, 0.09446794, 0.01689628, 0.0863499, -0.18087403, -0.06974286, 0.07366038, 0.004228224, 0.12146832, 0.010714997, 0.12011277, -0.09925327, -0.075387634, -0.010642291, 0.13190798, 0.18977644, -0.0012858701, 0.004190571, 0.034624986, 0.03655197, -0.014801639, -0.13210659, 0.020799354, 0.25135937, -0.09877869, -0.1361309, -0.056840833, 0.19558708, -0.1299065, -0.007948378, 0.026971506, -0.17039149, 0.12557307, 0.018204257, 0.25091693, -0.18128335, -0.06694805, 0.042753737, -0.0010437738, 0.04667128, 0.19239748, 0.07930993, -0.033686597, 0.033815306, 0.070631236, -0.05333648, -0.13724142, -0.024365723, -0.07243372, -0.17299238, 0.046638682, -0.08931013, 0.0197112, -0.006803055, -0.020053232, 0.041399498, -0.0054857554, -0.18984161, -0.036293864, -0.021038732, 0.050618924, -0.07279352, 0.0077117058, 0.11352533, 0.07808142, -0.046592414, 0.15448287, -0.21562299, 0.03653049, -0.091971576, 0.086666204, 0.11932561, 0.085333064, 0.244101, 0.08478375, -0.20942536, -0.024225237, -0.21398087, -0.13617752, -0.0051896786, -0.06893082, -0.24183244, -0.13288148, -0.096938536, 0.1381725, 0.044983685, -0.12551036, -0.06882873, -0.09655096, 0.071066834, 0.050314866, 0.11617094, -0.040105768, -0.07316906, -0.018920941, 0.09399255, 0.08185333, -0.032449137, -0.10444732, -0.3897405, 0.22788389, 0.0928943, 0.1675474, -0.12026182, 0.088054635, 0.12883665, -0.18131877, -0.09524884, -0.40298298, 0.005372711, 0.18813689, -0.29142648, -0.152607, 0.23564342, -0.06520136, 0.24533136, 0.20157576, 0.11318174, 0.12348801, -0.13661674, 0.19794814, 0.059163693, -0.12252235, -0.06676478, 0.18343982, 0.06519647, -0.16705905, -1.1120557, -1.4911761, -0.7507226, -0.05043229, 1.8510436, -1.0261207, -2.1227279, -2.0141943, 1.6465937, 0.6909201, 1.714494, -2.1940668, -1.6930158, -0.3390744, -0.63362324, 0.12277034, 0.074949645, -0.02339118, 0.14506732, 0.16125558, 0.16119185, 0.16491564, 0.33601743, -0.091086365, -0.2168435, -0.39804253, 0.08523008, 0.32190746, -0.19169128, 0.052727822, -0.22304843, 0.12424148, 0.14828964, -0.123073354, -0.21131465, 0.051165648, -0.16200994, 0.0900061, 0.009503075, -0.20007765, 0.05445399, 0.1987469, -0.02934077, -0.22287881, 0.071767166, 0.39081106, -1.503116, 1.6094489, 0.6759691, -1.4923742, -0.44591737, 2.4913056, -1.3976605, -0.41261607, 0.2652058, 2.1194196, -0.48643652, -1.6416419, -1.5124245, 1.7688191, -0.32953078, -0.045972995, 0.07713857, 0.27302113, -0.07076221, 0.032914523, -0.122357674, -0.49430457, -0.06285687, 0.8056902, -0.20499907, -0.14831488, -0.009856185, -0.64027184, -0.21124233, 0.17060702, 0.011434631, 0.18230622, 0.19277935, -0.03227094, 0.0026560675, 0.20337689, 0.1204006, -0.2035959, 0.2492137, 0.19250812, -0.16323362, -0.25537258, -0.020005807, -0.06143389, -1.0461003, -1.4826034, -1.4506273, 0.15452798, 0.56446046, -0.7115752, -0.7652437, 2.3861551, -0.24816741, -1.1272314, -0.71261036, -0.30912775, 0.12030387, -3.0703871, 1.6335226, -0.039866906, 0.308789, -0.19302103, -0.09881985, 0.11676167, 0.058458105, 0.3135152, 0.23132557, 0.17043577, -0.6024254, -0.23134318, -0.13193683, -0.1257364, 0.18572502, -0.028354757, 0.0046770326, -0.18449622, 0.01651988, 0.05445812, -0.069739275, -0.08954228, -0.041969094, 0.20083047, 0.22135542, -0.07712872, 0.10598016, -0.107893474, -0.25885588, -0.007714002, -0.2760641, -0.81401294, -1.0170785, -0.60766613, 0.08040595, 1.5006858, -1.0460519, -1.5926507, -1.2216048, 1.4081734, 0.8654471, 1.445213, -1.8681018, -1.4183235, 0.04664603, -0.6428863, -0.1399196, -0.05699446, 0.11382983, 0.54335994, -0.07058401, 0.22287826, -0.07196552, 0.08938744, 0.10256573, 0.020584662, -0.23483407, 0.07485578, -0.016776659, -0.059216555, 0.11439084, -0.015170867, 0.13925733, 0.1259308, 0.12137915, 0.2087502, -0.17333648, -0.09798009, 0.025343087, 0.09597497, 0.17247903, -0.078010745, -0.23169279, 0.19356182, -0.08968023, 0.054295417, 0.12863533, -0.89090365, 1.6004418, 0.907966, -1.3118507, -0.45805055, 2.035404, -1.30241, -0.36269474, 0.19222938, 1.2825221, -0.1472946, -1.666146, -1.3438214, 1.5936965, -0.17028044, -0.08517019, -0.19335636, 0.2126164, 0.17508584, 0.020343011, -0.20756978, -0.14022613, 0.09693978, 0.34375343, 0.067056894, -0.048857782, 0.11290516, -0.4569912, -0.19119658, 0.06014122, -0.038456846, 0.21683829, -0.21945632, -0.1229453, -0.18738686, 0.09599985, -0.15567212, -0.17745131, -0.04318391, 0.06780166, 0.039439823, 0.013498679, -0.07970687, 0.19870374, -0.86524415, -1.2049724, -1.1392014, -0.021027427, 0.1559715, -0.9249651, -0.6899852, 1.6777407, -0.7092577, -1.193049, -0.26625356, 0.026554028, -0.19432461, -2.6029286, 1.5363284, -0.005168498, -0.12917046, -0.23410033, 0.21502021, -0.086402915, -0.13824266, 0.042040214, -0.012388561, 0.13036726, -0.024099126, -0.10285411, -0.033235252, 0.23803009, -0.23333754, -0.20479892, 0.08149917, 0.17702807, -0.022384299, -0.03315037, -0.018883346, 0.25163993, -0.05052703, 0.09529704, -0.068899035, -0.17747658, 0.053391606, -0.24760535, 0.24951158, -0.14313006, 0.06813112, 0.12750669, 0.14351012, -0.0068085035, 0.07651991, 0.18038915, 0.20455419, 0.099893235, 0.022901947, -0.04459068, -0.23723419, 0.096822254, -0.105954066, -0.011877236, -0.09546232, -0.15267047, 0.14465405, -0.07728417, 0.22743468, -0.00983007, -0.22073603, 0.13961112, -0.114074655, -0.08901627, -0.11360885, 0.1798824, 0.17795004, 0.20753022, 0.13446708, 0.028540382, 0.12457203, -0.039322436, -0.13760252, 0.09173685, 0.1943559, 0.15555987, 0.21754287, -0.07970217, -0.072527796, 0.08031069, 0.015410049, -0.03652725, -0.09345436, 0.20514016, -0.25563985, -0.11295265, -0.28002903, 0.006350198, -0.009524742, -0.1762013, -0.09846395, -0.32984775, 0.049491443, 0.16880278, 0.07746856, -0.360491, 0.15091313, -0.0051752157, -0.16428767, 0.11234372, -0.21880259, 0.053836405, 0.06792673, -0.25469604, 0.15608084, 0.2579716, -0.2515422, -0.098829895, -0.06637627, 0.24981438, -0.11533989, 0.053416472, 0.048001464, -0.081767164, -0.029242648, -0.08145888, 0.13791473, -0.16735265, 0.07753999, -0.10032996, -0.2494589, 0.22519405, 0.08606273, 0.0260587, 0.032703415, -0.07585335, -0.056223117, -0.017966589, -0.1452645, -0.12207891, 0.049910903, 0.17317834, 0.114824936, 0.008742107, 0.09527712, -0.0011103799, -0.006987036, -0.029290598, -0.0039957617, 0.11104933, -0.081572756, 0.1171463, 0.025483456, 0.11760805, -0.08013416, -0.031917524, -0.17589265, -0.17036612, -0.022748485, 0.0064214556, -0.021717796, -0.2747526, 0.12212767, -0.24173547, -0.23990072, -0.07376684, -0.07264192, 0.10271622, -0.22431023, 0.14077228, 0.13344127, 0.16153336, -0.23935482, -0.010310406, -0.088662185, -0.16320108, -0.22305867, -0.2136171, 0.00042699272, -0.25362784, -0.07123416, -0.015381114, 0.1466393, 0.13567002, 0.23610774, -0.22079054, 0.078930326, 0.044901762, -0.099737234, -0.01936364, -0.13256957, 0.17178093, 0.06388442, -0.1416551, 0.07897176, 0.115201354, 0.060306564, 0.005002341, 0.3210078, -0.26748115, -0.31410366, -0.22506829, -0.102624126, 0.19219607, -0.1269982, -0.14116137, -0.003666839, -0.23770678, 0.25334254, -0.13089345, -0.18734859, -0.38386753, -0.01737541, -0.008651412, -0.1922399, -0.23565528, 0.14537323, 0.25033385, -0.24374893, 0.043902438, -0.041681107, 0.029186472, -0.20056973, -0.081751585, -0.10335932, -0.18052119, -0.018475827, -0.039224684, 0.14887632, -0.043715473, -0.02782238, -0.17134127, 0.01315034, 0.03583509, -0.10251209, 0.22233342, -0.16163993, 0.121378064, 0.06722941, -0.013110907, 0.0689054, -0.071857, 0.1371178, -0.21912289, 0.04021723, -0.053715147, -0.11711935, 0.25286192, 0.034679484, -0.21163669, 0.20096111, 0.17650956, -0.12226441, 0.18572074, 0.036970273, 0.05404028, 0.32703802, 0.050487883, 0.0056355475, 0.032422204, -0.30131483, -0.1932795, 0.00094325695, -0.13519695, 0.21895294, 0.21459843, 0.0640565, -0.25397465, -0.052074693, 0.06300226, -0.19818737, -0.19923252, 0.17360075, -0.049536627, 0.1427404, -0.034322623, -0.037867844, -0.027466249, -0.019977828, 0.28189522, -0.00054954697, 0.40817747, 0.05365257, -0.039974853, 0.09399321, -0.2313359, -0.07695918, 0.030566724, -0.11815425, -0.11500218, -0.19360279, -0.10192443, 0.15666099, -0.034988154, 0.17294796, 0.15164232, -0.05452967, -0.15072931, -0.07002316, -0.052778784, -0.04451927, -0.05222449, 0.123710886, -0.015265886, 0.09262557, -0.090546206, 0.1272461, 0.048454568, 0.1490989, 0.2675868, -0.12144937, 0.2626575, -0.14601941, 0.021425573, 0.044900626, 0.12674978, -0.08707301, 0.21091907, 0.12374523, 0.18063508, 0.09307877, 0.08849154, -0.050562512, 0.04943229, -0.0879625, -0.02750501, 0.09947492, 0.010022915, 0.09870657, 0.15967181, -0.14608392, 0.046078917, -0.07218256, -0.07960415, 0.0030137023, -0.11209899, 8.65255e-05, -0.25451082, 0.07916791, -0.1559673, 0.03557395, -0.2626828, 0.1367252, 0.16359092, 0.03576757, -0.01410425, 0.051699683, -0.1272642, 0.0947692, 0.19506134, 0.14111096, -0.08601985, -0.23669669, -0.1659198, 0.039802723, 0.029982744, -0.23520157, -0.22749655, 0.052211534, -0.008276569, -0.09959053, 0.16796136, -0.16869168, 0.033262406, 0.23747729, 0.12362851, -0.08920508, 0.08037779, -0.27704617, 0.14836249, -0.016123235, 0.1590847, 0.1326086, -0.19025005, -0.044310383, -0.020428654, -0.103350975, -0.0793181, 0.1677655, -0.07077729, 0.02448277, -0.08491314, 0.061140306, -0.023069454, 0.10538415, 0.13153315, -0.17766337, -0.0041860626, -0.14616293, 0.16008522, 0.14707962, -0.14723992, -0.07442055, -0.11071258, -0.15632032, 0.04749847, 0.026798256, -0.24536762, -0.18899281, 0.20913558, 0.06309422, -0.08630957, 0.14006422, -0.19008534, 0.17317449, -0.17375226, 0.026367866, -0.19511513, -0.15691185, 0.01800839, -0.07878364, 0.02842567, 0.04598162, -0.10665379, -0.066841274, 0.09308884, -0.01028003, 0.12758692, -0.0293423, -0.111350894, 0.14078285, -0.17898916, -0.20741355, -0.09544856, 0.04316148, 0.05839285, -0.11031288, -0.17015423, -0.037772797, 0.035461634, -0.055363253, 0.094249696, 0.09403425, -0.096951224, 0.25795332, 0.14406386, -0.13802727, -0.13954218, 0.05428074, -0.1945264, -0.25456327, 0.25827113, -0.029031318, -0.038761314, -0.044461798, -0.026226528, -0.037851315, -0.12702252, -0.19843386, -0.22365591, -0.20827909, -0.15982205, 0.082564905, -0.18366568, -0.058521185, 0.21484472, 0.14786129, -0.16511425, 0.12714441, 0.16233301, -0.055962693, 0.032271847, -0.072186135, -0.0041121086, 0.00782619, -0.15217634, -0.13542973, -0.118117, -0.039095692, 0.054311436, 0.037412964, 0.013950154, 0.1386152, -0.074275784, -0.12711601, 0.0054864916, -0.32007858, -0.19844653, -0.0055442727, 0.29126316, -0.02346551, -0.24873926, -0.011587219, -0.15840468, -0.11881523, -0.11925674, -0.15872611, 0.17154549, -0.19190022, 0.17740805, -0.1860978, -0.19948882, -0.059229005, -0.12771636, 0.2594179, 0.26328132, -0.057032704, -0.096400425, -0.11817953, 0.2163808, -0.07048384, -0.1573534, 0.017802969, -0.123719215, -0.009734579, 0.21893772, 0.13436171, 0.087215506, -0.048398826, -0.3046414, -0.25707814, -0.0340214, 0.03769003, -0.14949115, 0.11568529, 0.11955534, 0.013126936, 0.017816335, -0.11947775, 0.2626216, 0.12989904, -0.05189546, -0.0061029233, -0.13160434, -0.03167062, 0.09118429, -0.1944838, -0.15516773, -0.09066272, 0.16919117, 0.012955622, 0.25588265, 0.05314297, 0.16663988, 0.048465878, 0.025841154, 0.051844385, -0.22712304, -0.115134455, 0.24558704, -0.12067815, 0.04869007, 0.23278964, 0.20946023, 0.10040382, -0.1756637, 0.17295927, -0.22953078, 0.04543311, -0.029363247, 0.2296003, -0.0710993, 0.119087726, -0.13985363, -0.38479373, -0.22821024, -0.41137427, -0.15011084, -0.12998274, 0.05774654, -0.07919743, 0.05570767, 0.15305361, -0.06372062, 0.02133807, -0.18172526, -0.052973323, 0.017821275, -0.25883636, -0.10370752, 0.2923348, 0.060054526, 0.23497398, -0.025482181, 0.025409473, 0.06119979, 0.1747492, 0.043798555, 0.15617391, 0.11119919, 0.05075373, 0.09108058, 0.16452043, -0.1904873, 0.2070823, 0.21144073, -0.16365534, 0.2081371, 0.1962297, 0.005607651, -0.12574653, -0.028698754, 0.06808246, 0.13194637, -0.04368928, 0.014693554, -0.15472554, -0.08737201, 0.12934203, -0.12964827, -0.16565849, 0.105520435, -0.07826795, -0.15404713, 0.101511344, 0.03460121, -0.09502972, -0.12973762, -0.08602313, -0.10568607, 0.11433943, 0.041893527, 0.032980036, -0.32945022, -0.1398992, 0.0940499, -0.05314719, 0.14630683, 0.05607617, -0.11638612, -0.009185072, 0.17101575, 0.1107384, -0.15725014, -0.0319769, -0.099161714, 0.16092157, -0.30742183, 0.024059488, -0.13986976, 0.24042511, -0.09559637, 0.08034759, -0.11594016, 0.20455249, -0.22777082, -0.087707005, 0.209611, -0.048853837, 0.097382, 0.13759466, 0.11768465, 0.17339805, 0.11496263, 0.25188792, 0.09420632, 0.12737189, -0.036028095, -0.05585457, -0.1184338, -0.24000849, -0.03939924, 0.062411454, -0.20339678, 0.081875965, -0.06395636, 0.21040785, -0.10631259, -0.1512718, 0.08679443, 0.10059383, 0.061333083, 0.029200766, 0.056762744, 0.09425684, -0.066478044, -0.2569085, 0.21716376, -0.1102814, 0.034858543, 0.023256877, -0.19612677, 0.2227969, 0.0055935383, 0.028199997, -0.035750553, -0.1469244, -0.20313463, 0.12293463, -0.032513354, -0.21453887, -0.13364342, 0.11061059, -0.112766504, 0.17270614, -0.13747863, -0.04232504, 0.026612043, 0.104266316, 0.14424366, -0.07884858, 0.03719312, -0.031688936, -0.24583665, 0.057797115, -0.053252377, 0.34797406, 0.09821541, 0.0829046, 0.32766253, -0.0033932792, 0.1215492, -0.018151565, -0.04505945, 0.036478348, 0.09904236, -0.003984237, 0.07848402, -0.10059191, -0.06867752, -0.087210305, -0.09308126, 0.16768199, 0.019332305, 0.024017792, -0.104464546, -0.084533736, -0.16263914, -0.027690941, -0.032964528, -0.007899809, -0.30004305, 0.13423416, -0.15513399, -0.13185786, 0.05713903, -0.2582948, 0.02855171, -0.05469987, -0.03676823, 0.17080434, -0.11739923, 0.102240875, -0.030905839, -0.21807736, -0.027317263, 0.050632514, 0.100387625, 0.056285992, 0.012557819, -0.06043342, -0.006974323, 0.08013247, -0.09033169, -0.07463675, -0.0663265, -0.14132813, 0.08941197, -0.16374339, 0.086881146, 0.15529546, 0.07692605, -0.11998219, -0.16166562, -0.306483, 0.10664593, -0.13366604, 0.19322099, 0.1269854, -0.0117524, -0.01615428, -0.24513975, -0.27773938, -0.20101291, -0.028833363, 0.030078877, -0.1873428, 0.025011037, -0.26258358, -0.3177885, 0.09496273, 0.20580512, -0.113472834, -0.23606695, -0.12024085, -0.16727509, -0.051864456, 0.017196026, -0.20132637, 0.040423933, 0.1517272, -0.25299382, -0.027038429, 0.10327833, 0.04071999, 0.22759102, 0.10060108, -0.10009315, 0.123777844, 0.0055630263, -0.117631674, 0.17469333, 0.035676487, -0.17362463, 0.027705628, 0.14824112, 0.022780947, -0.19260547, -0.08445472, -0.067308776, -0.0013045379, 0.166744, 0.23604646, 0.17359263, 0.25659016, -0.16824488, 0.1517628, -0.10366542, 0.08976069, 0.005748275, 0.22314018, -0.1553221, 0.21963249, -0.11852969, -0.26217923, 0.1824508, 0.19478488, 0.046073098, 0.2932788, -0.008496144, -0.09284831, 0.22808494, -0.1778598, 0.081289396, 0.19498716, 0.13731249, 0.15525877, -0.047777217, 0.13812253, -0.16549154, -0.1028185};
const float gru_b[90] = {0.073294975, -0.019737225, -0.079819806, 0.12667975, -0.037763316, 0.056804694, -0.28028336, -0.49448633, 0.13160367, 0.14015499, -0.021591302, 0.06561404, -0.061032817, -0.32667068, -0.05538059, -0.010041847, -0.03081256, -0.050902676, -0.013080358, -0.045457818, -0.027203096, -0.07970447, -0.08263315, -0.00850462, 0.0068629268, -0.050207265, -0.034760498, -0.032118186, -0.06998433, -0.03740295, -0.014386426, -0.052325808, -0.0024729671, 0.083159156, 0.022749161, 0.010686834, 0.016893858, -0.016122663, -0.063945875, -0.10569219, -0.023088275, 0.05753117, -0.049192294, 0.03357285, 0.013705635, 0.07329499, -0.019737225, -0.079819776, 0.12667975, -0.037763316, 0.056804694, -0.28028336, -0.49448633, 0.13160366, 0.14015496, -0.021591302, 0.06561404, -0.061032794, -0.32667062, -0.055380605, -0.010041847, -0.03081256, -0.050902676, -0.013080358, -0.045457818, -0.027203092, -0.07970447, -0.08263315, -0.00850462, 0.0068629184, -0.050207257, -0.03476049, -0.032118186, -0.06998433, -0.03740295, -0.0068677696, -0.06437982, 0.013917408, 0.061697226, 0.012319163, 0.02080039, -0.0059820847, -0.013424313, -0.04488638, -0.09363815, -0.017528892, 0.037679628, -0.025772689, 0.037931103, 0.017498428};
const float gru_Wrec[675] = {-0.04529214, -0.16003373, 0.014963785, 0.014512313, 0.021241834, 0.10674048, -0.05639096, -0.21389353, -0.08035426, -0.13602743, 0.2283864, -0.14233989, -0.17021623, -0.33588487, -0.2101823, -0.20446236, 0.0444617, -0.012950687, 0.12972026, -0.1647488, 0.010090347, -0.03656771, -0.21781658, -0.07232939, -0.0203253, -0.25637028, -0.20879903, 0.2539421, 0.09473842, -0.3370786, 0.1204961, 0.097484924, 0.08062804, 0.013004805, -0.08208442, -0.0005971605, -0.05007455, 0.013618102, 0.12933418, -0.005666424, -0.12591165, 0.17530875, -0.016541094, 0.07051765, 0.28321102, -0.13046858, 0.0058946908, 0.05987632, -0.09244516, 0.15233804, -0.09392038, 0.022269782, 0.025825305, 0.12312661, -0.22012258, -0.17223682, -0.006397072, 0.088776484, 0.2297633, -0.075101964, 0.13725173, -0.13951068, 0.12961683, 0.1634738, -0.2514491, -0.13219559, -0.0012552263, -0.12639543, 0.18486658, 0.08635129, -0.11790076, -0.34943002, -0.014625162, -0.025902532, -0.17283864, -0.020845164, -0.23174992, -0.029510755, -0.2258003, 0.19724034, -0.26117793, -0.13282308, 0.13390405, 0.08998118, 0.005964324, -0.14672545, -0.19790317, -0.081881754, -0.2335394, -0.111040294, 0.27023903, 0.13726379, 0.16286524, -0.10461463, 0.34686756, -0.16906503, 0.06284771, -0.0162232, 0.43087912, 0.08950598, 0.075822204, 0.07431623, -0.010411635, -0.15093069, -0.12644407, 0.015245628, 0.111260936, -0.21243471, 0.27531993, 0.113854185, -0.15143238, -0.029390175, 0.113738194, -0.056425046, -0.18825893, -0.18503654, 0.010717344, 0.024542712, -0.02999405, -0.0247247, 0.11463569, 0.11968557, 0.08514175, 0.06417777, 0.19688244, 0.0011463838, 0.019417536, 0.034641225, -0.2574393, -0.035943516, -0.09353581, -0.0338289, 0.072619885, 0.1331906, -0.1890879, -0.09904803, -0.10376963, 0.17871791, -0.09544745, -0.34965158, 0.022912536, -0.14902881, 0.018523907, 0.08327987, -0.10188733, 0.091373034, 0.04866602, -0.10783797, 0.24668992, -0.09906357, 0.082702994, -0.03291472, -0.13161266, 0.31695014, -0.0119600585, 0.08040967, 0.086449586, -0.12687771, 0.031199101, -0.063275196, 0.14873031, -0.04607217, -0.059902333, 0.06292376, 0.17269626, -0.01503052, 0.38966325, -0.23788498, 0.052020118, -0.05273375, -0.026720678, -0.38895768, 0.04215239, 0.031626366, -0.11403941, -0.08758399, 0.076134734, -0.024074692, 0.20958507, -0.14259407, 0.15788965, -0.0646306, -0.2250876, 0.30038446, -0.00375518, 0.21761219, -0.012286064, 0.01618629, 0.0014009671, -0.071204685, 0.03946998, 0.13612814, 0.31028217, -0.095591284, -0.2094028, 0.07200775, -0.3411605, -0.23017526, -0.13012348, -0.14028558, 0.0082239155, -0.020002706, 0.066233665, 0.2738891, -0.040157285, -0.038477328, 0.16752827, -0.06275983, -0.02867044, -0.2397814, -0.12390211, 0.120287925, -0.19158395, 0.011256958, -0.021886472, -0.21322323, 0.07762455, -0.097581536, -0.13088563, -0.17168403, -0.09904056, -0.049950905, -0.060694057, 0.17686988, -0.036329042, -0.07280268, -0.024740629, 0.25520945, -0.18462121, 0.056723185, -0.04292559, -0.14017196, -0.12539756, -0.19479397, 0.19424315, -0.0055552386, -0.058660857, 0.12262665, 0.15655494, -0.11643891, -0.11391758, 0.07476266, 0.043888904, -0.10427362, -0.03422256, 0.25950292, 0.06105878, 0.22831595, 0.27431494, -0.3037416, -0.02832844, 0.15543635, -0.1541045, 0.1447116, -0.16564785, 0.07849865, -0.016586319, -0.13039297, 0.02940924, 0.39798206, 0.07373234, -0.0381257, 0.15094763, -0.028159788, -0.038343117, -0.016627327, 0.060297307, 0.027908456, -0.06387168, 0.28008586, 0.011510941, 0.29177636, -0.013466316, 0.16275524, 0.06493456, 0.039639395, -0.12302258, 0.07962637, 0.1738729, -0.18008456, -0.15548016, 0.084878534, -0.13331982, -0.08285538, 0.22753422, -0.16290055, -0.061772387, 0.078840874, -0.17719989, 0.14079265, 0.022506798, -0.12418568, 0.14726622, 0.063415855, -0.35758972, 0.1683192, -0.080998726, -0.040473413, -0.14545764, -0.22374438, 0.19965568, 0.0880742, -0.05117055, -0.11102817, -0.11327854, -0.10910752, -0.25149158, 0.05199725, 0.15352766, 0.19728915, 0.03502464, 0.26392627, -0.19102189, -0.003663541, -0.046550564, -0.24269387, -0.026188936, 0.04545068, 0.12886964, 0.13986388, 0.004411433, -0.1518717, -0.21064556, -0.08292464, -0.13219878, -0.29093337, -0.2626613, 0.028049175, -0.04631515, -0.047069237, 0.31813988, 0.05786178, -0.027477818, -0.017198976, 0.27121273, 0.015235402, -0.1900165, -0.12079957, -0.07558517, 0.11195776, -0.0008329153, -0.006818071, 0.00382578, -0.1752968, -0.08126925, 0.15806426, -0.040466145, -0.28006244, 0.18154028, 0.21708451, 0.20512632, 0.09057077, -0.25444868, 0.00262901, -0.048051838, -0.121495135, 0.105745785, -0.040302068, 0.10912135, -0.15457189, -0.12010543, 0.13061589, -0.18156442, -0.031084081, 0.11820673, -0.011674881, 0.00010028947, -0.0380644, -0.23267432, -0.11830108, -0.21031666, 0.20495346, -0.14263643, -0.19876273, 0.13401511, 0.13747354, -0.15131614, -0.0876982, 0.43862414, -0.07126543, 0.028426796, 0.034859892, -0.09998643, -0.030395547, -0.12177594, 0.066297814, 0.36996627, -0.19454834, 0.043554682, -0.070473365, 0.23193718, 0.008179134, 0.11617883, 0.010964583, -0.0888999, 0.07987778, -0.06672154, 0.06128179, 0.04527752, -0.16578476, 0.011706983, -0.20930624, 0.12506182, -0.16580704, 0.13979992, -0.38130006, -0.068022475, -0.06529179, -0.17718586, -0.13320114, -0.00072624534, -0.103817716, 0.13104236, 0.013057867, -0.14010787, 0.10973992, 0.16339302, 0.08022308, 0.020753525, -0.06164196, 0.26409882, 0.20471351, -0.036111817, -0.13717993, -0.052595887, -0.023211014, -0.053443138, 0.2722162, 0.17041072, -0.012745984, -0.17115478, 0.042498842, 0.058402512, 0.0034309383, -0.002436608, 0.30216533, 0.047312245, 0.3638117, -0.15865508, -0.053530633, -0.13946304, 0.036279522, -0.25335783, -0.010404389, 0.024821647, 0.029283267, 0.096791714, 0.21733882, 0.13738759, -0.08772812, 0.20375013, -0.11888324, -0.2503644, 0.0543711, 0.043939345, -0.16273187, -0.17265141, 0.07813011, -0.25870615, -0.17901011, 0.1658463, -0.13601896, -0.243763, -0.071217306, 0.07292718, 0.081055656, -0.04669988, 0.012415921, -0.081039034, 0.12671354, 0.026501726, 0.29117408, -0.12660871, 0.13448575, 0.09124778, -0.22013061, 0.107261516, -0.159906, -0.19451307, 0.1316234, -0.02915078, 0.027629158, 0.0992504, -0.025417704, 0.27372855, -0.13397734, -0.15052044, 0.16403756, -0.18707572, 0.22923839, -0.06961765, 0.19502696, 0.041353196, -0.02437106, -0.11029437, -0.04506885, -0.1367018, -0.10368298, 0.10577812, 0.031507205, -0.15323366, 0.07933387, 0.03160747, -0.031698275, -0.25623232, 0.044606082, 0.22657968, -0.07465925, 0.036250062, 0.19768135, 0.107584305, 0.15928444, -0.10090977, -0.026191691, 0.18616791, 0.048602298, -0.22240028, 0.06684317, 0.21995606, -0.07588834, -0.14265172, -0.22919272, -0.035774082, 0.21545684, -0.10463707, -0.2733859, 0.0892426, -0.16077064, -0.068313085, -0.124833524, 0.37672424, 0.13423814, 0.28717622, -0.040820044, 0.08093397, -0.07781068, -0.10471289, 0.18724173, 0.04786865, 0.03726855, 0.109045394, 0.1711462, -0.116553605, -0.30510116, -0.17706618, -0.098093815, -0.019002544, 0.003266845, -0.059771568, -0.13134576, 0.115030326, -0.1854665, 0.10730372, -0.051064406, 0.051549673, 0.1648758, -0.10879809, 0.07870383, -0.10358653, 0.15031727, -0.07320153, -0.20432149, -0.18091942, -0.08245593, -0.4602471, -0.027797338, -0.08029004, 0.00647936, -0.039089303, 0.21836811, -0.12757649, 0.047129236, 0.038797915, -0.043167934, 0.008785301, -0.17255026, 0.24258438, -0.0057462417, 0.07103616, -0.32120198, -0.21678503, 0.04389707, -0.022493253, -0.08012709, 0.13200676, 0.008582584, -0.16097724, 0.14022444, 0.1514961, -0.20620997, 0.34596986, 0.16854012, 0.1844393, 0.017933818, 0.020471396, 0.14933227, 0.10888252, -0.1833979, -0.048919376, 0.061556045, -0.013254643, -0.021043675, 0.087793924, 0.13397542, 0.1443964, 0.17010272, -0.018984364, -0.089167945, -0.22433852, -0.16033742, -0.012174405, -0.033058874, -0.1879257, 0.14383408, -0.17385033, 0.04002344, -0.018524695, -0.06689397, -0.1935184, 0.3344898, -0.11518976, 0.26689887, -0.18378931, 0.019844638, 0.09586538, 0.010668847, -0.030182626, 0.11751315, -0.18234913, -0.22904697, -0.043526243, 0.1416901, 0.09797088, -0.23348606, 0.17566851, 0.12579237, -0.016477793, 0.05945718, -0.38463208, -0.045319352, -0.098459594, 0.0849168, -0.036321495, 0.12632692, -0.26725015, -0.01358892, 0.051280662, -0.10519557, -0.2649882, -0.007769088, -0.23708676, 0.091833144, -0.08250766, -0.27072066, -0.13880603, 0.026290625, 0.08838301, 0.17604993, 0.01875829, -0.2157369, -0.17674497, 0.24001917, -0.055489372, -0.03767675, -0.122383446, 0.02443003, -0.062532164, 0.0344393, -0.115400985, 0.15499471, -0.025258712, -0.08349996, 0.11911792, -0.1592477, -0.2734026};
const float dense_W[225] = {0.25503954, -0.20580624, 0.25404364, -0.0969517, -0.19107875, 0.24149226, 0.013748137, 0.07554818, 0.39500877, 0.34120622, -0.20731486, 0.12524672, -0.06283313, -0.206193, 0.20170978, 0.17010845, -0.23404168, 0.15608165, -0.128226, -0.5657322, 0.086888805, -0.22813115, -0.31345624, 0.12403891, 0.28574556, 0.29382023, -0.3325753, -0.17882705, 0.056851238, 0.31579039, 0.17515264, -0.46766758, 0.053875323, 0.17802948, -0.23130682, -0.21788827, 0.13769965, 0.20058174, -0.15237555, 0.08095368, 0.25051886, 0.27168116, 0.20872155, -0.17892513, 0.26682225, 0.18145387, 0.049619906, 0.010918049, 0.042698562, 0.020217368, -0.039345834, 0.309274, 0.12648399, 0.2964321, 0.3431331, 0.24245033, 0.056765568, 0.13732879, 0.18431166, -0.16804394, 0.42953178, 0.16135807, -0.2336187, -0.07094902, 0.14323163, 0.27733704, 0.08399984, -0.25240815, 0.37616703, -0.22847365, 0.074036546, -0.08598095, 0.04837668, 0.089309916, -0.11550483, -0.21512488, 0.1159631, 0.12044571, 0.07944138, -0.23404291, 0.14057933, -0.333419, 0.1819702, 0.2227037, -0.1655202, 0.29920816, 0.27313992, -0.28138855, -0.29429376, -0.2138402, -0.36171052, -0.49578422, 0.50123185, -0.044531107, -0.111879736, -0.33850598, -0.1642032, 0.60118574, -0.053602852, -0.1977695, -0.008442352, 0.18256827, 0.5130337, -0.65142125, 0.5454197, -0.41655475, 0.28852, 0.48085994, -0.03640565, 0.065098025, -0.34103167, 0.23015426, -0.2924807, -0.22493479, -0.2105207, -0.47443447, -0.37827614, 0.26047838, -0.171526, -0.17943367, 0.1325214, -0.16272323, -0.38027155, 0.23727305, 0.012534019, -0.041945525, -0.19388571, -0.35738233, -0.060623728, -0.13980564, -0.36299965, 0.008184126, 0.106951624, 0.077858016, 0.0023697228, 0.3359392, 0.08794723, -0.24966998, -0.039287888, -0.11467852, 0.24951012, -0.19006908, 0.21885656, -0.34723985, -0.40034503, 0.05213349, -0.30186915, 0.23783244, 0.067082986, 0.31710416, 0.15516105, -0.28742066, -0.43300167, 0.13488303, 0.26340783, 0.03969626, 0.07496002, 0.3493367, 0.40244126, -0.2333663, 0.27708626, 0.3545315, -0.07777824, 0.15579727, -0.17935885, 0.056888305, -0.067293026, 0.32805732, 0.009137695, -0.2426861, -0.107010745, 0.30452397, -0.027368592, 0.17795384, -0.039094705, 0.2801186, -0.01906532, 0.15202816, -0.41031146, -0.1633956, -0.14128156, 0.14349584, 0.22178279, 0.37550855, -0.25811258, -0.013026275, 0.08386211, -0.1492252, 0.2368294, 0.27629083, -0.2241734, -0.0103621585, 0.052116416, -0.34354794, -0.34393764, 0.038173884, -0.33395693, -0.31368116, 0.10432226, -0.70721143, 0.141279, -0.13404042, -0.42098576, 0.4149586, 0.088518605, 0.31722334, 0.14304753, 0.07878292, -0.18905918, 0.06919712, -0.39777595, -0.1583742, 0.24225867, 0.35223445, 0.36562058, -0.43405282, 0.30834368, 0.061588522, -0.32924226, -0.22288364, 0.15048264, -0.06457364, 0.09920105, 0.0955023, -0.16718033};
const float dense_b[15] = {-0.13085832, 0.018526772, 0.027070962, -0.13990337, 0.004897576, 0.053713243, -0.12771294, 0.023901291, -0.12626186, -0.15448016, -0.15231825, -0.017466284, -0.07580041, -0.06196493, -0.13024549};
const float dense_1_W[45] = {-0.015132059, 0.005085015, -0.08190794, -0.0060442784, -0.09080436, 0.0528089, -0.0972673, -0.01443878, 0.056932718, 0.052804418, -0.006032628, 0.029782971, 0.08610553, 0.052273706, 0.11179462, 0.06904786, -0.04745676, -0.013084446, -0.004604415, -0.034702066, -0.02048405, -0.011943167, 0.08550265, -0.03580982, 0.041491725, 0.06891546, 0.030574633, -0.033603538, -0.018098619, 0.036661793, -0.025799219, -0.02001512, 0.07411917, 0.0054189446, 0.0045538754, -0.008946248, 0.048706923, -0.0053840247, 0.041612007, 0.03782377, 0.010577658, 0.041855436, -0.0076655666, -0.0064857393, 0.0436895};
const float dense_1_b[3] = {-0.0, -0.0, 0.0};


#ifdef __cplusplus
}
#endif
#endif
