/********************
    parameters.h

    Code generated using nn4mc.

    This file defines the neural network weight parameters for all layers.

*/
#ifndef __NEURAL_NET_PARAMS_H__
#define __NEURAL_NET_PARAMS_H__

#ifdef __cplusplus
extern "C" {
#endif

const float dense_W[3600] = {0.13414498, -0.08906555, 0.02169431, -0.11118916, -0.07629009, -0.057893142, -0.034427635, -0.03538263, -0.07029838, -0.10279935, -0.051123835, 0.07699531, 0.05523463, -0.072498664, 0.16469452, 0.03994138, -0.040423483, 0.023310715, 0.032385413, 0.114060566, 0.048115317, 0.0071485923, 0.118389755, 0.041444924, 0.10033793, -0.041828517, -0.066412695, 0.18061617, -0.086788535, 0.093967915, 0.114026606, 0.11576818, -0.11359517, 0.07631436, 0.15207388, -0.03381082, 0.036852855, -0.034844186, -0.13855195, -0.13031633, 0.119106784, 0.14628106, -0.027734295, -0.041447237, 0.15481627, 0.1762548, 0.0068696258, 0.01594825, -0.018371113, 0.021248525, -0.057692207, 0.097127706, -0.026280213, 0.13825814, 0.079720154, -0.061979316, -0.11380801, 0.09778383, -0.013703897, -0.03583705, -0.15594344, 0.17908603, 0.09528021, -0.043106787, -0.08361378, 0.013970063, -0.037260503, 0.14148295, -0.07716658, 0.04558624, 0.11569397, 0.032260485, -0.104334116, 0.024056047, 0.0012474657, -0.13701807, 0.04266937, 0.124345526, 0.16856442, 0.117197275, 0.09893752, 0.12222541, 0.17593606, 0.12563342, -0.08597643, -0.011466556, -0.04155518, -0.016921328, -0.03151109, 0.13663974, 0.09732969, -0.16983636, 0.07477856, 0.10500196, -0.049044106, -0.06462356, -0.049624342, 0.20663203, -0.1232413, -0.100588016, 0.13806777, 0.06386326, 0.03226627, 0.15371284, 0.088351995, -0.089448586, 0.014049844, -0.03175253, 0.1496757, -0.23232913, 0.15814415, 0.06462891, -0.10616511, 0.10943803, -0.044291012, 0.09973622, 0.09096881, -0.09850797, -0.057880443, 0.15361208, 0.026255941, 0.07555207, 0.175616, -0.052945796, 0.16030975, 0.12514603, 0.016183233, 0.10373642, 0.053835563, 0.20171364, -0.02134693, 0.16627485, -0.14418894, 0.010433324, -0.105304, 0.0018810027, -0.021982057, -0.021466075, 0.19267751, 0.12982938, 0.06282045, 0.08109888, -0.22655235, 0.047492478, -0.14319652, 0.11226476, -0.00034453854, 0.06358431, 0.04841474, 0.092303015, -0.02884401, -0.17400558, -0.111102134, 0.12608178, 0.15462552, -0.06735574, 0.09592315, 0.08158298, -0.07593385, 0.09834848, 0.0706159, -0.02109813, -0.07825537, -0.116213, -0.01030446, -0.023402648, -0.023762051, 0.09165981, 0.19598733, 0.098186344, -0.09057471, -0.07045739, -0.029021809, -0.0848499, 0.072019294, 0.01261451, -0.107596196, -0.191656, 0.053465247, 0.06493728, -0.22139017, 0.12149898, 0.028548846, 0.026978478, -0.033387527, 0.031476874, 0.16434653, -0.011781937, -0.0038193665, -0.21166532, 0.1268854, -0.105659, 0.02934089, 0.09909993, -0.00081693096, -0.038508013, 0.10644682, -0.14765343, -0.015891017, -0.12188157, 0.14643629, 0.042577915, -0.057510823, 0.002794364, -0.062085643, 0.19410148, 0.028314749, 0.16941226, 0.12742816, 0.058276962, 0.0034371216, 0.055522952, -0.1255196, 0.007281569, 0.17468706, 0.04876085, -0.101597525, -0.06262013, 0.0056028147, 0.114405945, -0.11353727, 0.0016286332, -0.1621946, -0.08956477, 0.01028983, -0.031287383, 0.02252152, 0.073887035, 0.06272043, 0.18690412, 0.06767802, -0.06704072, 0.1616471, 0.065470345, -0.13535373, -0.13019156, 0.043623656, 0.12323756, -0.11222055, -0.05144089, 0.06692077, 0.08749403, -0.12970486, 0.033448238, 0.117535405, 0.079469375, 0.08782914, 0.07879894, -0.00055685773, -0.06915765, 0.032282513, 0.16413161, -0.017815018, 0.011701127, -0.16144453, 0.13288519, -0.05260549, -0.1028113, 0.036078036, 0.20601892, 0.06391057, 0.010075099, 0.009528182, 0.13894732, 0.2259857, -0.04851577, 0.037147183, 0.04110303, -0.062009443, 0.18688701, 0.084237285, 0.07857623, -0.13456471, 0.13988784, -0.06103023, 0.09096137, -0.116827026, -0.023648398, -0.118435815, 0.0086549735, 0.027598742, -0.05043209, -0.15914807, 0.1768372, 0.16002591, 0.023345143, -0.05141355, 0.36076328, -0.05870557, 0.024036692, -0.08998674, -0.027649784, 0.12719856, 0.08596203, 0.23661366, -0.14906295, 0.035011057, 0.09340367, -0.013005737, 0.07091845, 0.025613312, 0.028663745, 0.037091147, 0.051321555, 0.09513348, 0.16155621, 0.035038494, -0.15201443, -0.006085974, 0.11125212, -0.09424202, -0.08990197, 0.08655365, -0.008040361, -0.027019562, 0.13479017, 0.026580747, 0.0643402, -0.1328095, 0.12069316, -0.10263701, 0.034746464, -0.014394607, 0.048226576, 0.097039714, -0.056889884, 0.067760155, -0.0117945755, -0.07581767, 0.017501887, 0.21087639, -0.02960561, 0.0952147, 0.0067492686, -0.1694132, -0.082273714, 0.063392416, 0.011630555, -0.03381125, -0.12780185, 0.15012963, 0.078338526, -0.100062504, 0.036454607, -0.09146928, 0.063813776, 0.12699674, -0.1253876, 0.20166568, -0.13526523, 0.03386154, 0.14910637, 0.24515441, 0.04167813, 0.012756434, 0.07010392, 0.0738938, -0.088039145, -0.06672908, 0.04184819, 0.13693859, -0.0074764746, 0.014700735, 0.14939013, -0.09323305, -0.06890773, -0.13481444, 0.19806162, 0.12011914, -0.011047209, -0.15605658, -0.18720132, 0.07702635, 0.11887361, -0.07840396, 0.035200246, 0.18951978, 0.096460305, 0.13995524, 0.045807697, -0.13771321, 0.10416808, -0.044812605, 0.16034187, 0.14160793, -0.061946433, 0.0023541301, 0.0915523, 0.12149776, 0.060685378, 0.14839485, -0.090877555, 0.0047980025, 0.1422034, -0.1354497, 0.049048416, -0.13574304, -0.12986498, 0.14376214, -0.0935294, 0.13210063, 0.19187142, 0.038191035, -0.13465904, 0.15698424, -0.056751594, -0.022280492, -0.017877666, 0.1482739, 0.14357775, -0.16196191, 0.10984905, 0.061035175, -0.04415861, 0.013317235, -0.11831798, 0.031559736, 0.0944929, -0.23210125, -0.15967968, 0.11596074, -0.061507534, 0.079519406, -0.034232624, -0.15318424, 0.02040175, -0.037657607, -0.1137886, -0.144801, 0.056214735, 0.028407525, -0.14473227, -0.17825602, -0.099447615, -0.116071165, 0.043978292, -0.03210778, -0.028683608, 0.02218266, -0.05561619, 0.17058797, 0.038337614, 0.001385802, 0.1132064, 0.09073914, -0.01692333, -0.015122889, 0.05547665, 0.093626484, -0.041836854, 0.02102715, -0.09305375, 0.17069332, -0.020910608, 0.0744614, -0.036781523, -0.08829855, -0.061886325, 0.016661108, 0.091407426, -0.009394496, -0.15244785, 0.202756, 0.11384499, 0.12115791, -0.027841682, 0.0055801785, 0.116469175, 0.12490244, -0.044638153, -0.01241776, -0.06058537, -0.08339455, -0.0151418345, 0.020127986, 0.17627424, -0.13746172, 0.05628908, 0.119302124, 0.05723854, 0.033900227, -0.19017509, 0.19846325, 0.060076393, 0.04981771, -0.10850294, 0.1125562, -0.031864, -0.033487488, 0.14138694, -0.0586675, -0.14513108, -0.07372592, -0.17611499, -0.17635363, 0.09015615, 0.10038896, -0.11912813, -0.07066523, -0.127834, 0.10426806, 0.024343356, -0.0039229263, 0.1329308, -0.086556025, 0.038419854, 0.12839228, -0.13392818, -0.12650457, -0.10046243, 0.011032543, 0.15531345, 0.0322286, 0.07798579, 0.04064505, -0.105509564, 0.08610421, -0.08597919, -0.05376335, 0.17317279, 0.06479954, -0.08835989, 0.086381465, -0.030293781, 0.03133138, -0.012824414, 0.0022991344, -0.093782194, 0.08203884, 0.09384314, 0.12887916, 0.08717643, 0.04460462, 0.056597628, 0.07235467, -0.047611315, -0.0096336445, 0.07581216, -0.054025475, 0.14394206, -0.014017209, -0.012811816, -0.11403836, 0.14013287, -0.052794706, 0.07574548, -0.0018399641, 0.031692598, -0.18977468, -0.04755634, 0.024686104, 0.05523895, 0.047652327, -0.085775144, -0.011296275, 0.08850107, 0.024333242, -0.115110785, 0.13894968, 0.08893876, -0.16464938, -0.12381581, 0.099931344, -0.14480674, 0.060734984, 0.12563905, 0.08336354, -0.03197219, -0.15550119, 0.18081675, 0.04101124, 0.038947396, -0.07611238, -0.07870933, 0.10657558, 0.09323291, 0.10726079, 0.07069473, 0.019778797, -0.11200009, 0.089416526, -0.07719105, 0.050235227, -0.079602875, -0.03920947, -0.028251044, -0.08488733, 0.17771497, -0.016082685, -0.12624145, -0.08152875, -0.11300755, 0.134717, -0.028685354, 0.07172248, 0.049693562, 0.037501447, -0.18405461, 0.20221578, -0.11984049, 0.00429131, 0.090399005, -0.052994803, 0.19570346, 0.047034957, 0.18132678, -0.0051337373, 0.0036547333, -0.050266556, 0.08878844, -0.07094886, -0.101077415, -0.055468168, 0.09992539, 0.18024006, -0.16396616, 0.032658618, -0.19241881, 0.24790111, 0.026111702, -0.027118964, 0.051600732, 0.119793504, -0.033030886, -0.14037156, 0.01534608, 0.073789366, -0.18580015, 0.008432722, -0.047590256, -0.13387057, -0.116221264, -0.077752076, -0.08139687, -0.098885655, -0.00021172181, -0.028638817, -0.036000594, -0.05209917, 0.15518214, -0.13265325, -0.16158749, -0.15633984, 0.016522054, 0.19579023, 0.083355375, 0.027293263, -0.011443386, 0.014655708, -0.07271048, 0.09356618, 0.14967738, -0.1384396, -0.11824212, -0.08638666, 0.18911141, 0.03972959, -0.040420983, -0.0075152717, 0.03731424, 0.022459462, 0.05935898, 0.052241128, -0.06850457, 0.056862973, -0.02060728, -0.0042915577, -0.14404136, -0.02090461, -0.07144756, -0.114821754, -0.049111396, -0.15439731, 0.20724863, -0.030633207, 0.0063918266, -0.099464774, -0.10515133, -0.09237289, -0.16865592, -0.120854415, -0.0566099, -0.015072333, 0.19175637, 0.02280133, -0.039438717, 0.01688453, 0.04916384, 0.00069286895, -0.013726361, -0.04018601, -0.0058270446, -0.122792445, -0.124788634, 0.037537403, 0.079432994, -0.014682217, -0.14952454, 0.119267195, -0.105908446, -0.12370357, -0.07214368, -0.0347748, 0.041502405, 0.20365275, 0.021348864, 0.09916284, -0.15875688, -0.06748876, 0.10073594, -0.14472537, -0.03729808, 0.17454442, -0.1520437, -0.12004223, 0.07148413, -0.10999861, -0.14145452, -0.20658644, -0.09389063, -0.0115937935, -0.11404301, -0.17847864, 0.05698558, -0.11295913, 0.19180807, -0.009927852, -0.1062, 0.26490438, 0.24140948, 0.022251688, -0.18711427, 0.03993435, -0.015361558, 0.17324339, 0.086477965, 0.015515962, 0.05293464, -0.07172541, -0.1242277, -0.010002717, -0.08370788, -0.13422148, -0.01228699, 0.09953198, -0.15168715, -0.021948138, -0.056349624, -0.13710147, -0.0042326273, 0.009402724, 0.08467514, 0.14122908, -0.12988862, -0.056154013, 0.032282323, -0.064086996, -0.14646469, 0.0917742, -0.041964944, -0.14463462, 0.072024345, -0.09529422, 0.066205956, 0.021490294, 0.021073058, -0.2028481, -0.18672125, -0.21140996, -0.060055353, 0.072233245, 0.082723916, 0.018316573, -0.09800197, -0.011310614, -0.18207489, -0.038255762, 0.193701, -0.0054896935, -0.04923165, 0.07986421, 0.14708427, -0.17898624, 0.19607456, -0.013833491, 0.09146445, -0.17552774, -0.025125116, -0.0017325728, 0.15897052, 0.17693974, 0.1665719, -0.015029454, -0.06650283, 0.061809063, -0.0055297054, -0.09457159, 0.09933247, 0.01528906, 0.07244704, -0.2080866, -0.04619629, 0.066325165, 0.078966565, 0.060261674, 0.020176897, -0.073938765, -0.08600034, -0.107268766, -0.08532922, -0.037459258, -0.0822283, -0.09868552, 0.011243526, 0.06486567, -0.16753133, 0.10659555, -0.17422712, 0.16065685, -0.09981597, 0.087927945, 0.034063984, 0.0018900756, 0.088285744, 0.11981502, -0.07987324, -0.012642163, -0.045600493, 0.16241547, 0.16889095, -0.07111556, 0.021003721, -0.026747685, -0.05031227, 0.08070361, 0.10889231, -0.03130754, -0.15030445, 0.18464485, -0.13541795, 0.13321857, -0.05974493, -0.068808734, -0.06254452, 0.11930218, -0.17778927, -0.08073414, -0.055461522, 0.07663593, 0.046296306, 0.05330821, -0.038505405, 0.16307908, -0.013205434, 0.11394737, 0.16050425, 0.097377524, 0.030434687, -0.063569725, -0.18423466, -0.15284395, 0.13782138, -0.010472665, -0.21970285, -0.03488067, 0.055032726, 0.014779463, -0.056489687, 0.05063901, -0.18890944, -0.0657692, -0.09918428, 0.02281908, -0.1937707, 0.06950097, -0.03043531, 0.022134336, 0.021305239, 0.15994386, -0.02842215, -0.07999736, -0.115608715, 0.19621558, 0.08014687, -0.14040086, -0.07036172, 0.028761163, 0.35673085, 0.0626561, 0.077563226, 0.08709947, 0.06445389, -0.12594472, -0.13044538, -0.093412004, 0.13263966, -0.021541547, -0.08828621, -0.031831227, -0.06626382, -0.20095822, -0.01648297, -0.0026044738, 0.035391927, -0.06250547, -0.18502688, -0.058666892, -0.03749389, -0.02201193, -0.103321575, -0.014372623, 0.07622245, 0.026942885, 0.09801151, -0.15700191, -0.027092641, -0.012491968, 0.081073746, -0.14156541, 0.17695965, 0.10639945, 0.01722328, 0.09796032, -0.03842185, -0.14357017, -0.08089632, -0.046550475, 0.026788216, -0.07681765, 0.073870465, -0.20514272, 0.027671538, 0.15398312, -0.0004927129, 0.15299399, -0.15350872, -0.06615367, -0.0050467635, 0.0856495, -0.01367646, 0.11110158, 0.010174984, 0.13914733, -0.037213337, 0.08823311, -0.06628661, -0.12919277, 0.12262348, -0.13606817, 0.10781212, -0.033880785, -0.16598707, -0.030133648, -0.022600735, -0.048075303, -0.19220622, -0.09579859, -0.104235284, 0.045196783, -0.040917397, -0.015766509, 0.11221168, -0.05439049, 0.07341695, 0.05339428, 0.09088771, 0.12468483, -0.18103904, -0.120250575, 0.09258277, 0.16265512, 0.18245567, -0.14129862, -0.11051402, 0.05139136, -0.1313347, -0.11418451, -0.08951106, -0.038526297, -0.0342006, 0.19866838, 0.15083353, 0.024207534, -0.18578362, -0.09622747, 0.016661255, 0.055871002, -0.15544039, -0.11323589, -0.039880022, 0.15502766, -0.020228505, -0.023165708, 0.043854646, 0.010454626, -0.035865482, 0.119249545, 0.1805653, -0.14364184, 0.06089357, 0.06613804, -0.17801918, -0.051525775, -0.023225643, 0.2407273, 0.16703685, 0.018474752, -0.00020771116, -0.1134809, -0.18233046, 0.12608625, -0.08486546, 0.05376547, 0.048767123, 0.03612144, 0.0739635, -0.05596551, -0.03932368, 0.095857136, 0.14260055, -0.08607977, 0.046574876, 0.061952706, 0.032715503, 0.061699506, -0.008836529, 0.017372267, 0.11389927, 0.118575625, -0.11198589, -0.030081643, 0.14679806, -0.036057893, 0.08979055, 0.08581747, -0.17953569, 0.012615123, 0.04912918, -0.12897699, -0.11334422, -0.08602655, -0.030091068, 0.10196424, -0.099899076, -0.01695187, 0.09826138, -0.00082563097, -0.0436664, -0.09556658, 0.008996898, 0.11712835, 0.112917095, -0.015618801, -0.00093645346, -0.06610091, -0.16920565, 0.056497026, 0.04461185, 0.06604954, -0.08498124, -0.1787872, -0.024128485, -0.14463153, 0.13603018, -0.2014229, 0.026794514, -0.13398588, 0.0041797045, -0.07982367, 0.07328151, 0.05470116, 0.07907098, 0.024383161, 0.22272874, -0.0019900915, 0.049726184, 0.17912772, -0.05355514, -0.011463752, -0.06302251, -0.019470211, 0.1742449, 0.16621977, -0.07910692, -0.06572092, 0.06251398, -0.059540085, 0.033158686, 0.05222766, -0.026619071, 0.17974952, 0.14393908, 0.08437498, -0.008245281, -0.123010956, -0.089628674, -0.029852282, 0.010349429, 0.091430426, -0.15366691, 0.063402124, -0.051100142, 0.023560869, -0.054351196, 0.010879979, 0.17602606, -0.05235612, 0.13539827, 0.09846348, -0.18604071, -0.10681718, -0.0773525, 0.14742558, -0.07147901, 0.09237189, 0.20174137, -0.08244151, 0.16972968, -0.04861167, 0.03817546, -0.04924604, 0.06479514, -0.060481198, 0.028801555, 0.046367057, 0.06936805, -0.0024984193, 0.095975585, 0.08749006, 0.13814995, -0.12113847, -0.053767625, -0.15298176, -0.05381662, 0.17540668, 0.063994415, 0.009552025, 0.031106176, 0.10132676, -0.061566465, 0.026559323, -0.02277234, 0.10138966, -0.13168238, 0.052799366, -0.1869807, 0.027535368, -0.039116327, 0.1396293, 0.05225277, -0.015130098, -0.15970767, 0.16040392, 0.05992989, -0.0011234363, 0.11975727, -0.043503173, -0.1605183, -0.13818145, -0.08379861, -0.064008005, -0.103513, -0.12792698, 0.16263485, 0.028965253, -0.059260383, -0.15176725, -0.07914612, 0.19409221, -0.15944408, -0.04024078, -0.023467433, 0.18512098, -0.046243656, -0.09994515, -0.15614556, 0.05932197, -0.066941686, 0.17838244, 0.123976, -0.15002064, -0.013992174, 0.1812044, 0.13055493, 0.10027497, 0.042059287, 0.085701734, 0.18415062, 0.04884192, 0.15462272, -0.15277478, -0.018817425, -0.12985867, 0.15636262, -0.011952153, -0.011198159, -0.008130876, 0.16446194, -0.18957105, 0.076420836, 0.17554301, 0.46063423, -0.58150667, 0.06262848, 0.012511458, 0.13876362, -1.1843251, -0.10277078, -0.07732353, -0.183918, 0.5296659, 1.3833829, 0.17114134, -0.69284314, 0.16960359, -0.16298287, 0.015112814, 0.02942354, -0.15298301, -0.19971094, -1.9249732, 1.3529081, 0.11102794, -0.007697284, 0.13650127, -0.1564575, 0.118358605, -0.46289408, 0.042715393, 0.010051171, -0.759334, -1.0306187, -0.02072291, -0.26875392, 0.003319139, 0.02449758, -0.1725739, -1.0178039, -0.23232198, -0.17270613, 0.06528409, -0.3385709, 0.020969981, -0.10180618, 0.10232623, -0.13910815, -1.1963478, -0.23469229, -0.9923714, -0.5646549, 0.46126026, 0.15039791, 0.0015490706, 0.3928196, 1.7247587, 0.0028762505, -0.58023393, -0.40200582, -0.80128396, -0.41339543, -0.1785669, 0.16891953, -0.51312554, -0.11792327, -0.27645168, 0.6049243, 0.36827004, -0.13315356, -0.3650026, 0.46917176, 0.71068895, 0.12390634, 0.14995429, -0.10164343, -0.1898956, 0.18072574, 0.052729253, 0.78552127, -0.011212781, 0.6360082, -0.08995482, 0.047431935, 0.095097706, -0.15914688, 1.4982368, 0.27623653, -0.49348342, 0.1141476, 1.110782, -0.20021637, 0.067017205, -0.41129905, 1.222885, -0.17741078, -0.027530674, 0.5571611, 1.3618301, 0.10327187, 1.2422683, -0.039123, 0.044333674, 0.09557993, -1.0216591, 0.08160009, -0.245664, -0.04464367, -1.2306756, 0.0071066325, 0.11555764, 0.704133, 0.1717129, 0.3033752, -0.07537005, -0.5115311, 0.011362463, -0.08379487, 0.5779635, 0.070168905, -0.34583148, 0.18327309, 0.25548458, -1.5640222, -0.19740419, -0.043173626, -0.35678267, 0.29136127, 0.14926441, -0.37259364, 0.15234436, -0.10451173, -0.62252456, 0.5974561, 0.17158172, 0.46039593, -0.038718473, -0.20775957, -0.71671903, 1.4333317, -0.098474436, -0.1842665, -0.042277783, 0.21979786, 0.34656927, 0.9831457, 0.055469915, 0.2276693, -0.043746427, 0.08228505, 0.84976804, 0.81421065, 0.53045464, -0.14830199, -0.19104043, 0.20453338, 0.7354991, 0.10147879, 0.8573517, 0.5737138, -1.3220297, 0.50478095, 0.13805458, 0.07226168, 0.47398594, 0.056185134, 0.08235549, 0.77024037, -0.08315022, 0.056102045, -1.825216, -0.96959955, -0.46644977, -0.7421251, -0.1957873, -0.12545459, -1.9886775, -0.16123737, 0.13110635, 0.54669094, 0.06327062, -0.4560251, -0.016302964, 0.26760295, 0.007477417, 0.04727388, -0.3046042, -0.55912393, 1.4967408, -0.14404714, 1.2357222, 0.014193345, 0.10302201, -0.41570905, 0.11902999, 0.047169093, 0.18726447, -1.3402848, 0.5480461, 0.08007058, 0.12902035, 0.29081562, 0.020782107, -0.419839, -0.24847743, -0.20946166, 0.18765488, 0.049849972, 0.75715417, 0.0989922, -0.09807872, 0.1042891, -0.20112117, 0.45430824, -0.20618944, 0.03901707, -0.14307351, -0.030825596, -0.18950683, 0.09701642, 0.09496651, -0.0038467993, -0.2746087, -0.28628066, -0.09716525, -0.51167053, -0.39992458, -0.02987896, -2.2977023, -0.48960036, 0.090663515, -0.11591728, -1.2628813, 0.70339733, 0.08266681, -1.0193354, -0.015211097, 0.20366852, 1.0785681, 0.056164134, -0.042907257, 0.17371967, -0.07756865, 0.028399132, 0.058375806, -0.106830545, -0.03427791, -0.24331516, 0.7780795, -0.34011146, 0.9729885, 0.45727596, 0.69746816, 0.1610198, -0.083023675, -0.061695684, 1.6361058, -0.06737024, 1.3581398, -0.9793926, 0.449594, -1.159658, 0.5798457, -0.083743945, 0.050402194, 0.1252698, 0.107198104, -1.5494248, 0.3350172, -0.29083422, -0.76187736, 1.614635, 0.0903361, 0.1746606, 0.08961965, -0.022042131, -1.0847247, 0.032488696, 0.11488591, -0.22301067, -0.22182503, -1.426311, 0.15866584, -0.21836239, 0.013814044, -0.07036681, 1.5260231, -0.3586895, -0.29776266, -0.037347425, -1.1839116, 0.16758233, 0.23557076, 0.7354353, 0.14387721, -0.011646329, -0.003081664, 1.1848508, -0.71814567, -0.0604226, -1.0475099, 0.12528358, -0.0789039, 0.22330062, -0.39866444, 0.059184067, -0.21592864, -0.015874952, -1.2196032, -0.11273667, -0.04842547, -0.0921382, 0.5820358, 1.2640274, -0.043842126, -0.85998374, 0.00028054658, 0.10829047, 0.21635456, 0.06832989, 0.11524553, -0.13393888, -1.7489773, 1.4549913, 0.020472, 0.3085847, -0.27005908, -0.26620802, 0.4216183, -0.29044455, 0.16706538, -0.05067542, -0.5515876, -0.877264, 0.14333846, -0.5044026, 0.04549814, -0.1488844, -0.26332924, -0.9983223, -0.21535312, -0.19167674, 0.043317005, -0.5984425, 0.13196144, 0.23718092, -0.05665545, 0.06425393, -0.99842423, -0.22625619, -1.2626431, -0.44625565, 0.27017388, -0.01097637, -0.08198337, 0.40139633, 1.8065696, -0.14822298, -0.6038258, -0.36601788, -0.75470084, -0.2249279, -0.30854553, -0.20234887, -0.51028866, -0.20010586, -0.22194432, 0.4713955, 0.24073206, -0.078013785, -0.2460823, 0.48720804, 0.67459595, 0.15772824, 0.036212366, -0.18421376, -0.19146118, -0.11324369, 0.20625077, 0.56951046, -0.004724659, 0.77200973, 0.15345311, -0.22845335, -0.13076426, -0.10202567, 1.3704593, 0.34337002, -0.31833786, 0.2690688, 1.1031111, -0.029485056, 0.28579542, -0.2922783, 1.0877898, -0.18300685, 0.04517487, 0.27282655, 1.2195888, -0.0397988, 1.1993462, 0.07435986, -0.01451398, -0.16779314, -0.69451183, -0.09315383, -0.2369919, -0.13946931, -1.0469962, -0.14780802, 0.049998634, 0.9688529, 0.43239406, 0.23278013, -0.030995551, -0.52096397, -0.06831156, -0.12624288, 0.45086044, 0.013906927, -0.24022518, 0.17261335, 0.37569293, -1.343499, -0.112918645, -0.16442306, -0.43971807, -0.001077347, 0.30134356, -0.32274285, 0.24268824, 0.15035076, -0.27508813, 0.4207387, -0.17123495, 0.2626171, -0.1441572, -0.11958016, -0.82438076, 1.4386678, -0.2306259, 0.12044915, 0.15788983, 0.10886995, 0.46636474, 1.1362196, 0.11836231, 0.104029834, -0.15115976, 0.17963849, 0.6407841, 1.0176694, 0.5217143, -0.06237395, -0.094910085, 0.21282159, 0.7711607, 0.063766554, 0.55913556, 0.51009333, -0.9998697, 0.55822563, 0.17346981, -0.19352299, 0.2329559, -0.09710181, 0.13013543, 0.63821256, -0.32393008, 0.16136564, -1.7548268, -0.9245966, -0.47857776, -0.66786885, -0.10544527, 0.09895261, -1.9784861, -0.147583, -0.19693847, 0.20881128, -0.04294779, -0.72010016, -0.24755011, 0.053639535, -0.017447144, 0.113838606, -0.52127796, -0.6460036, 1.4124999, -0.046924014, 0.83380383, -0.17869611, -0.16715479, -0.25499952, 0.19003578, -0.13053879, -0.14895391, -1.1023545, 0.5038083, -0.12984619, 0.37342393, 0.0678303, -0.27431414, -0.52210546, -0.28217584, -0.012602727, 0.09003221, -0.01177277, 0.3438162, -0.022951653, -0.1324507, 0.15919907, -0.07130413, 0.27995133, -0.12551223, 0.011593856, -0.06028285, 0.12476754, -0.035672378, 0.19020349, -0.057055935, 0.17068486, -0.17639263, -0.22886969, 0.041723322, -0.55179715, -0.00067073555, -0.018905176, -1.9800715, -0.36482993, 0.21354549, -0.13798286, -1.3679603, 0.7105132, 0.18971059, -0.6530295, 0.0045964452, 0.12510465, 0.90904045, 0.18080135, -0.22540994, -0.07773244, -0.109237164, -0.003080751, -0.2093965, 0.034711633, 0.10196555, 0.055850748, 0.9054329, -0.22931357, 0.6333101, 0.38451868, 0.5278401, 0.12096713, -0.15331747, 0.17311479, 1.2560323, -0.18785153, 1.2061039, -0.89281684, 0.48302147, -0.9540389, 0.79664737, -0.005146758, 0.22609818, 0.046149403, -0.16438985, -1.1945777, 0.57222295, -0.22295767, -0.6515075, 1.4445661, -0.019523215, 0.30708423, 0.189153, -0.059207648, -0.79339844, 0.17925927, 0.17042428, -0.40037972, 0.05943999, -1.330295, 0.10874895, 0.013051209, 0.173296, -0.104193434, 1.2846789, -0.32954398, -0.11807339, -0.030596305, -0.9562743, -0.1017471, 0.2155207, 0.90463084, 0.13360539, -0.17486657, -0.11274956, 1.1889281, -0.56471866, 0.0136369625, -0.8741608, -0.11690984, -0.14007199, -0.062794894, -0.06312, 0.20735091, 0.013235876, 0.2048289, -0.047113996, 0.040669456, 0.015124906, -0.13599189, 0.1493958, -0.1447291, -0.07357982, 0.011484952, 0.009498813, 0.11349027, 0.011548502, 0.065281324, 0.19569582, 0.047209967, -0.14104933, -0.14222194, -0.06525871, -0.14135154, 0.00018558065, -0.16408186, 0.03139387, -0.10077786, 0.20391695, 0.24624106, -0.074769355, 0.15176363, -0.07341226, 0.05680534, -0.0443065, 0.16943768, 0.04198411, -0.10285872, 0.24422483, -0.053196624, -0.063402206, -0.13738169, 0.0045852438, -0.19160306, 0.26059598, -0.019418823, 0.029654102, 0.20092271, 0.010480223, 0.11248229, -0.07882203, 0.09713296, -0.15428756, -0.046321925, 0.040276673, 0.04522314, 0.08266466, 0.063575536, -0.08884765, -0.06617819, -0.046718452, -0.0076993178, 0.2524324, -0.0016092001, -0.043378294, 0.13113555, 0.14542754, 0.22651108, -0.1112008, 0.0732576, -0.04180371, 0.13727127, 0.22103976, 0.203532, 0.12414465, 0.18185669, 0.043374743, -0.052726652, 0.20702596, 0.031619597, 0.27519965, 0.048306823, -0.12811989, 0.05021935, -0.13516955, -0.10054793, -0.1090811, 0.11487003, 0.1219026, 0.14753608, 0.052462302, 0.08624628, -0.1884917, -0.19288175, -0.07112711, 0.063172676, -0.0904489, -0.23158635, -0.06979406, 0.21679181, 0.15706417, 0.032652453, -0.113969944, 0.1868815, 0.13368124, -0.17045158, 0.1781936, 0.044269945, 0.16583508, 0.14835809, 0.1189864, 0.18923442, 0.15181711, 0.0009943406, 0.0002686793, -0.045257084, 0.0068254615, -0.11092502, 0.101137795, 0.03115029, -0.046736818, 0.11852808, -0.0791156, -0.12329826, 0.14401488, 0.09747276, 0.16548197, -0.1761055, -0.026117831, 0.14427598, 0.0056260806, 0.031252105, 0.19418858, 0.16313393, -0.17953922, -0.032691207, 0.11749051, 0.02184847, 0.07039837, 0.08511028, 0.041319504, -0.025069855, 0.24257834, 0.029473774, 0.048809033, -0.07549768, 0.1803049, 0.19784407, -0.10656992, 0.10483594, -0.098273955, 0.001432547, 0.22973306, -0.07803666, 0.10194453, 0.2149506, -0.026682556, -0.09014866, -0.00013346541, 0.1871525, -0.060066793, 0.19280039, -0.16018243, 0.034132347, -0.02803135, -0.16360915, 0.11746311, 0.11348136, 0.08747625, -0.16929784, -0.059223287, 0.034524277, -0.14389233, 0.018583674, -0.06659051, 0.007861757, -0.13575773, -0.101259455, 0.068118505, 0.054807387, 0.00035551915, -0.055838548, 0.19595379, 0.18579273, 0.13194631, -0.11352586, 0.1431267, -0.09484462, 0.01932715, 0.2147407, -0.038919423, -0.1221091, 0.04997804, 0.10423566, 0.12768875, -0.031799763, -0.0979819, 0.16290896, -0.1734779, -0.04811611, -0.13071282, -0.1580166, 0.1412187, 0.06506713, 0.18329868, 0.08040643, -0.19012424, 0.21219267, -0.048242953, 0.12229372, 0.16410135, 0.103239395, 0.13735522, 0.1189181, 0.0084234765, 0.104172714, -0.03715648, 0.12753022, -0.064369954, 0.084664464, 0.09043336, -0.1659178, 0.22887632, -0.03273219, -0.098897316, 0.08676476, -0.0028431744, -0.1675648, -0.13026096, 0.04374126, 0.12940882, -0.18041077, -0.029482873, 0.026720325, 0.1864766, -0.019572094, -0.028163733, -0.1269303, 0.14823118, -0.129188, 0.077463225, -0.1452513, -0.015297917, -0.06768805, -0.13842808, -0.08624205, -0.14099815, -0.20205535, 0.12069669, 0.016586957, 0.10153742, -0.030636348, 0.19350557, -0.14502144, -0.08559125, 0.2194808, 0.11097333, -0.17369778, 0.046081796, 0.06934642, 0.034820043, 0.19008505, -0.18529555, 0.13099384, -0.033480816, -0.12543775, 0.18033296, -0.19781892, -0.011989399, -0.03989527, -0.124685206, -0.122473955, -0.09285912, 0.20041609, -0.012384263, -0.1516933, -0.14579484, 0.21547192, 0.0640049, 0.104668885, -0.023030594, -0.008923053, 0.1388079, -0.009452362, 0.002490757, -0.050473716, -0.0027907363, 0.2185832, -0.14571624, 0.09090319, 0.23458858, -0.0987801, 0.101060115, 0.07203331, 0.1700878, 0.13795117, 0.065564856, 0.11229489, 0.12532835, 0.06998505, -0.05329516, 0.22529075, -0.047048535, 0.08445151, 0.111113004, 0.04787527, 0.104818285, -0.045188077, -0.12719624, 0.035160054, 0.07922474, -0.026641829, -0.14068452, 0.11330428, 0.07459831, 0.14932995, -0.12366725, 0.15427974, 0.2074622, -0.13641568, 0.039983127, 0.007424574, -0.057935867, -0.14888251, 0.20705093, 0.021675719, -0.10177588, 0.06589922, 0.08533911, -0.13803849, -0.08649429, -0.16877629, 0.038540613, -0.08974112, -0.09808597, 0.18290041, -0.07843116, 0.09330412, -0.13817544, -0.058328573, 0.1744837, -0.16014895, 0.26144743, 0.08115121, 0.0050543738, 0.14643751, 0.10345546, -0.1648671, -0.10309543, 0.10587919, 0.15297058, 0.061910946, 0.09158297, 0.037298158, -0.15206993, -0.14470187, 0.06340749, 0.08659546, 0.037104297, -0.0869605, 0.16416034, 0.018785363, 0.012109766, -0.13075952, -0.13891152, -0.016352583, 0.19727841, 0.10629734, 0.061467543, -0.1494026, -0.10861481, 0.12305804, 0.010696457, -0.12919594, -0.12603292, -0.11977257, -0.06786571, 0.20079562, -0.12252659, -0.101665795, -0.20463666, -0.081305094, -0.16361839, 0.10316745, 0.029535022, 0.15103395, -0.0568412, -0.117931545, 0.18160152, 0.078225255, 0.114591576, 0.17093773, -0.13491373, 0.21090965, 0.021954542, 0.1753855, 0.16171582, -0.14493124, 0.15757816, 0.078444, 0.19071689, -0.090679176, -0.21286657, -0.08498819, 0.03524482, 0.029376382, 0.15811713, 0.22045201, 0.11935531, 0.10157586, -0.19069766, -0.089255184, 0.0064510778, 0.025351783, 0.08505443, 0.05715917, 0.12063643, 0.2345888, 0.1776503, -0.0047677583, -0.14775969, -0.031767894, 0.23012716, 0.13166825, 0.23492432, -0.21433282, -0.056588933, -0.057750504, 0.043687012, -0.098057, 0.050572027, -0.06984043, 0.10366046, -0.1203574, 0.117656596, 0.10026355, 0.056248527, 0.028728472, 0.06935976, 0.23479213, -0.01144506, -0.1545412, 0.23771735, -0.025606602, 0.08260664, -0.14931753, -0.15037407, -0.15553075, -0.005011906, 0.17477487, 0.10620063, -0.12706667, -0.07689477, 0.034011576, 0.020503413, 0.11588333, -0.08597341, 0.21828802, -0.011501147, -0.08955815, -0.022074554, 0.047799878, 0.22935009, 0.2409569, 0.1467707, -0.07311197, -0.049427733, -0.19312628, -0.1409659, -0.048716273, -0.03459152, -0.16877376, 0.19876121, 0.04306908, 0.15086208, -0.14752907, 0.21328893, -0.086783096, -0.20220545, 0.04755396, 0.022628473, 0.214785, 0.24073637, -0.036510713, -0.10019222, 0.20108874, 0.009658731, 0.25217885, -0.038223054, 0.09380108, 0.1273745, -0.2022045, 0.17079176, 0.092129864, -0.15084611, -0.15591435, -0.12476432, -0.15767092, -0.00818971, 0.03722458, -0.06824418, -0.031822897, 0.0025236104, -0.07716329, -0.17227198, 0.07342593, -0.11022956, 0.027653454, 0.18733764, -0.16016324, -0.10510557, 0.10211838, 0.032898664, -0.12598689, 0.18312423, 0.20958784, 0.09959062, 0.19238544, 0.17743486, 0.24780059, -0.052154716, 0.1354649, -0.16613595, -0.083132274, -0.13694108, 0.080172755, -0.08387783, -0.08103214, 0.22611248, 0.18062086, -0.019920573, 0.19419916, -0.044237774, 0.04296514, 0.116922274, -0.09366452, -0.07749459, 0.25548485, -0.10391704, 0.010753559, 0.00094302, 0.096104845, 0.11703848, 0.17633374, -0.08259707, 0.1532902, 0.029508485, -0.07696843, -0.03994056, -0.17359735, 0.074837126, 0.20621048, 0.07014761, 0.03557397, -0.1597228, 0.20461108, -0.09132459, 0.11703973, -0.1590948, -0.038694173, 0.038554203, 0.16921628, 0.2225399, 0.2578822, -0.14604333, 0.025590232, -0.17659283, 0.032491922, -0.07692904, 0.18110593, 0.08000049, 0.19927165, 0.055006765, 0.08391161, 0.037455488, 0.06854009, 0.03506202, 0.030846378, 0.01754088, 0.013332942, -0.04329669, -0.0066726445, -0.12529446, -0.064087905, -0.16200781, 0.019883918, -0.12450498, 0.19492714, -0.06265339, 0.14554088, -0.00034681865, 0.15780622, -0.14190365, -0.1754392, -0.037608836, 0.12288628, 0.14059468, 0.014618845, -0.09875386, -0.12918712, -0.117762454, -0.011841457, -0.07840502, 0.19358425, 0.14736931, -0.0017141371, -0.052781127, -0.10496109, -0.06313014, 0.25866678, 0.11989656, -0.18716852, 0.14454138, 0.031890944, 0.21971051, 0.19456089, -0.18443838, -0.07061253, 0.10621057, -0.0010762, -0.08306258, 0.1527268, 0.04358263, 0.1162495, 0.06736592, -0.08181416, -0.17972296, 0.16585001, -0.14735752, -0.00018358922, 0.08837589, 0.060996916, 0.10857703, -0.12840301, 0.19930363, -0.010584256, -0.04658603, -0.039322227, -0.13121769, 0.24054, 0.12102406, 0.056940008, 0.026975356, 0.11513083, 0.17853364, 0.038057752, 0.20482795, 0.044960804, 0.055231936, 0.029465418, -0.06908911, 0.2030525, -0.101210356, 0.100314155, 0.090333305, -0.16507053, -0.17368095, 0.1578263, -0.0042500086, 0.09955174, 0.0675925, 0.074626446, -0.064135805, -0.076845825, 0.075147614, -0.02705863, 0.14256583, -0.14355779, -0.10820955, 0.015531771, 0.038130682, -0.061789677, 0.11056611, 0.09370327, -0.15029015, 0.059808496, -0.1592011, -0.075980425, 0.19265096, 0.17252123, -0.18181448, 0.24736394, -0.058782507, -0.12894876, -0.23425741, 0.069055334, -0.110653505, -0.09773523, 0.06994124, 0.08542674, -0.0388871, -0.15952939, 0.052291133, -0.15017866, 0.099464804, -0.044673596, -0.18068728, 0.10242421, 0.06378008, 0.16353735, 0.27745143, 0.076081425, -0.0015056757, 0.19900447, -0.16907151, 0.0053191152, 0.17093389, 0.04519082, 0.05609771, 0.10697069, -0.0046502375, -0.016379267, 0.013150759, -0.02239685, 0.079299845, -0.1648608, -0.187317, 0.0956299, 0.16165999, 0.16496298, 0.030592052, -0.010019778, 0.06568416, 0.07136625, -0.021573085, 0.22966528, -0.08033376, 0.21319826, 0.11967084, 0.04913438, -0.103759445, -0.18882398, 0.06641649, 0.19917095, 0.19426751, 0.25954416, -0.12847546, -0.12806328, -0.024968857, 0.010407943, 0.1494463, 0.07182139, -0.05534084, -0.13657214, 0.19313118, 0.059078135, -0.08841773, 0.12774101, 0.088114865, -0.048306774, -0.13477632, 0.0014014516, -0.10511484, 0.1807055, 0.04110978, 0.025712673, 0.18809295, 0.062387317, -0.124777526, -0.104550354, 0.042591754, 0.2045418, -0.024715738, 0.11704455, -0.0982948, 0.16891053, -0.20525622, 0.13621546, 0.0072661024, -0.04535284, 0.0050593982, 0.07399279, 0.15103216, 0.13540721, 0.15058728, 0.14355874, 0.03300953, 0.1287459, -0.012546092, -0.16958985, 0.17986396, 0.22970963, 0.20622776, 0.13668366, 0.16736926, -0.17086396, -0.010054501, 0.08052672, -0.050229907, 0.07087045, 0.121569574, 0.17622964, -0.14791839, 0.20486079, 0.19126652, -0.25476098, 0.12995537, 0.050514393, -0.12467325, 0.16214658, 0.011396033, -0.0142237805, -0.001986062, -0.005477791, -0.022927377, 0.20153612, -0.09635594, -0.10709315, 0.025506368, -0.028802766, 0.10779695, -0.04497377, -0.21021977, -0.047917575, -0.15724088, 0.10899398, -0.09073943, -0.026803622, -0.015832141, -0.005295029, 0.100938216, -0.10782601, 0.25362524, 0.1768523, 0.06451407, -0.22740068, 0.10841792, -0.15830866, -0.023083625, 0.1356364, -0.15684117, 0.052754875, 0.021725249, -0.19667667, 0.0167682, 0.025088327, 0.0144837815, 0.111695826, 0.0724661, -0.037685893, -0.15001726, 0.18267193, -0.0047548017, 0.1662841, -0.0250733, -0.13785358, -0.036792103, 0.08264252, 0.115650915, 0.011542184, -0.105795056, -0.1301362, -0.0408988, -0.08293833, 0.011560642, 0.0929248, -0.19874771, 0.18954106, -0.12684496, -0.09571421, 0.060309272, 0.17745845, -0.09290118, -0.19813092, 0.14245829, 0.07440448, -0.03457609, -0.21478575, 0.0826132, -0.021758018, 0.23218502, 0.24765155, 0.18806939, 0.07944117, 0.019290162, 0.21914323, 0.15618473, 0.007927467, -0.14897588, 0.058686, 0.04374091, 0.04863915, -0.014843786, 0.23995487, 0.09593901, 0.01443198, -0.053337768, -0.11742407, 0.12637085, -0.17425671, 0.100628115, 0.15157904, -0.09681678, -0.025748694, 0.16938102, 0.22981808, -0.127089, 0.041136615, -0.10379037, -0.18054257, 0.053234518, 0.10019613, 0.15409628, -0.1027314, 0.14454217, 0.15427408, -0.15806055, -0.114833705, -0.03360282, 0.057030223, -0.090536594, 0.012359948, 0.09404378, -0.034114048, 0.123995, -0.015969561, 0.17030455, -0.005917275, -0.10399771, 0.05344984, -0.086735025, -0.19481578, -0.13705418, 0.028281122, 0.1513678, 0.19627666, -0.12177028, -0.031646963, -0.079966255, -0.12182676, 0.034512226, 0.17813066, 0.075739905, -0.10727952, 0.045031868, -0.09416576, -0.0091604665, -0.06968708, 0.114626326, 0.16411203, 0.09639694, -0.08582336, -0.08897603, -0.081394166, 0.23265982, 0.10775636, 0.18102048, 0.09719756, -0.03293629, 0.042369075, -0.10439717, 0.0906798, 0.11881873, 0.074991815, -0.15543061, -0.007030376, 0.14673011, 0.012844618, 0.14182702, 0.10339511, 0.14375241, -0.1295195, 0.2413205, -0.19879176, 0.16591202, 0.15657622, 0.20075233, -0.02850023, 0.096699275, 0.043277454, -0.006442986, -0.19222476, 0.14148735, -0.049065836, -0.012548517, 0.1859906, 0.07758285, -0.18349652, -0.046182048, 0.06438409, 0.0470867, -0.09026552, 0.13164124, 0.116055496, 0.07817084, 0.0863589, -0.04964035, -0.08178955, 0.15552683, -0.017799042, 0.02542375, -0.06803651, 0.09911214, 0.061705824, -0.0755838, 0.084662214, 0.08845659, -0.20314966, 0.12755843, -0.007531222, 0.14769864, 0.102788165, 0.15652284, -0.09487623, 0.2515705, -0.024430772, -0.0230724, 0.11665356, -0.108155556, -0.08923213, -0.08345468, 0.18140624, 0.03450743, 0.12160398, 0.16695651, -0.036768395, 0.05045022, -0.005203698, 0.06373455, 0.21430396, 0.16043557, -0.13801952, 0.10502943, 0.04113291, 0.030590758, -0.26318085, 0.107631594, 0.10244046, 0.12619756, -0.019929348, -0.052677255, -0.025870264, 0.20215221, 0.04883895, 0.11542356, -0.050852552, -0.080467224, -0.060584437, 0.15202624, 0.20828815, 0.17999847, 0.21373098, -0.13467851, -0.10415894, -0.07033095, -0.15066205, -0.14251879, -0.0043827323, -0.1687783, 0.11923276, 0.111090094, 0.084297106, 0.17752227, -0.08072874, -0.026064731, 0.22893442, -0.09428788, 0.18951763, 0.1479049, 0.087540016, 0.20760433, -0.09845139, -0.056494687, 0.1957627, 0.040862434, 0.0063835257, 0.11282819, 0.04995396, -0.13536468, 0.11149341, 0.19831853, -0.042568013, -0.042196956, -0.17484373, -0.031101918, -0.006743925, 0.020604279, -0.13114946, -0.19038473, -0.1277984, 0.09000186, 0.020030553, 0.06938266, 0.08562155, 0.14273362, 0.13044003, -0.12367766, 0.10921266, 0.08926743, -0.17539775, -0.053116404, 0.18401167, -0.106635414, 0.09879215, 0.17305385, -0.03937097, -0.15217385, 0.22083126, -0.034372333, -0.03401283, 0.053776313, 0.0120142745, -0.013955871, 0.23154342, 0.09251734, 0.16277781, -0.038373828, -0.01016715, -0.08395106, -0.017867211, -0.07040423, -0.099827245, 0.17134376, 0.13343738, -0.21136224, 0.11418667, -0.0019774972, -0.10833278, 0.12782976, 0.19894965, -0.14971986, -0.088080645, 0.13838781, -0.025815874, -0.093525134, 0.22418474, -0.09293945, 0.028272891, 0.05123964, 0.28211576, -0.030473154, -0.13746361, 0.061779816, -0.16646412, 0.12766787, 0.18459319, -0.0721361, 0.011451318, 0.17328289, 0.14145651, 0.15276735, -0.048690133, -0.12410467, 0.0061635505, 0.27174196, -0.0039915177, -0.15257233, -0.08415204, -0.053792246, -0.13407879, 0.112488955, 0.05041341, -0.057710767, -0.19689345, 0.08194008, -0.17280994, -0.12700607, 0.045628, -0.12509221, 0.06131301, 0.26289836, 0.121619545, -0.031460773, 0.22826205, 0.078174874, -0.17362103, 0.0002802242, -0.08691078, -0.08467804, 0.056013335, 0.005631257, 0.094029434, -0.074172, 0.18071853, 0.13816623, 0.13241555, 0.18903117, -0.083977416, 0.13447507, 0.006401722, 0.13383462, 0.17361252, -0.1380458, 0.24476032, -0.19670683, 0.0147832325, 0.07375059, 0.21087642, -0.18888116, 0.07505809, 0.24592587, 0.06425003, -0.03351338, 0.17681333, -0.12158231, -0.15125546, 0.11383075, 0.10933045, -0.119054615, 0.26334974, 0.0891383, -0.024087213, -0.17247689, 0.19740777, -0.19586122, 0.18120393, 0.12986296, -0.19333684, -0.11666572, 0.00885591, -0.19298536, 0.038203616, 0.07556564, -0.06872255, 0.06318671, -0.11028716, -0.043758754, 0.029244175, 0.015538796, -0.08816587, 0.053810537, 0.07349956, -0.07510704, 0.03001051, -0.32510155, 0.2614122, -0.028416207, -0.0029287017, -0.04811387, 0.34348541, -0.030748323, -0.105152376, -0.17113826, -0.018305935, -0.13894147, -0.11759219, -0.19661035, -0.19958615, -0.102990076, -0.18143292, -0.17510726, 0.022349926, 0.106650054, -0.049756635, 0.0567503, 0.37532768, -0.026082965, 0.1202039, 0.0198154, -0.043374088, 0.01648149, -0.2100074, -0.03845749, 0.11484173, 0.0062711965, 0.12047566, -0.07927125, -0.17955074, 0.14628312, 0.053126812, -0.08828588, -0.19735658, -0.013101076, 0.17125028, 0.18645719, 0.032020736, -0.15707843, 0.18654047, -0.07473695, -0.045997158, -0.058354393, -0.19944939, -0.031485923, -0.09703638, -0.08434372, 0.023416338, -0.2102779, 0.022448821, -0.15806557, -0.22893791, -0.16522004, 0.009850633, 0.053996287, -0.055273198, -0.0872892, -0.03599871, 0.024844443, -0.14118843, 0.0307202, 0.111268364, -0.0379569, 0.03687358, -0.18993218, -0.01225906, -0.17135689, 0.05853788, 0.01286746, 0.038794618, 0.047244616, 0.081029244, 0.095970385, -0.1942724, -0.124824196, -0.038863808, -0.21937394, 0.15539831, 0.12374366, -0.12751876, -0.3761172, 0.09279709, 0.12951605, -0.19010282, -0.18447164, -0.0988738, 0.030955886, 0.20578665, -0.09647651, -0.13915984, 0.118902996, 0.16409414, -0.08287314, -0.052237112, -0.18975261, 0.03525338, 0.09489855, 0.24318634, -0.09867509, 0.018245667, -0.17465694, -0.033840552, 0.05798764, -0.036658008, 0.07026939, -0.022511536, -0.11586502, 0.13990693, -0.034397848, 0.07931208, -0.21715017, -0.14346081, -0.17836863, 0.06559262, -0.016455427, 0.028712312, 0.10526632, -0.08507417, -0.0450318, -0.028104281, -0.051802024, 0.055093016, -0.041755877, -0.039541423, 0.052056674, -0.051046483, 0.08969446, -0.10805183, -0.067031115, 0.059336387, -0.05650603, -0.21720348, -0.06710089, -0.17091008, -0.058098778, 0.21541074, 0.15510167, -0.067588106, -0.11492474, -0.18581212, -0.124297105, 0.034648906, -0.016158842, 0.10237625, 0.053772237, -0.08472427, 0.11618199, 0.10647268, -0.06135022, 0.023280041, -0.13922207, 0.07927489, -0.21638869, 0.05878944, -0.08630107, 0.07299491, -0.09115493, 0.16490819, -0.06354394, 0.029134173, -0.09629493, 0.19079015, -0.033018295, 0.077806264, -0.010328639, -0.12043287, -0.06073564, -0.21415769, 0.096461296, -0.0059554405, 0.023122976, -0.03972183, 0.2545859, -0.00018649665, -0.025697626, 0.11548886, -0.12295116, -0.110976286, 0.07098348, 0.10305594, -0.103610165, -0.09596761, -0.1311639, 0.057266027, -0.27777204, 0.019634768, -0.27255142, -0.10775533, -0.008627196, 0.10939556, 0.0059568817, 0.15549101, -0.01746326, 0.26115337, 0.007240569, -0.006983862, -0.24190891, -0.08306233, -0.107311346, 0.013139165, 0.027708465, 0.13655755, 0.03789737, -0.061520394, 0.1837061, 0.1673305, 0.11669063, -0.13420829, 0.08849444, 0.009633264, -0.050436288, 0.05143642, -0.09628366, -0.076851025, -0.010046217, -0.0681647, -0.04897875, -0.054222368, 0.2061784, 0.13748455, 0.05395929, 0.11436821, -0.1319903, -0.18324864, -0.06820832, -0.05466548, -0.032287057, -0.031964228, -0.074185304, 0.041118857, -0.17392422, 0.11017275, 0.11688512, -0.14639051, 0.027845478, -0.03691439, -0.015107799, 0.041987836, 0.0011670091, -0.006835455, 0.04671356, 0.010761044, 0.11755639, -0.13185646, -0.030619606, -0.15948294, -0.08049379, -0.1239551, 0.26026967, 0.008816183, -0.05841441, -0.10333712, 0.027252067, -0.0051073683, 0.14347622, -0.17907058, 0.0012206503, 0.01647213, 0.10226065, -0.14337681, 0.10064836, -0.01884228, 0.053573254, -0.13112886, 0.10230367, 0.1827311, -0.14522965, -0.08207219, -0.10758219, -0.0019063664, -0.09491158, -0.10103292, 0.1643726, 0.116833724, 0.14247264, 0.01876749, -0.06792904, 0.088873915, 0.068705745, -0.07208642, -0.13881914, 0.009050157, -0.08511856, -0.00063191867, 0.14779232, 0.09609847, 0.13334052, -0.034834247, 0.12866051, -0.009153266, 0.06430446, 0.1466498, 0.0023926166, 0.15513732, -0.12918413, -0.057518817, -0.02928317, -0.13566184, 0.07563098, 0.032891594, -0.14250979, -0.16013907, 0.0124597335, -0.07245143, -0.1134691, 0.11805077, 0.16845399, -0.11708236, -0.014748032, 0.18522818, -0.15425639, -0.08389299, -0.16106701, 0.07522213, -0.19933547, -0.0065109, 0.16313851, -0.22021057, 0.03933689, 0.11524177, 0.15663122, 0.05373393, 0.10103072, -0.11751649, -0.07907781, 0.037042275, -0.0043166326, 0.047469705, -0.02329505, 0.013329533, -0.18080327, -0.06289459, -0.09581296, 0.12975188, -0.05723225, 0.07772372, -0.11016413, -0.030271953, 0.012587304, -0.0031987366, -0.16995205, 0.14082609, 0.05764896, 0.08840195, 0.13272941, 0.01651559, 0.1110934, -0.15695731, -0.09277692, 0.018945096, -0.027508104, 0.15473358, -0.013196583, 0.08469052, -0.111750595, -0.0076482547, 0.09776236, 0.024013095, -0.021615978, 0.021754876, 0.01417324, -0.11722472, -0.058489405, 0.007378214, -0.09743593, 0.05158168, -0.17990248, -0.048986953, -0.1487869, 0.06805007, -0.021608597, 0.20695095, -0.20417316, 0.18359642, -0.13621725, -0.045455214, -0.09821286, -0.080712676, -0.09738182, -0.01489146, 0.0017564401, -0.051180955, 0.013328478, 0.074734256, -0.11972618, 0.11388461, -0.23119166, -0.042742364, -0.19433987, -0.13525291, 0.07217817, 0.06998379, 0.12431373, -0.14598577, 0.14227074, -0.021369556, 0.1163575, -0.1708771, -0.02099255, 0.06545206, -0.001674322, 0.014599838, -0.12147082, -0.14845425, -0.0492122, -0.1328105, 0.09066135, -0.16204582, -0.04811758, 0.120028704, 0.10044849, -0.037502054, -0.05474153, 0.0020630113, 0.03657081, 0.028565869, 0.06704335, -0.106713675, -0.08551888, 0.002047067, 0.051774107, 0.13598815, 0.13130708, -0.07418926, -0.16577846, -0.17263949, -0.009760711, -0.15747917, 0.030079758, 0.11388122, 0.111620694, 0.1491637, 0.094021074, 0.14658841, 0.1819929, -0.11342217, -0.25264204, 0.006999462, 0.19382788, -0.1590266, 0.1249989, 0.058420926, 0.10467537, 0.15717705, -0.19627345, -0.12604979, 0.12340504, -0.12634274, -0.0947086, -0.018260915, -0.15990232, -0.07493628, 0.022815542, 0.0666966, -0.074131526, -0.07479819, 0.022072643, 0.1255521, 0.003254899, -0.097420804, 0.15715986, -0.062616676, -0.033571046, 0.06596974, -0.08202291, -0.0626419, 0.061442852, 0.15354824, 0.1917105, -0.13548203, 0.0396715, -0.07861962, 0.06721933, -0.08698686, 0.08994829, 0.029108213, -0.056029197, -0.056052573, 0.21163562, -0.037351202, -0.020882357, -0.03195633, 0.05118682, 0.17878325, -0.13413413, 0.20095243, -0.19677591, 0.081580855, 0.008844797, -0.17516585, 0.02620781, -0.047973152, -0.18857454, -0.123267524, -0.04153826, 0.15781243, -0.24828395, -0.1150193, -0.13763985, -0.120798916, 0.14974928, -0.034235574, 0.094876125, 0.1988445, -0.006547644, 0.00068947586, 0.004621762, -0.05942392, -0.0781976, -0.10692437, 0.086335085, 0.1195653, 0.12562002, -0.10308709, -0.20019163, 0.05392864, 0.06487483, -0.21173778, 0.13957515, -0.041022677, -0.030440852, -0.00099449, 0.06371916, -0.20055264, -0.2613587, 0.10567239, -0.01396974, -0.060859337, 0.095100716, 0.11077478, -0.034297284, 0.19335671, 0.19896209, -0.23412801, -0.27622348, 0.029478176, 0.048918303, 0.16366377, -0.017849581, -0.1470265, 0.0013463458, -0.024074353, 0.084846824, 0.09446884, -0.14849909, 0.10908281, 0.06785245, -0.10274144, -0.19394444, 0.12327407, -0.117959455, 0.12760335, 0.054413185, -0.106485456, -0.0939206, 0.09966906, -0.1186777, 0.01972946, -0.06951527, -0.08196284, 0.181243, -0.20591265, 0.10760834, -0.13376127, 0.054876275, -0.19825315, 0.04543018, 0.090612985, 0.121833235, -0.20379946, -0.11909739, -0.20851842};
const float dense_b[100] = {-0.07275589, -0.021057155, -0.014681155, -0.027479466, -0.035165142, -0.00015585107, -0.016799992, -0.02721197, -0.0038064965, -0.052159782, -0.0045098877, -0.04233943, -0.003170439, -0.0020946618, -0.023887984, -0.024890142, -0.0089195585, -0.04789232, -0.030373782, -0.050114136, -0.02905678, -0.024716139, -0.050964624, -0.04732665, -0.0049489355, -0.033217005, -0.011540763, -0.043883365, -0.059715766, -0.050561666, -0.011117165, 0.012759638, -0.004235344, -0.002388924, -0.025837703, -0.06308857, -0.00037824697, -0.026589436, -0.084371, -0.0418315, 0.0, -0.040599223, -0.05338479, -0.038066555, -0.053944737, -0.060626592, -0.011552817, -0.0035138442, -0.033134837, 0.018872498, -0.023676336, -0.041318767, -0.04716515, -0.04231532, 0.0032266914, -0.016594514, -0.0040935855, -0.044643767, -0.0028188876, -0.023009293, -0.02505924, -0.046061244, -0.029668085, -0.06662997, -0.048297845, 0.0031193625, -0.025401155, -0.008924801, 0.0033174616, -0.042734426, -0.046943147, -0.03396188, -0.022298157, -0.012204922, 0.03442141, -0.05208739, -0.046356894, -0.03191176, -0.047440022, 0.015261246, -0.018193524, -0.051589154, -0.05151568, -0.04724332, 0.026897078, -0.0405717, -0.018021682, -0.064672075, -0.013823457, -0.011993265, -0.10676817, -0.017707529, -0.02048741, -0.009483343, -0.046263248, 0.015865613, 0.0012069108, -0.04195357, -0.010804057, -0.049511172};
const float dense_1_W[1500] = {0.04698814, 4.831415e-05, -0.040187165, -0.27583012, 0.17303298, -0.14552915, -0.0890284, -0.094477415, 0.120378174, -0.12908192, -0.062930256, 0.0025293287, 0.09892145, 0.22865096, 0.003848637, -0.14062184, -0.032685556, -0.1040367, -0.14809655, 0.13677666, 0.037287187, -0.21296585, 0.12057237, 0.16578484, -0.034253586, -0.0055200728, -0.021864869, -0.064889975, -0.01605966, -0.02180104, 0.10777141, 0.0178849, -0.115973085, -0.03305614, -0.07082901, -0.13820684, 0.11206836, -0.13754472, 0.0044229003, -0.16517955, 0.13746344, 0.012655579, -0.00475981, -0.13499689, -0.09399111, 0.026780907, 0.07194175, -0.13423382, 0.0036822, 0.21405245, 0.16402575, 0.060778033, -0.071752146, 0.03790452, -0.12346476, 0.14679839, 0.059856523, 0.13497461, 0.017696088, -0.09932224, 0.08046286, 0.028279433, -0.10072246, 0.0832324, 0.26350057, 0.17197217, 0.2198491, 0.13583352, -0.21672611, 0.12298478, 0.2819088, 0.056213025, -0.2328982, -0.19722782, -0.04471714, 0.18378605, 0.16686015, 0.10399668, 0.04730083, 0.22746374, -0.093555585, 0.018701747, 0.15157317, -0.16797191, -0.19084263, -0.15613478, 0.13901289, -0.22252253, 0.050497655, -0.20100392, 0.070269704, 0.3041364, -0.34189436, 0.1969793, -0.0066679553, -0.06904921, 0.09603885, 0.08350117, -0.03118935, -0.07841176, 0.19389799, 0.092938796, 0.02082341, 0.2013816, -0.15210247, -0.015780583, -0.13840126, 0.19331531, 0.17595337, -0.117231555, -0.033164427, -0.03364265, 0.06009175, -0.22170879, -0.034568936, -0.21325615, 0.14978921, 0.20311461, 0.14700998, 0.1785835, 0.099640265, 0.04602835, -0.12557884, -0.036196094, 0.1383087, -0.0048152497, 0.012852303, -0.04978822, 0.06252284, -0.2226449, -0.029748438, -0.014326062, -0.18587399, -0.0084889885, 0.016533714, -0.13658509, 0.012033017, 0.14842, -0.13148037, 0.11657241, -0.08846109, -0.09273218, -0.022050574, 0.12130186, 0.1552845, 0.2167734, -0.1312717, -0.10114272, -0.113002636, 0.034322653, -0.13122909, -0.0009134755, 0.07161232, -0.07461537, 0.024875872, -0.038805075, -0.16450685, 0.09460249, -0.23848262, 0.046199847, -0.20245396, -0.0031747564, 0.042533, 0.111348175, 0.005581144, -0.20318097, -0.09331204, -0.0070178253, 0.13151608, 0.0496011, 0.06385993, 0.10174012, -0.17667119, -0.24624442, 0.18415108, -0.17071056, 0.10018805, -0.0006257751, -0.0051052556, 0.1813283, -0.18541463, -0.0481805, -0.052964874, -0.14850204, -0.23668557, 0.0059566633, -0.18065184, -0.15797749, 0.13168487, -0.0063840863, -0.0026832644, -0.024839796, -0.06948953, 0.11660561, -0.020785531, 0.047452737, 0.09134338, -0.12740755, 0.066716544, 0.016282884, -0.26393214, 0.046968225, -0.0126492, -0.18491766, -0.07717576, -0.065436676, -0.0024808678, -0.01393497, -0.21952318, -0.053189818, -0.16721374, -0.10994783, 0.13999496, -0.049662963, -0.23502657, -0.20280524, 0.035121515, -0.001254946, 0.076193474, 0.043679923, -0.19051085, -0.082490064, 0.1802114, -0.06488545, -0.04538082, -0.065661594, 0.14637013, 0.16747351, 0.16962527, 0.084919825, 0.085568525, -0.19297926, 0.03272827, -0.12588155, -0.116273336, -0.027291562, 0.032850448, 0.14096795, 0.057672188, 0.20082752, 0.09559331, -7.4501615e-05, -0.12503783, -0.12348583, -0.13380454, -0.0055689886, 0.043472305, -0.08570234, -0.17323728, -0.030406097, -0.15735531, -0.01934992, 0.15818284, 0.034474205, 0.031617306, -0.11403857, 0.16971886, 0.078601696, -0.19281785, 0.060972534, 0.10566282, -0.084445745, 0.17492874, -0.117403045, -0.13039248, -0.036290817, 0.104383335, 0.12538879, -0.20486684, 0.1150471, -0.14899427, -0.0051409756, -0.007481527, -0.22774905, 0.10631631, -0.17957999, 0.10847223, 0.1024072, -0.2592486, 0.018211901, -0.07467821, 0.00090574654, -0.03785503, 0.14365505, 0.019647079, 0.008158522, 0.039346147, 0.06009039, 0.03983022, -0.07421208, -0.093479574, 0.18159549, 0.038197085, 0.06585623, 0.14171816, 0.07484355, 0.047525212, 0.06454309, -0.010586441, 0.015492362, 0.009603725, 0.28548458, -0.10119722, -0.009648342, 0.25803837, 0.15409844, -0.13368982, 0.20871426, 0.13054134, 0.11818624, 0.03283912, -0.2595393, 0.08753889, -0.11992303, -0.15141392, -0.120882764, -0.2976202, 0.058406487, 0.135874, -0.22487994, -0.017997338, -0.20363705, -0.21739917, -0.24363421, 0.029000549, -0.11998693, 0.30245402, 0.10951303, -0.07749871, -0.17189562, 0.04256495, -0.06801776, -0.04860289, -0.27310258, -0.15729508, 0.1419547, -0.19238947, 0.083935246, 0.15861389, -0.0095926225, 0.104779854, -0.0067739193, 0.19096242, 0.047105838, -0.046368163, 0.14142877, -0.010405687, 0.07948869, 0.026527906, -0.03326752, 0.026711835, -0.0023562661, 0.19194075, -0.017287618, -0.13375008, 0.06026922, -0.010821068, -0.018349152, -0.016292375, -0.011262888, 0.18964683, -0.09753368, -0.2534814, -0.017886106, -0.14190902, 0.2834384, -0.12543839, 0.2200164, 0.11930838, 0.022878708, 0.124634825, -0.02549604, -0.20380393, 0.13314605, -0.009530176, -0.1039963, -0.06964092, 0.031285275, -0.16972098, -0.2750462, -0.049545202, -0.0744801, 0.19568793, 0.046249535, 0.16332398, -0.24352925, -0.029329637, -0.08685569, 0.05549641, -0.17969812, 0.08980188, -0.51163685, 0.10293446, 0.07554905, -0.08047361, -0.05992956, -0.20026803, -0.064603895, 0.11708819, -0.2243883, -0.26183492, -0.42354086, 0.0057435543, 0.22605208, -0.33805963, -0.082174934, -0.010835792, 0.1272945, -0.11892933, 0.16677468, -0.15885794, 0.17665161, -0.08513314, 0.18862638, -0.09530763, 0.06685057, -0.026852222, -0.046322256, -0.13575284, -0.069940135, 0.04762055, 0.00010540316, 0.23639603, 0.09045633, -0.0010077562, -0.15758419, -0.06068245, 0.19352467, 0.15710007, -0.18334487, 0.1736568, 0.0008893271, 0.07278942, 0.061309498, -0.0009015933, -0.030833269, -0.19071886, 0.038164906, -0.23773666, -0.4999011, -0.13662109, 0.16520523, -0.07770164, 0.047080338, -0.095886424, 0.14510234, -0.10765479, -0.01759988, -0.060691983, -0.1879138, 0.11220992, -0.094144315, 0.020745268, -0.11048767, -0.0481255, 0.05863603, -0.039419264, 0.006749131, 0.11999979, 0.22137487, -0.034527816, -0.1685972, -0.15594088, -0.11795746, -0.25292638, -0.22886136, 0.1961343, -0.12927906, 0.052228473, 0.04019792, -0.15097778, -0.104006395, 0.07248801, 0.029543757, -0.18505725, 0.23362288, -0.04420882, -0.24232657, -0.11874749, 0.081396185, -0.20823117, -0.15013693, 0.08419834, 0.094613835, -0.22536282, -0.05376467, 0.14868887, 0.21973099, -0.091352135, 0.19950531, 0.02382262, -0.1364466, 0.121834114, -0.1807375, -0.120455615, -0.0027989293, -0.047431763, 0.07483555, -0.17031462, -0.20025598, -0.1352608, -0.19293565, -0.15728047, 0.094179094, -0.1008187, 0.07418684, -0.1087737, -0.17365143, 0.090396404, -0.04963113, 0.029104397, -0.04806603, 0.15155466, -0.20248397, -0.119494654, 0.12528561, -0.13256787, 0.22633381, 0.070776306, -0.05439177, -0.15063635, -0.1464464, -0.01813958, -0.030172853, -0.17294155, 0.047668353, -0.07417697, 0.10280443, -0.122005105, -0.17092665, 0.041355323, -0.08403999, 0.1373129, 0.077849306, -0.20690319, -0.11571178, -0.008436925, -0.04241336, -0.20177494, 0.18336743, 0.062459156, 0.15862377, -0.15477115, 0.1061628, 0.1465989, -0.09083435, -0.08535317, -0.09730343, -0.20137416, 0.12286507, 0.0046433955, 0.15583256, -0.029382104, 0.08384147, 0.03768935, -0.0075547253, 0.18485604, 0.11341506, 0.04749054, -0.044400383, -0.12056621, -0.2074691, -0.06128183, 0.16079113, 0.016579747, 0.101868995, -0.2668503, 0.024420887, -0.032578077, 0.13984145, -0.18130726, -0.1121067, 0.07198938, 0.18856044, 0.1913875, 0.16660246, -0.11358918, 0.05761762, -0.031784788, 0.0781665, 0.103170976, -0.06883871, -0.21892005, -0.1682891, -0.123859204, -0.22117576, -0.16808733, -0.11305669, 0.15016328, 0.25632575, -0.04415247, -0.0022681504, 0.016363084, 0.09860153, 0.13516705, -0.15745871, 0.16043125, -0.21890566, 0.033446882, 0.11155813, 0.02308257, 0.09660022, -0.13704017, 0.022503033, 0.086203024, -0.18022642, 0.16121365, -0.05178979, -0.15994541, -0.1429536, -0.06992337, 0.06620444, -0.027317986, -0.025462404, -0.009938046, 0.15127671, 0.034883536, 0.019189542, 0.0015410664, -0.054025907, -0.14443539, -0.039756857, -0.083654575, -0.17541929, 0.21454689, -0.054641966, -0.02456943, -0.15379682, 0.14844804, -0.004015331, 0.0037260628, -0.11468022, 0.2892377, 0.07727786, -0.23627864, -0.2166771, -0.1813928, -0.08048873, 0.11809052, 0.20658608, -0.046779115, -0.06543129, 0.18154421, 0.04033312, 0.03505145, 0.005827497, 0.0057833493, 0.09705757, 0.09029332, 0.10311607, 0.03746492, -0.06780692, 0.1309127, 0.18426558, -0.1989975, -0.13826019, -0.0677861, 0.01675637, -0.034367666, 0.07355098, -0.06888446, 0.003258046, 0.16480406, -0.07701527, -0.034848787, 0.13605921, 0.05573429, -0.20672512, -0.06959255, 0.023651287, 0.06982348, 0.0066632032, -0.1612847, 0.08002309, 0.00038891626, -0.014602477, -0.021610383, -0.0351766, -0.056781996, -0.1778686, 0.10510735, 0.1760979, 0.0069425553, -0.2725736, 0.03143834, 0.0066864304, -0.16034424, 0.18224974, 0.07867125, -0.1081767, -0.21165521, 0.22615275, -0.09200769, 0.15791915, 0.11571215, -0.23338912, -0.13017929, -0.18855816, -0.033895742, -0.0668034, 0.099386856, 0.013555676, -0.10336589, 0.073483944, 0.006937548, -0.18934889, 0.0037334631, -0.22990808, -0.08170441, -0.073477276, 0.03408164, 0.027264806, 0.0883567, 0.08286824, -0.040562574, -0.054563403, -0.02134244, 0.07391418, -0.078846864, -0.009566421, -0.21660265, 0.28427958, -0.21931383, 0.20048076, 0.15862669, -0.019089635, -0.19283319, 0.048229575, 0.0076242024, -0.21668428, 0.09518441, -0.07742016, 0.13831529, -0.038587127, 0.14159729, -0.20019302, 0.008513239, 0.014850589, 0.118882746, -0.043082457, -0.17738955, -0.21575953, -0.09711444, 0.20113295, -0.051954232, -0.0072740456, -0.016890215, 0.06366263, -0.17235093, 0.0022905546, -0.16147242, 0.048788123, 0.18007204, 0.050358977, -0.04635109, -0.28918925, -0.14807591, -0.11843997, -0.1347085, -0.12871733, -0.03744613, 0.042364575, -0.040060245, -0.1232834, 0.12407236, 0.1593094, -0.0796837, 0.102804005, 0.20556445, 0.0767952, -0.21305062, -0.20935623, -0.013385117, -0.0013101245, -0.15225776, -0.04956945, 0.15364595, 0.0035438698, -0.046004698, -0.072694555, 0.1335465, 0.17017886, -0.07384053, 0.16441189, 0.041567814, 0.14422157, -0.21772358, -0.08955179, 0.13343178, -0.17270972, 0.038240645, -0.14237411, 0.11783294, -0.14620325, -0.13562918, -0.16830724, -0.0067814533, -0.008759618, -0.03844589, -0.2142359, 0.17586495, -0.21240248, 0.0032798797, -0.240102, 0.023314679, 0.09267598, 0.0014394971, -0.0007583314, 0.14716615, 0.008748273, 0.031993624, -0.0277618, 0.19889274, -0.05153253, 0.037399776, 0.0914295, 0.014664236, 0.10875653, -0.13132617, -0.12677184, -0.118068196, 0.32437667, -0.18767099, -0.08670204, 0.5547939, 0.1882589, 0.21630973, -0.039154995, 0.1883114, 0.17178103, 0.182021, 0.03710507, 0.13952757, 0.04447809, 0.095610246, 0.0845746, -0.08972766, -0.1729881, -0.15373002, 0.06145692, -0.21768625, 0.31057516, -0.017143907, -0.19001965, 0.115797184, 0.11305192, -0.15901513, 0.014287148, 0.06472643, -0.07134456, 0.062248617, 0.02111575, -0.19037819, -0.056090817, 0.25283936, 0.17293549, 0.0012072002, 0.04306403, -0.22244893, -0.13674937, -0.19154038, -0.11610879, -0.06437275, 0.056626067, -0.10844257, -0.25036144, -0.0034176654, 0.006241351, 0.09730284, -0.085854344, 0.07376255, 0.18339096, -0.2712233, 0.02902228, 0.2154685, -0.0120531395, -0.058596764, -0.19928132, 0.14010936, -0.18054885, 0.14555335, 0.15003447, -0.00073092594, -0.097962774, -0.13163011, -0.22871107, -0.0664067, 0.046791214, -0.059339, -0.14079314, -0.0910607, -0.16564889, -0.1171192, -0.06535603, 0.10364566, -0.16234614, -0.17768665, 0.05420052, -0.10183464, -0.07585416, -0.08676439, -0.015282885, -0.13017064, -0.051834792, -0.049950883, 0.09824344, -0.011042416, 0.18718241, 0.11694138, -0.14911756, 0.22097637, -0.0030068553, -0.13215312, 0.056978855, 0.009104583, -0.09492568, -0.0045637917, 0.08773364, -0.21156919, 0.029575609, 0.01974975, 0.17809905, 0.22039892, 0.032814607, 0.022083893, 0.13621461, -0.21556579, 0.10922135, 0.14566433, 0.17699824, -0.12731306, 0.17063947, 0.15239339, 0.01618216, 0.07519919, -0.06727527, -0.21853644, -0.18927346, 0.1114165, -0.024459343, 0.17262241, -0.30083832, -0.025511345, 0.009781121, -0.081154786, -0.12145252, -0.08796427, 0.18027158, -0.024058856, 0.12404437, -0.18416794, 0.111707665, 0.04747428, -0.010388956, 0.22005518, -0.040303934, -0.20039731, -0.0026503887, 0.008032478, -0.10091232, 0.13269976, 0.09724602, -0.17824842, 0.06027382, -0.15622962, 0.06693139, -0.17523113, 0.15850477, 0.136613, -0.1974055, 0.006768291, -0.008704957, -0.09788863, -0.022796704, 0.017371457, -0.1844801, -0.30686316, 0.059722777, -0.1576137, -0.08299118, 0.028219903, 0.0044069528, -0.035930634, 0.14566939, 0.2176747, -0.11215196, -0.23698248, -0.1984818, 0.10563129, -0.05400144, -0.124883175, 0.00092957076, -0.09128532, -0.27612928, -0.09017221, 0.1046663, -0.21819855, -0.21940982, -0.20737414, -0.19949204, 0.09122042, 0.0059492923, -0.022854978, 0.03852699, 0.00031375707, 0.024818, -0.0008178999, -0.19941911, 0.20633908, -0.00452183, -0.12994131, 0.15233539, -0.18271478, -0.22391468, -0.19208485, -0.15381815, -0.016150108, 0.034190405, -0.053748276, -0.0070093106, 0.003949719, -0.054557756, -0.20734435, -0.23805678, -0.18296191, 0.14449707, 0.02801809, -0.061481636, 0.03499867, -0.0382137, 0.08079496, 0.099026024, -0.114688195, 0.12039994, -0.45586613, -0.2052321, 0.14838234, -0.1955931, -0.12367758, 0.029929785, 0.15655296, -0.18275325, 0.055133373, -0.23221588, -0.00025362548, 0.24335289, 0.35213628, 0.006054002, 0.060483444, 0.11110709, 0.0018629198, -0.028118528, -0.15655749, -0.21785866, -0.024225144, 0.12733445, -0.035781126, -0.22350451, 0.11265032, -0.19795498, -0.13108818, 0.049836848, -0.06597276, -0.09245718, 0.0019844198, 0.047530532, 0.0043625366, -0.21606381, -0.09211041, 0.01902224, -0.026564518, -0.03677497, -0.21517116, -0.13275205, -0.14564906, 0.08236784, 0.036816094, -0.2085391, 0.036240254, -0.019478831, -0.029339269, 0.15294088, 0.09114399, -0.11133775, -0.11229123, -0.12892182, 0.15307786, -0.19638434, 0.048589155, -0.21072881, -0.17488244, 0.109863296, -0.09354366, 0.10280862, 0.17233606, 0.016815081, -0.16839747, 0.11458169, 0.10830015, 0.14482144, 0.15922226, -0.0070219976, 0.12812282, -0.14342496, -0.07919207, 0.10164704, 0.001566427, -0.0672055, -0.08764271, -0.23278765, 0.16738625, -0.14158475, -0.33960938, -0.008440748, -0.03186296, -0.11262349, -0.046476066, 0.13087308, -0.12350873, 0.05758973, -0.05516644, 0.1238912, -0.10956279, -0.10232492, -0.4993273, 0.12848423, -0.052429304, -0.073299214, -0.04993645, 0.05414655, -0.004495066, 0.020860707, -0.13464132, 0.14568004, -0.22158617, -0.16068226, 0.0580607, 0.061078742, -0.1755908, 0.08029773, 0.07989971, 0.05710062, -0.1343992, -0.14530405, 0.16082148, 0.19467497, 0.18160929, -0.18212865, 0.10494949, 0.1972389, -0.02501112, 0.06527481, 0.1970518, -0.21020867, 0.061233595, -0.18582238, -0.06775729, 0.095344864, -0.097816885, 0.03444001, 0.1404609, 0.120620035, -0.044309735, -0.16214937, 0.20443676, -0.016566187, -0.019969443, -0.049616635, 0.00094022875, 0.03048514, 0.16081384, -0.023561804, 0.054137252, -0.05177767, 0.063797936, -0.19590941, -0.1545855, -0.07217546, 0.054806344, 0.11538958, -0.19409904, -0.018033978, 0.08148515, 0.16017358, -0.018993491, -0.03759832, -0.26025942, 0.14181824, -0.2743986, 0.016764509, 0.101191156, 0.05507501, 0.02015804, -0.19804206, 0.18943717, -0.16663192, -0.056608938, -0.15174106, -0.15476143, -0.1750733, -0.0024577682, 0.19301367, -0.120444894, 0.04668275, -0.028605858, -0.18978328, 0.13096395, 0.092762426, -0.15206529, 0.14019887, -0.08109131, 0.08725074, 0.13680726, 0.118935704, 0.1302044, -0.08860895, 0.0031209418, -0.10314264, -0.030171458, 0.115103714, 0.11295775, 0.051958814, 0.2237028, 0.22638398, -0.12277107, -0.10869593, 0.11354221, -0.19178718, 0.04154657, -0.022946093, -0.0673208, -0.12168549, 0.13180521, -0.10973767, 0.053044796, 0.14739203, 0.10493483, 0.04162787, -0.18960498, -0.018054148, -0.010634358, -0.09084654, 0.07194923, 0.040469553, -0.04566456, 0.11195628, 0.032586582, -0.24174264, -0.03746188, 0.03578757, 0.14871421, 0.043678924, 0.1824934, -0.00082147354, 0.124169126, 0.11006349, 0.040872794, 0.18332638, -0.16181277, -0.10451954, 0.1425075, 0.014632009, 0.0046745236, -0.04740184, -0.13145183, 0.03752055, -0.22382316, -0.014742494, -0.33680934, 0.15969662, -0.06722795, 0.41890916, -0.18231001, -0.17970926, 0.29830712, -0.05741963, -0.007441167, 0.012897337, -0.010218965, -0.1062608, 0.13121188, -0.10519191, 0.12610091, 0.10700941, -0.084497556, -0.030519366, 0.01032451, -0.11510894, 0.1109506, -0.0031605905, -0.21801531, 0.03758749, -0.10159322, 0.19179429, -0.0038133557, -0.11858661, 0.15276812, -0.13236754, -0.0732954, -0.15412863, 0.03329829, -0.28101382, 0.12607911, -0.013042792, 0.14485174, 0.044163182, 0.0034693333, 0.13261706, 0.17110041, -0.59145737, -0.05293011, -0.18803775, -0.14060867, -0.07276977, 0.097209916, 0.018230425, 0.013871502, -0.0572606, -0.033768807, 0.004102239, 0.05872, -0.3220034, 0.22132708, -0.0072096405, -0.14642693, -0.16231066, 0.18279909, -0.009091764, -0.12318915, 0.0020191795, -0.16842607, -0.19930725, -0.085747585, -0.09464059, 0.06926277, -0.06761809, -0.034885287, -0.22284329, -0.043094918, 0.15297206, -0.10395158, 0.19402193, -0.21395858, -0.1149665, -0.09679201, 0.05226566, -0.006655067, 0.1423233, 0.17298771, 0.119938254, -0.22782725, 0.05735158, -0.08729536, 0.009027859, -0.020188471, 0.20523962, -0.09692846, 0.10676618, 0.11236975, 0.14267145, 0.047240496, 0.08350152, -0.030538276, -0.10049565, 0.02775907, 0.04629642, 0.010219686, 0.06520044, -0.16374965, 0.047361206, -0.13559231, 0.14385705, -0.21662135, -0.23118319, 0.1483465, 0.13964127, 0.0050097415, -0.17626907, -0.07290709, 0.004711593, -0.04303993, -0.0610937, 0.05494974, -0.1790138, -0.19968884, 0.0070490083, -0.06691061, 0.07672766, -0.04036354, -0.14853099, -0.055020567, 0.06224093, -0.09180233, -0.032397687, 0.08912806, 0.18090762, -0.14037162, -0.02642969, -0.11543032, 0.06653359, 0.18252039, -0.0867805, -0.1466496, -0.086751685, 0.0072964597, -0.07348333, 0.07881425, 0.10175152, -0.053692874, -0.016915267, -0.078060985, -0.10358921, -0.20925474, 0.085792884, 0.083648205, 0.113108106, 0.13514401, -0.193974, 0.10035079, 0.18408357, -0.12413456, -0.08194021, 0.043196198, 0.10025313, -0.08486474, 0.04972088, 0.1683757, -0.17495278, -0.2259337, 0.04834315, 0.1548033, -0.10564417, 0.21565005, -0.18289153, -0.19163445, -0.06400768, 0.4060844, 0.082445495, 0.16992931, 0.049755763, -0.08718356, -0.26240647, 0.20268884, 0.04486399, -0.12408295, -0.09332415, 0.15556167, -0.15588179, -0.19494057, 0.033381518, -0.22024962, -0.058928825, 0.07366189, 0.04357721, 0.073639974, -0.1915573, -0.18102142, 0.18631366, -0.09187233, 0.15538436, 0.069914356, -0.11282591, -0.12918341, -0.10129405, 0.17799652, 0.130661, -0.17837226, 0.061082423, 0.12492337, 0.004527248, 0.056134865, -0.30257037, 0.2407816, -0.3139044, -0.2642073, 0.11086241, -0.21118212, 0.17752941, 0.108538516, -0.054816373, 0.0066459877, -0.044908118, -0.112392485, 0.07220632, -0.013717149, 0.20311351, -0.15766612, 0.06037596, 0.18241285, 0.12776262, -0.051211525, -0.023553682, 0.07061011, 0.17370732, 0.026112996, 0.036511485, -0.004304881, -0.009718675, 0.057886247, -0.022212327};
const float dense_1_b[15] = {-0.07240083, 0.023357905, -0.047777295, -0.058719937, -0.059236858, -0.067596816, -0.066072635, -0.0041650706, -0.05324887, -0.015031534, -0.04115393, -0.022306599, -0.041840572, -0.029462405, 0.02541993};
const float dense_2_W[45] = {0.029512696, 0.0038966904, 0.014866428, -0.073162004, -0.0032724154, 0.038551763, 0.009223275, 0.043074008, -0.032585017, -0.01823273, -0.0235637, 0.04502433, -0.036157724, 4.593277e-05, 0.018206082, 0.036992684, 0.0022637818, 0.03676799, 0.076926, -0.020131642, -0.0038766505, 0.00792833, -0.018103346, 0.034944423, -0.015348664, 0.03502123, 0.010002721, 0.036227666, -0.03223579, 0.04380987, 0.0006064433, -0.00516887, -0.0032795125, 0.043536246, -0.06603594, 0.03635379, 0.033580925, 0.010142998, -0.015630757, 0.025496725, 0.010121075, 0.02507203, 0.03982488, 0.070899345, 0.036615524};
const float dense_2_b[3] = {0.0, -0.0, -0.0};


#ifdef __cplusplus
}
#endif
#endif
