/********************
    parameters.h

    Code generated using nn4mc.

    This file defines the neural network weight parameters for all layers.

*/
#ifndef __NEURAL_NET_PARAMS_H__
#define __NEURAL_NET_PARAMS_H__

#ifdef __cplusplus
extern "C" {
#endif

const float dense_W[1800] = {0.12903087, 0.1542439, -0.003952814, -0.02536306, 0.023532705, -0.10795383, 0.07066458, 0.08824773, 0.03503524, 0.04221485, -0.03309407, -0.1934817, 0.20113689, -0.00018607466, 0.12284096, 0.08036625, -0.16884723, 0.13052677, 0.22399819, 0.18466559, 0.09191433, -0.21833773, -0.027211448, 0.17499028, -0.25755844, 0.10471108, -0.081071794, -0.060973033, -0.045064397, 0.0824371, -0.06492914, 0.023163978, -0.03622518, -0.29396534, 0.007242402, 0.22803481, -0.17964695, 0.15784632, 0.006332585, -0.111958735, -0.09377438, -0.032003403, -0.20200959, 0.2787738, -0.060249556, -0.1010976, 0.050280213, 0.14200228, 0.014500905, 0.18696041, -0.13809383, 0.04490821, 0.08578317, 0.09591881, -0.11231755, 0.042322043, 0.10329593, 0.092067376, 0.068831034, 0.20410244, 0.016156245, -0.0024701927, -0.12372096, -0.16337743, 0.090982705, 0.058958475, -0.02399234, 0.23827428, -0.18543835, -0.11010819, 0.18615732, -0.13754342, -0.09226044, 0.19701982, -0.16525137, 0.06621516, -0.23738208, -0.08560011, -0.16742575, -0.10615194, -0.14526707, 0.08824681, -0.11003501, 0.19507404, -0.014071918, 0.088259846, -0.03731849, 0.00695105, 0.0150732435, -0.076788776, -0.15302767, 0.11233291, -0.02704893, 0.072797015, 0.13952641, -0.024636453, -0.122366145, -0.03871566, 0.038999822, -0.05334948, -0.07104867, 0.11705294, 0.09416209, -0.08155088, 0.15276879, -0.10116396, -0.10630025, 0.026301177, -0.025184203, 0.23739037, 0.20775431, -0.0004650072, 0.25621343, 0.09321359, -0.0023134123, 0.06804626, -0.009488765, 0.016241184, -0.22569649, -0.20199211, 0.052316252, -0.08641678, -0.09376702, -0.160168, -0.069897085, 0.16177128, -0.10430408, -0.0668986, 0.18701795, 0.08661255, -0.047280516, -0.15134853, -0.09289751, 0.14733572, -0.1059972, 0.035017133, 0.18929143, -0.05759604, -0.1384276, 0.08731601, -0.12041571, 0.1446035, 0.18971562, -0.09949231, 0.07234871, 0.08908229, 0.0035195716, 0.21168533, 0.06378832, -0.048726417, -0.06386797, -0.15805402, 0.023730144, -0.15256523, 0.008455018, 0.035423547, -0.15658651, 0.090860896, 0.13198298, -0.062637575, 0.17048593, -0.0717769, 0.21683118, -0.1260218, 0.03161009, -0.04467686, -0.27514708, -0.11697147, -0.04386924, -0.08950233, 0.112132214, -0.016518848, -0.0579514, -0.20551908, -0.12043731, 0.15623797, 0.22230633, 0.0078508565, -0.07026868, -0.034164727, -0.12300069, -0.0834312, -0.04423198, -0.10309423, -0.020149548, 0.008180923, -0.09183119, -0.0048117307, 0.06340075, -0.22190149, -0.038275845, 0.082839936, 0.008616167, 0.07841345, -0.10959709, -0.07956476, -0.1322404, -0.14566624, 0.010744425, 0.012622738, 0.11998427, 0.007106589, 0.070310436, 0.07866516, 0.027050506, 0.15656748, -0.014939654, 0.030246746, 0.082095325, 0.21132916, 0.17700112, 0.24288575, 0.117150664, -0.09631011, -0.005722105, -0.016346298, -0.029253686, 0.040352453, -0.16632167, -0.13983668, -0.090934806, -0.019503161, 0.050933946, 0.07342468, 0.045954183, -0.15091443, -0.22543386, -0.036562104, 0.080688484, -0.016867096, -0.091341704, -0.05848466, -0.04410339, 0.26770604, -0.041323654, 0.12475393, -0.08738405, -0.20667227, -0.008378787, 0.21578619, -0.103777505, 0.271628, 0.21708465, 0.005831394, 0.15092893, 0.12777275, 0.21120106, 0.27008435, -0.13593347, 0.10999083, -0.087325476, -0.15248442, -0.1821369, -0.09948527, 0.12425677, 0.12635452, -0.16548961, 0.06404265, -0.052826665, 0.0367825, 0.075232804, 0.123325355, 0.120022975, -0.13744186, -0.023876576, 0.059949566, -0.058453206, -0.05818467, -0.15578493, 0.049473226, -0.059169892, 0.16488619, 0.17560671, -0.049375843, -0.19912164, 0.15481822, -0.05544914, 0.055494, 0.060734045, -0.041376967, -0.009023556, -0.07784534, 0.024035573, -0.12449725, -0.050165076, 0.04322375, -0.007835584, 0.058471374, -0.042778593, -0.23789363, 0.23595631, 0.09608449, -0.07277267, 0.20375569, -0.07938417, 0.05955204, -0.002224272, -0.028924784, -0.08557906, 0.02335097, -0.11458571, 0.0763162, 0.0424071, 0.22314559, 0.08351254, -0.016553946, 0.020672008, -0.07101995, 0.20566635, 0.087924264, 0.029809762, -0.17782515, 0.15490751, -0.081308976, 0.095378086, -0.036486804, 0.17066543, -0.0554093, 0.044581387, -0.25282592, 0.090389885, -0.03298298, -0.07866412, -0.042193662, -0.30940387, -0.11862244, 0.13871318, 0.12427255, 0.029264847, -0.07252393, 0.09602171, 0.026314972, 0.09126124, 0.022823399, 0.038810156, -0.21889071, 0.18339328, -0.05013946, 0.035699327, 0.016257072, 0.11642533, 0.02860391, -0.067184776, -0.065251894, 0.06718052, -0.18108828, -0.08998604, 0.13540256, -0.06821165, -0.13176957, 0.12013628, -0.10345092, -0.086140335, -0.016652383, -0.09214543, 0.338129, -0.065298475, -0.07367505, 0.033021662, -0.20643862, 0.00048211112, 0.046645466, 0.066138566, 0.13460515, -0.10171727, -0.107746206, 0.053344738, -0.033189103, 0.14687954, 0.18387495, -0.20114802, -0.05298189, 0.13765019, -0.22502413, 0.14635858, -0.10056999, -0.0910177, 0.049727727, 0.121994376, -0.26066643, 0.16878408, -0.07901835, 0.073369, 0.10036299, -0.03960807, 0.023462703, -0.04663124, 0.016457919, 0.00052801025, -0.08129285, -0.0361295, 0.046827946, 0.119487666, 0.011212715, -0.17432104, 0.07079304, -0.110884234, 0.074529335, -0.01591126, 0.054147627, 0.16998897, -0.19353282, -0.12409399, -0.19125398, -0.12895198, -0.07073166, 0.067591585, -0.046727147, 0.06594143, -0.23118474, -0.15425628, 0.04558806, -0.16050333, -0.059808508, -0.12185857, -0.09475857, 0.016157534, -0.121172056, 0.21207885, -0.043141525, -0.01661969, -0.12491923, -0.18326625, -0.0955977, 0.17528322, -0.20549214, 0.34458756, 0.07567871, -0.17213567, -0.16912958, -0.021655116, 0.10546476, -0.05771792, 0.10998172, 0.12026701, -0.0026152257, -0.11172201, 0.07369708, 0.10041253, -0.19066986, -0.016700808, -0.22611678, -0.085800655, 0.03333952, -0.15561198, -0.07851321, 0.08518936, 0.08810074, -0.022104174, 0.088575125, -0.009068126, 0.24508259, -0.017991612, -0.059392054, 0.18174127, -0.09691552, 0.14814971, -0.06954658, 0.24876823, 0.044453576, -0.1655706, -0.20878641, -0.2338317, 0.14598186, -0.07630894, 0.015014458, 0.25263053, 0.061848477, 0.019481873, 0.19412217, -0.10688995, 0.16885348, -0.04204323, 0.24686229, -0.1816567, -0.11064404, 0.28884134, 0.00064449664, 0.081436925, -0.071535334, 0.12596059, -0.0017515424, 0.043671828, -0.16554694, 0.035135504, -0.020919386, 0.1388099, -0.032572564, -0.06990753, 0.1534209, 0.022468813, -0.11773873, 0.124841265, 0.006367863, -0.011358433, 0.15059198, 0.08169892, -0.1056323, 0.05228118, -0.03635562, -0.07450813, 0.015041149, -0.061390847, 0.1562816, -0.01392348, 0.14007337, -0.031694733, -0.040073074, 0.007787882, -0.20618956, -0.16598615, -0.029765729, 0.019766157, 0.08950429, -0.074491344, 0.048999906, 0.04671711, 0.06846886, 0.18667302, 0.10033186, 0.23192623, 0.2554498, -0.18023643, -0.09524178, 0.3107759, 0.17975311, 0.06151928, 0.030306676, -0.074246466, 0.1950369, 0.059311826, 0.022047678, -0.010848217, -0.047358904, 0.039183926, 0.2264166, 0.042063974, 0.14861974, -0.013062013, -0.054216295, -0.03269089, -0.2089181, -0.108939044, -0.048005883, 0.06053113, -0.17767464, -0.18758826, -0.2249421, 0.2028899, 0.04656078, -0.033943485, -0.040700477, 0.13156748, 0.07923756, -0.1096796, 0.037836302, 0.054552227, -0.045089234, -0.20977277, -0.011417114, 0.008372104, -0.220562, -0.19654703, 0.14222395, -0.043773543, -0.02308369, 0.08395184, 0.044092685, 0.09949287, 0.12803334, 0.010569, -0.10527091, 0.108509295, 0.0103963725, 0.09366434, -0.1307225, 0.1898596, -0.028431049, -0.031072741, -0.112181395, 0.025062947, 0.08308256, 0.065520644, -0.13745764, 0.053477485, -0.097803324, 0.00854774, -0.08413388, 0.07678106, 0.022543013, 0.04884199, -0.052217696, 0.1420603, -0.10804347, 0.05367139, -0.12404688, -0.09899217, 0.15274549, -0.022165956, -0.088154905, -0.89919984, 2.3079817, -0.32284138, 0.25477076, -1.029798, -0.12334316, -2.205817, 0.8059919, -0.054408032, -0.024155824, -0.019235982, 0.06210724, -0.023263747, 1.1310643, -0.069693625, -1.9756567, 0.4196364, 0.17909977, 0.0316604, -0.0838398, -0.32274768, 0.24476361, 0.3298049, -0.021543398, -0.106715836, -1.1835753, 0.05380946, -0.1565066, -0.032209992, -0.097274415, 0.49468288, 0.028584344, -2.7714357, -0.21076861, 0.42088696, -0.10916952, -1.6307352, 0.04377927, -0.8586827, 0.22421773, 2.0655196, 0.21352094, -0.12017369, 0.24843356, 0.048295923, 0.4307019, -0.43978262, 0.037080374, 0.03487103, -0.15250966, 2.0837224, 0.34475914, -0.18505251, 0.17635, -0.12874965, -0.11960482, -0.9720833, -0.37454426, -0.08515182, -1.8152012, 0.22108176, 0.24475983, -0.017187465, 0.18165915, -0.2692655, 1.6224555, 0.10879266, 0.19058335, -0.082267284, 0.13014159, 0.14200255, 0.26712, 0.18768017, 0.18103185, -0.48492533, -0.4390997, 0.2392168, 0.091615915, -1.2792621, -0.14911379, -0.010502418, -1.1804575, -0.34430027, 0.10938312, 0.20450413, -0.17863348, -0.49027598, -0.07095278, 0.71295357, -0.002744096, -0.48870185, 0.005315277, -0.071904875, 1.8099685, 1.7834713, -0.2267874, 0.15808776, -0.16825016, 0.39726993, -2.8949482, -0.8861766, 0.4169765, 0.29536283, 0.20179959, -1.3295192, 0.08118533, 1.3135104, -0.4113479, 0.12280838, -0.3933824, 0.9169926, 0.056608517, -0.26767534, -0.9185091, -0.02008111, 1.7840258, 0.059689134, -0.10138343, -0.3250396, -0.18461245, 0.062022716, 0.031417087, -0.2687876, -0.06450971, 0.1287882, -1.25556, 0.1940981, 1.0053151, -0.5365452, -0.05328302, -0.23427111, -2.5145507, -0.4430524, -0.06445037, -0.66199493, -1.330296, 0.13843198, 0.20155455, 1.1748474, 0.07056568, 1.0812193, -0.28344944, -0.23185888, -0.010323835, 0.24772245, 0.2614151, 1.1504474, 0.113013916, 1.8736515, 1.782648, -0.52468383, 1.9090681, -0.76362836, -0.21218297, -1.3322666, 0.18138902, -1.6865398, 0.481754, 0.025065925, 0.019042663, 0.1282667, -0.027910838, -0.02689471, 1.1777964, -0.19748041, -1.5002931, 0.77507216, 0.26235545, -0.24274546, 0.11497341, -0.1472869, 0.29984984, 0.18286176, -0.17847526, 0.0891254, -1.1916162, 0.18038139, -0.38068995, -0.21617289, -0.25375858, 0.4045123, -0.15631832, -2.49798, 0.020502798, 0.5315427, -0.043770354, -1.6038502, -0.16703193, -0.96369404, 0.1321894, 1.6847426, 0.16501471, -0.011419861, 0.12042521, -0.07852522, 0.4373388, -0.87413067, -0.24439307, 0.19754249, -0.37241247, 1.9979665, 0.17264852, -0.34011224, 0.05235994, -0.1351957, -0.06466435, -0.8693006, -0.12447562, 0.29333472, -1.6320225, 0.28696352, -0.2507448, 0.16688193, -0.18805715, 0.033698115, 1.6612852, 0.11273409, 0.023031048, 0.028575247, -0.22919148, 0.25491697, 0.34157994, 0.015325259, -0.011591891, -0.51586396, -0.6353844, 0.03229609, 0.40068123, -1.2706491, 0.21558946, -0.11021074, -0.97956246, -0.31339085, -0.16211629, 0.02721483, -0.27999735, -0.20949148, -0.22167492, 0.66830385, 0.22106402, -0.27739292, 0.048785742, -0.25830197, 1.5213403, 1.5240983, -0.13720939, 0.15826568, -0.16762324, 0.4542103, -2.526142, -0.72965497, 0.16959892, 0.33927253, 0.17008725, -1.1547778, -0.051231693, 1.3443313, -0.122675434, -0.07624904, -0.23676361, 0.79507565, 0.1561611, 0.009873365, -0.46169078, -0.22838598, 1.3735516, 0.07961076, 0.16871725, -0.35319602, 0.17522258, 0.2657137, 0.20294096, -0.0067515597, -0.16205996, 0.49222088, -1.0246418, -0.04594464, 0.5046479, -0.6040627, -0.22050868, -0.10205481, -2.1043484, -0.3056107, 0.2314858, -0.3753528, -1.1586301, 0.28428075, 0.24251832, 1.0910997, -0.030030087, 1.2312567, -0.2027336, -0.17471287, 0.08995032, 0.09894874, 0.5947409, 0.8833538, -0.24904115, 1.5602614, 1.6548762, -0.14754862, 0.20285377, 0.12683162, 0.09658158, -0.02437538, 0.076834254, 0.14788246, 0.24689566, -0.10036461, -0.13840066, -0.30247465, 0.14726384, 0.19847548, 0.10712498, 0.22288452, -0.07682655, -0.14298718, 0.12835474, 0.35823798, 0.051767617, 0.030633545, -0.07456192, -0.09159933, -0.23286605, -0.09611436, 0.11567185, 0.2805894, -0.22490986, 0.028852483, -0.09257054, 0.029248135, -0.19933894, 0.2256231, 0.10291017, 0.1163427, 0.2022618, 0.056173112, 0.14240558, -0.092872925, 0.20564044, 0.02175859, 0.29369155, -0.13161533, 0.08290677, 0.3003172, 0.35158157, -0.13630447, 0.013408901, -0.102565795, 0.05128314, -0.2131016, 0.09960099, -0.1351331, -0.12251949, 0.27003124, 0.08803665, -0.08225003, -0.023307873, -0.0055704913, -0.024338882, 0.21695013, -0.22207384, 0.059933923, 0.15615015, 0.25343794, 0.015509536, 0.12874892, -0.10358765, -0.031324275, 0.25146288, -0.02802015, 0.28722346, 0.088263795, -0.15062222, -0.15383196, -0.16875301, 0.04086345, -0.07823614, -0.17893466, 0.19833234, -0.18447232, -0.1433548, -0.022112656, 0.20309797, 0.14632311, 0.17410177, -0.08509012, -0.028735284, 0.014175101, 0.19535743, -0.18049803, 0.05579553, 0.071008414, -0.1111135, -0.29986933, 0.16102332, -0.15120107, 0.17532542, 0.089311965, -0.1075426, -0.10346962, -0.2008583, 0.058929548, 0.2761218, -0.10759245, 0.16427514, -0.18087395, -0.29009217, -0.114725254, 0.08352354, 0.2560634, 0.041847292, 0.011883997, -0.266288, 0.028538236, -0.0915094, -0.05059528, 0.093665466, 0.034544874, 0.10436835, 0.045637727, -0.122406945, 0.25817728, 0.16129752, 0.26651967, -0.039820377, -0.079003274, 0.18517873, 0.055363026, -0.032603864, -0.26680046, 0.067288004, -0.16628547, -0.15583731, -0.34685117, -0.15561372, -0.030773414, 0.28383598, 0.090674944, 0.18298061, -0.24185948, 0.08264102, -0.17760564, -0.08152032, -0.0039994307, 0.041398223, -0.14492802, 0.31376326, 0.07113523, -0.076429926, -0.11256414, -0.14560172, 0.1875441, -0.033255056, 0.057891674, 0.23799695, 0.019077782, -0.063348, 0.30478668, 0.21332784, 0.04443011, 0.1265399, -0.117884606, -0.1025526, 0.22855707, 0.07751555, -0.055444323, 0.084963694, 0.17011513, 0.10366059, -0.10205311, -0.08115854, -0.14529075, 0.17478931, 0.027793087, 0.024184346, 0.25588742, 0.23487452, 0.0065461006, 0.08246667, 0.23606229, -0.025275007, -0.11778868, 0.08939417, 0.14015348, 0.18369883, -0.107688606, 0.13205372, -0.08051739, -0.02914157, 0.17716007, -0.10462047, 0.035630073, 0.08326682, 0.27654472, 0.020629857, 0.100348234, -0.19768862, -0.17922671, -0.009081693, -0.11945241, -0.15048213, -0.011954529, 0.11115728, -0.13331302, 0.019770877, -0.112388894, 0.24378696, 0.20073496, -0.109197535, -0.16130684, -0.04814022, -0.18956429, -0.16099417, 0.10636966, 0.0038408944, 0.297618, 0.020363504, -0.23814635, -0.028589932, 0.08014675, 0.2960094, -0.028093219, 0.18485013, 0.13097338, -0.0634302, 0.30410048, -0.22781913, 0.0053498507, -0.072451524, -0.15571778, 0.06179562, 0.074568026, 0.034152817, -0.055148594, -0.03975025, 0.029086672, -0.34826875, 0.114598386, 0.3281833, -0.041129034, 0.021358963, 0.14242095, -0.00013071735, 0.0843288, 0.12913685, 0.22506586, 0.26515442, 0.047328077, 0.066381335, 0.19565095, -0.06427152, 0.12753865, -0.092042916, -0.20296578, -0.18862295, -0.00554623, 0.0032977804, 0.17829104, -0.15726013, -0.09253761, -0.089370355, 0.022876758, 0.076605454, 0.14378272, -0.13594049, 0.1384978, 0.092204295, -0.07353825, -0.1631055, -0.20485242, -0.054233294, -0.12041814, 0.095886305, -0.09023837, -0.14300425, 0.2723207, -0.13835357, -0.10418527, 0.27921876, -0.14071123, 0.11316659, 0.19163123, 0.15178707, 0.25059205, -0.21449454, -0.05377915, -0.23329954, 0.1856952, 0.26106387, -0.032203075, -0.048291046, -0.029564375, -0.13384132, 0.011100085, -0.18036658, 0.07157875, -0.14492136, 0.1059569, 0.042491816, 0.15419003, 0.22463024, -0.16962482, 0.15052418, 0.19945543, -0.13030973, 0.20635886, 0.23467308, -0.20697233, -0.0628626, -0.0087296525, 0.26245198, -0.10550859, -0.043987595, -0.23389818, -0.04372785, 0.01252683, -0.14244689, 0.22485709, -0.004462728, -0.042676404, 0.26090854, -0.18100883, 0.19833612, 0.19677994, -0.098260164, -0.059307918, -0.18162377, 0.20719022, -0.15954328, 0.18168446, -0.06964432, -0.13426363, -0.13907504, -0.28134504, -0.21889567, 0.065983154, 0.23015969, -0.08042042, 0.1917247, -0.17014995, 0.2537738, 0.19694076, -0.049267326, 0.21287724, -0.15985143, 0.18476588, 0.031780615, -0.26203138, 0.15007153, 0.009933192, -0.11170852, -0.09696126, 0.24802136, -0.0252255, -0.006564535, -0.15784222, 0.050791103, 0.2034132, 0.037588842, -0.14640674, -0.044619117, -0.2594637, 0.047627587, -0.089500494, -0.0946686, -0.11245554, -0.13077304, -0.2735168, -0.10624376, 0.022268824, 0.14708188, 0.2499809, 0.012797164, -0.11876193, -0.19178225, -0.08203774, 0.22821099, 0.0649162, 0.11237904, 0.015637098, -0.14457801, 0.16358761, 0.22562781, 0.020848373, 0.02213244, 0.10328524, -0.20850372, 0.06141346, -0.082648896, 0.08719808, 0.012811896, 0.14890677, -0.09182956, -0.13756526, -0.03985101, 0.20529862, -0.12341893, -0.001573026, -0.063885175, 0.11801232, -0.1693786, -0.015186107, -0.058050275, 0.07166093, 0.070088305, -0.11408074, -0.04525863, 0.23622586, -0.080053076, -0.07278892, 0.14846556, 0.23031941, 0.18808083, 0.31893495, 0.117938586, -0.23607248, -0.060979083, 0.17842741, 0.090116724, -0.018841574, 0.10852787, 0.2889885, -0.043181013, -0.11165702, 0.15650323, -0.175814, 0.10000777, -0.123557106, 0.03559321, 0.26276657, -0.04404609, -0.2664821, -0.13697235, 0.28036985, 0.100024536, 0.043583073, 0.069215104, 0.093584254, -0.04242974, -0.059686992, -0.23475811, 0.21754202, -0.21401405, -0.16649489, 0.071581066, -0.11113395, 0.2576685, 0.11965031, 0.04575962, -0.0417147, -0.034742538, 0.06381609, -0.082528375, 0.16054752, 0.23777804, -0.17806149, 0.0040590838, -0.09850255, -0.24189289, 0.1892783, 0.07710991, 0.071715966, 0.2875667, 0.11827037, -0.031091841, 0.066687144, 0.08794281, -0.24266979, 0.24850509, 0.12557861, -0.21820118, 0.1502371, -0.026931226, -0.010832065, 0.17885067, -0.15581745, -0.20637, 0.09916383, 0.1737892, 0.086237974, -0.18305317, 0.08777706, 0.030517114, -0.18859799, -0.0045118895, 0.05627142, 0.17690548, 0.12784716, -0.17670462, 0.086992614, -0.27183312, -0.047431692, 0.004939827, -0.19605891, -0.08609917, -0.11405962, 0.2897903, -0.0047023934, 0.025522906, -0.12388615, -0.012069561, -0.04597585, 0.06564172, 0.17624961, 0.12479964, -0.14019121, -0.18315087, -0.13320485, 0.10337939, 0.15771094, 0.29805773, 0.29541296, -0.12436927, -0.118135154, 0.12261148, 0.15659346, 0.3468745, -0.161813, -0.09018659, 0.1491768, -0.21914577, -0.021760533, 0.0024141567, 0.050993573, 0.20897236, 0.0044993507, 0.08686673, 0.2289535, -0.02379622, 0.202936, -0.14083521, -0.15722063, -0.064616434, -0.208565, -0.13601616, -0.17077732, -0.28568378, -0.22112046, 0.08616896, -0.06571506, 0.10946926, 0.046419375, -0.052750204, -0.040153854, 0.0049510985, -0.010630616, -0.17570172, -0.13337755, -0.03413954, -0.06832385, -0.12652516, 0.058612727, -0.102730125, -0.2420721, -0.12593658, 0.0877158, -0.079295084, 0.1009465, -0.08630496, -0.062398072, 0.1160417, -0.08103232, -0.024260085, -0.1448037, -0.15864187, -0.14858307, 0.07705637, 0.04019281, 0.2934502, 0.16344166, 0.29633173, 0.052406833, 0.15122111, 0.29413623, 0.035756823, 0.26915556, 0.049260475, -0.10127359, 0.18888913, -0.21218678, -0.06818609, -0.017105727, 0.031755134, 0.14890738, -0.2402631, -0.05023265, 0.2749598, -0.087044485, -0.03970429, -0.11169272, 0.02366075, 0.23406038, 0.069442004, 0.03630456, 0.20735641, -0.049568553, 0.15181823, -0.20502792, -0.06256993, 0.12010222, -0.1220902, 0.10654633, -0.08891532, 0.0646386, 0.044013932, -0.08742316, -0.0004196832, -0.20003311, -0.102868274, 0.076821186, -0.2649233, 0.39519307, -0.16071463, 0.18987027, -0.0074792868, 0.065326236, 0.11198192, 0.29041082, -0.2295556, 0.23240684, 0.11919475, 0.11916432, 0.1946695, -0.12863302, 0.037266735, -0.3034353, 0.31300107, -0.04241947, 0.07421151, 0.0021252441, 0.09655359, 0.09731366, -0.13735208, 0.13963935, 0.18934333, -0.166451, -0.14829288, 0.0915469, -0.10287321, 0.23167968, -0.022338638, 0.07445462, 0.1931351, -0.059789702, -0.0936951, -0.19934551, -0.27262774, 0.0935515, 0.13408262, -0.020108178, 0.024881857, -0.013368203, 0.06606784, 0.094662175, -0.40916777, -0.12313601, 0.049388766, -0.034189593, 0.017769638, -0.117706634, -0.12958014, -0.21345456, 0.14269593, 0.26204768, -0.0033960363, -0.0346809, -0.04113344, 0.18881933, -0.1387388, -0.19131832, -0.012675796, 0.3152814, -0.15457483, -0.2712968, -0.083793655, -0.04672786, -0.13940468, -0.054461326, -0.11779241, 0.12051948, -0.17220426, 0.091232166, -0.10885186, -0.22784123, 0.18902814, 0.062233727, -0.0053433767, 0.18957517, 0.17131846, 0.033836953, -0.018226713, 0.118646085, -0.03175978, -0.2593801, -0.052813403, -0.0981792, 0.20549846, 0.044518247, -0.03356388, -0.02565511, 0.06578281, 0.11076271, -0.2423876, 0.06768323, 0.0871931, -0.07315322, 0.07056878, -0.053796723, 0.041747473, 0.051774748, -0.17355041, -0.06988577, 0.01040679, -0.058749065, 0.101245016, 0.23919398, -0.16528596, -0.010557021, -0.13120829, -0.3417706, -0.11582716, 0.08831065, -0.006485577, -0.20429246, -0.210095, -0.31211028, 0.010009959, 0.09532286, 0.2025488, -0.14682622, 0.05507432, 0.07842739, -0.049742065, 0.042732995, -0.056819692, 0.1813263, 0.09685938, -0.12893166, 0.1766514, 0.08348861, -0.11377877, 0.25845227, -0.013493792, -0.181606, 0.2793742, -0.19558458, -0.059144117, -0.022656407, -0.04614312, 0.28822652, 0.081103325, 0.06899671, -0.16181067, 0.24843448, -0.25235558, -0.1724478, 0.051372644, -0.11785478, 0.13253635, 0.16213925, -0.07610219, -0.056444664, 0.025349211, 0.09653479, -0.077899046, -0.0134583665, -0.2971236, -0.09725536, -0.26414338, -0.12285502, -0.13203025, -0.06732218, -0.26281822, -0.094043314, 0.046986606, -0.18867789, 0.047097653, 0.060475167, -0.17332096, 0.038168862, -0.080006175, 0.04909144, -0.07120688, 0.07209489, -0.08015519, 0.2215151, -0.24429594, 0.09308963, -0.24402599, 0.02763201, -0.0827738, -0.106455654, -0.053452007, -0.028824663, 0.021895222, -0.1343806, -0.2431499, 0.14604303, 0.14535762, -0.17267008, -0.1281542, -0.19024584, -0.093899734, 0.11537885, 0.07960892, 0.09566546, -0.07430193, -0.20757356, -0.12166366, 0.09224596, -0.18424875, -0.24936248, 0.01185642, -0.06551356, -0.09404072, 0.010683849, 0.18366328, -0.21083198, -0.22082786, 0.045217328, 0.008083075, -0.06860635, 0.041541222, 0.107223846, 0.099333756, -0.09111806, 0.114012435, -0.113293625, -0.087741904, -0.10302964, 0.006320432, 0.0072919587, -0.20497783, 0.20549363, -0.047438227, -0.113951, 0.07751692, -0.09624396, -0.1456545, 0.18806118, 0.12882866, 0.039023243, 0.0013757918, 0.23193447, 0.028621333, 0.17605886, -0.22129913, -0.026208468, -0.07988628, -0.15037282, 0.18580428, 0.11623147, -0.18217221, 0.25544727, 0.08217928, -0.049698394, 0.22272533, 0.004633882, 0.023680864, -0.07290652, 0.07900501, -0.07313078, 0.11233866, 0.18660413, 0.14421517, 0.19728981, 0.18959382, -0.064770386, 0.15890306, -0.18336909, -0.18806721, -0.08227148, -0.024272088, -0.1612892, -0.083189316, -0.2430256, -0.15639214, 0.2984479, -0.25478807, 0.05678387, -0.1273269, 0.18009873, -0.25238216, -0.1785059, 0.27641442, -0.09647882, -0.21236013, 0.1490788, 0.20008956, 0.16075724, 0.067480385, 0.036534265, 0.130109, 0.25856683, -0.021328997, -0.24334754, 0.16245076, -0.2552625, 0.15879448};
const float dense_b[50] = {0.020998158, -0.037399836, -0.0021573037, -0.020108856, -0.041404832, 0.016812854, 0.032043036, -0.032440536, -0.035211693, -0.050858203, -0.022276655, -0.08601269, -0.043745466, 0.019189628, -0.07117762, -0.0060738553, -0.052992217, -0.051852506, -0.09166544, -0.053519778, -0.017131548, -0.06321604, -0.057252005, -0.030855648, -0.054061543, -0.024693718, -0.07434948, -0.011081759, 0.025796633, -0.037193637, -0.032191843, -0.00173627, 0.0065945466, -0.062786005, 0.011959714, 0.010163133, 0.048025087, -0.0264818, 0.02536917, -0.052836534, -0.044598624, -0.07069557, -0.029531887, -0.03960232, 0.010755729, -0.03382255, -0.011760931, -0.08007881, 0.007759071, 0.032508627};
const float dense_1_W[750] = {-0.3947341, 0.07114458, -0.07118715, -0.30008897, -0.034560893, 0.16658315, -0.06246086, 0.12728152, -0.09564859, 0.08449909, -0.1337528, -0.36755508, -0.17167485, -0.054581203, 0.32508862, 0.12996985, 0.16733484, -0.25472084, 0.10418654, -0.29299107, -0.26457822, 0.086846046, 0.26401696, -0.2865483, -0.26345822, 0.10281102, -0.005276628, 0.0060528973, 0.095543124, -0.18602312, 0.11257916, 0.16043459, 0.004283607, 0.06964473, -0.3198429, -0.34296435, 0.19232449, 0.07693864, -0.018480474, -0.18710923, 0.3017758, 0.14507364, -0.26363635, 0.13564341, 0.23601201, 0.1091387, -0.19430877, 0.03588888, -0.20611258, 0.14873143, 0.03629949, -0.11111017, 0.022355322, -0.24174687, -0.06894596, 0.198258, 0.19938019, -0.07469852, 0.049100984, 0.21911287, -0.20886624, -0.13768521, -0.17252858, 0.12901953, 0.036062162, 0.23009855, -0.051991746, -0.2724254, -0.048554074, 0.16216965, -0.2836061, 0.11807071, 0.27975044, -0.032122545, 0.22032446, 0.12346366, 0.05402232, -0.2420612, -0.17294298, 0.062336344, -0.0057953643, -0.020578286, 0.059274893, 0.002798709, 0.20584105, -0.11367266, 0.12758128, -0.05315284, 0.19586536, 0.2618517, 0.11523318, -0.00779599, -0.1261983, -0.10128462, -0.27179506, -0.21286607, 0.24324849, -0.19568709, 0.5292318, 0.10742713, -0.19786435, 0.22449733, -0.1316992, -0.32188594, -0.087137565, -0.019630253, 0.09287338, 0.022101313, 0.2729028, -0.060224626, 0.105522476, 0.08673184, -0.021281987, -0.080393255, -0.035730373, -0.18197265, 0.00393087, -0.3295742, -0.069619894, -0.07502286, 0.07504355, -0.081578024, -0.2535977, -0.2541887, -0.10062663, 0.058576416, 0.23556028, 0.043995235, 0.03448605, 0.2237751, 0.16131832, -0.24533062, 0.27793342, -0.069467336, 0.18396866, 0.26325396, 0.052987557, -0.21300855, 0.108800136, -0.00019510927, 0.3107958, -0.2209747, -0.16754802, 0.0030427212, 0.1448392, -0.32654446, -0.07202561, -0.18344924, -0.16713893, 0.10484385, 0.013399152, 0.26835865, 0.032905698, -0.08286828, -0.04345177, 0.19059935, -0.41231906, 0.077185035, 0.1325296, -0.2897932, 0.061631728, -0.2441987, -0.17536017, -0.2951643, -0.112860516, 0.16483258, -0.0332453, 0.11096218, 0.019569969, 0.0044858614, -0.24026509, -0.08031355, 0.13295408, -0.08156944, 0.17295767, 0.1862573, -0.30760404, 0.2662934, 0.12803121, 0.25619927, -0.094446346, -0.38855952, -0.077450335, -0.2652081, -0.09340818, 0.18991753, 0.15591626, -0.04775017, -0.0018662545, -0.29368812, 0.17468438, -0.2002762, -0.2628882, 0.23740898, -0.19448124, 0.17466444, 0.1118462, -0.11863954, 0.0880964, -0.17103902, 0.18050523, -0.20405397, 0.07958635, -0.10616208, 0.24597965, -0.030075425, -0.24913158, -0.06082497, -0.16954751, 0.32549217, -0.080028065, -0.18001261, -0.19497955, 0.27017334, -0.16032955, 0.006569591, -0.09466796, -0.007081414, -0.070094086, 0.018700337, 0.29114947, 0.19005626, -0.09436779, 0.038856238, -0.085171245, -0.28821495, 0.12847134, -0.23323, -0.113518074, 0.024610668, 0.16141626, 0.04960035, 0.3163326, 0.57562125, 0.10668826, -0.16939363, 0.044587575, 0.19942182, 0.09323426, 0.17834067, -0.11749898, 0.16775031, 0.18409571, -0.3010272, 0.21800679, 0.059656166, -0.15491037, -0.050064646, -0.003473474, -0.10872984, 0.07913351, 0.12607875, -0.23263195, -0.09670163, -0.24410124, 0.025814157, -0.20464954, 0.13165122, -0.019966483, 0.15512644, -0.23768876, 0.075204365, 0.054412834, -0.0037718853, -0.057892624, -0.29574674, 0.19606549, 0.14132483, -0.27280352, 0.040226247, -0.2738883, -0.3559981, -0.24896942, 0.09312311, -0.049801677, -0.23126435, -0.04587742, 0.007806884, -0.1188176, -0.14535844, -0.20251544, -0.35610217, -0.035657562, -0.18894348, -0.36167657, 0.18069534, 0.19419107, -0.084421575, 0.004969334, -0.0007678444, -0.20420279, 0.20847358, 0.0852388, -0.1374898, 0.020182062, 0.2563706, -0.2928318, 0.27275592, -0.03478885, 0.09201391, 0.036969356, 0.39408296, 0.08996132, 0.15561834, 0.107988454, 0.008182069, 0.13809437, 0.0067428784, -0.017825482, -0.3672778, 0.032854125, 0.047320448, -0.242458, -0.10366205, 0.03423601, -0.07648752, 0.2140212, 0.21056926, 0.0686239, -0.10706259, -0.19522433, -0.031351626, 0.25978926, -0.123927504, -0.33953023, -0.30357125, 0.23888348, -0.021648752, -0.18191451, 0.3244517, 0.017472943, 0.019120185, -0.13448015, -0.16845065, -0.032329883, 0.1602729, -0.08098688, 0.0010086114, -0.015621534, -0.20040996, -0.15294868, 0.03961224, -0.20554295, 0.19063194, 0.024882741, 0.24193144, -0.040348448, 0.10122278, 0.022755355, -0.30147472, 0.019743294, -0.17295672, -0.19564958, -0.26401287, -0.30306265, -0.003936708, 0.11551029, -0.20063578, -0.26938206, -0.051487885, 0.0975441, -0.25460523, 0.09023455, 0.18374738, -0.2927548, -0.3254781, 0.2372516, 0.04603021, 0.0008717505, 0.28296024, 0.20245737, -0.33010456, 0.27273163, -0.16785054, 0.20936535, -0.00305195, 0.0076488177, 0.15771547, 0.14894822, 0.16044769, -0.20432146, -0.06108978, -0.30226424, -0.073153734, -0.15476221, -0.11231963, -0.14801979, 0.10278706, -0.16598958, 0.079609305, -0.5457646, 0.4028426, 0.19915295, 0.15567568, -0.080874294, -0.12499941, -0.27717435, 0.034633007, -0.07077465, -0.111374244, 0.24890542, 0.080262996, 0.092092305, 0.090710014, -0.035268497, -0.11555246, -0.023746723, -0.026640147, -0.25410405, -0.10422118, -0.08792091, -0.09317604, -0.028004287, 0.067504026, 0.036737654, 0.13910852, -0.14129438, -0.22923249, -0.12751453, -0.25672907, 0.09236771, 0.06623505, -0.20412564, 0.14227416, -0.16927573, -0.004880446, -0.08675326, -0.08143536, -0.04371781, 0.22167328, -0.026363939, 0.2426741, -0.0860133, -0.21918438, 0.07074502, -0.12312852, 0.021176308, -0.22438374, 0.015601128, -0.22783238, 0.13670793, -0.08977096, 0.16912861, 0.17910321, 0.19958603, -0.18542579, 0.19216698, -0.09340431, 0.28654334, -0.066094205, -0.012716535, -0.11627502, 0.1028671, 0.1163902, 0.072274566, -0.042849936, -0.14952199, -0.013257576, -0.023465922, 0.17775516, -0.032868646, -0.2399787, 0.106597394, 0.06835461, -0.05138458, 0.020936767, -0.0033680578, -0.10834743, 0.17086242, -0.09684768, 0.2880347, -0.220475, -0.539004, -0.50319237, 0.14510532, 0.23548177, 0.17371188, 0.04518191, 0.2502903, 0.15816543, -0.16164055, 0.18489861, -0.13805513, 0.11801392, 0.11465734, 0.15490936, 0.16812386, -0.35657418, 0.29936442, 0.05484026, -0.18527202, -0.18742497, 0.28085238, -0.2204081, 0.25254175, -0.11118733, 0.030960934, 0.09381321, 0.2729047, -0.18696362, 0.21477856, -0.23224798, -0.07576164, 0.085284084, -0.06197056, 0.23372275, 0.06101861, 0.2162505, -0.14130054, -0.2155862, 0.0022281006, 0.07082384, 0.29844868, -0.22248425, 0.1856381, -0.07559882, -0.08200862, -0.005322915, -0.040047117, -0.35572445, -0.21991883, -0.3377419, -0.25153655, 0.08187616, -0.001180939, -0.11922422, -0.027127659, -0.045495868, -0.091593795, -0.056388788, -0.11568526, 0.0071470113, -0.20906667, -0.17626566, -0.32524002, 0.061949592, -0.064632475, -0.09193431, -0.01675905, -0.093410365, -0.06823089, -0.27976856, -0.25142887, 0.1548612, -0.010077402, -0.10118878, -0.088695474, -0.08988345, 0.10654939, -0.27815288, -0.10202866, 0.2874473, -0.30359915, 0.06390344, -0.071739964, 0.033543605, 0.06619747, 0.15066731, 0.08643974, 0.08158449, -0.19147024, 0.18442403, -0.33662394, -0.17748503, -0.024601959, -0.24682379, -0.24431725, 0.12254353, 0.071688116, -0.3223105, -0.09119291, -0.10484593, -0.04608667, 0.042280853, -0.05609537, -0.036828253, -0.17797187, 0.011039708, 0.08966109, -0.38249475, 0.24418703, 0.10708205, -0.008875011, 0.0913422, -0.14424661, -0.276612, -0.08673084, 0.05818382, -0.076117486, -0.1420887, -0.20933014, -0.12136446, 0.08535405, 0.17900553, 0.08619523, -0.22665998, 0.26814905, -0.23320544, -0.011839086, 0.26569444, 0.27613017, -0.09666615, -0.30062503, -0.20380497, 0.095942385, -0.3338247, 0.032744806, 0.25291696, -0.057866845, -0.20281872, 0.003674464, -0.19545278, -0.32658222, -0.3202756, -0.28271788, -0.13726892, 0.11818751, -0.10367787, -0.27261224, 0.23154235, 0.17468952, 0.028643234, -0.04614893, -0.05264399, -0.23518497, -0.011411508, 0.055545133, 0.013344324, -0.11824004, -0.32157493, -0.20071267, -0.29455435, 0.2895729, -0.048259616, -0.16213426, -0.072227925, -0.05541764, -0.23844242, -0.110860296, -0.13353287, 0.12862915, -0.16984451, -0.30252194, 0.07574445, -0.26224637, -0.15050323, -0.17194116, -0.10178155, -0.1901113, -0.28002498, -0.32407826, -0.065497674, 0.29975936, -0.045612823, 0.1295186, -0.24320976, -0.109805085, 0.055563852, -0.29205373, 0.29121163, -0.14613342, -0.26421472, -0.28061154, -0.06039227, -0.015220613, -0.2097914, -0.18707764, 0.28812936, -0.012731709, -0.08285693, -0.08518295, 0.05480903, 0.14166407, 0.26998755, 0.2586238, 0.044639442, -0.100685306, -0.1326659, -0.19481674, -0.065388106, 0.24142683, -0.30373305, 0.046883013, 0.20981751, -0.02541239, -0.22504357, -0.2177185, 0.24853848, -0.14855817, 0.007742951, -0.024551596, 0.21370572, -0.039648682, -0.30047324, 0.010953135, -0.32200366, 0.18017621, -0.008372838, 0.016219068, 0.02108965, 0.0825769, 0.1221226, 0.24089162, 0.1226733, -0.046478573, 0.038700223, -0.28432173, 0.22058082, 0.17237842, -0.15647942, 0.0597972, 0.026478259, -0.17996526, 0.15228842, -0.30285758, 0.0222691, 0.03221342, 0.11657494, -0.2161717, 0.10745887, 0.1398695, -0.15303966, 0.009015828, -0.05620545, 0.20474228, -0.018312171, 0.19505468, 0.32440433, 0.2627267, 0.022280117, 0.15966058, 0.22887492, -0.24907485, 0.10583594, -0.021145778, 0.6744884, -0.14304355, -0.07630126, 0.036436915, -0.30420887, 0.005370166, -0.15288822, -0.18036208, 0.37045866, 0.39534542, -0.011557312, 0.08069613, -0.11604166, 0.011408812, -0.47433472};
const float dense_1_b[15] = {0.00079946744, -0.021351438, 0.0, -0.031082343, -0.020332184, -0.029980734, -0.06795139, 0.01896162, -0.031223767, -0.06244831, -0.028708866, -0.03613917, -0.03524449, -0.056756258, 0.01953533};
const float dense_2_W[45] = {0.03154753, -0.060045913, 0.025885008, 0.01255437, -0.021139214, 0.006818777, 0.05140973, 0.12110789, 0.04390279, 0.10656092, -0.065266244, -0.06414699, 0.017669067, 0.026812926, 0.01977794, 0.036389556, 0.017465593, 0.039085124, 0.03258908, 0.014725709, 0.034344442, 0.050061457, 0.05140431, 0.044453792, -0.06484861, -0.0038095259, 0.056896437, 0.014946272, -0.0064657438, 0.018478066, 0.0192886, 0.01852098, -0.0480652, -0.011475629, -0.01067696, -0.009503626, 0.013410772, -0.008946792, 0.019854475, 0.0060104234, 0.014984395, 0.008865303, -0.026706811, 0.016352784, -0.022445664};
const float dense_2_b[3] = {-0.0, -0.0, 0.0};


#ifdef __cplusplus
}
#endif
#endif
