/********************
    parameters.h

    Code generated using nn4mc.

    This file defines the neural network weight parameters for all layers.

*/
#ifndef __NEURAL_NET_PARAMS_H__
#define __NEURAL_NET_PARAMS_H__

#ifdef __cplusplus
extern "C" {
#endif

const float dense_W[180] = {-0.0008426668, -0.05645328, -0.43075323, -0.0023691745, -0.0014332389, 0.0026360566, 0.90795815, 0.40949252, -0.0015026788, -0.00076981226, -0.0028503789, 0.14140663, -0.56905675, 0.0044623585, 0.0038699773, -0.001740895, 0.3291056, 0.07938828, -3.903557e-05, -0.00014021968, 0.0021496005, 0.96594346, 0.5544251, -0.00054802425, 0.00037091735, 0.0006381036, -0.26026684, -0.26545343, 0.0003586215, -0.000133435, 0.0009988614, -0.035995156, 0.15535676, 0.0026950205, 0.00094191055, -0.003313508, 0.33970484, -0.0007485651, 0.0011701875, 0.0010935052, 0.0024792578, -0.41959912, 0.06714512, -0.0047546136, -0.004120422, 0.0017212162, -0.24298218, -0.0028920276, -3.485893e-05, 0.0014662677, -0.0027575118, 0.49965364, 0.32919583, 0.00031945252, -0.0007999884, -0.0009876227, 0.22152866, -0.2814341, -0.00031441037, -0.0010479069, -3.270668, -0.4490215, 0.6197543, -2.0191705, 4.011744, -2.2072248, -0.89475995, -1.6992822, 4.6631083, -1.735819, 1.8714201, 0.61125356, 1.0941283, 3.1883676, 3.2000303, -3.5019178, 0.00034150764, 0.5087259, -1.707939, 3.9807775, -1.6669422, -1.22707, -1.1578325, 4.0725126, -1.7336693, 2.1578803, 0.8678693, 0.78879076, 2.43655, 2.9768558, 0.00081107183, 0.41392893, 0.21778026, -0.0020149443, -0.00027173857, 0.0030626897, 0.32660073, 0.2066572, -0.004398273, 0.001210859, 0.16341047, 0.018251462, 0.09672576, 0.020327674, 0.2981573, 0.005636537, 0.2578606, 0.2734694, 0.0048394995, 0.0009777521, -0.10394837, 0.4565004, -0.0076679527, 0.11244373, -0.003147759, 0.27553025, 0.33746082, 0.54360133, 0.049740598, 0.039587617, -0.0041676313, 0.004560497, 0.37453425, 0.0049116304, -3.8615577e-05, -0.05701597, -0.05398579, 0.17088094, -0.3079123, -0.3756183, 0.00018645758, 0.15696691, -0.12852839, -0.00031944056, 0.0010037416, 0.0020018888, 0.53135586, 0.5010306, -0.0007758808, -0.0006301566, 0.0017439493, 0.20165308, 0.10451072, -0.00218514, -0.000771361, 0.0016637385, 0.19856232, 0.02653746, -0.00289575, -0.0002392495, 0.00018080731, -0.7123247, -0.8059161, 0.00070784974, 0.00018900607, 0.00030753246, -0.3344035, -0.8406379, 9.2884045e-05, 0.00023861296, -0.0008186473, 0.4225679, 1.1411662, 0.0012668172, 0.00047194172, -0.001384274, -0.35137057, -0.13975774, 0.0012883563, 0.00021973177, 0.26183984, 0.09112073, 0.019878305, 0.021026604, -0.016738905, 0.002057337, 0.030894324, -0.27236065, -0.002535773, 0.0020751588};
const float dense_b[5] = {0.061670102, -0.2831876, -0.24001107, -0.007819229, 0.03660949};
const float dense_1_W[25] = {0.47725618, -0.22149275, -0.51838297, 0.46736988, 0.66848403, 1.2037959, -0.47175914, -0.6499132, 0.03962243, 0.94395363, 0.888312, -0.80659693, -0.26527792, -0.0024805106, 0.6464625, -0.275616, 0.66988987, -0.44069308, 0.009214787, 0.22307289, 0.37836504, 0.48223287, -0.32421502, 0.62565225, 0.041883677};
const float dense_1_b[5] = {0.0070722806, -0.057102997, 0.0, -0.05464177, -0.038503263};
const float dense_2_W[15] = {0.05339142, -0.0065872916, -0.021341443, 0.056540627, 0.10436901, 0.053864226, 0.045687433, -0.032456785, 0.025663843, 0.026350424, -0.11526201, 0.0868533, -0.14890382, 0.01749945, 0.05777663};
const float dense_2_b[3] = {0.0, -0.0, -0.0};


#ifdef __cplusplus
}
#endif
#endif
